
\data\
ngram 1=11762
ngram 2=34561
ngram 3=6055

\1-grams:
-4.834096	0.17	-0.1249324
-4.834096	10	-0.1203006
-4.834096	21	-0.1203006
-4.834096	253	-0.1247987
-4.834096	279	-0.1203006
-4.834096	290	-0.1203006
-4.834096	300	-0.1203006
-4.834096	4.48	-0.1203006
-4.834096	On	-0.1035553
-4.834096	Our	-0.1245313
-4.834096	There	-0.1244102
-4.356975	We	-0.122117
-4.834096	that	-0.1244102
-4.834096	""new""	-0.1244994
-4.834096	"Advance	-0.1249133
-4.834096	"Auto	-0.1248942
-4.834096	"Cadence	-0.1243529
-4.533066	"Cephalon	-0.4219669
-4.533066	"Concho	-0.4259115
-4.834096	"Fidelity	-0.1245504
-4.834096	"Fluor	-0.1237663
-4.834096	"Health	-0.1249133
-4.834096	"Illumina	-0.1209369
-4.834096	"International	-0.1249005
-4.834096	"KeyCorp	-0.124735
-4.834096	"Kimberly-Clark	-0.1229808
-4.834096	"Macquarie	-0.1249133
-4.834096	"Massey	-0.1246841
-4.834096	"No."	-0.1249069
-4.834096	"Oxford	-0.1248942
-4.834096	"Pulitzer	-0.1249069
-4.834096	"Tela	-0.1249196
-4.834096	"The	-0.1243019
-4.834096	"Thuris	-0.1237663
-4.834096	"reverse,"	-0.1185541
-4.834096	$.05	-0.1212001
-4.834096	$.37	-0.1212001
-4.834096	$.39	-0.1187671
-4.834096	$.40	-0.1187671
-4.834096	$.45	-0.1212001
-4.834096	$.47	-0.1143558
-4.834096	$.47,	-0.1232236
-4.834096	$.52	-0.1145122
-4.834096	$0	-0.1143558
-4.356975	$0.00	-0.5983214
-3.879854	$0.01	-0.7657191
-4.834096	$0.01."	-0.1196054
-4.232036	$0.02	-0.4115545
-4.834096	$0.02.	-0.1196054
-4.834096	$0.0250	-0.1212001
-3.754915	$0.03	-0.4864853
-4.834096	$0.0375	-0.1212001
-3.988998	$0.04	-0.6547505
-3.658005	$0.05	-0.4459029
-4.834096	$0.05,	-0.1249324
-3.879854	$0.06	-0.581044
-3.931006	$0.07	-0.3114821
-4.834096	$0.07.The	-0.1246969
-3.931006	$0.08	-0.534165
-4.055945	$0.09	-0.4179537
-3.792704	$0.10	-0.6744604
-3.879854	$0.11	-0.5920895
-3.658005	$0.12	-0.8175758
-4.356975	$0.125	-0.5983214
-3.879854	$0.13	-0.5960045
-3.720153	$0.14	-0.9234379
-4.834096	$0.14.	-0.1196054
-3.879854	$0.15	-0.5853174
-3.578824	$0.16	-0.8947962
-4.533066	$0.16)	-0.4222301
-3.834096	$0.17	-0.8114766
-4.055945	$0.18	-0.5960498
-4.135127	$0.19	-0.5084646
-4.834096	$0.195	-0.1212001
-4.834096	$0.2	-0.1233386
-4.232036	$0.20	-0.7232601
-4.834096	$0.20.The	-0.1227954
-3.834096	$0.21	-0.635549
-3.834096	$0.22	-0.5088459
-4.232036	$0.23	-0.4199585
-3.834096	$0.24	-0.3136831
-3.834096	$0.25	-0.5142605
-4.232036	$0.26	-0.4199585
-4.135127	$0.27	-0.3337787
-3.988998	$0.28	-0.6629966
-3.754915	$0.29	-0.4830172
-4.834096	$0.3	-0.1233386
-4.055945	$0.30	-0.4026425
-4.533066	$0.30,	-0.1243465
-4.834096	$0.30.GAAP	-0.1229616
-3.988998	$0.31	-0.4806471
-4.834096	$0.32	-0.1212001
-4.834096	$0.325	-0.1212001
-4.834096	$0.33	-0.1212001
-4.135127	$0.34	-0.5129148
-4.834096	$0.345	-0.1225523
-4.533066	$0.35	-0.4222301
-4.834096	$0.35.The	-0.1243975
-4.055945	$0.36	-0.4159983
-4.834096	$0.36,	-0.1235301
-4.135127	$0.37	-0.330045
-4.533066	$0.38	-0.4222301
-4.232036	$0.39	-0.4160048
-4.356975	$0.40	-0.2866158
-4.533066	$0.407375	-0.4222301
-4.533066	$0.41	-0.4222301
-4.232036	$0.42	-0.4115545
-4.232036	$0.43	-0.2290819
-3.988998	$0.44	-0.3582147
-4.834096	$0.44,	-0.1243911
-4.055945	$0.45	-0.419526
-4.055945	$0.46	-0.8993514
-4.533066	$0.47	-0.1211937
-4.135127	$0.48	-0.2012734
-4.533066	$0.49	-0.4222301
-4.356975	$0.5	-0.5974219
-4.533066	$0.50	-0.1105245
-4.356975	$0.51	-0.2950197
-4.533066	$0.52	-0.4222301
-4.533066	$0.53	-0.1105245
-4.834096	$0.53.GAAP	-0.1229616
-4.232036	$0.54	-0.7232601
-4.232036	$0.55	-0.7232601
-4.533066	$0.56	-0.4222301
-4.232036	$0.57	-0.4115545
-4.533066	$0.58	-0.1105245
-4.232036	$0.59	-0.7232601
-4.834096	$0.59.This	-0.1248687
-4.232036	$0.60	-0.4168504
-4.135127	$0.61	-0.5168685
-4.356975	$0.62	-0.5983214
-4.834096	$0.62,	-0.1248687
-4.232036	$0.63	-0.4205002
-4.356975	$0.64	-0.5983214
-4.834096	$0.64."	-0.1196054
-4.834096	$0.65	-0.1212001
-4.356975	$0.66	-0.5983214
-4.135127	$0.67	-0.5084646
-4.232036	$0.68	-0.4199585
-4.834096	$0.71	-0.1212001
-4.834096	$0.71,	-0.1232236
-4.533066	$0.72	-0.112048
-4.834096	$0.73	-0.1143558
-4.055945	$0.74	-0.5920961
-4.533066	$0.75	-0.4222301
-4.834096	$0.75.This	-0.1248687
-4.533066	$0.76	-0.4222301
-4.232036	$0.77	-0.4222237
-4.533066	$0.78	-0.4222301
-4.834096	$0.8	-0.1203006
-4.533066	$0.80	-0.1211809
-4.533066	$0.84	-0.1149748
-4.834096	$0.86	-0.1249324
-4.834096	$0.87	-0.1212001
-4.533066	$0.89	-0.1125066
-4.834096	$0.9	-0.1203006
-4.834096	$0.90	-0.1212001
-4.834096	$0.91	-0.1187671
-4.834096	$0.92	-0.1143558
-4.356975	$0.93	-0.2950197
-4.533066	$0.94	-0.1105245
-4.533066	$0.95	-0.1125066
-4.533066	$0.96	-0.4222301
-4.135127	$0.97	-0.5174102
-4.834096	$0.98	-0.1212001
-4.834096	$0.99	-0.1163205
-4.055945	$1	-0.289579
-4.834096	$1"	-0.1196054
-4.834096	$1,000.00	-0.1247987
-4.834096	$1,107,000	-0.1163205
-4.834096	$1,122.2	-0.1203006
-4.834096	$1,125,034,000	-0.1163205
-4.834096	$1,173.0	-0.1203006
-4.834096	$1,281	-0.1203006
-4.834096	$1,282	-0.1249324
-4.834096	$1,288,938,000	-0.1241489
-4.834096	$1,322,667	-0.1232236
-4.834096	$1,339,038,000	-0.1241489
-4.834096	$1,353.1	-0.1233386
-4.834096	$1,366.9	-0.1196054
-4.834096	$1,398,117,000	-0.1241489
-4.533066	$1,400.8	-0.1186832
-4.834096	$1,426,000	-0.1217838
-4.834096	$1,45,615,000	-0.1163205
-4.834096	$1,451.5	-0.1203006
-4.834096	$1,48,004,000	-0.1217838
-4.834096	$1,495,471,000	-0.1241489
-4.834096	$1,507.1	-0.1233386
-4.834096	$1,531.4	-0.1203006
-4.834096	$1,538,000	-0.1241489
-4.834096	$1,559,474,000	-0.1163205
-4.834096	$1,582.2	-0.1233386
-4.834096	$1,659,676,000.Non-GAAP	-0.1225779
-4.834096	$1,669.000	-0.1217838
-4.834096	$1,780,000	-0.1163205
-4.834096	$1,790,000	-0.1217838
-4.834096	$1,835,765,000	-0.1232236
-4.834096	$1,840,652,000	-0.1163205
-4.834096	$1,914,149,000.GAAP	-0.1225779
-4.834096	$1."	-0.1196054
-4.834096	$1.0	-0.1248433
-4.356975	$1.00	-0.297285
-4.356975	$1.01	-0.2950197
-4.834096	$1.02	-0.1212001
-4.533066	$1.03	-0.1211937
-4.533066	$1.04	-0.1211038
-4.356975	$1.05	-0.2885979
-4.232036	$1.06	-0.4206161
-4.834096	$1.07	-0.1212001
-4.834096	$1.07,	-0.1245759
-4.834096	$1.08	-0.1212001
-4.834096	$1.09	-0.1239895
-4.356975	$1.1	-0.1228977
-4.834096	$1.10	-0.1212001
-4.533066	$1.12	-0.4222301
-4.834096	$1.13	-0.1143558
-4.834096	$1.14.The	-0.1227954
-4.834096	$1.15	-0.1212001
-4.834096	$1.18,	-0.1227698
-4.834096	$1.19	-0.1212001
-4.135127	$1.2	-0.215238
-4.834096	$1.21	-0.1212001
-4.834096	$1.22	-0.1212001
-4.533066	$1.22,	-0.1235174
-4.834096	$1.23	-0.1163205
-4.533066	$1.25	-0.1122053
-4.834096	$1.27	-0.1143558
-4.834096	$1.28	-0.1248942
-4.834096	$1.29	-0.124595
-4.356975	$1.3	-0.3006671
-4.834096	$1.30	-0.1212001
-4.232036	$1.34	-0.09060328
-4.533066	$1.37	-0.1211937
-4.834096	$1.38.The	-0.1246777
-4.533066	$1.39075	-0.4222301
-4.834096	$1.40	-0.1239895
-4.356975	$1.43	-0.1192381
-4.834096	$1.44	-0.1212001
-4.834096	$1.44.It	-0.1246268
-4.834096	$1.44.While	-0.1246777
-4.533066	$1.45	-0.425625
-4.834096	$1.45.The	-0.1227954
-4.834096	$1.47	-0.1143558
-4.834096	$1.50	-0.1143558
-4.834096	$1.50,	-0.1232236
-4.356975	$1.53	-0.3006799
-4.533066	$1.55	-0.1228785
-4.834096	$1.56	-0.1212001
-4.834096	$1.57."	-0.1196054
-4.135127	$1.6	-0.3417826
-4.533066	$1.62	-0.1208534
-4.834096	$1.63	-0.1248433
-4.834096	$1.64	-0.1248433
-4.834096	$1.7	-0.1233386
-4.533066	$1.72	-0.425625
-4.834096	$1.76	-0.1212001
-4.834096	$1.82	-0.1226866
-4.834096	$1.85	-0.1248433
-4.834096	$1.87	-0.1226866
-4.232036	$1.9	-0.4209832
-4.834096	$1.92	-0.1248942
-4.533066	$1.97	-0.4222301
-4.533066	$10	-0.1202942
-4.834096	$10,447,000	-0.1241489
-4.834096	$10.08.Existing	-0.1249196
-4.533066	$10.1	-0.4243686
-4.834096	$10.3	-0.1233386
-4.834096	$10.4	-0.1203006
-4.834096	$10.5	-0.1203006
-4.834096	$10.64	-0.1212001
-4.834096	$10.7	-0.1233386
-4.232036	$10.8	-0.4197132
-4.834096	$10.9	-0.1203006
-4.135127	$100	-0.5144616
-4.834096	$100,000	-0.1212001
-4.834096	$100,000,022,	-0.1247669
-4.834096	$1000.00	-0.1248242
-4.834096	$101.5	-0.1203006
-4.533066	$102	-0.4213306
-4.533066	$102.1	-0.4213306
-4.834096	$102.4	-0.1203006
-4.834096	$103	-0.1203006
-4.834096	$103.84	-0.1203006
-4.834096	$104	-0.1203006
-4.834096	$104,000,	-0.1217838
-4.834096	$104.0	-0.1203006
-4.834096	$104.2	-0.1203006
-4.533066	$104.3	-0.4243686
-4.834096	$104.4	-0.1203006
-4.356975	$104.7	-0.2947745
-4.533066	$105	-0.1186832
-4.834096	$105.51	-0.1203006
-4.834096	$106	-0.1203006
-4.834096	$106.3	-0.1233386
-4.834096	$106.7	-0.1203006
-4.834096	$108.22	-0.1203006
-4.533066	$108.4	-0.1186832
-4.533066	$109.79	-0.1246841
-4.356975	$11	-0.1186768
-4.834096	$11"	-0.1196054
-4.834096	$11,256,000	-0.1185541
-4.834096	$11,325,"	-0.1196054
-4.834096	$11.0	-0.1203006
-4.834096	$11.1	-0.1233386
-4.834096	$11.3	-0.1203006
-4.834096	$11.8	-0.1203006
-4.356975	$110	-0.2962503
-4.834096	$110.4	-0.1203006
-4.834096	$111	-0.1203006
-4.834096	$111,169,000	-0.1163205
-4.834096	$111,599,000	-0.1145122
-4.834096	$111,866,000	-0.1217838
-4.834096	$111.78	-0.1203006
-4.533066	$112.5	-0.1232428
-4.356975	$112.6	-0.2947745
-4.834096	$112.8	-0.1233386
-4.834096	$113	-0.1203006
-4.834096	$113.70	-0.1203006
-4.834096	$114,327,000	-0.1163205
-4.834096	$114.5	-0.1203006
-4.834096	$115	-0.124926
-4.834096	$115.5	-0.1203006
-4.834096	$115.8	-0.1203006
-4.834096	$116	-0.1203006
-4.834096	$116.9	-0.1203006
-4.834096	$117.4	-0.1233386
-4.834096	$117.54	-0.124926
-4.834096	$119.6	-0.1203006
-4.834096	$119.7	-0.1203006
-4.533066	$12	-0.1186832
-4.834096	$12,569,000	-0.1185541
-4.834096	$12,595	-0.1203006
-4.834096	$12.43.	-0.1196054
-4.834096	$12.6	-0.1233386
-4.834096	$12.7	-0.1233386
-4.834096	$12.9	-0.1203006
-4.356975	$120	-0.2947745
-4.834096	$121.1	-0.1203006
-4.834096	$121.9	-0.1233386
-4.834096	$122	-0.1203006
-4.834096	$122,757,000	-0.1217838
-4.834096	$122.05	-0.1203006
-4.834096	$122.4	-0.1233386
-4.533066	$123	-0.1201848
-4.834096	$123,591,000	-0.1185541
-4.356975	$125	-0.2992893
-4.834096	$127	-0.124926
-4.834096	$127.	-0.1196054
-4.834096	$128.5	-0.1203006
-4.834096	$129,369,000	-0.1241489
-4.834096	$129,706,000	-0.1217838
-4.834096	$129,899,000	-0.1185541
-4.356975	$129.0	-0.2947745
-4.834096	$129.1	-0.1203006
-4.533066	$13	-0.1202877
-4.834096	$13,111,000	-0.1232236
-4.834096	$13,142,000	-0.1232236
-4.834096	$13,166,000	-0.1241489
-4.834096	$13,250,000	-0.1217838
-4.834096	$13,279,000,	-0.1217838
-4.834096	$13,301,000	-0.1217838
-4.834096	$13,428,000	-0.1217838
-4.834096	$13,512,000	-0.1163205
-4.834096	$13,740,000	-0.1217838
-4.834096	$13,813,000	-0.1185541
-4.834096	$13,923,000	-0.1232236
-4.533066	$13.1	-0.1186832
-4.533066	$13.2	-0.1186832
-4.834096	$13.4	-0.1233386
-4.533066	$13.6	-0.4213306
-4.834096	$130	-0.1145122
-4.834096	$130,407,000	-0.1163205
-4.533066	$130.4	-0.1186832
-4.834096	$130.9	-0.1203006
-4.834096	$131,775,000,	-0.1145122
-4.834096	$131.5	-0.1233386
-4.834096	$132.08	-0.1203006
-4.834096	$133	-0.1233386
-4.834096	$133.37	-0.1203006
-4.834096	$133.93	-0.1203006
-4.834096	$1332.44	-0.124926
-4.834096	$134	-0.1203006
-4.834096	$136	-0.1203006
-4.356975	$137	-0.2994235
-4.834096	$137,614,000	-0.1217838
-4.834096	$137.8	-0.1203006
-4.533066	$138	-0.1186832
-4.834096	$138,572,000	-0.1217838
-4.834096	$138,883,000	-0.1241489
-4.834096	$138.438	-0.1203006
-4.834096	$138.5	-0.1203006
-4.834096	$139	-0.1233386
-4.834096	$139,571,000	-0.1217838
-4.533066	$14	-0.4213306
-4.834096	$14,022,000	-0.1163205
-4.834096	$14,033,940,	-0.1249324
-4.834096	$14,265,000	-0.1232236
-4.834096	$14,722,500,	-0.1248878
-4.232036	$14.27	-0.4258223
-4.834096	$14.4	-0.1203006
-4.834096	$14.5	-0.1203006
-4.834096	$14.6	-0.124595
-4.834096	$14.7	-0.1203006
-4.834096	$14.75	-0.1212001
-4.834096	$14.8	-0.1203006
-4.834096	$14.9	-0.1203006
-4.356975	$140	-0.112703
-4.834096	$140.2	-0.1203006
-4.834096	$142	-0.1145122
-4.834096	$142.7	-0.1233386
-4.356975	$145	-0.5974219
-4.834096	$145,839,000	-0.1232236
-4.834096	$145.0	-0.1203006
-4.533066	$145.5	-0.1201848
-4.834096	$146.0	-0.1203006
-4.834096	$146.30	-0.1203006
-4.834096	$146.380	-0.1203006
-4.533066	$147	-0.4213306
-4.834096	$148	-0.1203006
-4.834096	$149,725	-0.1217838
-4.834096	$149.5	-0.1143558
-3.931006	$15	-0.4196616
-4.834096	$15,062,000	-0.1185541
-4.834096	$15,490,000	-0.1163205
-4.834096	$15,855,000,	-0.1249324
-4.834096	$15.0	-0.1203006
-4.533066	$15.1	-0.4213306
-4.834096	$15.2	-0.1203006
-4.834096	$15.4	-0.1203006
-4.834096	$15.59	-0.1203006
-4.834096	$15.6	-0.1203006
-4.834096	$15.68	-0.1203006
-4.834096	$15.76	-0.1248433
-4.834096	$15.8	-0.1203006
-4.834096	$150	-0.124926
-4.834096	$150.2	-0.1233386
-4.834096	$150.3	-0.1203006
-4.834096	$151.5	-0.1203006
-4.834096	$152	-0.1248242
-4.834096	$152,985,000	-0.1217838
-4.834096	$152.9	-0.1203006
-4.834096	$153,505,000	-0.1185541
-4.834096	$154.8	-0.1203006
-4.533066	$155	-0.1143297
-4.834096	$155.6	-0.1203006
-4.834096	$156,099,000	-0.1217838
-4.834096	$156.15	-0.1249324
-4.834096	$156.6	-0.1203006
-4.834096	$156.7	-0.1203006
-4.533066	$157	-0.1096026
-4.834096	$157,315,000	-0.122904
-4.834096	$158,360,000	-0.1163205
-4.834096	$158.201	-0.1203006
-4.834096	$16.1	-0.1233386
-4.834096	$16.2	-0.1233386
-4.834096	$16.4	-0.1203006
-4.533066	$16.7	-0.1186832
-4.232036	$16.8	-0.4197133
-4.834096	$16.9	-0.1203006
-4.533066	$160	-0.120262
-4.834096	$160.9	-0.1233386
-4.834096	$161	-0.1203006
-4.834096	$161,643,000	-0.1163205
-4.533066	$161.6	-0.1186832
-4.533066	$162	-0.1202041
-4.834096	$162.8	-0.1233386
-4.834096	$163	-0.1233386
-4.533066	$164	-0.1202942
-4.834096	$164.0	-0.1203006
-4.834096	$165	-0.1249324
-4.834096	$165,757,000	-0.1185541
-4.834096	$165.6	-0.1203006
-4.834096	$166.18mm.	-0.1196054
-4.834096	$166.2	-0.1233386
-4.834096	$166.213	-0.1203006
-4.834096	$167	-0.1249005
-4.533066	$168.3	-0.1186832
-4.834096	$169	-0.1203006
-4.533066	$169.6	-0.1186832
-4.834096	$17	-0.124595
-4.834096	$17,077,000	-0.1217838
-4.834096	$17,285,000	-0.1217838
-4.834096	$17,564,000	-0.1241489
-4.834096	$17,872,000	-0.1241489
-4.533066	$17.1	-0.4243686
-4.834096	$17.6	-0.1203006
-4.232036	$170	-0.7223606
-4.533066	$170.1	-0.1202877
-4.834096	$172.6	-0.1233386
-4.834096	$173,389,000	-0.1163205
-4.834096	$173.75	-0.1203006
-4.834096	$174	-0.1203006
-4.834096	$174.2	-0.1233386
-4.834096	$176.6	-0.1203006
-4.834096	$177	-0.1203006
-4.834096	$177.6	-0.1203006
-4.834096	$178	-0.1203006
-4.834096	$178,148,000	-0.1241489
-4.834096	$178.6	-0.1203006
-4.834096	$179.0	-0.1203006
-4.834096	$179.9	-0.1203006
-4.356975	$18	-0.2947745
-4.834096	$18,440,197	-0.1217838
-4.834096	$18,811,000	-0.1217838
-4.834096	$18,894,000	-0.1217838
-4.834096	$18.0	-0.1233386
-4.834096	$18.4	-0.1203006
-4.533066	$18.5	-0.1186832
-4.834096	$180,341,135	-0.1163205
-4.834096	$180.3	-0.1203006
-4.533066	$182	-0.1248051
-4.834096	$183.1	-0.1203006
-4.834096	$183.5	-0.1233386
-4.834096	$184,444,000,	-0.1235301
-4.834096	$184.6	-0.1203006
-4.834096	$185.7	-0.1203006
-4.834096	$188	-0.1203006
-4.834096	$1893.03641	-0.124926
-4.834096	$19,081,000	-0.1163205
-4.834096	$19,516,000	-0.1241489
-4.834096	$19,697,000	-0.1163205
-4.834096	$19,888,000	-0.1217838
-4.834096	$19,997,000	-0.1163205
-4.834096	$19.0	-0.1203006
-4.834096	$19.1	-0.1203006
-4.834096	$19.5	-0.1203006
-4.834096	$19.6	-0.1203006
-4.533066	$19.61	-0.124786
-4.834096	$19.7	-0.1203006
-4.533066	$19.8	-0.1186832
-4.834096	$19.9	-0.1203006
-4.834096	$192,131,000	-0.1241489
-4.834096	$193.0	-0.1203006
-4.834096	$194	-0.1203006
-4.834096	$196,000	-0.1163205
-4.834096	$197.54	-0.1248242
-4.834096	$198,741,000	-0.1241489
-4.533066	$198.4	-0.1186832
-4.533066	$198.79	-0.1247924
-4.232036	$2	-0.2398093
-4.834096	$2,026,000	-0.1217838
-4.834096	$2,048,541,000	-0.1232236
-4.834096	$2,053.5	-0.1203006
-4.834096	$2,070,754,000	-0.1185541
-4.834096	$2,187,996,000	-0.1163205
-4.834096	$2,188.6	-0.1233386
-4.834096	$2,190.6	-0.1203006
-4.834096	$2,277,000	-0.1163205
-4.834096	$2,333.3	-0.1203006
-4.834096	$2,359,805,000	-0.1187671
-4.834096	$2,398,731,000	-0.1185541
-4.834096	$2,403.9	-0.1203006
-4.834096	$2,469,818,000	-0.1226866
-4.834096	$2,484,694,000,	-0.1232236
-4.834096	$2,500,000,000	-0.1227698
-4.834096	$2,500.7	-0.1203006
-4.834096	$2,534.7	-0.1203006
-4.834096	$2,539	-0.1203006
-4.834096	$2,574.0	-0.1203006
-4.834096	$2,658.2	-0.1203006
-4.834096	$2,708,924,000	-0.1241489
-4.834096	$2,831.8	-0.1203006
-4.834096	$2,984,000	-0.1163205
-4.232036	$2.0	-0.4197132
-4.834096	$2.00	-0.1143558
-4.834096	$2.08	-0.1249324
-4.834096	$2.1	-0.1203006
-4.834096	$2.10,	-0.1247796
-4.834096	$2.11	-0.1143558
-4.834096	$2.13	-0.1212001
-4.834096	$2.15	-0.1233386
-4.834096	$2.16	-0.1212001
-4.834096	$2.17	-0.1212001
-4.834096	$2.17,	-0.1232236
-4.533066	$2.19	-0.118793
-4.135127	$2.2	-0.3401832
-4.834096	$2.20	-0.1143558
-4.834096	$2.29	-0.1212001
-4.533066	$2.3	-0.1199531
-4.834096	$2.30	-0.1212001
-4.834096	$2.32	-0.124595
-4.834096	$2.33	-0.1249324
-4.533066	$2.4	-0.1244994
-4.834096	$2.40	-0.1212001
-4.834096	$2.41	-0.1248433
-4.533066	$2.45	-0.1105245
-4.834096	$2.46	-0.1248433
-4.834096	$2.47	-0.124595
-4.834096	$2.48	-0.1212001
-4.834096	$2.49	-0.124926
-4.834096	$2.5	-0.124595
-4.834096	$2.50	-0.124595
-4.834096	$2.51	-0.1212001
-4.834096	$2.52	-0.124595
-4.533066	$2.55	-0.1105245
-4.834096	$2.56	-0.1203006
-4.834096	$2.57	-0.124926
-4.834096	$2.58	-0.124926
-4.533066	$2.59	-0.1105245
-3.988998	$2.6	-0.2644302
-4.834096	$2.60	-0.124595
-4.834096	$2.64	-0.1212001
-4.533066	$2.65	-0.4222301
-4.834096	$2.69	-0.1203006
-4.356975	$2.7	-0.2962954
-4.834096	$2.70	-0.1212001
-4.834096	$2.72	-0.124595
-4.533066	$2.8	-0.1199531
-4.834096	$2.80	-0.1249196
-4.834096	$2.80-$3.20	-0.1212001
-4.834096	$2.9	-0.1233386
-4.834096	$2.95.GAAP	-0.1229616
-4.834096	$2.97	-0.1143558
-4.533066	$20	-0.1186832
-4.834096	$20,386,804	-0.1217838
-4.834096	$20.0	-0.1233386
-4.834096	$20.2	-0.1203006
-4.834096	$20.4	-0.1233386
-4.232036	$200	-0.2451879
-4.834096	$203,395,000	-0.1241489
-4.834096	$204.0	-0.1203006
-4.834096	$204.12	-0.1203006
-4.834096	$204.6	-0.1203006
-4.834096	$205	-0.1233386
-4.834096	$206,302,000	-0.1232236
-4.834096	$207	-0.1203006
-4.834096	$208.8	-0.1203006
-4.834096	$209,929,000	-0.1163205
-4.834096	$21	-0.1212001
-4.834096	$21,208,000	-0.1217838
-4.834096	$21,237,000	-0.1217838
-4.834096	$21.1	-0.1233386
-4.834096	$21.3	-0.1203006
-4.834096	$21.54	-0.1203006
-4.834096	$21.6	-0.1203006
-4.834096	$211	-0.1203006
-4.834096	$212,003,000	-0.1232236
-4.834096	$212,178,000	-0.1163205
-4.834096	$213,076,000,	-0.1145122
-4.834096	$213,885,000	-0.1241489
-4.834096	$213.8	-0.1233386
-4.834096	$214.7	-0.1233386
-4.834096	$215.4	-0.1203006
-4.533066	$217.3	-0.4213306
-4.834096	$217.6	-0.1203006
-4.356975	$22	-0.2947745
-4.834096	$22,035,000	-0.1163205
-4.834096	$22,561,000,	-0.1217838
-4.834096	$22,721,000	-0.1163205
-4.834096	$22.0	-0.1233386
-4.834096	$22.1	-0.1203006
-4.834096	$22.4	-0.1233386
-4.533066	$22.5	-0.1186832
-4.834096	$220,279,000	-0.1185541
-4.834096	$221	-0.1233386
-4.834096	$221.2	-0.1233386
-4.834096	$222	-0.1203006
-4.834096	$223.1	-0.1203006
-4.834096	$224.2	-0.124926
-4.356975	$225	-0.2963533
-4.834096	$225.04	-0.1203006
-4.834096	$226.9	-0.1203006
-4.834096	$227	-0.1233386
-4.834096	$227,064,000	-0.1241489
-4.834096	$228.9	-0.1203006
-4.232036	$23	-0.2436091
-4.834096	$23,104,000	-0.1217838
-4.834096	$23,580,000	-0.1217838
-4.834096	$23,643,000,	-0.1217838
-4.834096	$23.0	-0.1233386
-4.834096	$23.1	-0.1203006
-4.533066	$23.4	-0.1186832
-4.834096	$23.9	-0.124595
-4.533066	$230	-0.1202942
-4.834096	$230.6	-0.1203006
-4.834096	$231.9	-0.1248433
-4.834096	$232.5	-0.1203006
-4.834096	$233	-0.1203006
-4.533066	$233.1	-0.4213306
-4.834096	$235	-0.124926
-4.834096	$235,886	-0.1217838
-4.834096	$237,309,000	-0.1232236
-4.834096	$239,	-0.1249324
-4.533066	$24	-0.4213306
-4.834096	$24,688,000	-0.1217838
-4.834096	$24.00	-0.1212001
-4.834096	$24.095	-0.1203006
-4.834096	$24.3	-0.1203006
-4.834096	$24.9	-0.1203006
-4.834096	$240.8	-0.1203006
-4.834096	$241.1	-0.1203006
-4.834096	$243	-0.1233386
-4.834096	$243,292,000	-0.122904
-4.834096	$243,8"	-0.1196054
-4.834096	$244,206,000	-0.1241489
-4.834096	$244,763,000	-0.1163205
-4.834096	$245.30	-0.1203006
-4.834096	$246	-0.1203006
-4.834096	$247.1	-0.1233386
-4.533066	$247.2	-0.4213306
-4.834096	$249,018,000	-0.1241489
-4.232036	$25	-0.2398289
-4.834096	$25,000),	-0.1249133
-4.834096	$25,000,000)	-0.1249196
-4.834096	$25,423,000	-0.1217838
-4.834096	$25.0	-0.1203006
-4.533066	$25.2	-0.4243686
-4.834096	$25.4	-0.1233386
-4.834096	$25.8	-0.1203006
-4.356975	$25.9	-0.2947745
-4.055945	$250	-0.4213177
-4.834096	$251.4	-0.1203006
-4.834096	$253.7	-0.1203006
-4.834096	$254,000	-0.1217838
-4.834096	$254.0	-0.1203006
-4.834096	$255,986,000,	-0.1145122
-4.834096	$255.6	-0.1203006
-4.834096	$258.4	-0.1203006
-4.834096	$259.6	-0.1203006
-4.533066	$26	-0.4243686
-4.834096	$26,558,000	-0.1217838
-4.834096	$26.0	-0.1203006
-4.834096	$26.1	-0.1203006
-4.834096	$26.3	-0.1203006
-4.533066	$26.5	-0.1186832
-4.834096	$26.594	-0.1203006
-4.834096	$26.6	-0.1203006
-4.834096	$26.9	-0.1203006
-4.232036	$260	-0.1186703
-4.834096	$261	-0.1203006
-4.834096	$264	-0.1249324
-4.055945	$264.69	-0.4210733
-4.834096	$265,000	-0.1187671
-4.834096	$265.9	-0.1203006
-4.834096	$27,023,000	-0.1217838
-4.834096	$27,463,000	-0.1163205
-4.834096	$27.00	-0.1203006
-4.834096	$27.5	-0.1203006
-4.533066	$27.6	-0.1247669
-4.533066	$27.9	-0.4243686
-4.834096	$270,750,000	-0.1163205
-4.834096	$272.166	-0.1203006
-4.834096	$272.7	-0.1203006
-4.533066	$273.4	-0.1186832
-4.834096	$276	-0.1203006
-4.834096	$277.1	-0.1233386
-4.834096	$277.8	-0.1203006
-4.834096	$278.7	-0.1233386
-4.834096	$28	-0.1203006
-4.834096	$28,811,000	-0.1145122
-4.533066	$28.0	-0.4243686
-4.834096	$28.1	-0.1203006
-4.834096	$28.3	-0.1233386
-4.834096	$28.4	-0.1203006
-4.533066	$28.8	-0.4213306
-4.834096	$28.9	-0.1233386
-4.834096	$280	-0.1249133
-4.834096	$281	-0.1203006
-4.834096	$281.0	-0.1233386
-4.834096	$281.317	-0.1203006
-4.834096	$282,244,000	-0.1232236
-4.834096	$282.9	-0.1203006
-4.834096	$284	-0.1233386
-4.834096	$285.0	-0.1203006
-4.834096	$286.3	-0.1203006
-4.834096	$287.1	-0.1203006
-4.834096	$287.9	-0.1233386
-4.834096	$288,008,000,	-0.1235301
-4.834096	$288.0	-0.1203006
-4.834096	$288.8	-0.1203006
-4.834096	$29,166,000	-0.1217838
-4.834096	$29,299,000	-0.1163205
-4.834096	$29,351,000	-0.1185541
-4.533066	$29,696,000	-0.1112804
-4.834096	$29,796,000	-0.1217838
-4.834096	$29.1	-0.1233386
-4.834096	$29.2	-0.1233386
-4.834096	$29.3	-0.1203006
-4.834096	$29.5	-0.1203006
-4.834096	$29.7	-0.1203006
-4.834096	$29.9	-0.1233386
-4.834096	$290	-0.1145122
-4.834096	$290.6	-0.1203006
-4.834096	$292	-0.1239895
-4.834096	$294.3	-0.1203006
-4.834096	$294.82	-0.1203006
-4.834096	$296	-0.1233386
-4.834096	$298	-0.1203006
-4.834096	$298.1	-0.1233386
-4.834096	$299.88	-0.1249324
-4.834096	$299.883	-0.1247987
-4.356975	$3	-0.1081037
-4.834096	$3,484	-0.1203006
-4.834096	$3,605,000	-0.1217838
-4.356975	$3.0	-0.299334
-4.834096	$3.05	-0.1163205
-4.834096	$3.05,	-0.12129
-4.533066	$3.06	-0.4222301
-4.834096	$3.1	-0.124595
-4.834096	$3.10	-0.1212001
-4.533066	$3.18	-0.1246841
-4.834096	$3.2	-0.1233386
-4.356975	$3.3	-0.1198566
-4.356975	$3.4	-0.2960444
-4.834096	$3.43)	-0.1212001
-4.834096	$3.46	-0.1212001
-4.533066	$3.5	-0.1229936
-4.533066	$3.52	-0.1246841
-4.834096	$3.55	-0.1212001
-4.533066	$3.6	-0.425625
-4.834096	$3.62	-0.1212001
-4.834096	$3.65	-0.1212001
-4.356975	$3.8	-0.2960444
-4.232036	$3.9	-0.4209832
-3.988998	$30	-0.6627513
-4.834096	$30,137,000,	-0.1217838
-4.834096	$30,511,000	-0.1232236
-4.834096	$30.0	-0.1203006
-4.834096	$30.1	-0.1233386
-4.834096	$30.3	-0.1203006
-4.834096	$30.33	-0.1203006
-4.834096	$30.5	-0.1233386
-4.834096	$30.687	-0.1203006
-3.931006	$300	-0.3242276
-4.834096	$300,000,020	-0.12129
-4.834096	$302.6	-0.1203006
-4.834096	$303.8	-0.1233386
-4.834096	$304,978,000	-0.1241489
-4.834096	$306.8	-0.1233386
-4.834096	$307.9	-0.1233386
-4.834096	$31,397,000	-0.1217838
-4.834096	$31,774,000	-0.1217838
-4.834096	$31,922,000	-0.1232236
-4.834096	$31.2	-0.1203006
-4.834096	$31.3	-0.1203006
-4.834096	$31.4	-0.1203006
-4.834096	$31.6	-0.1233386
-4.834096	$31.7	-0.1203006
-4.834096	$311	-0.1203006
-4.834096	$311.83	-0.1203006
-4.834096	$312.1	-0.1203006
-4.834096	$315,195,000	-0.1163205
-4.533066	$32	-0.1201591
-4.834096	$32,215	-0.1163205
-4.834096	$32,487,000	-0.1217838
-4.834096	$32.0	-0.1233386
-4.834096	$32.4	-0.1203006
-4.834096	$32.64	-0.1203006
-4.834096	$32.7	-0.1203006
-4.834096	$321.0	-0.1203006
-4.834096	$323	-0.1203006
-4.834096	$328.5	-0.1203006
-4.834096	$33	-0.1203006
-4.834096	$33,142,000	-0.1217838
-4.834096	$33,361,000	-0.1241489
-4.834096	$33.1	-0.1203006
-4.834096	$33.2	-0.1203006
-4.834096	$33.3	-0.1233386
-4.834096	$33.7	-0.1233386
-4.834096	$332	-0.1203006
-4.834096	$335,018,000	-0.1232236
-4.834096	$336.5	-0.1203006
-4.834096	$338	-0.1203006
-4.834096	$339.8	-0.1203006
-4.834096	$34,036,000	-0.1217838
-4.834096	$34,285	-0.1163205
-4.834096	$34,508,000	-0.1185541
-4.834096	$34.3	-0.1203006
-4.533066	$34.38	-0.4213306
-4.834096	$34.4	-0.1233386
-4.834096	$34.53	-0.1203006
-4.834096	$34.8	-0.1203006
-4.834096	$343	-0.1203006
-4.834096	$347.7	-0.1203006
-4.834096	$347.8	-0.1233386
-4.834096	$348	-0.1203006
-4.834096	$348,886,366	-0.1232236
-4.533066	$348.3	-0.1186832
-4.356975	$35	-0.2947745
-4.834096	$35,023,000	-0.1163205
-4.834096	$35,447,000	-0.1217838
-4.834096	$35.0	-0.1203006
-4.834096	$35.014	-0.1203006
-4.834096	$35.7	-0.1203006
-4.834096	$350	-0.1203006
-4.834096	$354.0	-0.1203006
-4.232036	$36	-0.2452007
-4.834096	$36,102,000	-0.1163205
-4.834096	$36,384,000	-0.1145122
-4.834096	$36,520,000	-0.1217838
-4.834096	$36.5	-0.1203006
-4.834096	$36.9	-0.1203006
-4.834096	$360	-0.1203006
-4.834096	$362	-0.1233386
-4.834096	$365	-0.1249005
-4.533066	$365.786	-0.1201591
-4.834096	$366,972,000	-0.1163205
-4.834096	$366.8	-0.1233386
-4.834096	$37,584,000	-0.1217838
-4.834096	$37.1	-0.1233386
-4.834096	$37.4	-0.1203006
-4.834096	$37.5	-0.1203006
-4.533066	$37.6	-0.4213306
-4.533066	$37.7	-0.4213306
-4.834096	$37.9	-0.1203006
-4.834096	$37.94	-0.1203006
-4.834096	$370	-0.1212001
-4.834096	$370.5	-0.1203006
-4.834096	$378	-0.1203006
-4.834096	$38	-0.1143558
-4.834096	$38,225,000	-0.1241489
-4.834096	$38,311,000	-0.1217838
-4.834096	$38.3	-0.1203006
-4.834096	$38.6	-0.1203006
-4.834096	$38.7	-0.1203006
-4.834096	$38.8	-0.1203006
-4.834096	$381.3	-0.1203006
-4.834096	$383.7	-0.1203006
-4.834096	$384	-0.1249324
-4.834096	$39,369,000	-0.1163205
-4.834096	$39,413,000	-0.1163205
-4.533066	$39.1	-0.4243686
-4.834096	$39.4	-0.1203006
-4.834096	$390,166,000	-0.12129
-4.834096	$4	-0.1203006
-4.834096	$4,115.2	-0.1203006
-4.834096	$4,219,739,000	-0.1241489
-4.834096	$4,345	-0.1203006
-4.834096	$4,486.8	-0.1203006
-4.834096	$4,606.2	-0.1233386
-4.834096	$4,636,848,000	-0.1241489
-4.834096	$4,648,000	-0.1163205
-4.834096	$4,687.0	-0.1203006
-4.834096	$4,758,000	-0.1217838
-4.533066	$4,918.9	-0.4213306
-4.834096	$4,939,637,000	-0.1232236
-4.834096	$4.0	-0.1203006
-4.356975	$4.1	-0.2994171
-4.356975	$4.3	-0.1201784
-4.834096	$4.40	-0.1239895
-4.834096	$4.50.Preliminary	-0.1246204
-4.834096	$4.58	-0.1212001
-4.834096	$4.75	-0.1185541
-4.232036	$4.8	-0.2447953
-4.356975	$4.9	-0.2960444
-4.834096	$4.93	-0.1185541
-4.533066	$40	-0.1202041
-4.834096	$40,740,000,	-0.1217838
-4.834096	$40,770,000,	-0.124926
-4.533066	$40.22	-0.1247924
-4.533066	$40.22379	-0.4258287
-4.232036	$40.3	-0.4197133
-4.834096	$40.399	-0.1203006
-4.834096	$40.7	-0.1203006
-4.834096	$40.9	-0.1203006
-4.533066	$400	-0.1193412
-4.834096	$402.03mm.	-0.1196054
-4.834096	$407.9	-0.1249324
-4.834096	$41"	-0.1196054
-4.834096	$41,233,000	-0.1163205
-4.834096	$41,565,000	-0.1145122
-4.834096	$41.2	-0.1203006
-4.533066	$41.5	-0.1186832
-4.834096	$41.50	-0.1203006
-4.834096	$41.52	-0.1203006
-4.834096	$41.6	-0.1203006
-4.533066	$41.7	-0.1186832
-4.834096	$41.71	-0.1203006
-4.533066	$410	-0.1202942
-4.834096	$410,615,000	-0.1163205
-4.834096	$42	-0.1203006
-4.834096	$42,828,000	-0.1217838
-4.533066	$420	-0.1186832
-4.834096	$421	-0.1233386
-4.834096	$423.42	-0.1203006
-4.834096	$428,161,000	-0.1241489
-4.834096	$43,121,000	-0.1217838
-4.834096	$43,442,000,	-0.1243784
-4.834096	$43.62	-0.1203006
-4.533066	$430	-0.124926
-4.834096	$435	-0.1203006
-4.834096	$438.4	-0.1203006
-4.834096	$44,562,000	-0.1185541
-4.834096	$44,593,000	-0.1145122
-4.834096	$44.2	-0.1233386
-4.834096	$44.8	-0.1203006
-4.834096	$44.9	-0.1203006
-4.533066	$440	-0.1201591
-4.834096	$442.0	-0.1203006
-4.834096	$449,002,000	-0.1241489
-4.834096	$45,263,000	-0.1241489
-4.834096	$45.0	-0.1203006
-4.834096	$45.1	-0.1203006
-4.834096	$45.30	-0.1212001
-4.834096	$45.5	-0.1249005
-4.834096	$45.62	-0.1203006
-4.356975	$45.8	-0.2947745
-4.135127	$450	-0.1094378
-4.834096	$452,018,000	-0.12129
-4.834096	$454.4	-0.1203006
-4.834096	$455	-0.1203006
-4.834096	$458	-0.1203006
-4.834096	$46,154,000,	-0.1217838
-4.834096	$46,226,000,	-0.1217838
-4.834096	$46,454,000	-0.1163205
-4.834096	$46,526,000	-0.1232236
-4.834096	$46,968,000	-0.1241489
-4.834096	$46.1	-0.1203006
-4.834096	$46.2	-0.1203006
-4.834096	$46.364	-0.1203006
-4.834096	$46.67	-0.1203006
-4.533066	$46.9	-0.1201591
-4.356975	$460	-0.1247287
-4.834096	$461	-0.1203006
-4.834096	$465	-0.1203006
-4.834096	$468,195,000	-0.1163205
-4.834096	$47,307,000	-0.1185541
-4.834096	$47,428,000	-0.1232236
-4.834096	$47,962,000	-0.1185541
-4.533066	$47.4	-0.4213306
-4.834096	$47.6	-0.1203006
-4.834096	$47.7	-0.1233386
-4.834096	$47.73	-0.1203006
-4.533066	$47.94	-0.1248178
-4.834096	$473	-0.1203006
-4.834096	$475	-0.1249005
-4.356975	$48	-0.2947745
-4.834096	$48,416,000,	-0.1243784
-4.834096	$48.2	-0.1233386
-4.834096	$48.23	-0.1203006
-4.834096	$48.4	-0.1233386
-4.834096	$48.7	-0.1233386
-4.834096	$48.8	-0.1203006
-4.834096	$482.3	-0.1248242
-4.834096	$49,369,000	-0.1217838
-4.834096	$49,814,000,	-0.1145122
-4.834096	$49.0	-0.1203006
-4.834096	$49.3	-0.1233386
-4.533066	$49.4	-0.1186832
-4.834096	$49.78	-0.1203006
-4.834096	$49.8	-0.1203006
-4.834096	$49.9	-0.1233386
-4.834096	$494,422,000	-0.1232236
-4.834096	$497.2	-0.1233386
-4.135127	$5	-0.5178931
-4.834096	$5,057.8	-0.1203006
-4.834096	$5,091,000	-0.1232236
-4.834096	$5,167,000	-0.1232236
-4.834096	$5,311.1	-0.1233386
-4.834096	$5,673.8	-0.1203006
-4.834096	$5,797.9	-0.1203006
-4.834096	$5,981,000	-0.1232236
-4.533066	$5.1	-0.1186832
-4.834096	$5.10	-0.1143558
-4.834096	$5.4	-0.124595
-4.232036	$5.5	-0.4209832
-4.834096	$5.50	-0.1212001
-4.834096	$5.58	-0.1212001
-4.834096	$5.8	-0.124595
-4.533066	$5.9	-0.1186832
-4.834096	$50	-0.1233386
-4.834096	$50,000,000	-0.1249324
-4.834096	$50,232,000	-0.1217838
-4.834096	$50,337,332	-0.1163205
-4.834096	$50,748,000	-0.1185541
-4.834096	$50.0	-0.1203006
-4.834096	$50.1	-0.1248433
-4.834096	$50.116	-0.1203006
-4.834096	$50.3	-0.1233386
-4.533066	$50.5	-0.4213306
-4.533066	$50.8	-0.4243686
-4.135127	$500	-0.3419692
-4.533066	$5000	-0.4258287
-4.834096	$501	-0.1203006
-4.834096	$506.4	-0.1248433
-4.356975	$51	-0.1202878
-4.834096	$51.2	-0.1203006
-4.834096	$51.5	-0.1233386
-4.834096	$51.6	-0.1203006
-4.834096	$51.7	-0.1233386
-4.533066	$51.8	-0.4213306
-4.834096	$510.6	-0.1203006
-4.834096	$513,949,000	-0.1232236
-4.834096	$513.9	-0.1203006
-4.834096	$515	-0.1145122
-4.834096	$516.4	-0.1233386
-4.834096	$52,194,000	-0.1217838
-4.834096	$52,813,000	-0.1185541
-4.834096	$52.4	-0.1233386
-4.834096	$52.48	-0.1203006
-4.834096	$52.6	-0.1203006
-4.834096	$52.72	-0.1203006
-4.834096	$52.735	-0.1203006
-4.834096	$52.8	-0.1203006
-4.834096	$524.6	-0.1203006
-4.533066	$53	-0.1186832
-4.834096	$53,592,000	-0.1163205
-4.834096	$53,699,000	-0.1217838
-4.834096	$53,710,000	-0.1241489
-4.834096	$53,778,000	-0.1185541
-4.834096	$53,957,000	-0.1185541
-4.834096	$53.1	-0.1233386
-4.834096	$53.2	-0.1203006
-4.834096	$53.5	-0.1203006
-4.834096	$53.66	-0.1203006
-4.834096	$531.8	-0.1203006
-4.533066	$533	-0.1249133
-4.834096	$533,983,000	-0.1185541
-4.834096	$533.2	-0.1248433
-4.834096	$533.8	-0.1233386
-4.834096	$535	-0.1233386
-4.356975	$54	-0.2947745
-4.834096	$54,559,000,	-0.1217838
-4.834096	$54,710,000	-0.1232236
-4.834096	$54,828,000	-0.1232236
-4.533066	$54.5	-0.1186832
-4.834096	$54.66	-0.1203006
-4.834096	$54.8	-0.1203006
-4.533066	$54.80	-0.1246841
-4.533066	$545	-0.1202749
-4.834096	$548,782,000	-0.1163205
-4.834096	$548.8	-0.1203006
-4.834096	$55	-0.1203006
-4.834096	$55,364,000	-0.1241489
-4.834096	$55,993,000,	-0.1217838
-4.834096	$55.0	-0.1203006
-4.834096	$55.6	-0.1203006
-4.533066	$550	-0.1186832
-4.834096	$555	-0.1248242
-4.834096	$555.3	-0.1203006
-4.834096	$56,356,000	-0.1217838
-4.834096	$56.8	-0.1233386
-4.834096	$56.85	-0.1203006
-4.533066	$560	-0.4213306
-4.834096	$561	-0.1233386
-4.834096	$561.29	-0.1249133
-4.834096	$562,219,000,	-0.1185541
-4.834096	$565.5	-0.1203006
-4.834096	$568.3	-0.1203006
-4.834096	$569.2	-0.1249005
-4.834096	$57	-0.1249133
-4.834096	$57,015,000	-0.1163205
-4.834096	$57,335,000	-0.1232236
-4.834096	$57,482,000	-0.1217838
-4.834096	$57,763,000	-0.1241489
-4.834096	$57.274	-0.1203006
-4.834096	$57.7	-0.1203006
-4.834096	$57.8	-0.1203006
-4.834096	$57.9	-0.1233386
-4.834096	$571.3	-0.1203006
-4.834096	$573.5	-0.1203006
-4.834096	$574,120,000	-0.1163205
-4.533066	$575	-0.4213306
-4.834096	$577.79	-0.1203006
-4.834096	$578	-0.1233386
-4.232036	$58	-0.2451364
-4.834096	$58,509,000	-0.1217838
-4.834096	$58,755,000,	-0.1187671
-4.834096	$580	-0.1145122
-4.834096	$584.52	-0.1203006
-4.834096	$585	-0.1203006
-4.834096	$59	-0.1203006
-4.834096	$59,177,000	-0.1232236
-4.533066	$59.2	-0.1186832
-4.834096	$59.6	-0.1203006
-4.834096	$59.866	-0.1203006
-4.834096	$591.9	-0.1203006
-4.834096	$6	-0.1203006
-4.834096	$6,391	-0.1233386
-4.834096	$6,417	-0.1203006
-4.834096	$6,814,000	-0.1217838
-4.834096	$6.25	-0.1143558
-4.533066	$6.3	-0.4213306
-4.834096	$6.32	-0.1233386
-4.834096	$6.4	-0.124595
-4.834096	$6.5	-0.1233386
-4.834096	$6.55,	-0.1245759
-4.834096	$6.57	-0.1212001
-4.533066	$6.7	-0.4213306
-4.533066	$6.8	-0.1186832
-4.533066	$6.9	-0.1202942
-4.232036	$60	-0.1096026
-4.834096	$60,809,000	-0.1232236
-4.834096	$60,879,000	-0.1217838
-4.356975	$60.0	-0.2963854
-4.834096	$60.4	-0.1203006
-4.232036	$600	-0.2436155
-4.834096	$600,000,000.The	-0.1249324
-4.834096	$605	-0.1203006
-4.834096	$607,613,000	-0.1232236
-4.834096	$607.6	-0.1203006
-4.834096	$61,084,000	-0.1241489
-4.834096	$61,560,000	-0.1185541
-4.834096	$61,613,000	-0.1145122
-4.834096	$61.1	-0.1203006
-4.834096	$61.3	-0.1233386
-4.533066	$61.7	-0.4243686
-4.834096	$610	-0.1203006
-4.834096	$611,399,000	-0.1163205
-4.834096	$612	-0.1233386
-4.834096	$612.8	-0.1203006
-4.834096	$614,583,000	-0.1185541
-4.356975	$615	-0.3009727
-4.834096	$62	-0.1203006
-4.834096	$62,775,976	-0.1217838
-4.533066	$63	-0.4213306
-4.834096	$63,254,000	-0.1232236
-4.834096	$63,257,000	-0.1217838
-4.834096	$63,577,000	-0.1185541
-4.834096	$63.3	-0.1203006
-4.834096	$633,000,	-0.1217838
-4.834096	$634.7	-0.1249324
-4.834096	$634.71	-0.1249324
-4.834096	$636,210,000.Non-GAAP	-0.1225779
-4.834096	$64	-0.1203006
-4.834096	$64.2	-0.1203006
-4.533066	$64.8	-0.4213306
-4.834096	$640.23	-0.1203006
-4.834096	$646,267,000	-0.1232236
-4.356975	$65	-0.2926129
-4.834096	$65,777,000	-0.1217838
-4.834096	$65.3	-0.1203006
-4.834096	$65.7	-0.1203006
-4.834096	$650	-0.1249133
-4.834096	$650.The	-0.124926
-4.834096	$656	-0.1203006
-4.533066	$657.8	-0.4213306
-4.834096	$659.82	-0.1203006
-4.834096	$66.47	-0.1203006
-4.834096	$66.5	-0.1233386
-4.834096	$66.8	-0.1203006
-4.834096	$660	-0.1143558
-4.834096	$667	-0.1203006
-4.834096	$67,537,000	-0.1217838
-4.834096	$67,629,000	-0.1217838
-4.834096	$67.72	-0.1203006
-4.834096	$672	-0.1233386
-4.834096	$68,648,000	-0.1232236
-4.834096	$68,834,000	-0.1163205
-4.834096	$68.73	-0.1247987
-4.834096	$68.8	-0.1233386
-4.834096	$683,570,000	-0.1217838
-4.834096	$69,070,000,	-0.1225843
-4.834096	$69,261,000	-0.1217838
-4.533066	$69.1	-0.1186832
-4.834096	$69.2	-0.1203006
-4.834096	$69.45	-0.1203006
-4.356975	$69.7	-0.5974219
-4.834096	$69.79	-0.1203006
-4.834096	$696,370,000	-0.1163205
-4.834096	$698,887,000	-0.1232236
-4.834096	$7	-0.1203006
-4.834096	$7,326,726	-0.1217838
-4.834096	$7,338,000	-0.1232236
-4.834096	$7,871	-0.1233386
-4.834096	$7,905	-0.1233386
-4.834096	$7.29	-0.1212001
-4.232036	$7.3	-0.4197133
-4.834096	$7.4	-0.1203006
-4.834096	$7.45	-0.1203006
-4.834096	$7.5	-0.1203006
-4.533066	$7.6	-0.4213306
-4.232036	$7.8	-0.2435251
-4.533066	$7.9	-0.4213306
-4.232036	$70	-0.1164762
-4.834096	$70.2	-0.1203006
-4.834096	$70.3	-0.1233386
-4.356975	$70.8	-0.6004599
-4.834096	$700	-0.1233386
-4.834096	$701	-0.1203006
-4.834096	$71,038,000	-0.1163205
-4.834096	$71,907,000	-0.1217838
-4.834096	$71.1	-0.124926
-4.834096	$71.9	-0.1203006
-4.834096	$712.81	-0.1203006
-4.533066	$72	-0.120262
-4.834096	$72.0	-0.1203006
-4.834096	$72.2	-0.1203006
-4.834096	$72.8	-0.1203006
-4.834096	$72.9	-0.1203006
-4.834096	$727,484,000.GAAP	-0.1225779
-4.834096	$73,510,000	-0.1217838
-4.834096	$73.0	-0.1203006
-4.834096	$73.85	-0.1203006
-4.834096	$738,652,000	-0.1163205
-4.834096	$74,357,000	-0.1217838
-4.834096	$74,560,000	-0.1241489
-4.834096	$74,796,000	-0.1232236
-4.834096	$74.3	-0.1233386
-4.834096	$748.5	-0.1203006
-4.533066	$75	-0.1202942
-4.834096	$75,	-0.1248942
-4.834096	$75,198,000,	-0.1249324
-4.834096	$75.7	-0.1233386
-4.834096	$750,592,000	-0.1241489
-4.834096	$76.783	-0.1203006
-4.834096	$767,000,	-0.1217838
-4.533066	$768.60	-0.1248178
-4.834096	$77	-0.1233386
-4.834096	$77,000,	-0.1217838
-4.834096	$77.1	-0.1203006
-4.834096	$77.4	-0.1203006
-4.834096	$77.6	-0.1203006
-4.834096	$77.8	-0.1203006
-4.834096	$779.4	-0.1203006
-4.834096	$78.0	-0.1203006
-4.834096	$78.1	-0.1233386
-4.834096	$78.6	-0.1203006
-4.834096	$78.68	-0.1203006
-4.834096	$78.8	-0.1233386
-4.834096	$78.9	-0.1203006
-4.834096	$79,043,000	-0.1217838
-4.834096	$79.4	-0.1203006
-4.533066	$79.6	-0.4213306
-4.834096	$790	-0.1203006
-4.834096	$791.848	-0.1203006
-4.055945	$8	-0.4213113
-4.834096	$8,397,000	-0.1163205
-4.834096	$8,684	-0.1233386
-4.834096	$8.6	-0.1203006
-4.834096	$8.7	-0.1203006
-4.834096	$8.8	-0.1203006
-4.834096	$8.9	-0.1203006
-4.533066	$80	-0.1186832
-4.834096	$80.0	-0.1203006
-4.533066	$80.40	-0.1246841
-4.834096	$80.9	-0.1203006
-4.834096	$800,000	-0.1143558
-4.834096	$805	-0.1233386
-4.834096	$807	-0.1203006
-4.834096	$81.8	-0.1233386
-4.834096	$82	-0.1203006
-4.834096	$822.3	-0.1233386
-4.834096	$822.570	-0.1203006
-4.834096	$823.239	-0.1203006
-4.834096	$83,069,000	-0.1217838
-4.834096	$83,339,000,	-0.1225843
-4.834096	$83.8	-0.1203006
-4.834096	$834	-0.1248433
-4.834096	$834.8	-0.1233386
-4.533066	$84.5	-0.1186832
-4.834096	$84.550	-0.1203006
-4.834096	$84.629	-0.1203006
-4.834096	$841.6	-0.1233386
-4.834096	$845	-0.1203006
-4.834096	$85	-0.1203006
-4.834096	$85.1	-0.1203006
-4.834096	$85.4	-0.1233386
-4.533066	$85.6	-0.1186832
-4.834096	$85.89	-0.1203006
-4.356975	$850	-0.1231661
-4.834096	$852,632,000	-0.1185541
-4.834096	$855.3	-0.1203006
-4.834096	$859	-0.1203006
-4.834096	$86.0	-0.1203006
-4.834096	$86.02	-0.1203006
-4.834096	$86.32	-0.1203006
-4.834096	$862.0	-0.1203006
-4.834096	$869.7	-0.1233386
-4.834096	$87.4	-0.1203006
-4.834096	$87.9	-0.1203006
-4.834096	$871.9	-0.1233386
-4.834096	$872,"	-0.1196054
-4.834096	$88.3	-0.1203006
-4.834096	$88.5	-0.1203006
-4.533066	$88.8	-0.4213306
-4.834096	$885	-0.1248433
-4.834096	$89,883,000	-0.1217838
-4.533066	$89.6	-0.1186832
-4.834096	$893.84	-0.1203006
-4.834096	$9	-0.1203006
-4.834096	$9,020,000,	-0.1217838
-4.834096	$9,494,000	-0.1163205
-4.834096	$9,915	-0.1203006
-4.834096	$9,982,000	-0.1241489
-4.834096	$9.0	-0.1203006
-4.356975	$9.3	-0.1186768
-4.533066	$9.34	-0.4258287
-4.533066	$9.7	-0.1186832
-4.834096	$90	-0.1203006
-4.834096	$90.7	-0.1203006
-4.834096	$90/sample,	-0.1185541
-4.834096	$900,000	-0.1248369
-4.834096	$904	-0.1203006
-4.834096	$91,807,000	-0.1241489
-4.834096	$91,943,000	-0.1217838
-4.834096	$91,964,000	-0.1232236
-4.533066	$91.3	-0.4213306
-4.834096	$91.6	-0.1233386
-4.834096	$91.77	-0.1203006
-4.533066	$92	-0.1186832
-4.533066	$92.0	-0.1186832
-4.834096	$93	-0.1203006
-4.834096	$93,591,000	-0.1232236
-4.533066	$93.7	-0.1186832
-4.834096	$935,954,000	-0.1241489
-4.834096	$94	-0.1203006
-4.834096	$94.2	-0.1203006
-4.834096	$941,041,000	-0.1163205
-4.533066	$942.83	-0.1246841
-4.834096	$946	-0.1203006
-4.834096	$95	-0.1233386
-4.834096	$95.5	-0.1233386
-4.834096	$95.7	-0.1233386
-4.834096	$95.9	-0.1203006
-4.834096	$955.9	-0.1203006
-4.834096	$96.1	-0.1203006
-4.834096	$960	-0.1203006
-4.533066	$97.31	-0.1246841
-4.834096	$97.5	-0.1203006
-4.834096	$98	-0.1203006
-4.834096	$98,010,085	-0.1232236
-4.834096	$98,296,000	-0.1232236
-4.834096	$985.1	-0.1233386
-4.834096	$986,521,000	-0.1232236
-4.834096	$99.4	-0.1203006
-4.834096	%to	-0.1249133
-3.021183	&	-0.3132134
-4.834096	&amp;	-0.1249069
-4.834096	'02	-0.1225267
-4.834096	'02'	-0.1248051
-4.834096	'08	-0.1248496
-4.834096	'Corporate	-0.1249196
-4.834096	'Exchange	-0.1249324
-4.834096	'Listed	-0.1244039
-4.834096	'Non-Employee	-0.1249324
-4.834096	'Outside	-0.1249324
-4.834096	'SN200	-0.1249324
-4.834096	'Starbucks	-0.1249324
-4.834096	'independent'	-0.1226866
-4.834096	'realigning	-0.1145122
-4.834096	'very	-0.1249324
-4.834096	'wireline	-0.1249324
-4.533066	(	-0.425956
-4.834096	(BLDA)	-0.1143558
-4.834096	("CJMM"),	-0.1243911
-4.834096	($0.04)	-0.1248751
-4.834096	($0.06	-0.1212001
-4.834096	($0.10)	-0.1145122
-4.834096	($12.39	-0.1249133
-4.834096	($14.6	-0.1203006
-4.834096	($26.03	-0.1249133
-4.834096	($30.3	-0.1203006
-4.834096	($315	-0.1203006
-4.834096	($345.77	-0.1249133
-4.834096	($359.4	-0.1249133
-4.834096	($371.79	-0.1249324
-4.834096	($9.9	-0.1203006
-4.834096	(11	-0.1249324
-4.834096	(58	-0.1246332
-4.834096	(96.94%)2;	-0.1249324
-4.834096	(99.6%)	-0.1249133
-4.834096	(A	-0.1248942
-4.834096	(AAT),	-0.1185541
-4.834096	(ACTS),	-0.1247987
-4.834096	(ADHD)	-0.1187671
-4.834096	(AHBA)	-0.123511
-4.834096	(AMR)	-0.1145122
-4.834096	(AP)/router	-0.1247796
-4.834096	(APN).The	-0.124926
-4.834096	(ARM)	-0.1145122
-4.834096	(ASIC)	-0.124926
-4.533066	(ASX:	-0.425956
-4.834096	(AUD	-0.1249324
-4.834096	(AVRs),	-0.1145122
-4.135127	(Australia)	-0.5228024
-4.834096	(B-type	-0.1249324
-4.834096	(BGI)	-0.1248751
-4.356975	(Brocade(R))	-0.1096554
-4.834096	(CARe)	-0.1249133
-4.533066	(CE)	-0.1144992
-4.834096	(CEE)	-0.1249324
-4.834096	(CEO)	-0.1145122
-4.834096	(CGEMS)	-0.1249324
-4.834096	(CGEMS),	-0.1235301
-4.834096	(CGF)	-0.1145122
-4.834096	(CIO).Ms.	-0.1249133
-4.834096	(CNAs)	-0.1246077
-4.834096	(COO)	-0.1249005
-4.834096	(CPF)	-0.124926
-4.834096	(CPF)-based	-0.124372
-4.834096	(CR100).Sonos'	-0.1249196
-4.834096	(CSHL)	-0.1143558
-4.834096	(CSPro)	-0.1249324
-4.834096	(DCEG),	-0.1035553
-4.834096	(DGE)	-0.1248624
-4.834096	(Dean)	-0.1087382
-4.834096	(Design-for-Manufacturability)	-0.1145122
-4.834096	(E&D)	-0.1249133
-4.834096	(EDA)	-0.1249324
-4.834096	(EEE)	-0.1249324
-4.533066	(EIA)	-0.4255549
-4.834096	(EICS).This	-0.1248751
-4.834096	(EPCM)	-0.1246841
-4.834096	(EPCM),	-0.1145122
-4.834096	(EPS)	-0.1163205
-4.834096	(English	-0.1249324
-4.834096	(FAN)	-0.1248942
-4.533066	(FC)	-0.1248305
-4.834096	(FCIP)	-0.124856
-4.834096	(FCoE)-based	-0.1247796
-4.834096	(FDA)	-0.1232811
-4.834096	(FDA).He	-0.1225267
-4.834096	(FERC),	-0.1035553
-4.834096	(FFPE).The	-0.1249133
-4.834096	(FHPS).Advance	-0.1249196
-4.834096	(FPGA)	-0.1249069
-4.834096	(Financial	-0.1246332
-4.834096	(GA)	-0.1248178
-4.135127	(GAAP),	-0.499015
-4.834096	(GHz)	-0.1249133
-4.834096	(GSK)	-0.1249324
-4.834096	(GWA)	-0.124926
-4.834096	(GWAS).Designed	-0.1226866
-4.834096	(Gb)	-0.1087382
-4.834096	(GbE)	-0.1249324
-4.834096	(Gbit/sec)	-0.1248942
-4.834096	(HBA)	-0.1246459
-4.834096	(HD)	-0.1249005
-4.834096	(HDR)	-0.124926
-4.834096	(HDR)-enabled	-0.1248942
-4.834096	(HIPAA).	-0.1196054
-4.834096	(HLCS)	-0.1226227
-4.834096	(HRM);	-0.1248496
-4.834096	(High	-0.1249324
-4.834096	(I/O)	-0.1247414
-4.834096	(IBPS)	-0.1246586
-4.834096	(IC)	-0.1145122
-4.834096	(ICC)	-0.1145122
-4.834096	(ID/IQ)	-0.1248178
-4.834096	(IIJ-Tech)	-0.1248815
-4.834096	(IOPS)	-0.1212001
-4.834096	(ISE)	-0.1249324
-4.834096	(ISOs)	-0.1248624
-4.834096	(IT)	-0.1248942
-4.834096	(ITMAT)	-0.1235365
-4.834096	(ITMAT,	-0.1249324
-4.533066	(Industry)	-0.1248305
-4.834096	(Institutional)	-0.1225267
-4.533066	(Jay)	-0.4259433
-4.834096	(LAN)	-0.124926
-4.834096	(LCD)	-0.1223091
-4.834096	(LOGCAP)	-0.124926
-4.834096	(LSI)	-0.1248942
-4.834096	(Light)	-0.1143558
-4.834096	(MAC),	-0.1249324
-4.834096	(MIPI(SM))	-0.1249324
-4.834096	(MMK)	-0.1231533
-4.834096	(MOLX)	-0.1235365
-4.834096	(MOLXA)	-0.1145122
-4.834096	(MS),	-0.1249324
-4.834096	(MSM(TM))	-0.1249324
-4.834096	(MTG)	-0.1231533
-4.834096	(Mbps)	-0.1248942
-4.533066	(NASDAQ:	-0.425956
-4.834096	(NCI)	-0.1143558
-4.834096	(NHLBI)	-0.1249324
-3.328946	(NYSE:	-0.3288551
-4.834096	(NYSE:AVY)	-0.1249324
-4.834096	(NYSE:CDN)	-0.1226227
-4.834096	(NYSE:CZN)	-0.124856
-4.834096	(NYSE:FLR)'s	-0.1247287
-4.533066	(NYSE:FNF)	-0.1248433
-4.533066	(NYSE:HNT)	-0.1246013
-4.834096	(NYSE:KEY)'s	-0.1247287
-4.834096	(NYSE:LFG)	-0.1163205
-4.834096	(NYSE:LFG)..	-0.1196054
-4.834096	(NYSE:PFG)	-0.1248369
-4.356975	(NYSE:SCI)	-0.2920676
-4.834096	(NYSE:UNS)	-0.1163205
-3.834096	(Nasdaq:	-0.4259051
-4.356975	(NasdaqGS:	-0.6020409
-4.834096	(NasdaqGS:CEPH)	-0.1226227
-4.834096	(NasdaqGS:ILMN)	-0.1248369
-4.834096	(NasdaqNM:GNTX)	-0.1226227
-4.834096	(OCG).The	-0.1249324
-4.834096	(OEM)	-0.124595
-4.834096	(OVM)	-0.1248687
-4.834096	(OVM)-compliant,	-0.124926
-4.834096	(OVM).The	-0.1248624
-4.834096	(OVM).This	-0.1247796
-4.834096	(OmniExpress),	-0.1035553
-4.834096	(PCB)	-0.1246332
-4.834096	(PCX:AVY).The	-0.1249196
-4.834096	(PDK's).The	-0.124372
-4.834096	(PHYs)	-0.1145122
-4.834096	(POS).Transax	-0.1249133
-4.834096	(PRO),	-0.1185541
-4.834096	(PRODUCT)(RED)	-0.1246714
-4.834096	(Pacific	-0.1249133
-4.834096	(Penn),	-0.1035553
-4.533066	(Personal	-0.1249005
-4.834096	(Q3	-0.1249324
-4.834096	(QoS),	-0.1185541
-4.834096	(RCD)	-0.1248496
-4.834096	(REC)	-0.124544
-4.533066	(RED)(TM)	-0.1119824
-4.834096	(RNAi).	-0.1196054
-4.834096	(ROCm)	-0.1247796
-4.834096	(S)	-0.124926
-3.792704	(SAN)	-0.1523183
-4.533066	(SAN).The	-0.4251853
-4.834096	(SANs).The	-0.1249005
-4.834096	(SBS),	-0.1035553
-4.834096	(SBUX)	-0.1229616
-4.834096	(SCE)	-0.1232811
-4.834096	(SEC).The	-0.1246777
-4.834096	(SGP/SGI)	-0.1249324
-4.533066	(SLAs)	-0.4173505
-4.834096	(SNIA)	-0.1249324
-4.834096	(SNP)	-0.124786
-4.533066	(SNPs)	-0.1149748
-4.834096	(SRV)	-0.1226227
-4.834096	(STARBUCKS)(RED)	-0.1249324
-4.533066	(SmartBeam)	-0.1248433
-4.834096	(SoC).Sequans	-0.1236067
-4.834096	(TCO)	-0.1226866
-4.834096	(TLM)	-0.124926
-4.834096	(The	-0.1249005
-4.834096	(UMTS)	-0.124926
-4.533066	(US	-0.124926
-4.834096	(USD)	-0.1212001
-4.533066	(VIP)	-0.1143493
-4.834096	(VUL	-0.1248624
-4.834096	(VoIP)	-0.1249324
-4.834096	(WAFS).	-0.1196054
-4.135127	(WLAN)	-0.1241043
-4.834096	(WLAN),	-0.1035553
-4.834096	(WNPU)	-0.1248051
-4.834096	(WNPU),	-0.1035553
-4.834096	(WVM)	-0.1163205
-4.834096	(ZP100)	-0.1145122
-4.834096	(ZP80),	-0.1249196
-4.834096	(an	-0.1248815
-4.834096	(approximately	-0.124716
-4.834096	(armodafinil)	-0.1249133
-4.834096	(at	-0.1249324
-4.834096	(available	-0.1187671
-4.533066	(benefit)	-0.4173505
-4.834096	(bp),	-0.1243338
-4.834096	(changes	-0.1187671
-4.834096	(complementary	-0.1249324
-4.834096	(customer-owned	-0.1249324
-4.834096	(eQTL)	-0.124926
-4.834096	(either	-0.1249133
-4.834096	(excluding	-0.1248624
-4.834096	(exons),	-0.1247796
-4.834096	(four	-0.1249324
-4.533066	(i)	-0.1244102
-4.834096	(iPAS(TM))	-0.1249069
-4.834096	(ii)	-0.1243338
-4.834096	(iii)	-0.1249196
-4.834096	(impairment)	-0.1087382
-4.834096	(including	-0.1249324
-4.834096	(iv)	-0.1249196
-4.356975	(modafinil)	-0.6020346
-4.834096	(naltrexone	-0.1163205
-4.834096	(net	-0.1087382
-4.356975	(oligos)	-0.2918727
-4.834096	(on	-0.1185541
-4.533066	(oral	-0.425956
-4.834096	(original	-0.124926
-4.834096	(other	-0.1246077
-4.834096	(patents-in-suit).In	-0.1185541
-4.834096	(rep)	-0.1249133
-4.834096	(sNDA)	-0.1249005
-4.533066	(single	-0.4259433
-4.232036	(stores	-0.726846
-4.533066	(the	-0.124926
-4.834096	(three	-0.1248687
-4.834096	(two	-0.1249324
-4.834096	+	-0.1249324
-4.356975	,	-0.6020409
-2.66091	-	-1.066344
-4.055945	--	-0.268454
-4.834096	-1994	-0.124926
-4.356975	."	-0.5967267
-4.834096	.11n	-0.1249133
-4.834096	0.02	-0.1163205
-4.834096	0.04per	-0.1246204
-4.834096	0.18-micron	-0.1249324
-4.834096	0.2%	-0.124544
-4.834096	0.5%	-0.124544
-4.533066	0.6%	-0.1157034
-4.834096	0.7	-0.1163205
-4.834096	0.7%	-0.1232236
-4.834096	0.8%	-0.1143558
-4.834096	0.993	-0.1245631
-4.533066	01,	-0.1247669
-3.931006	03,	-0.1825933
-4.834096	03/27/2000,	-0.1248242
-4.834096	03/31/2000.In	-0.1248878
-4.834096	04)	-0.1235684
-4.834096	04/01/1999,	-0.1249005
-4.533066	04:10	-0.1249196
-4.232036	05,	-0.1246395
-4.232036	06,	-0.1246268
-4.533066	07,	-0.1248051
-4.834096	07/17/2005."	-0.1196054
-4.834096	07/29/2009	-0.1196054
-4.834096	07/29/2009.Cadence	-0.1243529
-4.533066	08,	-0.1247414
-4.834096	08/31/2001."	-0.1196054
-4.533066	08:00	-0.1248942
-4.533066	08:15	-0.1249005
-4.533066	08:30	-0.1249005
-3.931006	09,	-0.181637
-4.834096	09/09/2002."	-0.1196054
-4.834096	09/12/2002"	-0.1196054
-4.834096	09/30/1998."	-0.1196054
-4.533066	09:00	-0.4259178
-4.834096	09:30	-0.1248178
-3.931006	1	-0.2426072
-4.356975	1%	-0.289886
-3.302618	1,	-0.2069435
-4.533066	1,000	-0.1248751
-4.834096	1,2005.	-0.1196054
-4.834096	1,250	-0.1249005
-4.834096	1,293	-0.1248878
-4.834096	1,300+	-0.124926
-4.834096	1,400	-0.1249069
-4.533066	1,430,000	-0.1245568
-4.834096	1,520,100	-0.1249324
-4.834096	1,580-MW	-0.1249324
-4.834096	1,660,000	-0.1245631
-4.834096	1,700	-0.1249324
-4.834096	1,800	-0.1249133
-4.834096	1,920,000	-0.1249324
-4.834096	1-for-100	-0.1249196
-4.834096	1.	-0.1249133
-4.834096	1.1%	-0.1249069
-4.834096	1.4%	-0.1225523
-4.834096	1.4%,	-0.1246332
-4.834096	1.5-inch	-0.1249324
-4.834096	1.6%	-0.1249069
-4.834096	1.7	-0.1203006
-4.834096	1.9%	-0.1232236
-4.834096	1.Between	-0.1248942
-4.834096	1.Working	-0.1187671
-3.879854	10	-0.1189349
-4.533066	10%	-0.1248496
-4.834096	10%.	-0.1196054
-4.533066	10,	-0.4258351
-4.533066	10-K	-0.1235046
-4.834096	10-year	-0.1248305
-4.834096	10.1%	-0.1232236
-4.834096	10.This	-0.1247987
-4.834096	10/1/01,	-0.1035553
-4.834096	10/100	-0.1249196
-4.834096	10/18/1999."	-0.1196054
-4.834096	10/19/01,	-0.1035553
-3.687968	100	-0.1661083
-4.834096	100%	-0.1087382
-4.834096	100,000	-0.1249324
-4.834096	100-for-1	-0.1249133
-4.834096	100.612	-0.1248433
-4.356975	1000	-0.1248369
-4.834096	10017,	-0.1246777
-4.834096	10020-1095,United	-0.1248687
-4.834096	1010	-0.1249324
-4.834096	1010/1020	-0.124926
-4.834096	1020	-0.1249324
-4.834096	103%	-0.1243338
-4.834096	109	-0.1249196
-4.135127	10:00	-0.5227005
-4.533066	10:15	-0.1249005
-4.834096	10:30,	-0.1248178
-4.834096	10A-3	-0.1246777
-4.834096	10b5-1	-0.1248751
-4.834096	10kb	-0.1087382
-4.135127	11	-0.1227698
-4.135127	11%	-0.2085711
-4.834096	11%.Investors	-0.1187671
-3.754915	11,	-0.2033621
-4.834096	11,000,000	-0.1245631
-4.834096	11,100,000	-0.1245631
-4.834096	11.7	-0.1246586
-4.834096	110	-0.1249005
-4.834096	110%	-0.1087382
-4.834096	1114	-0.1248751
-4.533066	1155	-0.4259051
-4.834096	11:00	-0.1248178
-4.356975	11:30	-0.1248115
-3.834096	12	-0.3353234
-4.834096	12%	-0.1143558
-3.754915	12,	-0.2489155
-4.834096	12-18	-0.1248051
-4.533066	12-sample	-0.1248305
-4.232036	120	-0.118412
-4.834096	1221	-0.1249133
-4.834096	1228	-0.1248878
-4.834096	123	-0.1249324
-4.834096	123R,	-0.1249005
-4.533066	125.697	-0.1201591
-4.533066	12:00	-0.1249196
-3.792704	13	-0.4664569
-4.533066	13%	-0.1119103
-4.055945	13,	-0.3003486
-4.834096	13,610,680	-0.1243402
-4.834096	13-week	-0.1237663
-4.834096	13.	-0.1196054
-4.834096	13.1%	-0.1187671
-4.834096	13.8	-0.1246586
-4.533066	1335	-0.4259433
-4.834096	134,000	-0.1249133
-4.834096	13:30	-0.1248878
-4.055945	14	-0.1170015
-3.754915	14,	-0.1242382
-4.834096	14,287,586	-0.1245631
-4.834096	14.5%	-0.1143558
-4.533066	140	-0.1201591
-4.834096	144%	-0.1232236
-4.834096	145	-0.12129
-4.834096	146	-0.1187671
-4.834096	14:00	-0.1248815
-4.834096	14a-8	-0.1246777
-4.055945	15	-0.0909888
-4.533066	15%	-0.1239385
-4.834096	15%.Then,	-0.12129
-3.578824	15,	-0.1468701
-4.834096	15.2%.Diluted	-0.1229616
-4.834096	15.3%	-0.1143558
-4.533066	150	-0.1247669
-4.834096	150,000,000	-0.1143558
-4.834096	150.5	-0.1203006
-4.834096	152.5	-0.1203006
-4.834096	153%.Product	-0.1238684
-4.834096	1536	-0.1248369
-4.834096	156.8%	-0.1143558
-4.834096	15th	-0.1249133
-3.988998	16	-0.2597856
-4.533066	16%	-0.1208277
-3.931006	16,	-0.1823385
-4.834096	16,000	-0.1249069
-4.834096	16,000,000	-0.1245631
-4.834096	16,304,200	-0.1249324
-4.834096	16.7	-0.1246586
-4.834096	16.She	-0.1249324
-4.834096	160	-0.124926
-4.834096	162(m)	-0.1087382
-4.834096	16HD	-0.1249324
-4.834096	16b-3(b)(3)	-0.1246777
-4.533066	17	-0.1243657
-4.834096	17%	-0.124544
-4.834096	17%,	-0.1143558
-3.754915	17,	-0.2022898
-4.834096	17-month	-0.1248433
-4.834096	17.4	-0.1246586
-4.834096	17.8	-0.1249324
-4.834096	17.BGI	-0.1231533
-4.834096	174.032	-0.1249324
-4.834096	1745	-0.1247605
-4.834096	176,000	-0.1249069
-4.834096	178.2	-0.1249324
-4.533066	17:1,	-0.4259178
-4.533066	18	-0.1244612
-4.356975	18%	-0.1116611
-3.658005	18,	-0.3000426
-4.834096	18.5%	-0.1143558
-4.834096	1890,	-0.124926
-4.533066	19	-0.1235238
-4.834096	19%	-0.1248687
-3.603647	19,	-0.1781622
-4.834096	19-pole	-0.1187671
-4.834096	19.5	-0.1246332
-4.533066	19.9	-0.4256887
-4.533066	1934,	-0.4237166
-4.834096	1934.As	-0.1185541
-4.834096	1934.The	-0.1249133
-4.834096	1960s,	-0.1225267
-4.834096	1962.From	-0.1249324
-4.834096	1962.Mr.	-0.1249324
-4.834096	1979	-0.1246459
-4.834096	1980s,	-0.1249324
-4.834096	1986	-0.1248433
-4.834096	1989	-0.1143558
-4.834096	1989,	-0.1247923
-4.834096	199,968,608	-0.1245631
-4.834096	1991.Dr.	-0.124926
-4.834096	1991.He	-0.1225267
-4.533066	1993,	-0.1245249
-4.834096	1993.A	-0.1249069
-4.834096	1993.Sandra	-0.124926
-4.834096	1994	-0.1226866
-4.834096	1995,	-0.1249324
-4.834096	1996	-0.1249324
-4.834096	1996.According	-0.1143558
-4.834096	1996.In	-0.1248114
-4.533066	1997	-0.1036689
-4.834096	1997.The	-0.1249069
-4.834096	1998	-0.1163205
-4.834096	1998,	-0.1145122
-4.834096	1998.Keating,	-0.1249324
-4.356975	1999	-0.09774114
-4.533066	1999,	-0.1034149
-4.834096	1999.In	-0.1249133
-4.533066	1999.The	-0.1225715
-4.834096	1;	-0.1145122
-4.533066	1st	-0.1248942
-3.792704	2	-0.1787097
-4.533066	2%	-0.4153858
-4.834096	2%.For	-0.1035553
-3.453885	2,	-0.2718857
-4.834096	2,000,000	-0.1245631
-4.834096	2,100	-0.1249196
-4.834096	2,150	-0.1246523
-4.834096	2,207,506	-0.1245631
-4.834096	2,300	-0.1249324
-4.834096	2,500	-0.124926
-4.834096	2,837	-0.1249069
-4.834096	2,917,380	-0.1245631
-4.834096	2-for-1	-0.1245376
-4.834096	2.0	-0.124926
-4.533066	2.0%	-0.1145709
-4.834096	2.1%	-0.1248815
-4.834096	2.3	-0.1203006
-4.834096	2.3%	-0.1249069
-4.135127	2.4	-0.3363154
-4.834096	2.5	-0.124926
-4.834096	2.5G	-0.1145122
-3.834096	20	-0.1951048
-4.055945	20%	-0.1875692
-3.988998	20,	-0.1244995
-4.834096	20-30,	-0.1247796
-4.834096	20-year	-0.1249196
-4.834096	20.5	-0.1246586
-4.533066	200	-0.4258987
-4.834096	200,000	-0.1187671
-3.931006	2000	-0.227202
-4.232036	2000,	-0.1231022
-4.533066	2000.	-0.1195474
-4.834096	2000.In	-0.1035553
-4.834096	2000.Simpson	-0.1249324
-4.834096	2000.Starbucks	-0.1246586
-4.834096	2000.The	-0.1227954
-4.533066	2000.Under	-0.4045853
-4.232036	2001	-0.1137881
-3.834096	2001,	-0.1322019
-4.232036	2001.	-0.7216654
-3.988998	2001."	-0.9647035
-4.356975	2001.Comparable	-0.6018691
-4.533066	2001.Earnings	-0.4222301
-4.232036	2001.For	-0.7056153
-4.834096	2001.Health	-0.1246714
-4.834096	2001.In	-0.1035553
-4.834096	2001.Macquarie	-0.1249133
-4.533066	2001.Net	-0.1218094
-4.356975	2001.On	-0.5956754
-4.834096	2001.Starbucks	-0.1237663
-4.055945	2001.The	-0.203394
-3.436156	2002	-0.1480927
-4.834096	2002"	-0.1196054
-4.834096	2002's	-0.123428
-3.658005	2002,	-0.2140205
-4.356975	2002.	-0.5967267
-4.135127	2002."	-0.8185754
-4.834096	2002."Health	-0.1246714
-4.834096	2002."Panera	-0.124735
-4.834096	2002.Accordingly,	-0.1035553
-4.834096	2002.Average	-0.1249196
-4.834096	2002.Brocade	-0.1236067
-4.834096	2002.Comparable	-0.1247478
-4.834096	2002.Diluted	-0.1229616
-4.834096	2002.Fluor	-0.1229808
-4.533066	2002.For	-0.4045853
-4.834096	2002.Highlights	-0.1163205
-4.834096	2002.Mr.	-0.1249196
-4.356975	2002.Net	-0.2979007
-4.834096	2002.On	-0.1185541
-4.834096	2002.Panera	-0.124735
-4.533066	2002.Starbucks	-0.1226994
-4.135127	2002.The	-0.1243019
-4.834096	2002.They	-0.1247096
-4.834096	2002.Total	-0.1238684
-4.834096	2002;	-0.1143558
-3.629976	2003	-0.1068715
-3.834096	2003,	-0.1626488
-4.533066	2003.	-0.4206354
-4.834096	2003."Hansen	-0.1246141
-4.834096	2003."Starbucks	-0.1237663
-4.834096	2003.Austin	-0.1249005
-4.834096	2003.Fluor's	-0.1225779
-4.834096	2003.For	-0.1035553
-4.533066	2003.Mr.	-0.1249069
-4.834096	2003.Net	-0.1225843
-4.834096	2003.Prior	-0.1143558
-4.533066	2003.The	-0.1234024
-4.533066	2003;	-0.1138861
-3.472368	2004	-0.2099218
-3.879854	2004,	-0.2083329
-4.533066	2004.	-0.4206354
-4.834096	2004."Atheros	-0.1236067
-4.834096	2004."Big	-0.1247987
-4.834096	2004."Brocade	-0.1236067
-4.834096	2004."Fluor	-0.1229808
-4.834096	2004."Hansen	-0.1246141
-4.834096	2004."Phillips-Van	-0.1246332
-4.834096	2004."Service	-0.1229808
-4.834096	2004."The	-0.1243019
-4.356975	2004.Brocade	-0.2993852
-4.834096	2004.Fluor	-0.1249005
-4.533066	2004.For	-0.4045853
-4.834096	2004.Hansen	-0.1246141
-4.834096	2004.Illumina	-0.1209369
-4.834096	2004.In	-0.1248751
-4.135127	2004.Net	-0.5197494
-4.834096	2004.Non-GAAP	-0.1225779
-4.834096	2004.Reporting	-0.12129
-4.533066	2004.Revenue	-0.1167357
-4.055945	2004.The	-0.2974775
-4.834096	2004.Total	-0.1243019
-4.834096	2004;	-0.1248751
-3.171339	2005	-0.5949398
-3.931006	2005,	-0.2818415
-4.055945	2005.	-0.8977567
-4.356975	2005."	-0.5967267
-4.834096	2005."Atheros	-0.1236067
-4.834096	2005."Brocade	-0.1236067
-4.834096	2005."Cadence	-0.1243529
-4.834096	2005."Hansen	-0.1246141
-4.533066	2005."Illumina	-0.4219669
-4.533066	2005."Kirby	-0.4240108
-4.533066	2005.Brocade	-0.4246368
-4.834096	2005.Comparable	-0.1247478
-4.834096	2005.Craig	-0.124926
-4.533066	2005.Excluding	-0.4045853
-4.834096	2005.Fluor	-0.1249324
-3.720153	2005.For	-0.9156055
-4.834096	2005.Fully	-0.1226866
-4.834096	2005.Hansen	-0.1246141
-4.834096	2005.Illumina	-0.1209369
-4.834096	2005.MEGAPLEX's	-0.1249324
-4.834096	2005.Net	-0.1243019
-4.834096	2005.On	-0.1185541
-4.834096	2005.Reporting	-0.12129
-3.931006	2005.The	-0.4227176
-4.232036	2005;	-0.238433
-3.101702	2006	-0.5118574
-3.472368	2006,	-0.3106331
-3.658005	2006.	-1.295697
-4.834096	2006."Atheros	-0.1236067
-4.834096	2006."Dolby	-0.124544
-4.232036	2006."Illumina	-0.7229969
-4.834096	2006."KeyCorp,	-0.1247032
-4.834096	2006."Phillips-Van	-0.1246332
-4.533066	2006."Starbucks	-0.121803
-4.834096	2006..	-0.1196054
-4.834096	2006.Approximately	-0.1249324
-4.834096	2006.As	-0.1035553
-4.356975	2006.Atheros	-0.600728
-4.356975	2006.Brocade	-0.600728
-4.834096	2006.Cephalon	-0.1209369
-4.533066	2006.Comparable	-0.4257778
-4.834096	2006.Consolidated	-0.1243019
-4.834096	2006.Dr.	-0.124926
-4.834096	2006.Fidelity	-0.1245504
-3.555343	2006.For	-1.382309
-4.834096	2006.GAAP	-0.1225779
-4.533066	2006.Hansen	-0.4256441
-4.356975	2006.Illumina	-0.5980582
-4.356975	2006.In	-0.30096
-4.834096	2006.Molex	-0.1209369
-4.834096	2006.N.M	-0.1249324
-4.135127	2006.Net	-0.3432285
-4.533066	2006.Non-GAAP	-0.4236079
-4.834096	2006.On	-0.1245822
-4.834096	2006.Reporting	-0.12129
-4.533066	2006.Service	-0.4240108
-4.834096	2006.Starbucks	-0.1229808
-3.629976	2006.The	-0.5473549
-4.834096	2006.VIVITROL	-0.1225267
-4.135127	2006;	-0.3357152
-2.931006	2007	-0.4443676
-3.419123	2007,	-0.2172207
-3.754915	2007.	-1.198787
-4.135127	2007."	-0.8185754
-4.533066	2007."AK	-0.4255613
-4.834096	2007."Atheros	-0.1236067
-4.834096	2007."Capitol	-0.1248687
-4.834096	2007."Cephalon	-0.1209369
-4.356975	2007."Dolby	-0.6016653
-4.834096	2007."Hansen	-0.1246141
-4.834096	2007."Illumina	-0.1209369
-4.834096	2007."Kirby	-0.1229808
-4.834096	2007."Panera	-0.124735
-4.533066	2007."Phillips-Van	-0.4256632
-4.834096	2007."The	-0.1247669
-4.356975	2007.AK	-0.6016526
-4.834096	2007.As	-0.1087382
-4.834096	2007.Atheros	-0.1236067
-4.834096	2007.Both	-0.123428
-4.533066	2007.Brocade	-0.4246368
-4.834096	2007.Cadence	-0.122904
-4.533066	2007.Cephalon	-0.4219669
-4.834096	2007.Coles	-0.1231533
-4.834096	2007.Comparable	-0.1247478
-4.834096	2007.Dolby	-0.1247096
-4.834096	2007.Earnings	-0.1212001
-4.834096	2007.Excluding	-0.1035553
-3.511877	2007.For	-1.425775
-4.834096	2007.GAAP	-0.1225779
-4.834096	2007.Gentex	-0.1229808
-4.834096	2007.Gross	-0.1241681
-4.834096	2007.Health	-0.1246714
-4.533066	2007.Impairments	-0.4097682
-4.533066	2007.Kirby	-0.4240108
-4.834096	2007.Looking	-0.1249324
-4.356975	2007.Mr.	-0.1248497
-4.232036	2007.Net	-0.7246443
-4.834096	2007.Non-GAAP	-0.1225779
-4.834096	2007.Operating	-0.1229616
-4.834096	2007.Phillips-Van	-0.1246332
-4.834096	2007.Record	-0.1225843
-4.356975	2007.Revenue	-0.2861156
-4.834096	2007.Revenues	-0.1163205
-4.834096	2007.Sales	-0.1249069
-4.356975	2007.Service	-0.6001021
-4.834096	2007.Starbucks	-0.1229808
-4.834096	2007.Th"	-0.1196054
-3.511877	2007.The	-0.486001
-4.356975	2007.This	-0.1241617
-4.533066	2007.Total	-0.12323
-4.834096	2007.Under	-0.1035553
-4.055945	2007;	-0.591164
-2.593547	2008	-0.8496414
-3.210847	2008,	-0.3246159
-3.453885	2008.	-1.499817
-4.533066	2008."	-0.4206354
-4.834096	2008."Big	-0.1247987
-4.834096	2008."Discovery	-0.1236067
-4.356975	2008."Dolby	-0.6016653
-4.533066	2008."Fidelity	-0.4255804
-4.834096	2008."Fluor	-0.1237663
-4.533066	2008."Hansen	-0.4256441
-4.356975	2008."Illumina	-0.2965205
-4.533066	2008."Kirby	-0.4240108
-4.533066	2008."Molex	-0.4219669
-4.834096	2008."Panera	-0.124735
-4.834096	2008."Phillips-Van	-0.1246332
-4.834096	2008."Principal	-0.124474
-4.834096	2008."Service	-0.1229808
-4.834096	2008."The	-0.1247669
-4.533066	2008.AK	-0.4255613
-4.135127	2008.As	-0.50648
-4.834096	2008.At	-0.1243656
-4.834096	2008.Atheros	-0.1236067
-4.834096	2008.Brocade	-0.1236067
-4.834096	2008.Cadence	-0.1243529
-4.834096	2008.Capitol	-0.1248687
-4.834096	2008.Discovery	-0.1246077
-4.356975	2008.Dolby	-0.6016653
-4.834096	2008.EBITDAX	-0.1243593
-4.834096	2008.Eaton	-0.1248369
-4.533066	2008.Fidelity	-0.4255804
-4.834096	2008.Fluor	-0.1237663
-3.302618	2008.For	-1.635034
-4.834096	2008.Fred	-0.1249324
-4.834096	2008.Gentex	-0.1229808
-4.834096	2008.Hansen	-0.1246141
-4.533066	2008.Harsco	-0.4240108
-4.533066	2008.KeyCorp	-0.4236527
-4.533066	2008.Kirby	-0.4240108
-4.533066	2008.Molex	-0.4219669
-4.834096	2008.Net	-0.1229616
-4.356975	2008.On	-0.1240087
-4.356975	2008.Operating	-0.1199532
-4.834096	2008.Panera	-0.124735
-4.356975	2008.Phillips-Van	-0.6017545
-4.834096	2008.Principal	-0.124474
-4.834096	2008.Revenue	-0.1163205
-3.658005	2008.The	-0.2969511
-4.533066	2008.This	-0.1248051
-4.533066	2008.Total	-0.12323
-4.834096	2008.Under	-0.1035553
-3.687968	2008;	-0.491692
-2.834096	2009	-0.7375644
-3.453885	2009,	-0.354746
-3.533066	2009.	-1.420635
-4.834096	2009."	-0.1196054
-4.834096	2009."Cadence	-0.1243529
-4.834096	2009."Carolina	-0.1248496
-4.834096	2009."Eaton	-0.1248369
-4.834096	2009."Fidelity	-0.1245504
-4.834096	2009."Fluor	-0.1237663
-4.834096	2009."Kirby	-0.1237663
-4.834096	2009."Molex	-0.1209369
-4.834096	2009."Panera	-0.124735
-4.834096	2009."Service	-0.1229808
-4.834096	2009."The	-0.1243019
-4.135127	2009.AK	-0.8235013
-4.356975	2009.Atheros	-0.600728
-4.834096	2009.Big	-0.1247987
-4.834096	2009.Cadence	-0.1246268
-4.834096	2009.Comparable	-0.1247478
-4.533066	2009.Concho	-0.4258924
-4.834096	2009.Consolidated	-0.1249324
-4.834096	2009.Discovery	-0.1236067
-4.232036	2009.Dolby	-0.4254976
-4.834096	2009.Dolby's	-0.124735
-4.135127	2009.Fidelity	-0.8235204
-4.834096	2009.First	-0.1218094
-4.834096	2009.Fluor	-0.1249133
-3.578824	2009.For	-1.358828
-4.834096	2009.Frontier	-0.1236067
-4.834096	2009.Gentex	-0.1229808
-4.533066	2009.Hansen	-0.4256441
-4.834096	2009.Health	-0.1246714
-4.533066	2009.Illumina	-0.4219669
-4.356975	2009.In	-0.3008836
-4.356975	2009.Income	-0.2982211
-4.834096	2009.Investment	-0.1225843
-4.834096	2009.Mr.	-0.1249196
-4.356975	2009.Net	-0.1215402
-4.232036	2009.Non-GAAP	-0.2447824
-4.533066	2009.On	-0.1182117
-4.834096	2009.Panera	-0.124735
-4.834096	2009.Phillips-Van	-0.1246332
-4.533066	2009.Principal	-0.425504
-4.834096	2009.Purchases	-0.1087382
-4.834096	2009.SIM2's	-0.1249133
-4.834096	2009.Service	-0.1229808
-3.792704	2009.The	-0.463687
-3.578824	2009;	-0.5789351
-3.161999	2010	-0.3736148
-3.658005	2010,	-0.154737
-4.232036	2010.	-0.7216654
-4.834096	2010."Atheros	-0.1236067
-4.834096	2010."Fidelity	-0.1245504
-4.834096	2010."Fluor	-0.1237663
-4.834096	2010."Kirby	-0.1237663
-4.834096	2010."Phillips-Van	-0.1246332
-4.834096	2010."Principal	-0.124474
-4.834096	2010."Starbucks	-0.1229808
-4.834096	2010.As	-0.122904
-4.533066	2010.Atheros	-0.4246368
-4.834096	2010.Big	-0.1247987
-4.834096	2010.BofA	-0.1248878
-4.834096	2010.Competitive	-0.1249196
-4.533066	2010.Dolby	-0.425574
-4.834096	2010.Fluor	-0.1237663
-3.629976	2010.For	-1.006545
-4.834096	2010.Health	-0.1246714
-4.232036	2010.Illumina	-0.7229969
-4.834096	2010.Jeffery	-0.1249005
-4.834096	2010.Merrill,	-0.1249133
-4.834096	2010.News	-0.1229808
-4.834096	2010.Phillips-Van	-0.1246332
-4.533066	2010.Revenue	-0.1186058
-4.533066	2010.Service	-0.4240108
-4.834096	2010.SmartBeam	-0.1231533
-4.055945	2010.The	-0.2977019
-4.834096	2010.This	-0.1145122
-4.834096	2010.Under	-0.1035553
-4.533066	2010.Venue:	-0.1249069
-4.834096	2010.Wells	-0.1249005
-3.687968	2010;	-0.5608156
-3.511877	2011	-0.3361889
-4.135127	2011,	-0.1982068
-4.356975	2011.	-0.5967267
-4.533066	2011."Cadence	-0.4253829
-4.533066	2011."Fluor	-0.4247963
-4.834096	2011."Panera	-0.124735
-4.834096	2011."Phillips-Van	-0.1246332
-4.834096	2011."Service	-0.1229808
-4.834096	2011.Agenda:	-0.1248178
-4.533066	2011.Big	-0.4258287
-4.533066	2011.Brocade	-0.4246368
-4.834096	2011.Cadence	-0.1243529
-4.834096	2011.Cephalon	-0.1225267
-4.232036	2011.Fluor	-0.2478811
-4.834096	2011.Following	-0.1035553
-4.055945	2011.For	-0.8817066
-4.834096	2011.Gentex	-0.1229808
-4.834096	2011.Howard	-0.1249133
-4.834096	2011.IHS	-0.1248815
-4.834096	2011.JPMorgan	-0.1248942
-4.533066	2011.Kirby	-0.4247963
-4.834096	2011.Ms.	-0.1249133
-4.834096	2011.Seaton	-0.1231533
-4.834096	2011.Service	-0.1229808
-4.834096	2011.Starbucks	-0.1237663
-4.834096	2011.The	-0.1249324
-4.356975	2011.Venue:	-0.1243848
-4.834096	2011.While	-0.1035553
-4.232036	2011;	-0.4254466
-4.533066	2012	-0.4258733
-4.834096	2012.An	-0.1248942
-4.533066	20;	-0.09259592
-4.055945	21	-0.2989378
-4.834096	21%	-0.124544
-3.754915	21,	-0.2032154
-4.834096	21.2%	-0.1232236
-4.834096	21.4%	-0.1087382
-4.834096	21.7%	-0.1232236
-4.834096	210,000	-0.1249133
-3.988998	22	-0.3662744
-4.356975	22%	-0.1115036
-3.511877	22,	-0.2698369
-4.834096	22-year	-0.1249133
-4.533066	225	-0.1249196
-3.988998	23	-0.2681553
-4.834096	23%	-0.1225523
-4.834096	23%.First	-0.1218094
-4.834096	23%.Net	-0.1225843
-4.834096	23%.Second	-0.1218094
-3.419123	23,	-0.1942062
-4.834096	23.2%,	-0.1225523
-4.834096	23.4%	-0.1187671
-4.834096	23.5%	-0.1196054
-3.834096	24	-0.2198269
-3.555343	24,	-0.172358
-4.834096	24,000,000	-0.124926
-4.533066	24-port	-0.1247987
-4.834096	24.Speaking	-0.1187671
-4.834096	244.9%	-0.1143558
-4.834096	245%	-0.1225523
-4.533066	248.686	-0.1201591
-4.135127	25	-0.2193087
-4.135127	25%	-0.08656955
-3.931006	25,	-0.1231406
-4.834096	25,000	-0.1245631
-4.834096	25,387,586	-0.1245631
-4.834096	250,000	-0.1245631
-4.834096	250M,'	-0.1035553
-4.834096	25th,	-0.124926
-4.533066	25x	-0.1248942
-4.356975	26	-0.3007436
-4.834096	26%	-0.1247478
-4.834096	26%.Fourth	-0.1218094
-3.687968	26,	-0.1554786
-4.834096	26.1%	-0.1143558
-4.834096	26.Mr.	-0.1249196
-4.533066	260	-0.1201591
-4.834096	26th	-0.1249196
-4.232036	27	-0.1237216
-4.834096	27%	-0.1225523
-3.491674	27,	-0.2097472
-4.834096	27.52%	-0.1187671
-4.834096	27.9	-0.1246586
-4.834096	27.9%	-0.1143558
-4.834096	270	-0.1248942
-4.055945	28	-0.2030688
-4.834096	28%.Net	-0.1225843
-3.356975	28,	-0.2557446
-4.834096	28,566,944	-0.1248624
-4.834096	28,589	-0.1249069
-4.533066	28th	-0.4257332
-4.055945	29	-0.1935371
-4.834096	29%	-0.1143558
-3.265895	29,	-0.2261301
-4.834096	2U	-0.1249196
-4.834096	2x100	-0.1249324
-3.988998	3	-0.3669702
-4.533066	3%	-0.1142515
-3.687968	3,	-0.1909682
-4.834096	3,000	-0.1143558
-4.834096	3,053,633	-0.1245631
-4.834096	3,100,000	-0.1245631
-4.834096	3,300	-0.1249324
-4.834096	3,440,000	-0.1245631
-4.834096	3--5	-0.1187671
-4.834096	3-D	-0.12129
-4.834096	3-tier	-0.1248178
-4.834096	3.0%,	-0.1226866
-4.834096	3.2	-0.1232811
-4.356975	3.2%	-0.1079515
-4.834096	3.4%	-0.1143558
-4.834096	3.5	-0.1203006
-4.834096	3.6%	-0.1187671
-4.834096	3.7V,	-0.1249324
-4.834096	3.8	-0.1232811
-4.834096	3.8%	-0.1232236
-4.834096	3.8%,	-0.1226866
-4.834096	3.9%	-0.1187671
-4.834096	3.The	-0.1248242
-4.232036	30	-0.1222835
-4.533066	30%	-0.1081102
-2.67876	30,	-0.4289793
-4.356975	300	-0.1248815
-4.533066	3000	-0.1248496
-4.834096	300X.	-0.1196054
-4.834096	303A	-0.1087382
-4.834096	309,800	-0.1245631
-4.834096	30th	-0.1249196
-4.834096	31%	-0.1143558
-2.720153	31,	-0.3693876
-4.834096	31.0	-0.1203006
-4.834096	31.5	-0.1246586
-4.533066	317,000	-0.1248242
-4.356975	32	-0.1140036
-4.834096	32%	-0.1143558
-4.834096	32%,	-0.1235365
-4.834096	3200	-0.1249324
-4.834096	3200,	-0.1035553
-4.834096	32204,United	-0.1248687
-4.834096	325,000	-0.1245631
-4.834096	33%,	-0.1143558
-4.834096	33.15%.Diluted	-0.1229616
-4.834096	335	-0.1249324
-4.533066	34%	-0.121944
-4.834096	34%.Second-quarter	-0.1225779
-4.356975	35	-0.1247987
-4.834096	35,244,361	-0.1243402
-4.834096	35.5%.Adjusted	-0.1249069
-4.834096	35.8%	-0.1143558
-4.834096	350,000	-0.1245631
-4.834096	365	-0.1249324
-4.834096	37.5%	-0.1143558
-4.834096	37.7%	-0.1143558
-4.834096	375,000,000."	-0.1196054
-4.834096	38%	-0.1248369
-4.834096	38.4%	-0.1143558
-4.834096	38.5	-0.1246586
-4.834096	380	-0.1249324
-4.232036	39	-0.4257523
-4.834096	39,	-0.124856
-4.834096	39.1%	-0.1247478
-4.533066	39th	-0.4257332
-4.834096	3Com	-0.1237663
-4.135127	3D	-0.221505
-4.834096	3G	-0.124926
-4.834096	3GSM	-0.1187671
-4.834096	3X	-0.1248878
-4.834096	3x3	-0.1249324
-3.629976	4	-0.4730712
-4.834096	4%	-0.1225523
-4.834096	4%.Sales	-0.1249196
-4.834096	4+3+PE	-0.1249324
-3.629976	4,	-0.1803779
-4.533066	4,000,000	-0.124544
-4.834096	4,000-square-foot	-0.1248815
-4.834096	4,304,200	-0.1245631
-4.834096	4.0	-0.1248687
-4.834096	4.0%	-0.1226866
-4.834096	4.0,	-0.1235301
-4.834096	4.3	-0.1232811
-4.834096	4.3%	-0.12129
-4.533066	4.4%	-0.1234791
-4.356975	4.9%	-0.1054496
-4.232036	40	-0.7267951
-4.533066	40%	-0.10854
-4.834096	40%-46%,	-0.1249133
-4.055945	400	-0.3000171
-4.834096	400,000	-0.1245631
-4.834096	41	-0.1246332
-4.834096	41%	-0.1248815
-4.834096	41.2%	-0.1143558
-4.834096	41.7%	-0.1143558
-4.834096	4100,	-0.1243911
-4.834096	42%	-0.1143558
-4.834096	42.7%	-0.1143558
-4.834096	42.75"	-0.1196054
-4.834096	42nd	-0.1249324
-4.533066	43	-0.4257651
-4.533066	43%	-0.1243274
-4.834096	43,	-0.1249324
-4.834096	43-week	-0.1237663
-4.533066	43.2%	-0.4097682
-4.834096	44%.First	-0.1218094
-4.834096	44.0%,	-0.1225523
-4.834096	44.1%	-0.1143558
-4.834096	44.8%	-0.1143558
-4.232036	45	-0.1248369
-4.834096	45-nanometer/65-nanometer	-0.1249005
-4.834096	45th	-0.1249196
-4.834096	46,	-0.1232811
-4.834096	464,000	-0.1249069
-4.834096	47	-0.1249324
-4.834096	47%	-0.1143558
-4.834096	47-inch	-0.1248942
-4.834096	48,000	-0.1249324
-4.834096	48-well	-0.1249196
-4.834096	48.5	-0.1143558
-4.356975	48000	-0.3007372
-4.834096	48226,	-0.1246777
-4.834096	49,	-0.1232811
-4.834096	49.5%	-0.1145122
-4.356975	4900	-0.123115
-4.533066	4900,	-0.1171246
-4.834096	4900.Brocade	-0.1236067
-4.834096	4Gb	-0.1246905
-3.931006	5	-0.415027
-4.135127	5%	-0.09114012
-4.834096	5+PE	-0.1145122
-3.792704	5,	-0.210214
-4.834096	5,300,000	-0.1249196
-4.834096	5,538,143	-0.1245631
-4.834096	5,545,531,	-0.1249324
-4.834096	5,795,716	-0.1249324
-4.533066	5.1	-0.1248878
-4.834096	5.1%	-0.1143558
-4.834096	5.3	-0.1246586
-4.834096	5.5%	-0.1163205
-4.533066	5.563%	-0.4259178
-4.533066	5.8%	-0.4173505
-4.834096	5.9%	-0.12129
-3.879854	50	-0.2234416
-4.055945	50%	-0.4093453
-4.834096	50%,	-0.1249324
-3.658005	500	-0.451043
-4.834096	500,000	-0.1249324
-4.533066	500/Citigroup	-0.4259306
-4.834096	500G	-0.1225267
-4.834096	500G,	-0.1185541
-4.834096	500GX	-0.1163205
-4.834096	50392-0100,United	-0.1248687
-4.533066	510	-0.425956
-4.533066	52	-0.4257651
-4.834096	52-week	-0.1237663
-4.834096	52.4	-0.1203006
-4.834096	53.2%	-0.1143558
-4.834096	53.5	-0.1203006
-4.834096	54,	-0.1226866
-4.834096	543	-0.1249324
-4.834096	543,000	-0.1245631
-4.533066	5480	-0.4259496
-4.834096	55	-0.1246714
-4.834096	55%	-0.1225523
-4.834096	55,000	-0.1249324
-4.834096	56	-0.1246586
-4.356975	56%	-0.1219248
-4.834096	565	-0.1249324
-4.533066	58%	-0.1231214
-4.834096	580	-0.1249324
-4.834096	59%	-0.1248369
-4.834096	59,	-0.1231533
-4.356975	6	-0.2961088
-4.232036	6%	-0.1101362
-3.792704	6,	-0.1637338
-4.834096	6,399,365,	-0.1145122
-4.834096	6,600,000	-0.1249324
-4.834096	6,622,517	-0.1245631
-4.834096	6,646,243,	-0.1249324
-4.834096	6,750,000	-0.1245631
-4.834096	6-pole	-0.1143558
-4.834096	6-port	-0.1249324
-4.232036	6.1	-0.2495656
-4.834096	6.1%	-0.1225523
-4.834096	6.2%	-0.124544
-4.834096	6.4%	-0.1143558
-4.533066	6.518%	-0.4259178
-4.834096	6.6%	-0.1143558
-4.055945	60	-0.121944
-4.834096	60%	-0.1225267
-4.834096	60,000	-0.1249005
-4.232036	600	-0.249852
-4.834096	600,000-metric-ton	-0.1249324
-4.834096	601	-0.1249324
-4.834096	60611,United	-0.1248687
-4.533066	61	-0.4256632
-4.834096	62.1%	-0.1143558
-4.834096	62.2	-0.1248242
-4.834096	63	-0.1246332
-4.533066	63%	-0.1139513
-4.834096	634,000	-0.1243975
-4.356975	64	-0.1245759
-4.834096	64-port	-0.1246905
-4.533066	64-port,	-0.1247605
-4.834096	640,000	-0.1249069
-4.232036	65	-0.2391315
-4.834096	65%	-0.1249324
-4.834096	65,	-0.1249324
-4.834096	655	-0.1249324
-4.834096	66%	-0.1143558
-4.834096	67	-0.1246332
-4.834096	67%	-0.1225523
-4.834096	676,000	-0.122904
-4.834096	68	-0.1246332
-4.834096	68-718	-0.124926
-4.834096	69%	-0.1243338
-4.533066	6;	-0.1035419
-3.931006	7	-0.5503025
-4.135127	7%	-0.2063346
-4.834096	7%.	-0.1196054
-4.834096	7%."	-0.1196054
-3.834096	7,	-0.2792804
-4.834096	7,740,757	-0.1249324
-4.834096	7.1	-0.1249324
-4.834096	7.4%	-0.12129
-4.834096	7.6	-0.1246586
-4.834096	7.7%	-0.1225523
-4.834096	7.750%	-0.1249324
-4.834096	7.9%	-0.1143558
-4.356975	7/8%	-0.6018818
-4.834096	70	-0.1246586
-4.232036	70%	-0.2226257
-4.834096	70%.Additionally,	-0.1035553
-4.834096	700,000	-0.124926
-4.834096	70112,	-0.1246777
-4.533066	711	-0.4259242
-4.533066	72.43%	-0.4257778
-4.834096	73	-0.1246332
-4.834096	73%	-0.1143558
-4.834096	73.1%	-0.1143558
-4.356975	75	-0.2985988
-3.931006	75%	-1.027838
-4.834096	7500	-0.1248942
-4.834096	755	-0.1145122
-4.834096	76,000	-0.1249133
-4.834096	77%	-0.1087382
-4.834096	775	-0.1203006
-4.834096	78	-0.124926
-4.533066	79	-0.1246268
-4.834096	79%	-0.1243338
-4.232036	8	-0.2491769
-4.356975	8%	-0.1157294
-3.931006	8,	-0.1243147
-4.834096	8,000,000	-0.124926
-4.834096	8,000,000.On	-0.1246013
-4.533066	8-Pole	-0.4259496
-4.834096	8-pole	-0.1248942
-4.834096	8-port,	-0.1248687
-4.533066	80	-0.1246268
-4.356975	80%	-0.6018691
-4.834096	80%.Atheros'	-0.1249324
-4.834096	80.1%	-0.1087382
-4.533066	8000	-0.4259242
-4.834096	800mAh	-0.1249069
-4.533066	802.11	-0.1247669
-4.834096	802.11a	-0.1248878
-4.834096	802.11a/g	-0.1248051
-4.834096	802.11b/g	-0.124926
-4.232036	802.11g	-0.2391511
-3.988998	802.11n	-0.1805325
-4.834096	802.11n-chipset,	-0.1035553
-4.834096	802.16-2004	-0.1248369
-4.834096	81	-0.1246332
-4.834096	83	-0.1246332
-4.834096	84	-0.1249133
-4.834096	85	-0.1217838
-4.834096	86%	-0.1243338
-4.834096	87	-0.1246332
-4.834096	88.9%	-0.1143558
-4.834096	885	-0.1249324
-4.834096	89	-0.1246332
-4.834096	8:00	-0.1249324
-4.135127	8:30,	-0.5226751
-4.834096	9	-0.1246586
-4.055945	9%	-0.2672933
-4.834096	9%,	-0.1249133
-4.834096	9%.In	-0.1248751
-3.988998	9,	-0.1911404
-4.834096	9,000,000	-0.1035553
-4.533066	9.3	-0.4256887
-4.834096	9.8%	-0.1249133
-4.834096	90%	-0.1087382
-4.533066	90-nanometer	-0.1246268
-4.533066	900,000	-0.4255931
-4.834096	900,831	-0.1248051
-4.834096	91%	-0.1225523
-4.533066	92	-0.4256632
-4.834096	92.1%	-0.1243338
-4.834096	92037,	-0.1246777
-4.834096	94%	-0.1225523
-4.834096	95	-0.1249324
-4.834096	95.8	-0.1246586
-4.533066	95054,United	-0.4258987
-4.834096	95110,United	-0.1248687
-4.834096	97	-0.1246332
-4.834096	9700	-0.1248942
-4.834096	99	-0.1249133
-4.834096	99%	-0.1243338
-4.834096	99.5%	-0.1143558
-4.834096	99.99%	-0.1087382
-3.008021	;	-0.9954645
-1.913451	</s>
-99	<s>	-0.8811185
-4.834096	?1,264	-0.1248433
-4.834096	?1.162-27	-0.1249324
-4.533066	?1.9	-0.1245886
-4.533066	?11.8	-0.4213306
-4.834096	?175	-0.1203006
-4.834096	?205	-0.1203006
-4.834096	?656	-0.1249196
-4.533066	?total	-0.4253319
-3.931006	A	-0.1696661
-4.834096	A&E	-0.1249324
-4.834096	A,	-0.1249196
-4.055945	A.	-0.1248496
-4.834096	A.G.	-0.1196054
-4.834096	A.G.,	-0.1235301
-4.834096	A.G.He	-0.1248433
-4.834096	A/D	-0.1249324
-4.834096	A/S	-0.1145122
-4.834096	AAG).The	-0.1248496
-4.232036	AB	-0.2412462
-4.834096	ACTIQ	-0.1248242
-4.533066	ACTIQ(R)	-0.425956
-4.834096	ACTIQ(R).Cephalon	-0.1209369
-4.834096	ACTS	-0.1249324
-4.834096	ADHD	-0.1249324
-4.533066	ADM100	-0.1249133
-4.533066	ADS	-0.1187607
-4.834096	ADVP)	-0.1226227
-2.834096	AES	-0.7621552
-4.232036	AES's	-0.1244548
-4.356975	AES)	-0.2904666
-4.533066	AES,	-0.1185412
-4.834096	AES.As	-0.1249324
-4.834096	AG	-0.1231533
-4.834096	AIDS	-0.1249133
-3.265895	AK	-1.215599
-4.834096	AK's	-0.124926
-4.533066	AK-ISG	-0.4255613
-4.834096	AM.Atheros	-0.1236067
-4.834096	AM.Concho	-0.1248815
-4.834096	AM.Health	-0.1246714
-4.533066	AM.Illumina	-0.4219669
-4.135127	AM.Venue:	-0.1244102
-4.356975	AMR	-0.1143232
-4.834096	AMRs	-0.1248051
-4.834096	AOL	-0.1247796
-4.834096	AOL.	-0.1196054
-4.834096	AOL.McKinley	-0.1232811
-4.533066	AP/ODA	-0.425956
-4.356975	APN	-0.1227762
-4.834096	APN.News	-0.1229808
-4.834096	APN.Tony	-0.1249324
-4.533066	AR1900	-0.1247733
-4.834096	AR1900,	-0.1231533
-4.834096	AR5005G	-0.1249324
-4.533066	AR5008AP-3NX2	-0.1249133
-4.834096	AR5008AP-3NX2,	-0.1243911
-4.135127	AR6002	-0.1246268
-4.834096	AR7100	-0.1248687
-4.834096	AR7161	-0.122936
-4.533066	AR7161.The	-0.1248942
-4.533066	AR8216	-0.1248496
-4.834096	ASIC	-0.1246841
-4.834096	ASR	-0.122936
-4.834096	ASR.The	-0.1249324
-4.533066	ASUSTek	-0.425956
-4.834096	ASX-listed	-0.1249005
-4.232036	ATHR)	-0.7268524
-4.834096	ATPG	-0.1249324
-4.055945	AUD	-0.3009918
-4.533066	AVR	-0.124926
-4.834096	AVY;	-0.1249324
-4.533066	Abele	-0.1249196
-4.834096	Abele,	-0.1247478
-4.533066	Aberdeen	-0.124856
-4.232036	Abramson	-0.2395683
-4.356975	Academy	-0.5858595
-4.834096	Academy's	-0.1249324
-4.533066	Accelerates	-0.4259496
-4.135127	Access	-0.1247732
-4.834096	Accountability	-0.1248942
-4.834096	Accounting	-0.1249324
-4.834096	Achieve	-0.124926
-4.834096	Acquired.Hansen	-0.1246141
-4.834096	Acquisitions	-0.1249069
-4.834096	Acquisitions.Discovery	-0.1248433
-4.834096	Acquisitions.Dolby	-0.124544
-4.533066	Acquisitions.Eaton	-0.4258669
-4.834096	Acquisitions.Illumina	-0.1209369
-4.834096	Acquisitions.News	-0.1229808
-4.834096	Across	-0.1249324
-3.988998	Act	-0.465867
-4.834096	Act').The	-0.1244676
-4.834096	Act."	-0.1196054
-4.834096	Act.Carl	-0.1249324
-4.834096	Act.Tribune	-0.1246459
-4.232036	Action	-0.4259178
-4.232036	ActiveParts	-0.2498393
-4.834096	Acuity	-0.1249324
-4.834096	Adapters,	-0.1035553
-4.135127	Additional	-0.1239385
-4.834096	Address	-0.1249069
-4.356975	Adimos	-0.1143363
-4.834096	Adimos'	-0.1249196
-4.834096	Adjusted	-0.1249133
-4.834096	Adler,	-0.1249324
-4.232036	Administration	-0.1143297
-4.834096	Administrator	-0.1163205
-4.533066	Adopts	-0.1238429
-4.055945	Advance	-0.4259178
-4.834096	AdvancePCS;	-0.1248242
-3.931006	Advanced	-0.249642
-4.834096	Advisers.The	-0.1248114
-4.834096	Advises	-0.1248815
-4.232036	Advisors,	-0.2443766
-4.356975	Advisory	-0.1241107
-4.834096	Advokatfirman	-0.1249324
-4.834096	Aes	-0.1241872
-4.232036	Affymetrix	-0.1184572
-4.834096	Affymetrix'	-0.1249133
-4.834096	Afghanistan	-0.1145122
-4.834096	Afghanistan.DynCorp	-0.1245185
-4.533066	Africa	-0.1056825
-4.533066	Africa,	-0.1185412
-4.834096	Africa.	-0.1196054
-4.834096	Africa.Starbucks	-0.1229808
-4.834096	Africa.The	-0.1249069
-4.533066	African	-0.1247351
-4.834096	After	-0.1249005
-3.879854	Against	-0.232681
-4.834096	Aged	-0.1249324
-4.834096	Agenda:	-0.1248178
-4.055945	Agreement	-0.4131501
-4.834096	Agreement,	-0.1249196
-4.834096	Agreement.Basell	-0.1249133
-4.834096	Agreement.Concho	-0.1248624
-4.834096	Agreement.Illumina	-0.1209369
-4.834096	Agreement.On	-0.1245504
-4.135127	Agreements	-0.3359436
-4.834096	Airline	-0.1249324
-4.834096	Alacritus	-0.124926
-4.533066	Alan	-0.425886
-4.834096	Albany,	-0.1249324
-4.356975	Albrecht	-0.1249133
-4.834096	Alcohol	-0.1249324
-4.834096	Alderwoods	-0.124544
-4.834096	Alex	-0.1249324
-4.533066	Alfa	-0.1245313
-4.533066	Alfa's	-0.1249133
-4.834096	Alger	-0.1225267
-4.834096	Ali	-0.1249196
-4.533066	Alkermes	-0.1208919
-4.834096	Alkermes,	-0.1244357
-4.834096	Allegro	-0.1243529
-4.834096	Allegro(R)	-0.1243529
-4.834096	Allen	-0.1245249
-4.232036	Alliance	-0.1190768
-4.834096	Allied	-0.1249324
-4.834096	Alt-A	-0.1145122
-4.533066	Alta	-0.4258606
-4.834096	Alternatives.Citizens	-0.1236067
-4.135127	Altschul	-0.5227515
-4.533066	Alzheimer's	-0.1248624
-4.533066	AmLaw	-0.4258796
-4.533066	Amazon	-0.1249196
-4.834096	Amazon's	-0.124926
-4.533066	Amazon.com	-0.1209304
-4.232036	Ambit	-0.4252746
-4.834096	Ame	-0.1196054
-3.931006	Amended	-0.7165461
-3.931006	Amendment	-0.5398287
-4.356975	Amendment,	-0.2796332
-4.135127	Amendments	-0.8133258
-4.834096	Amends	-0.1249005
-3.834096	America	-0.3426122
-4.135127	America,	-0.2195455
-4.356975	America.	-0.5967267
-4.834096	America.Cephalon	-0.1209369
-4.834096	America.Excluding	-0.1035553
-4.834096	America.Poulsen	-0.1248878
-3.754915	American	-0.3564691
-4.356975	Americas,	-0.6015316
-4.834096	Amsterdam.SIM2	-0.1248433
-4.533066	An	-0.425956
-4.834096	Analog	-0.1249324
-4.356975	Analysis	-0.1229872
-4.834096	Analysis.Illumina	-0.1209369
-4.834096	Analyst	-0.1249324
-4.834096	Analyst/Investor	-0.1249324
-3.988998	Analyzer	-0.3573482
-4.533066	Analyzer,	-0.1249069
-4.834096	Analyzers,	-0.1249005
-4.834096	Analyzers.Illumina	-0.1209369
-4.834096	Analyzers.The	-0.1247541
-4.834096	And	-0.1249133
-4.834096	Andres	-0.1249324
-4.834096	Andrews	-0.1245249
-4.834096	Angela	-0.1249324
-4.356975	Angeles	-0.3009855
-4.834096	Angeles,	-0.1247923
-4.232036	Anheuser-Busch	-0.2458371
-4.834096	Animal	-0.1249324
-4.834096	Anna	-0.1249324
-4.232036	Announce	-0.124856
-3.555343	Announced	-1.102471
-3.055945	Announces	-0.3063336
-3.265895	Annual	-0.8473292
-4.533066	Annuity	-0.4259115
-4.834096	Anonima	-0.124926
-4.834096	Another	-0.1248942
-4.834096	Anritsu	-0.1247541
-4.834096	Anticipates	-0.1247796
-4.533066	Antitrust	-0.1248878
-4.232036	Apax	-0.7268906
-4.834096	Apnea,	-0.1249324
-4.834096	Appeals	-0.1248496
-4.135127	Application	-0.2217914
-4.834096	Applications	-0.1163205
-4.834096	Applications.Brocade	-0.1236067
-4.055945	Applied	-0.4257014
-4.533066	Appointment	-0.4097682
-4.834096	Appointments.KeyCorp	-0.1226227
-3.687968	Appoints	-0.1568815
-4.533066	Approval	-0.09774789
-4.533066	Approves	-0.4259369
-4.533066	Approximately	-0.1249196
-3.658005	Apr	-0.3002785
-4.232036	Apr-11-2010	-0.7267059
-4.834096	Apr-12-2010,	-0.1249324
-4.834096	Apr-14-2010.Newspaper	-0.1249069
-4.834096	Apr-14-2010.The	-0.1244102
-4.533066	Apr-14-2010.Venue:	-0.425956
-4.834096	Apr-18-2006.Illumina	-0.1244357
-4.533066	Apr-19-2011	-0.425956
-4.834096	Apr-21-2009.AK	-0.1245313
-4.834096	Apr-22-2008.Molex	-0.1244357
-4.834096	Apr-23-2009.Atheros	-0.1236067
-4.834096	Apr-24-2008.Kirby	-0.1247541
-4.834096	Apr-27-2005.Illumina	-0.1244357
-4.834096	Apr-28-2009.Fidelity	-0.1245504
-3.014552	April	-0.5791638
-4.834096	April,	-0.1249133
-4.834096	April.	-0.1196054
-4.356975	Apron	-0.6020409
-4.834096	Arabia	-0.1248496
-4.834096	Arabian	-0.1248496
-4.834096	ArcelorMittal	-0.1249133
-3.658005	Area	-0.69876
-4.533066	Argentina	-0.1173448
-4.356975	Argus-Courier	-0.5914771
-4.533066	Argus-Courier;	-0.4257905
-4.533066	Arizona	-0.1249133
-4.533066	Arizona,	-0.1226355
-4.834096	Arkansas.The	-0.124735
-4.834096	Arlington,	-0.1249324
-4.834096	Arlington-based	-0.1248496
-4.533066	Army	-0.1106166
-4.834096	Army.Fluor	-0.1237663
-4.834096	Army.Fluor,	-0.1243911
-4.834096	Army.The	-0.1249324
-4.135127	Array	-0.1086853
-4.834096	Arrays	-0.1249196
-4.834096	Art,	-0.1249324
-4.232036	Arthur	-0.4258669
-4.232036	Article	-0.2494382
-4.232036	Articles	-0.7107982
-4.834096	As	-0.1249196
-4.232036	Asesoramiento	-0.4255422
-4.356975	Asia	-0.1139187
-4.834096	Asia,	-0.1243911
-4.834096	Asia-Pacific	-0.1249324
-4.533066	Assay	-0.116314
-4.834096	Assay,	-0.1247032
-4.834096	Assays	-0.1235365
-4.834096	Asset	-0.1248369
-4.834096	Assets.Discovery	-0.1236067
-4.834096	Assets.The	-0.1247796
-4.356975	Assets;	-0.6018818
-4.232036	Assist	-0.2473246
-4.834096	Assist"	-0.1249324
-4.834096	Associated	-0.1227698
-4.232036	Associates	-0.2458307
-4.232036	Associates,	-0.4258351
-4.135127	Association	-0.1948069
-4.834096	Association's	-0.1249324
-4.356975	Association,	-0.2987523
-4.533066	Astralloy	-0.1245249
-4.834096	At	-0.124926
-3.027916	Atheros	-0.676537
-3.687968	Atheros'	-0.1226994
-4.533066	Atheros,	-0.1248369
-4.834096	Atheros.ASUSTek	-0.1248051
-4.834096	Atlanta,	-0.1246714
-4.533066	Atlantic	-0.4259433
-4.533066	Attansic	-0.4257905
-4.533066	Audio	-0.1247414
-4.834096	Audio-processing	-0.1249324
-3.931006	Audit	-0.2379035
-4.834096	Auditorium	-0.1235365
-4.834096	Auditorium,	-0.1249324
-4.055945	Aug	-0.3008518
-4.533066	Aug-01	-0.4254594
-4.834096	Aug-01-2007.Dolby	-0.124544
-4.834096	Aug-01-2007.Starbucks	-0.1246586
-4.533066	Aug-06	-0.1231917
-4.834096	Aug-06-2008.Molex	-0.1244357
-4.834096	Aug-06-2009.Hansen	-0.1246141
-4.834096	Aug-10-2006.Service	-0.1229808
-4.834096	Aug-11-2008.Fluor	-0.1247541
-4.834096	Augmentation	-0.1249005
-3.491674	August	-0.2452206
-4.834096	Augusta,	-0.1249324
-4.533066	Auris	-0.1230191
-4.834096	Auris.In	-0.1248878
-4.834096	Austin.Salomon	-0.124926
-4.232036	Australia	-0.4232366
-4.834096	Australia's	-0.124786
-4.533066	Australia,	-0.1145057
-4.533066	Australian	-0.1224371
-4.834096	Austria	-0.1143558
-4.834096	Austria.Fluor	-0.1229808
-4.834096	Authority,	-0.12129
-4.834096	Authorizes	-0.1249069
-4.356975	Auto	-0.3009154
-4.834096	Auto-Dimming	-0.1249196
-4.834096	Automated	-0.1249324
-4.232036	Automatic	-0.4259242
-3.834096	Automation	-0.3418341
-4.533066	Automobile	-0.425956
-4.232036	Automotive	-0.7269542
-4.135127	Availability	-0.8077082
-4.533066	Available	-0.1187607
-4.834096	Avantome	-0.1249005
-4.232036	Avantome,	-0.7229969
-4.834096	Ave.),	-0.1244102
-4.232036	Avenue	-0.4096691
-4.232036	Avenue,	-0.2498329
-3.834096	Avery	-0.823826
-4.834096	Avoid	-0.1249324
-4.533066	Awarded	-0.1248369
-3.988998	B	-0.2702834
-4.834096	B-vitamins,	-0.1249324
-4.232036	B.	-0.1249005
-4.533066	B.V.	-0.4223199
-4.834096	B.V..	-0.1196054
-4.834096	BASE(TM)	-0.1247605
-4.834096	BASETM	-0.1249324
-4.834096	BASF-YPC	-0.1246459
-4.834096	BGI	-0.1248114
-4.834096	BGI's	-0.1249069
-4.533066	BIOCOM's	-0.4259115
-4.533066	BLDA	-0.1248815
-4.834096	BNP	-0.1249324
-4.834096	BSkyB.FT.com	-0.122904
-4.834096	BSkyB.The	-0.1245376
-4.834096	Backplane	-0.1248178
-4.834096	Backup	-0.1249196
-4.834096	Baghdad.	-0.1196054
-4.533066	Baker	-0.1245186
-4.834096	Bakery-Cafe	-0.1248496
-4.834096	Bakery-Cafes	-0.1187671
-4.834096	Bakke	-0.1247096
-4.834096	Balance	-0.124926
-4.533066	Banc	-0.4097682
-4.356975	BancBoston	-0.6020346
-4.533066	Bangladesh	-0.1145057
-4.834096	Bangladesh's	-0.1249324
-3.687968	Bank	-0.3922733
-4.533066	Bank,	-0.1243784
-4.834096	Banking	-0.1249324
-4.356975	Baquet	-0.2993596
-4.834096	Barcelona	-0.1145122
-4.834096	Barden	-0.1225523
-4.834096	Barney	-0.122936
-4.834096	Baron	-0.1249324
-4.834096	Baronne	-0.1248815
-3.988998	Barr	-0.1764439
-4.533066	Barratt,	-0.1245186
-4.834096	Bartlett	-0.124786
-4.834096	Based	-0.12129
-4.533066	Basell	-0.1225011
-4.834096	Basell.	-0.1196054
-4.834096	Basin	-0.1087382
-4.834096	Bassett	-0.1247796
-4.533066	Bayway	-0.1248687
-4.533066	Bead	-0.124926
-4.135127	BeadArray	-0.1245249
-4.834096	BeadArray(TM)	-0.1145122
-4.834096	BeadArray(TM),	-0.1249324
-4.834096	BeadArray?technology	-0.1143558
-3.720153	BeadChip	-0.2654232
-4.135127	BeadChip,	-0.1934164
-4.834096	BeadChip.	-0.1196054
-4.232036	BeadChip.Illumina	-0.7229969
-4.834096	BeadChip.Illumina's	-0.1249069
-4.834096	BeadChip.The	-0.1238747
-4.834096	BeadChip.This	-0.124856
-4.533066	BeadChips	-0.1144992
-4.834096	BeadChips.Illumina	-0.1209369
-4.834096	BeadChips.These	-0.124926
-4.356975	BeadLab	-0.1120152
-4.834096	BeadLab,	-0.1185541
-4.356975	BeadStation	-0.1249197
-4.834096	BeadStudio	-0.1249324
-4.834096	BeadXpress(R),	-0.1145122
-4.834096	Beadchip,	-0.1249069
-4.834096	Beadchips.Illumina	-0.1209369
-4.356975	Beal	-0.1209241
-4.834096	Beam	-0.1249324
-4.834096	Beckman	-0.1249324
-4.834096	Become	-0.1247096
-4.834096	Behalf	-0.1087382
-4.533066	Beijing	-0.4259433
-4.834096	Beijing,	-0.1249324
-4.834096	Being	-0.1249324
-4.356975	Bell	-0.6020409
-4.533066	Benaroya	-0.425956
-4.834096	Benchtop	-0.1248369
-4.533066	Benefit	-0.1248178
-4.533066	Berens	-0.425816
-4.834096	Bermant	-0.1245249
-4.533066	Beverage	-0.1248878
-4.834096	Beyond	-0.1249133
-4.834096	Bid	-0.1248687
-4.834096	Bid.News	-0.1248751
-3.754915	Big	-1.20398
-4.356975	Bill	-0.1249197
-4.356975	Billion	-0.1249197
-4.356975	BioSciences	-0.1200047
-4.834096	Biochemistry	-0.1249324
-4.834096	Biochemistry.Illumina	-0.1209369
-4.834096	Biomedical	-0.1248942
-4.834096	Biopharmaceuticals,	-0.1249324
-4.232036	Biosciences	-0.224721
-4.834096	Biosciences,	-0.1209369
-4.834096	Biosite	-0.1244357
-4.834096	Biosite,	-0.1248433
-4.834096	Biosystems.	-0.1196054
-4.356975	Biotechnology	-0.3009027
-4.834096	Birck	-0.1226866
-4.834096	Bird	-0.1087382
-4.834096	Birthday	-0.1249324
-4.533066	Bjarne	-0.4259496
-4.356975	Black	-0.6020409
-4.834096	Blade,	-0.1247478
-3.720153	BladeSystem	-0.333898
-4.834096	Bladesystem	-0.1249324
-4.834096	Blake	-0.1244357
-4.834096	Blend	-0.1231533
-4.834096	Blend(TM)	-0.1187671
-4.533066	Blend(TM),	-0.1232939
-4.834096	Blend,	-0.1185541
-4.834096	Blend.Starbucks	-0.1229808
-4.834096	Blood	-0.1249324
-4.533066	Blue	-0.124926
-2.964864	Board	-0.8315247
-4.834096	Board,	-0.1232811
-4.834096	Board.AK	-0.1245313
-4.834096	Board.In	-0.1248751
-4.834096	Board.Lip-Bu	-0.1249324
-4.834096	Board.The	-0.1243019
-4.356975	Boeckmann	-0.2963533
-4.834096	Boeckmann,	-0.124856
-4.135127	BofA	-0.8238578
-4.834096	Boise	-0.1248751
-4.834096	Boise,	-0.1249324
-4.356975	Bolton	-0.6016653
-4.834096	Bonus	-0.1249133
-4.834096	Book	-0.1249324
-4.834096	Boost	-0.1246905
-3.931006	Boston	-0.1802754
-4.135127	Boston,	-0.3427599
-4.834096	Botts	-0.124735
-4.834096	Boulevard	-0.1145122
-4.834096	Boulevard,	-0.124926
-4.834096	Brad	-0.1248687
-4.834096	BradConnectivity	-0.1249196
-4.533066	BradConnectivity(TM)	-0.4259433
-4.834096	Brand	-0.1145122
-4.356975	Brasil	-0.3010046
-4.533066	Brazilian	-0.1248624
-3.328946	Bread	-0.6280029
-4.834096	Bread's	-0.123428
-4.834096	Breakfast,	-0.1249324
-4.834096	Breaks	-0.1249005
-4.834096	Breakthrough	-0.1249196
-4.135127	Brew	-0.1100572
-4.834096	BrightSide	-0.1248496
-4.834096	Bring	-0.1248942
-4.834096	Brings	-0.1244102
-4.232036	Brinzo	-0.1107284
-4.356975	British	-0.1248178
-4.135127	Broad	-0.3466856
-4.834096	Broad,	-0.1249324
-4.834096	Broadband	-0.1249196
-4.834096	Broadcast.Dolby	-0.124544
-2.744191	Brocade	-0.4256511
-4.356975	Brocade's	-0.1248051
-4.834096	Brocade,	-0.1249196
-4.533066	Brothers	-0.1209176
-4.834096	Brothers,	-0.1145122
-4.834096	Brothers.	-0.1196054
-4.834096	Bs.2,547	-0.124926
-4.834096	Bskyb	-0.1249324
-4.834096	Budget	-0.1225523
-4.834096	Bugs!,	-0.1235301
-4.533066	Build	-0.1185476
-4.533066	Builders	-0.1225843
-4.834096	Builders,	-0.124926
-4.834096	Building	-0.1249133
-4.533066	Bulgaria	-0.1155669
-4.834096	Bulgaria.Starbucks	-0.1229808
-4.834096	Bureau	-0.1249324
-4.834096	Burnaby,	-0.124926
-4.834096	Bush	-0.1249324
-3.687968	Business	-0.1461817
-4.834096	Business.In	-0.1248114
-4.834096	Business.Starbucks	-0.1229808
-4.834096	Butler,	-0.124926
-3.754915	Buyback	-0.5904782
-4.834096	Buyback.Gentex	-0.1229808
-4.533066	Buyback.On	-0.425625
-3.386938	Buyer(s):	-0.3652512
-4.834096	Buys.Fluor	-0.1229808
-4.834096	Buys.Molex	-0.1209369
-4.834096	Buys.Service	-0.1229808
-4.834096	By	-0.1248178
-4.834096	By-laws	-0.1249324
-4.533066	By-laws,	-0.1241235
-4.533066	By-laws.Section	-0.1248624
-4.232036	Bylaws	-0.2334259
-4.533066	Bylaws,	-0.4257014
-4.356975	Bylaws.On	-0.300253
-4.834096	C-Class.Brocade	-0.1236067
-4.533066	C4	-0.123083
-4.834096	C4,	-0.1185541
-4.232036	CA	-0.249852
-4.834096	CAB.Built	-0.1163205
-4.356975	CANTV	-0.1206349
-4.834096	CANTVs	-0.1248051
-4.834096	CANTV's	-0.1248305
-4.834096	CARe	-0.1249133
-4.834096	CARe)	-0.1249324
-4.834096	CASH	-0.1249324
-4.834096	CATCH	-0.1145122
-4.834096	CDMA2000(R)	-0.124926
-4.356975	CDN)	-0.3007053
-4.834096	CDN).Under	-0.1035553
-4.834096	CE	-0.1249324
-4.834096	CEE	-0.1249005
-4.834096	CEE:	-0.1244102
-3.792704	CEO	-0.3584823
-4.834096	CEO.	-0.1196054
-4.834096	CEO.Starbucks	-0.1229808
-4.356975	CEPH)	-0.2986116
-4.834096	CER)	-0.1247032
-4.834096	CFFN	-0.1243402
-4.834096	CFO	-0.1087382
-4.834096	CFR	-0.1249324
-4.834096	CGEMS	-0.1249324
-4.834096	CIB	-0.122936
-4.834096	CIDR's	-0.1249069
-4.135127	CILCORP	-0.2151346
-4.834096	CILCORP's	-0.1249324
-4.834096	CIO,	-0.1249133
-4.232036	CIS	-0.2391706
-4.356975	CMOS	-0.3007181
-4.834096	CNA	-0.1145122
-4.834096	CNA.The	-0.1241553
-4.533066	CNAs	-0.1217774
-4.533066	CNV	-0.1247733
-4.533066	COO	-0.1087118
-4.834096	COT	-0.1249324
-4.533066	CPF-enabled	-0.1243338
-4.356975	CSPro	-0.3009855
-4.834096	CSProTM	-0.1249005
-4.356975	CTC	-0.3009473
-4.834096	CTC."We	-0.1247032
-4.834096	CXO)	-0.1226227
-4.834096	CXS	-0.1249196
-4.533066	CXS)	-0.4235823
-4.834096	Ca	-0.1196054
-2.884706	Cadence	-0.448467
-4.533066	Cadence's	-0.1244102
-3.687968	Cadence(R)	-0.2082171
-4.834096	Cadence.This	-0.1248369
-4.834096	Cadence/MatrixOne	-0.1249196
-4.834096	Cadillac	-0.124926
-4.834096	Cajamarca.Fluor	-0.1225267
-4.834096	Cake	-0.1249324
-4.834096	Cake,	-0.1249324
-3.792704	California	-0.3175012
-4.533066	California's	-0.1249133
-3.931006	California,	-0.2490048
-4.533066	California.	-0.4206354
-4.834096	California.Panera	-0.124735
-4.834096	California.The	-0.1248751
-4.356975	Call	-0.1031942
-2.825496	Call,	-0.2873514
-4.834096	Call.Alkermes,	-0.1244357
-3.754915	Call.Atheros	-1.202788
-4.055945	Call.Brocade	-0.901758
-4.533066	Call.Cadence	-0.4253829
-4.834096	Call.Discovery	-0.1248433
-4.533066	Call.Fidelity	-0.4255804
-4.533066	Call.Fluor	-0.4247963
-4.834096	Call.Harsco	-0.1229808
-4.834096	Call.Health	-0.1246714
-4.834096	Call.Illumina	-0.1209369
-4.533066	Call.Kirby	-0.4247963
-3.931006	Call.Molex	-1.024027
-4.533066	Call.Phillips-Van	-0.4256632
-4.533066	Call.Service	-0.4240108
-4.533066	Call.The	-0.4253319
-3.658005	Call.To	-0.823495
-3.190644	Calls	-1.763058
-4.356975	Calvin	-0.3010109
-4.834096	Camberley,	-0.1249324
-4.356975	Camera	-0.3009918
-4.834096	Cameron	-0.1249324
-4.834096	Camp	-0.1187671
-4.533066	Canada	-0.1143493
-4.834096	Canada.	-0.1196054
-4.834096	Canada.The	-0.124595
-4.834096	Canadian	-0.1145122
-4.834096	Cancelled	-0.1247605
-4.055945	Cancer	-0.1247924
-4.834096	Candidate-gene	-0.1249069
-4.834096	Canyon	-0.124926
-4.533066	Capabilities	-0.1055228
-4.834096	Capabilities.Brocade	-0.1236067
-4.834096	Capacity	-0.1245122
-4.834096	Capacity.Brocade	-0.1236067
-3.754915	Capital	-0.288984
-4.232036	Capital,	-0.4230509
-4.834096	Capital.Paul	-0.1249324
-4.834096	Capital.Wilson	-0.124926
-4.232036	Capitol	-0.7269288
-4.834096	Cappuccino,	-0.1249133
-4.533066	Capture	-0.4259433
-4.232036	Card	-0.1246905
-4.834096	Card."Starbucks	-0.1248433
-4.834096	Card.Designed	-0.1143558
-4.834096	Cards	-0.1145122
-4.533066	Care	-0.4259178
-4.834096	Carlton	-0.1249196
-4.533066	Carlyle	-0.1187091
-4.834096	Cartagena,	-0.1249324
-4.533066	Carter	-0.1230383
-3.879854	Cash	-0.7780048
-4.533066	Caspian	-0.1248942
-4.834096	Casualty	-0.1248751
-4.834096	Category.Starbucks	-0.1248433
-4.533066	Cathedral	-0.1248878
-4.533066	Celestry	-0.4253829
-4.533066	Celestry's	-0.1246778
-4.834096	Celestry,	-0.1232811
-4.834096	CellNet	-0.1248687
-4.834096	Cellular	-0.124926
-4.834096	Cemeteries	-0.1187671
-4.356975	Centennial	-0.3008963
-4.834096	Centennial.	-0.1196054
-3.491674	Center	-0.2283616
-4.834096	Center's	-0.1249005
-4.533066	Center,	-0.1035085
-4.533066	Center.	-0.4206354
-4.834096	Center.Big	-0.1247987
-4.834096	Center.Brocade	-0.1236067
-4.834096	Center.Lundberg,	-0.1249196
-4.834096	Centerpoint	-0.1246841
-3.931006	Central	-0.4257714
-4.834096	Centralize	-0.1248178
-4.533066	Centre	-0.1081896
-4.834096	Centre.A	-0.1246077
-4.834096	Centre.Fluor	-0.1237663
-4.834096	Centre.Starbucks	-0.1229808
-3.101702	Cephalon	-0.4319777
-4.356975	Cephalon,	-0.1208791
-4.834096	Cephalon.	-0.1196054
-4.834096	Cephalon.Cephalon	-0.1246268
-4.834096	Cephalon.PsychoGenics	-0.1209369
-4.834096	Cephalon.The	-0.124735
-4.834096	Certain	-0.124372
-4.232036	Certificate	-0.7107982
-4.533066	Certified	-0.4256377
-3.720153	Chairman	-0.6080091
-4.356975	Chairman,	-0.1029332
-4.533066	Change(s)	-0.4259496
-4.834096	Changed	-0.1231916
-4.533066	Changes	-0.1183345
-4.834096	Changes.Atheros	-0.1236067
-4.834096	Changes.Discovery	-0.1236067
-4.834096	Changes.Fluor	-0.1237663
-4.834096	Changes.Health	-0.1246714
-4.834096	Changes.Molex	-0.1209369
-4.834096	Changes.The	-0.1244102
-4.834096	Changes.Thomas	-0.1249324
-3.834096	Channel	-0.2790446
-4.356975	Channel,	-0.1224755
-4.834096	Channel.	-0.1196054
-4.834096	Channels	-0.1249324
-4.834096	Channels,	-0.1249005
-4.356975	Chapin	-0.2963533
-4.232036	Charges	-0.7183805
-4.834096	Charges."Atheros	-0.1236067
-4.834096	Charges."Cadence	-0.1243529
-4.834096	Charges."Concho	-0.1248624
-4.834096	Charges."Health	-0.1246714
-4.834096	Charges."Phillips-Van	-0.1246332
-4.834096	Charges.Concho	-0.1248624
-4.533066	Charges.Principal	-0.425504
-4.834096	Charretour	-0.1235365
-3.988998	Chase	-0.3569503
-4.055945	ChemGenex	-0.3008963
-4.834096	ChemGenex.The	-0.1247605
-3.792704	Chemical	-0.6890765
-4.533066	Chicago,	-0.124926
-4.834096	Chicago.	-0.1196054
-4.834096	Chicken	-0.1249324
-3.277794	Chief	-0.6385357
-4.834096	Chief.	-0.1196054
-4.834096	Chile	-0.1248751
-4.533066	China	-0.4155422
-4.834096	China,	-0.1035553
-4.834096	China.Atheros	-0.1236067
-4.834096	China.Fluor	-0.1229808
-4.834096	China.John	-0.1249324
-4.834096	China.Starbucks	-0.1237663
-4.834096	China.Startup	-0.1087382
-4.834096	China.The	-0.1245313
-4.834096	China.UTStarcom	-0.1232811
-4.533066	Chinese	-0.124926
-4.834096	Chino.Officials	-0.1227698
-4.356975	Chip	-0.1249197
-4.834096	Chip,	-0.124926
-4.834096	Chips.These	-0.1246714
-4.834096	Chocolate	-0.1248815
-4.533066	Chooses	-0.10296
-4.834096	Chris	-0.1249324
-4.533066	Christopher	-0.4259178
-4.135127	Cinema	-0.2215241
-4.533066	Circuit	-0.4253829
-4.834096	Circulation-media	-0.1249324
-3.834096	Citizens	-0.822481
-4.533066	Citroen	-0.1249133
-4.834096	Citroen.The	-0.1238747
-3.988998	City	-0.1080573
-4.834096	City.But	-0.1249005
-4.834096	City.The	-0.1249069
-4.834096	Civil	-0.1249324
-4.834096	Cl	-0.1248878
-4.232036	Clara,	-0.2497884
-3.511877	Class	-0.446827
-4.834096	Clean	-0.1249324
-4.834096	Cleveland	-0.1249196
-4.834096	Cleveland,	-0.1145122
-4.533066	Cleveland-Cliffs	-0.1185283
-4.834096	Cleveland.Employees	-0.1242446
-4.834096	Cleveland.He	-0.124856
-4.834096	Clifton	-0.124926
-4.834096	Climb	-0.1248178
-4.834096	Clinical	-0.1249324
-4.834096	Close.Starbucks	-0.1229808
-3.834096	Closed	-1.124761
-4.834096	Closures."Starbucks	-0.1229808
-4.135127	Cluett	-0.5227832
-4.533066	Co	-0.1195152
