
\data\
ngram 1=11762

\1-grams:
-4.834096	0.17
-4.834096	10
-4.834096	21
-4.834096	253
-4.834096	279
-4.834096	290
-4.834096	300
-4.834096	4.48
-4.834096	On
-4.834096	Our
-4.834096	There
-4.356975	We
-4.834096	that
-4.834096	""new""
-4.834096	"Advance
-4.834096	"Auto
-4.834096	"Cadence
-4.533066	"Cephalon
-4.533066	"Concho
-4.834096	"Fidelity
-4.834096	"Fluor
-4.834096	"Health
-4.834096	"Illumina
-4.834096	"International
-4.834096	"KeyCorp
-4.834096	"Kimberly-Clark
-4.834096	"Macquarie
-4.834096	"Massey
-4.834096	"No."
-4.834096	"Oxford
-4.834096	"Pulitzer
-4.834096	"Tela
-4.834096	"The
-4.834096	"Thuris
-4.834096	"reverse,"
-4.834096	$.05
-4.834096	$.37
-4.834096	$.39
-4.834096	$.40
-4.834096	$.45
-4.834096	$.47
-4.834096	$.47,
-4.834096	$.52
-4.834096	$0
-4.356975	$0.00
-3.879854	$0.01
-4.834096	$0.01."
-4.232036	$0.02
-4.834096	$0.02.
-4.834096	$0.0250
-3.754915	$0.03
-4.834096	$0.0375
-3.988998	$0.04
-3.658005	$0.05
-4.834096	$0.05,
-3.879854	$0.06
-3.931006	$0.07
-4.834096	$0.07.The
-3.931006	$0.08
-4.055945	$0.09
-3.792704	$0.10
-3.879854	$0.11
-3.658005	$0.12
-4.356975	$0.125
-3.879854	$0.13
-3.720153	$0.14
-4.834096	$0.14.
-3.879854	$0.15
-3.578824	$0.16
-4.533066	$0.16)
-3.834096	$0.17
-4.055945	$0.18
-4.135127	$0.19
-4.834096	$0.195
-4.834096	$0.2
-4.232036	$0.20
-4.834096	$0.20.The
-3.834096	$0.21
-3.834096	$0.22
-4.232036	$0.23
-3.834096	$0.24
-3.834096	$0.25
-4.232036	$0.26
-4.135127	$0.27
-3.988998	$0.28
-3.754915	$0.29
-4.834096	$0.3
-4.055945	$0.30
-4.533066	$0.30,
-4.834096	$0.30.GAAP
-3.988998	$0.31
-4.834096	$0.32
-4.834096	$0.325
-4.834096	$0.33
-4.135127	$0.34
-4.834096	$0.345
-4.533066	$0.35
-4.834096	$0.35.The
-4.055945	$0.36
-4.834096	$0.36,
-4.135127	$0.37
-4.533066	$0.38
-4.232036	$0.39
-4.356975	$0.40
-4.533066	$0.407375
-4.533066	$0.41
-4.232036	$0.42
-4.232036	$0.43
-3.988998	$0.44
-4.834096	$0.44,
-4.055945	$0.45
-4.055945	$0.46
-4.533066	$0.47
-4.135127	$0.48
-4.533066	$0.49
-4.356975	$0.5
-4.533066	$0.50
-4.356975	$0.51
-4.533066	$0.52
-4.533066	$0.53
-4.834096	$0.53.GAAP
-4.232036	$0.54
-4.232036	$0.55
-4.533066	$0.56
-4.232036	$0.57
-4.533066	$0.58
-4.232036	$0.59
-4.834096	$0.59.This
-4.232036	$0.60
-4.135127	$0.61
-4.356975	$0.62
-4.834096	$0.62,
-4.232036	$0.63
-4.356975	$0.64
-4.834096	$0.64."
-4.834096	$0.65
-4.356975	$0.66
-4.135127	$0.67
-4.232036	$0.68
-4.834096	$0.71
-4.834096	$0.71,
-4.533066	$0.72
-4.834096	$0.73
-4.055945	$0.74
-4.533066	$0.75
-4.834096	$0.75.This
-4.533066	$0.76
-4.232036	$0.77
-4.533066	$0.78
-4.834096	$0.8
-4.533066	$0.80
-4.533066	$0.84
-4.834096	$0.86
-4.834096	$0.87
-4.533066	$0.89
-4.834096	$0.9
-4.834096	$0.90
-4.834096	$0.91
-4.834096	$0.92
-4.356975	$0.93
-4.533066	$0.94
-4.533066	$0.95
-4.533066	$0.96
-4.135127	$0.97
-4.834096	$0.98
-4.834096	$0.99
-4.055945	$1
-4.834096	$1"
-4.834096	$1,000.00
-4.834096	$1,107,000
-4.834096	$1,122.2
-4.834096	$1,125,034,000
-4.834096	$1,173.0
-4.834096	$1,281
-4.834096	$1,282
-4.834096	$1,288,938,000
-4.834096	$1,322,667
-4.834096	$1,339,038,000
-4.834096	$1,353.1
-4.834096	$1,366.9
-4.834096	$1,398,117,000
-4.533066	$1,400.8
-4.834096	$1,426,000
-4.834096	$1,45,615,000
-4.834096	$1,451.5
-4.834096	$1,48,004,000
-4.834096	$1,495,471,000
-4.834096	$1,507.1
-4.834096	$1,531.4
-4.834096	$1,538,000
-4.834096	$1,559,474,000
-4.834096	$1,582.2
-4.834096	$1,659,676,000.Non-GAAP
-4.834096	$1,669.000
-4.834096	$1,780,000
-4.834096	$1,790,000
-4.834096	$1,835,765,000
-4.834096	$1,840,652,000
-4.834096	$1,914,149,000.GAAP
-4.834096	$1."
-4.834096	$1.0
-4.356975	$1.00
-4.356975	$1.01
-4.834096	$1.02
-4.533066	$1.03
-4.533066	$1.04
-4.356975	$1.05
-4.232036	$1.06
-4.834096	$1.07
-4.834096	$1.07,
-4.834096	$1.08
-4.834096	$1.09
-4.356975	$1.1
-4.834096	$1.10
-4.533066	$1.12
-4.834096	$1.13
-4.834096	$1.14.The
-4.834096	$1.15
-4.834096	$1.18,
-4.834096	$1.19
-4.135127	$1.2
-4.834096	$1.21
-4.834096	$1.22
-4.533066	$1.22,
-4.834096	$1.23
-4.533066	$1.25
-4.834096	$1.27
-4.834096	$1.28
-4.834096	$1.29
-4.356975	$1.3
-4.834096	$1.30
-4.232036	$1.34
-4.533066	$1.37
-4.834096	$1.38.The
-4.533066	$1.39075
-4.834096	$1.40
-4.356975	$1.43
-4.834096	$1.44
-4.834096	$1.44.It
-4.834096	$1.44.While
-4.533066	$1.45
-4.834096	$1.45.The
-4.834096	$1.47
-4.834096	$1.50
-4.834096	$1.50,
-4.356975	$1.53
-4.533066	$1.55
-4.834096	$1.56
-4.834096	$1.57."
-4.135127	$1.6
-4.533066	$1.62
-4.834096	$1.63
-4.834096	$1.64
-4.834096	$1.7
-4.533066	$1.72
-4.834096	$1.76
-4.834096	$1.82
-4.834096	$1.85
-4.834096	$1.87
-4.232036	$1.9
-4.834096	$1.92
-4.533066	$1.97
-4.533066	$10
-4.834096	$10,447,000
-4.834096	$10.08.Existing
-4.533066	$10.1
-4.834096	$10.3
-4.834096	$10.4
-4.834096	$10.5
-4.834096	$10.64
-4.834096	$10.7
-4.232036	$10.8
-4.834096	$10.9
-4.135127	$100
-4.834096	$100,000
-4.834096	$100,000,022,
-4.834096	$1000.00
-4.834096	$101.5
-4.533066	$102
-4.533066	$102.1
-4.834096	$102.4
-4.834096	$103
-4.834096	$103.84
-4.834096	$104
-4.834096	$104,000,
-4.834096	$104.0
-4.834096	$104.2
-4.533066	$104.3
-4.834096	$104.4
-4.356975	$104.7
-4.533066	$105
-4.834096	$105.51
-4.834096	$106
-4.834096	$106.3
-4.834096	$106.7
-4.834096	$108.22
-4.533066	$108.4
-4.533066	$109.79
-4.356975	$11
-4.834096	$11"
-4.834096	$11,256,000
-4.834096	$11,325,"
-4.834096	$11.0
-4.834096	$11.1
-4.834096	$11.3
-4.834096	$11.8
-4.356975	$110
-4.834096	$110.4
-4.834096	$111
-4.834096	$111,169,000
-4.834096	$111,599,000
-4.834096	$111,866,000
-4.834096	$111.78
-4.533066	$112.5
-4.356975	$112.6
-4.834096	$112.8
-4.834096	$113
-4.834096	$113.70
-4.834096	$114,327,000
-4.834096	$114.5
-4.834096	$115
-4.834096	$115.5
-4.834096	$115.8
-4.834096	$116
-4.834096	$116.9
-4.834096	$117.4
-4.834096	$117.54
-4.834096	$119.6
-4.834096	$119.7
-4.533066	$12
-4.834096	$12,569,000
-4.834096	$12,595
-4.834096	$12.43.
-4.834096	$12.6
-4.834096	$12.7
-4.834096	$12.9
-4.356975	$120
-4.834096	$121.1
-4.834096	$121.9
-4.834096	$122
-4.834096	$122,757,000
-4.834096	$122.05
-4.834096	$122.4
-4.533066	$123
-4.834096	$123,591,000
-4.356975	$125
-4.834096	$127
-4.834096	$127.
-4.834096	$128.5
-4.834096	$129,369,000
-4.834096	$129,706,000
-4.834096	$129,899,000
-4.356975	$129.0
-4.834096	$129.1
-4.533066	$13
-4.834096	$13,111,000
-4.834096	$13,142,000
-4.834096	$13,166,000
-4.834096	$13,250,000
-4.834096	$13,279,000,
-4.834096	$13,301,000
-4.834096	$13,428,000
-4.834096	$13,512,000
-4.834096	$13,740,000
-4.834096	$13,813,000
-4.834096	$13,923,000
-4.533066	$13.1
-4.533066	$13.2
-4.834096	$13.4
-4.533066	$13.6
-4.834096	$130
-4.834096	$130,407,000
-4.533066	$130.4
-4.834096	$130.9
-4.834096	$131,775,000,
-4.834096	$131.5
-4.834096	$132.08
-4.834096	$133
-4.834096	$133.37
-4.834096	$133.93
-4.834096	$1332.44
-4.834096	$134
-4.834096	$136
-4.356975	$137
-4.834096	$137,614,000
-4.834096	$137.8
-4.533066	$138
-4.834096	$138,572,000
-4.834096	$138,883,000
-4.834096	$138.438
-4.834096	$138.5
-4.834096	$139
-4.834096	$139,571,000
-4.533066	$14
-4.834096	$14,022,000
-4.834096	$14,033,940,
-4.834096	$14,265,000
-4.834096	$14,722,500,
-4.232036	$14.27
-4.834096	$14.4
-4.834096	$14.5
-4.834096	$14.6
-4.834096	$14.7
-4.834096	$14.75
-4.834096	$14.8
-4.834096	$14.9
-4.356975	$140
-4.834096	$140.2
-4.834096	$142
-4.834096	$142.7
-4.356975	$145
-4.834096	$145,839,000
-4.834096	$145.0
-4.533066	$145.5
-4.834096	$146.0
-4.834096	$146.30
-4.834096	$146.380
-4.533066	$147
-4.834096	$148
-4.834096	$149,725
-4.834096	$149.5
-3.931006	$15
-4.834096	$15,062,000
-4.834096	$15,490,000
-4.834096	$15,855,000,
-4.834096	$15.0
-4.533066	$15.1
-4.834096	$15.2
-4.834096	$15.4
-4.834096	$15.59
-4.834096	$15.6
-4.834096	$15.68
-4.834096	$15.76
-4.834096	$15.8
-4.834096	$150
-4.834096	$150.2
-4.834096	$150.3
-4.834096	$151.5
-4.834096	$152
-4.834096	$152,985,000
-4.834096	$152.9
-4.834096	$153,505,000
-4.834096	$154.8
-4.533066	$155
-4.834096	$155.6
-4.834096	$156,099,000
-4.834096	$156.15
-4.834096	$156.6
-4.834096	$156.7
-4.533066	$157
-4.834096	$157,315,000
-4.834096	$158,360,000
-4.834096	$158.201
-4.834096	$16.1
-4.834096	$16.2
-4.834096	$16.4
-4.533066	$16.7
-4.232036	$16.8
-4.834096	$16.9
-4.533066	$160
-4.834096	$160.9
-4.834096	$161
-4.834096	$161,643,000
-4.533066	$161.6
-4.533066	$162
-4.834096	$162.8
-4.834096	$163
-4.533066	$164
-4.834096	$164.0
-4.834096	$165
-4.834096	$165,757,000
-4.834096	$165.6
-4.834096	$166.18mm.
-4.834096	$166.2
-4.834096	$166.213
-4.834096	$167
-4.533066	$168.3
-4.834096	$169
-4.533066	$169.6
-4.834096	$17
-4.834096	$17,077,000
-4.834096	$17,285,000
-4.834096	$17,564,000
-4.834096	$17,872,000
-4.533066	$17.1
-4.834096	$17.6
-4.232036	$170
-4.533066	$170.1
-4.834096	$172.6
-4.834096	$173,389,000
-4.834096	$173.75
-4.834096	$174
-4.834096	$174.2
-4.834096	$176.6
-4.834096	$177
-4.834096	$177.6
-4.834096	$178
-4.834096	$178,148,000
-4.834096	$178.6
-4.834096	$179.0
-4.834096	$179.9
-4.356975	$18
-4.834096	$18,440,197
-4.834096	$18,811,000
-4.834096	$18,894,000
-4.834096	$18.0
-4.834096	$18.4
-4.533066	$18.5
-4.834096	$180,341,135
-4.834096	$180.3
-4.533066	$182
-4.834096	$183.1
-4.834096	$183.5
-4.834096	$184,444,000,
-4.834096	$184.6
-4.834096	$185.7
-4.834096	$188
-4.834096	$1893.03641
-4.834096	$19,081,000
-4.834096	$19,516,000
-4.834096	$19,697,000
-4.834096	$19,888,000
-4.834096	$19,997,000
-4.834096	$19.0
-4.834096	$19.1
-4.834096	$19.5
-4.834096	$19.6
-4.533066	$19.61
-4.834096	$19.7
-4.533066	$19.8
-4.834096	$19.9
-4.834096	$192,131,000
-4.834096	$193.0
-4.834096	$194
-4.834096	$196,000
-4.834096	$197.54
-4.834096	$198,741,000
-4.533066	$198.4
-4.533066	$198.79
-4.232036	$2
-4.834096	$2,026,000
-4.834096	$2,048,541,000
-4.834096	$2,053.5
-4.834096	$2,070,754,000
-4.834096	$2,187,996,000
-4.834096	$2,188.6
-4.834096	$2,190.6
-4.834096	$2,277,000
-4.834096	$2,333.3
-4.834096	$2,359,805,000
-4.834096	$2,398,731,000
-4.834096	$2,403.9
-4.834096	$2,469,818,000
-4.834096	$2,484,694,000,
-4.834096	$2,500,000,000
-4.834096	$2,500.7
-4.834096	$2,534.7
-4.834096	$2,539
-4.834096	$2,574.0
-4.834096	$2,658.2
-4.834096	$2,708,924,000
-4.834096	$2,831.8
-4.834096	$2,984,000
-4.232036	$2.0
-4.834096	$2.00
-4.834096	$2.08
-4.834096	$2.1
-4.834096	$2.10,
-4.834096	$2.11
-4.834096	$2.13
-4.834096	$2.15
-4.834096	$2.16
-4.834096	$2.17
-4.834096	$2.17,
-4.533066	$2.19
-4.135127	$2.2
-4.834096	$2.20
-4.834096	$2.29
-4.533066	$2.3
-4.834096	$2.30
-4.834096	$2.32
-4.834096	$2.33
-4.533066	$2.4
-4.834096	$2.40
-4.834096	$2.41
-4.533066	$2.45
-4.834096	$2.46
-4.834096	$2.47
-4.834096	$2.48
-4.834096	$2.49
-4.834096	$2.5
-4.834096	$2.50
-4.834096	$2.51
-4.834096	$2.52
-4.533066	$2.55
-4.834096	$2.56
-4.834096	$2.57
-4.834096	$2.58
-4.533066	$2.59
-3.988998	$2.6
-4.834096	$2.60
-4.834096	$2.64
-4.533066	$2.65
-4.834096	$2.69
-4.356975	$2.7
-4.834096	$2.70
-4.834096	$2.72
-4.533066	$2.8
-4.834096	$2.80
-4.834096	$2.80-$3.20
-4.834096	$2.9
-4.834096	$2.95.GAAP
-4.834096	$2.97
-4.533066	$20
-4.834096	$20,386,804
-4.834096	$20.0
-4.834096	$20.2
-4.834096	$20.4
-4.232036	$200
-4.834096	$203,395,000
-4.834096	$204.0
-4.834096	$204.12
-4.834096	$204.6
-4.834096	$205
-4.834096	$206,302,000
-4.834096	$207
-4.834096	$208.8
-4.834096	$209,929,000
-4.834096	$21
-4.834096	$21,208,000
-4.834096	$21,237,000
-4.834096	$21.1
-4.834096	$21.3
-4.834096	$21.54
-4.834096	$21.6
-4.834096	$211
-4.834096	$212,003,000
-4.834096	$212,178,000
-4.834096	$213,076,000,
-4.834096	$213,885,000
-4.834096	$213.8
-4.834096	$214.7
-4.834096	$215.4
-4.533066	$217.3
-4.834096	$217.6
-4.356975	$22
-4.834096	$22,035,000
-4.834096	$22,561,000,
-4.834096	$22,721,000
-4.834096	$22.0
-4.834096	$22.1
-4.834096	$22.4
-4.533066	$22.5
-4.834096	$220,279,000
-4.834096	$221
-4.834096	$221.2
-4.834096	$222
-4.834096	$223.1
-4.834096	$224.2
-4.356975	$225
-4.834096	$225.04
-4.834096	$226.9
-4.834096	$227
-4.834096	$227,064,000
-4.834096	$228.9
-4.232036	$23
-4.834096	$23,104,000
-4.834096	$23,580,000
-4.834096	$23,643,000,
-4.834096	$23.0
-4.834096	$23.1
-4.533066	$23.4
-4.834096	$23.9
-4.533066	$230
-4.834096	$230.6
-4.834096	$231.9
-4.834096	$232.5
-4.834096	$233
-4.533066	$233.1
-4.834096	$235
-4.834096	$235,886
-4.834096	$237,309,000
-4.834096	$239,
-4.533066	$24
-4.834096	$24,688,000
-4.834096	$24.00
-4.834096	$24.095
-4.834096	$24.3
-4.834096	$24.9
-4.834096	$240.8
-4.834096	$241.1
-4.834096	$243
-4.834096	$243,292,000
-4.834096	$243,8"
-4.834096	$244,206,000
-4.834096	$244,763,000
-4.834096	$245.30
-4.834096	$246
-4.834096	$247.1
-4.533066	$247.2
-4.834096	$249,018,000
-4.232036	$25
-4.834096	$25,000),
-4.834096	$25,000,000)
-4.834096	$25,423,000
-4.834096	$25.0
-4.533066	$25.2
-4.834096	$25.4
-4.834096	$25.8
-4.356975	$25.9
-4.055945	$250
-4.834096	$251.4
-4.834096	$253.7
-4.834096	$254,000
-4.834096	$254.0
-4.834096	$255,986,000,
-4.834096	$255.6
-4.834096	$258.4
-4.834096	$259.6
-4.533066	$26
-4.834096	$26,558,000
-4.834096	$26.0
-4.834096	$26.1
-4.834096	$26.3
-4.533066	$26.5
-4.834096	$26.594
-4.834096	$26.6
-4.834096	$26.9
-4.232036	$260
-4.834096	$261
-4.834096	$264
-4.055945	$264.69
-4.834096	$265,000
-4.834096	$265.9
-4.834096	$27,023,000
-4.834096	$27,463,000
-4.834096	$27.00
-4.834096	$27.5
-4.533066	$27.6
-4.533066	$27.9
-4.834096	$270,750,000
-4.834096	$272.166
-4.834096	$272.7
-4.533066	$273.4
-4.834096	$276
-4.834096	$277.1
-4.834096	$277.8
-4.834096	$278.7
-4.834096	$28
-4.834096	$28,811,000
-4.533066	$28.0
-4.834096	$28.1
-4.834096	$28.3
-4.834096	$28.4
-4.533066	$28.8
-4.834096	$28.9
-4.834096	$280
-4.834096	$281
-4.834096	$281.0
-4.834096	$281.317
-4.834096	$282,244,000
-4.834096	$282.9
-4.834096	$284
-4.834096	$285.0
-4.834096	$286.3
-4.834096	$287.1
-4.834096	$287.9
-4.834096	$288,008,000,
-4.834096	$288.0
-4.834096	$288.8
-4.834096	$29,166,000
-4.834096	$29,299,000
-4.834096	$29,351,000
-4.533066	$29,696,000
-4.834096	$29,796,000
-4.834096	$29.1
-4.834096	$29.2
-4.834096	$29.3
-4.834096	$29.5
-4.834096	$29.7
-4.834096	$29.9
-4.834096	$290
-4.834096	$290.6
-4.834096	$292
-4.834096	$294.3
-4.834096	$294.82
-4.834096	$296
-4.834096	$298
-4.834096	$298.1
-4.834096	$299.88
-4.834096	$299.883
-4.356975	$3
-4.834096	$3,484
-4.834096	$3,605,000
-4.356975	$3.0
-4.834096	$3.05
-4.834096	$3.05,
-4.533066	$3.06
-4.834096	$3.1
-4.834096	$3.10
-4.533066	$3.18
-4.834096	$3.2
-4.356975	$3.3
-4.356975	$3.4
-4.834096	$3.43)
-4.834096	$3.46
-4.533066	$3.5
-4.533066	$3.52
-4.834096	$3.55
-4.533066	$3.6
-4.834096	$3.62
-4.834096	$3.65
-4.356975	$3.8
-4.232036	$3.9
-3.988998	$30
-4.834096	$30,137,000,
-4.834096	$30,511,000
-4.834096	$30.0
-4.834096	$30.1
-4.834096	$30.3
-4.834096	$30.33
-4.834096	$30.5
-4.834096	$30.687
-3.931006	$300
-4.834096	$300,000,020
-4.834096	$302.6
-4.834096	$303.8
-4.834096	$304,978,000
-4.834096	$306.8
-4.834096	$307.9
-4.834096	$31,397,000
-4.834096	$31,774,000
-4.834096	$31,922,000
-4.834096	$31.2
-4.834096	$31.3
-4.834096	$31.4
-4.834096	$31.6
-4.834096	$31.7
-4.834096	$311
-4.834096	$311.83
-4.834096	$312.1
-4.834096	$315,195,000
-4.533066	$32
-4.834096	$32,215
-4.834096	$32,487,000
-4.834096	$32.0
-4.834096	$32.4
-4.834096	$32.64
-4.834096	$32.7
-4.834096	$321.0
-4.834096	$323
-4.834096	$328.5
-4.834096	$33
-4.834096	$33,142,000
-4.834096	$33,361,000
-4.834096	$33.1
-4.834096	$33.2
-4.834096	$33.3
-4.834096	$33.7
-4.834096	$332
-4.834096	$335,018,000
-4.834096	$336.5
-4.834096	$338
-4.834096	$339.8
-4.834096	$34,036,000
-4.834096	$34,285
-4.834096	$34,508,000
-4.834096	$34.3
-4.533066	$34.38
-4.834096	$34.4
-4.834096	$34.53
-4.834096	$34.8
-4.834096	$343
-4.834096	$347.7
-4.834096	$347.8
-4.834096	$348
-4.834096	$348,886,366
-4.533066	$348.3
-4.356975	$35
-4.834096	$35,023,000
-4.834096	$35,447,000
-4.834096	$35.0
-4.834096	$35.014
-4.834096	$35.7
-4.834096	$350
-4.834096	$354.0
-4.232036	$36
-4.834096	$36,102,000
-4.834096	$36,384,000
-4.834096	$36,520,000
-4.834096	$36.5
-4.834096	$36.9
-4.834096	$360
-4.834096	$362
-4.834096	$365
-4.533066	$365.786
-4.834096	$366,972,000
-4.834096	$366.8
-4.834096	$37,584,000
-4.834096	$37.1
-4.834096	$37.4
-4.834096	$37.5
-4.533066	$37.6
-4.533066	$37.7
-4.834096	$37.9
-4.834096	$37.94
-4.834096	$370
-4.834096	$370.5
-4.834096	$378
-4.834096	$38
-4.834096	$38,225,000
-4.834096	$38,311,000
-4.834096	$38.3
-4.834096	$38.6
-4.834096	$38.7
-4.834096	$38.8
-4.834096	$381.3
-4.834096	$383.7
-4.834096	$384
-4.834096	$39,369,000
-4.834096	$39,413,000
-4.533066	$39.1
-4.834096	$39.4
-4.834096	$390,166,000
-4.834096	$4
-4.834096	$4,115.2
-4.834096	$4,219,739,000
-4.834096	$4,345
-4.834096	$4,486.8
-4.834096	$4,606.2
-4.834096	$4,636,848,000
-4.834096	$4,648,000
-4.834096	$4,687.0
-4.834096	$4,758,000
-4.533066	$4,918.9
-4.834096	$4,939,637,000
-4.834096	$4.0
-4.356975	$4.1
-4.356975	$4.3
-4.834096	$4.40
-4.834096	$4.50.Preliminary
-4.834096	$4.58
-4.834096	$4.75
-4.232036	$4.8
-4.356975	$4.9
-4.834096	$4.93
-4.533066	$40
-4.834096	$40,740,000,
-4.834096	$40,770,000,
-4.533066	$40.22
-4.533066	$40.22379
-4.232036	$40.3
-4.834096	$40.399
-4.834096	$40.7
-4.834096	$40.9
-4.533066	$400
-4.834096	$402.03mm.
-4.834096	$407.9
-4.834096	$41"
-4.834096	$41,233,000
-4.834096	$41,565,000
-4.834096	$41.2
-4.533066	$41.5
-4.834096	$41.50
-4.834096	$41.52
-4.834096	$41.6
-4.533066	$41.7
-4.834096	$41.71
-4.533066	$410
-4.834096	$410,615,000
-4.834096	$42
-4.834096	$42,828,000
-4.533066	$420
-4.834096	$421
-4.834096	$423.42
-4.834096	$428,161,000
-4.834096	$43,121,000
-4.834096	$43,442,000,
-4.834096	$43.62
-4.533066	$430
-4.834096	$435
-4.834096	$438.4
-4.834096	$44,562,000
-4.834096	$44,593,000
-4.834096	$44.2
-4.834096	$44.8
-4.834096	$44.9
-4.533066	$440
-4.834096	$442.0
-4.834096	$449,002,000
-4.834096	$45,263,000
-4.834096	$45.0
-4.834096	$45.1
-4.834096	$45.30
-4.834096	$45.5
-4.834096	$45.62
-4.356975	$45.8
-4.135127	$450
-4.834096	$452,018,000
-4.834096	$454.4
-4.834096	$455
-4.834096	$458
-4.834096	$46,154,000,
-4.834096	$46,226,000,
-4.834096	$46,454,000
-4.834096	$46,526,000
-4.834096	$46,968,000
-4.834096	$46.1
-4.834096	$46.2
-4.834096	$46.364
-4.834096	$46.67
-4.533066	$46.9
-4.356975	$460
-4.834096	$461
-4.834096	$465
-4.834096	$468,195,000
-4.834096	$47,307,000
-4.834096	$47,428,000
-4.834096	$47,962,000
-4.533066	$47.4
-4.834096	$47.6
-4.834096	$47.7
-4.834096	$47.73
-4.533066	$47.94
-4.834096	$473
-4.834096	$475
-4.356975	$48
-4.834096	$48,416,000,
-4.834096	$48.2
-4.834096	$48.23
-4.834096	$48.4
-4.834096	$48.7
-4.834096	$48.8
-4.834096	$482.3
-4.834096	$49,369,000
-4.834096	$49,814,000,
-4.834096	$49.0
-4.834096	$49.3
-4.533066	$49.4
-4.834096	$49.78
-4.834096	$49.8
-4.834096	$49.9
-4.834096	$494,422,000
-4.834096	$497.2
-4.135127	$5
-4.834096	$5,057.8
-4.834096	$5,091,000
-4.834096	$5,167,000
-4.834096	$5,311.1
-4.834096	$5,673.8
-4.834096	$5,797.9
-4.834096	$5,981,000
-4.533066	$5.1
-4.834096	$5.10
-4.834096	$5.4
-4.232036	$5.5
-4.834096	$5.50
-4.834096	$5.58
-4.834096	$5.8
-4.533066	$5.9
-4.834096	$50
-4.834096	$50,000,000
-4.834096	$50,232,000
-4.834096	$50,337,332
-4.834096	$50,748,000
-4.834096	$50.0
-4.834096	$50.1
-4.834096	$50.116
-4.834096	$50.3
-4.533066	$50.5
-4.533066	$50.8
-4.135127	$500
-4.533066	$5000
-4.834096	$501
-4.834096	$506.4
-4.356975	$51
-4.834096	$51.2
-4.834096	$51.5
-4.834096	$51.6
-4.834096	$51.7
-4.533066	$51.8
-4.834096	$510.6
-4.834096	$513,949,000
-4.834096	$513.9
-4.834096	$515
-4.834096	$516.4
-4.834096	$52,194,000
-4.834096	$52,813,000
-4.834096	$52.4
-4.834096	$52.48
-4.834096	$52.6
-4.834096	$52.72
-4.834096	$52.735
-4.834096	$52.8
-4.834096	$524.6
-4.533066	$53
-4.834096	$53,592,000
-4.834096	$53,699,000
-4.834096	$53,710,000
-4.834096	$53,778,000
-4.834096	$53,957,000
-4.834096	$53.1
-4.834096	$53.2
-4.834096	$53.5
-4.834096	$53.66
-4.834096	$531.8
-4.533066	$533
-4.834096	$533,983,000
-4.834096	$533.2
-4.834096	$533.8
-4.834096	$535
-4.356975	$54
-4.834096	$54,559,000,
-4.834096	$54,710,000
-4.834096	$54,828,000
-4.533066	$54.5
-4.834096	$54.66
-4.834096	$54.8
-4.533066	$54.80
-4.533066	$545
-4.834096	$548,782,000
-4.834096	$548.8
-4.834096	$55
-4.834096	$55,364,000
-4.834096	$55,993,000,
-4.834096	$55.0
-4.834096	$55.6
-4.533066	$550
-4.834096	$555
-4.834096	$555.3
-4.834096	$56,356,000
-4.834096	$56.8
-4.834096	$56.85
-4.533066	$560
-4.834096	$561
-4.834096	$561.29
-4.834096	$562,219,000,
-4.834096	$565.5
-4.834096	$568.3
-4.834096	$569.2
-4.834096	$57
-4.834096	$57,015,000
-4.834096	$57,335,000
-4.834096	$57,482,000
-4.834096	$57,763,000
-4.834096	$57.274
-4.834096	$57.7
-4.834096	$57.8
-4.834096	$57.9
-4.834096	$571.3
-4.834096	$573.5
-4.834096	$574,120,000
-4.533066	$575
-4.834096	$577.79
-4.834096	$578
-4.232036	$58
-4.834096	$58,509,000
-4.834096	$58,755,000,
-4.834096	$580
-4.834096	$584.52
-4.834096	$585
-4.834096	$59
-4.834096	$59,177,000
-4.533066	$59.2
-4.834096	$59.6
-4.834096	$59.866
-4.834096	$591.9
-4.834096	$6
-4.834096	$6,391
-4.834096	$6,417
-4.834096	$6,814,000
-4.834096	$6.25
-4.533066	$6.3
-4.834096	$6.32
-4.834096	$6.4
-4.834096	$6.5
-4.834096	$6.55,
-4.834096	$6.57
-4.533066	$6.7
-4.533066	$6.8
-4.533066	$6.9
-4.232036	$60
-4.834096	$60,809,000
-4.834096	$60,879,000
-4.356975	$60.0
-4.834096	$60.4
-4.232036	$600
-4.834096	$600,000,000.The
-4.834096	$605
-4.834096	$607,613,000
-4.834096	$607.6
-4.834096	$61,084,000
-4.834096	$61,560,000
-4.834096	$61,613,000
-4.834096	$61.1
-4.834096	$61.3
-4.533066	$61.7
-4.834096	$610
-4.834096	$611,399,000
-4.834096	$612
-4.834096	$612.8
-4.834096	$614,583,000
-4.356975	$615
-4.834096	$62
-4.834096	$62,775,976
-4.533066	$63
-4.834096	$63,254,000
-4.834096	$63,257,000
-4.834096	$63,577,000
-4.834096	$63.3
-4.834096	$633,000,
-4.834096	$634.7
-4.834096	$634.71
-4.834096	$636,210,000.Non-GAAP
-4.834096	$64
-4.834096	$64.2
-4.533066	$64.8
-4.834096	$640.23
-4.834096	$646,267,000
-4.356975	$65
-4.834096	$65,777,000
-4.834096	$65.3
-4.834096	$65.7
-4.834096	$650
-4.834096	$650.The
-4.834096	$656
-4.533066	$657.8
-4.834096	$659.82
-4.834096	$66.47
-4.834096	$66.5
-4.834096	$66.8
-4.834096	$660
-4.834096	$667
-4.834096	$67,537,000
-4.834096	$67,629,000
-4.834096	$67.72
-4.834096	$672
-4.834096	$68,648,000
-4.834096	$68,834,000
-4.834096	$68.73
-4.834096	$68.8
-4.834096	$683,570,000
-4.834096	$69,070,000,
-4.834096	$69,261,000
-4.533066	$69.1
-4.834096	$69.2
-4.834096	$69.45
-4.356975	$69.7
-4.834096	$69.79
-4.834096	$696,370,000
-4.834096	$698,887,000
-4.834096	$7
-4.834096	$7,326,726
-4.834096	$7,338,000
-4.834096	$7,871
-4.834096	$7,905
-4.834096	$7.29
-4.232036	$7.3
-4.834096	$7.4
-4.834096	$7.45
-4.834096	$7.5
-4.533066	$7.6
-4.232036	$7.8
-4.533066	$7.9
-4.232036	$70
-4.834096	$70.2
-4.834096	$70.3
-4.356975	$70.8
-4.834096	$700
-4.834096	$701
-4.834096	$71,038,000
-4.834096	$71,907,000
-4.834096	$71.1
-4.834096	$71.9
-4.834096	$712.81
-4.533066	$72
-4.834096	$72.0
-4.834096	$72.2
-4.834096	$72.8
-4.834096	$72.9
-4.834096	$727,484,000.GAAP
-4.834096	$73,510,000
-4.834096	$73.0
-4.834096	$73.85
-4.834096	$738,652,000
-4.834096	$74,357,000
-4.834096	$74,560,000
-4.834096	$74,796,000
-4.834096	$74.3
-4.834096	$748.5
-4.533066	$75
-4.834096	$75,
-4.834096	$75,198,000,
-4.834096	$75.7
-4.834096	$750,592,000
-4.834096	$76.783
-4.834096	$767,000,
-4.533066	$768.60
-4.834096	$77
-4.834096	$77,000,
-4.834096	$77.1
-4.834096	$77.4
-4.834096	$77.6
-4.834096	$77.8
-4.834096	$779.4
-4.834096	$78.0
-4.834096	$78.1
-4.834096	$78.6
-4.834096	$78.68
-4.834096	$78.8
-4.834096	$78.9
-4.834096	$79,043,000
-4.834096	$79.4
-4.533066	$79.6
-4.834096	$790
-4.834096	$791.848
-4.055945	$8
-4.834096	$8,397,000
-4.834096	$8,684
-4.834096	$8.6
-4.834096	$8.7
-4.834096	$8.8
-4.834096	$8.9
-4.533066	$80
-4.834096	$80.0
-4.533066	$80.40
-4.834096	$80.9
-4.834096	$800,000
-4.834096	$805
-4.834096	$807
-4.834096	$81.8
-4.834096	$82
-4.834096	$822.3
-4.834096	$822.570
-4.834096	$823.239
-4.834096	$83,069,000
-4.834096	$83,339,000,
-4.834096	$83.8
-4.834096	$834
-4.834096	$834.8
-4.533066	$84.5
-4.834096	$84.550
-4.834096	$84.629
-4.834096	$841.6
-4.834096	$845
-4.834096	$85
-4.834096	$85.1
-4.834096	$85.4
-4.533066	$85.6
-4.834096	$85.89
-4.356975	$850
-4.834096	$852,632,000
-4.834096	$855.3
-4.834096	$859
-4.834096	$86.0
-4.834096	$86.02
-4.834096	$86.32
-4.834096	$862.0
-4.834096	$869.7
-4.834096	$87.4
-4.834096	$87.9
-4.834096	$871.9
-4.834096	$872,"
-4.834096	$88.3
-4.834096	$88.5
-4.533066	$88.8
-4.834096	$885
-4.834096	$89,883,000
-4.533066	$89.6
-4.834096	$893.84
-4.834096	$9
-4.834096	$9,020,000,
-4.834096	$9,494,000
-4.834096	$9,915
-4.834096	$9,982,000
-4.834096	$9.0
-4.356975	$9.3
-4.533066	$9.34
-4.533066	$9.7
-4.834096	$90
-4.834096	$90.7
-4.834096	$90/sample,
-4.834096	$900,000
-4.834096	$904
-4.834096	$91,807,000
-4.834096	$91,943,000
-4.834096	$91,964,000
-4.533066	$91.3
-4.834096	$91.6
-4.834096	$91.77
-4.533066	$92
-4.533066	$92.0
-4.834096	$93
-4.834096	$93,591,000
-4.533066	$93.7
-4.834096	$935,954,000
-4.834096	$94
-4.834096	$94.2
-4.834096	$941,041,000
-4.533066	$942.83
-4.834096	$946
-4.834096	$95
-4.834096	$95.5
-4.834096	$95.7
-4.834096	$95.9
-4.834096	$955.9
-4.834096	$96.1
-4.834096	$960
-4.533066	$97.31
-4.834096	$97.5
-4.834096	$98
-4.834096	$98,010,085
-4.834096	$98,296,000
-4.834096	$985.1
-4.834096	$986,521,000
-4.834096	$99.4
-4.834096	%to
-3.021183	&
-4.834096	&amp;
-4.834096	'02
-4.834096	'02'
-4.834096	'08
-4.834096	'Corporate
-4.834096	'Exchange
-4.834096	'Listed
-4.834096	'Non-Employee
-4.834096	'Outside
-4.834096	'SN200
-4.834096	'Starbucks
-4.834096	'independent'
-4.834096	'realigning
-4.834096	'very
-4.834096	'wireline
-4.533066	(
-4.834096	(BLDA)
-4.834096	("CJMM"),
-4.834096	($0.04)
-4.834096	($0.06
-4.834096	($0.10)
-4.834096	($12.39
-4.834096	($14.6
-4.834096	($26.03
-4.834096	($30.3
-4.834096	($315
-4.834096	($345.77
-4.834096	($359.4
-4.834096	($371.79
-4.834096	($9.9
-4.834096	(11
-4.834096	(58
-4.834096	(96.94%)2;
-4.834096	(99.6%)
-4.834096	(A
-4.834096	(AAT),
-4.834096	(ACTS),
-4.834096	(ADHD)
-4.834096	(AHBA)
-4.834096	(AMR)
-4.834096	(AP)/router
-4.834096	(APN).The
-4.834096	(ARM)
-4.834096	(ASIC)
-4.533066	(ASX:
-4.834096	(AUD
-4.834096	(AVRs),
-4.135127	(Australia)
-4.834096	(B-type
-4.834096	(BGI)
-4.356975	(Brocade(R))
-4.834096	(CARe)
-4.533066	(CE)
-4.834096	(CEE)
-4.834096	(CEO)
-4.834096	(CGEMS)
-4.834096	(CGEMS),
-4.834096	(CGF)
-4.834096	(CIO).Ms.
-4.834096	(CNAs)
-4.834096	(COO)
-4.834096	(CPF)
-4.834096	(CPF)-based
-4.834096	(CR100).Sonos'
-4.834096	(CSHL)
-4.834096	(CSPro)
-4.834096	(DCEG),
-4.834096	(DGE)
-4.834096	(Dean)
-4.834096	(Design-for-Manufacturability)
-4.834096	(E&D)
-4.834096	(EDA)
-4.834096	(EEE)
-4.533066	(EIA)
-4.834096	(EICS).This
-4.834096	(EPCM)
-4.834096	(EPCM),
-4.834096	(EPS)
-4.834096	(English
-4.834096	(FAN)
-4.533066	(FC)
-4.834096	(FCIP)
-4.834096	(FCoE)-based
-4.834096	(FDA)
-4.834096	(FDA).He
-4.834096	(FERC),
-4.834096	(FFPE).The
-4.834096	(FHPS).Advance
-4.834096	(FPGA)
-4.834096	(Financial
-4.834096	(GA)
-4.135127	(GAAP),
-4.834096	(GHz)
-4.834096	(GSK)
-4.834096	(GWA)
-4.834096	(GWAS).Designed
-4.834096	(Gb)
-4.834096	(GbE)
-4.834096	(Gbit/sec)
-4.834096	(HBA)
-4.834096	(HD)
-4.834096	(HDR)
-4.834096	(HDR)-enabled
-4.834096	(HIPAA).
-4.834096	(HLCS)
-4.834096	(HRM);
-4.834096	(High
-4.834096	(I/O)
-4.834096	(IBPS)
-4.834096	(IC)
-4.834096	(ICC)
-4.834096	(ID/IQ)
-4.834096	(IIJ-Tech)
-4.834096	(IOPS)
-4.834096	(ISE)
-4.834096	(ISOs)
-4.834096	(IT)
-4.834096	(ITMAT)
-4.834096	(ITMAT,
-4.533066	(Industry)
-4.834096	(Institutional)
-4.533066	(Jay)
-4.834096	(LAN)
-4.834096	(LCD)
-4.834096	(LOGCAP)
-4.834096	(LSI)
-4.834096	(Light)
-4.834096	(MAC),
-4.834096	(MIPI(SM))
-4.834096	(MMK)
-4.834096	(MOLX)
-4.834096	(MOLXA)
-4.834096	(MS),
-4.834096	(MSM(TM))
-4.834096	(MTG)
-4.834096	(Mbps)
-4.533066	(NASDAQ:
-4.834096	(NCI)
-4.834096	(NHLBI)
-3.328946	(NYSE:
-4.834096	(NYSE:AVY)
-4.834096	(NYSE:CDN)
-4.834096	(NYSE:CZN)
-4.834096	(NYSE:FLR)'s
-4.533066	(NYSE:FNF)
-4.533066	(NYSE:HNT)
-4.834096	(NYSE:KEY)'s
-4.834096	(NYSE:LFG)
-4.834096	(NYSE:LFG)..
-4.834096	(NYSE:PFG)
-4.356975	(NYSE:SCI)
-4.834096	(NYSE:UNS)
-3.834096	(Nasdaq:
-4.356975	(NasdaqGS:
-4.834096	(NasdaqGS:CEPH)
-4.834096	(NasdaqGS:ILMN)
-4.834096	(NasdaqNM:GNTX)
-4.834096	(OCG).The
-4.834096	(OEM)
-4.834096	(OVM)
-4.834096	(OVM)-compliant,
-4.834096	(OVM).The
-4.834096	(OVM).This
-4.834096	(OmniExpress),
-4.834096	(PCB)
-4.834096	(PCX:AVY).The
-4.834096	(PDK's).The
-4.834096	(PHYs)
-4.834096	(POS).Transax
-4.834096	(PRO),
-4.834096	(PRODUCT)(RED)
-4.834096	(Pacific
-4.834096	(Penn),
-4.533066	(Personal
-4.834096	(Q3
-4.834096	(QoS),
-4.834096	(RCD)
-4.834096	(REC)
-4.533066	(RED)(TM)
-4.834096	(RNAi).
-4.834096	(ROCm)
-4.834096	(S)
-3.792704	(SAN)
-4.533066	(SAN).The
-4.834096	(SANs).The
-4.834096	(SBS),
-4.834096	(SBUX)
-4.834096	(SCE)
-4.834096	(SEC).The
-4.834096	(SGP/SGI)
-4.533066	(SLAs)
-4.834096	(SNIA)
-4.834096	(SNP)
-4.533066	(SNPs)
-4.834096	(SRV)
-4.834096	(STARBUCKS)(RED)
-4.533066	(SmartBeam)
-4.834096	(SoC).Sequans
-4.834096	(TCO)
-4.834096	(TLM)
-4.834096	(The
-4.834096	(UMTS)
-4.533066	(US
-4.834096	(USD)
-4.533066	(VIP)
-4.834096	(VUL
-4.834096	(VoIP)
-4.834096	(WAFS).
-4.135127	(WLAN)
-4.834096	(WLAN),
-4.834096	(WNPU)
-4.834096	(WNPU),
-4.834096	(WVM)
-4.834096	(ZP100)
-4.834096	(ZP80),
-4.834096	(an
-4.834096	(approximately
-4.834096	(armodafinil)
-4.834096	(at
-4.834096	(available
-4.533066	(benefit)
-4.834096	(bp),
-4.834096	(changes
-4.834096	(complementary
-4.834096	(customer-owned
-4.834096	(eQTL)
-4.834096	(either
-4.834096	(excluding
-4.834096	(exons),
-4.834096	(four
-4.533066	(i)
-4.834096	(iPAS(TM))
-4.834096	(ii)
-4.834096	(iii)
-4.834096	(impairment)
-4.834096	(including
-4.834096	(iv)
-4.356975	(modafinil)
-4.834096	(naltrexone
-4.834096	(net
-4.356975	(oligos)
-4.834096	(on
-4.533066	(oral
-4.834096	(original
-4.834096	(other
-4.834096	(patents-in-suit).In
-4.834096	(rep)
-4.834096	(sNDA)
-4.533066	(single
-4.232036	(stores
-4.533066	(the
-4.834096	(three
-4.834096	(two
-4.834096	+
-4.356975	,
-2.66091	-
-4.055945	--
-4.834096	-1994
-4.356975	."
-4.834096	.11n
-4.834096	0.02
-4.834096	0.04per
-4.834096	0.18-micron
-4.834096	0.2%
-4.834096	0.5%
-4.533066	0.6%
-4.834096	0.7
-4.834096	0.7%
-4.834096	0.8%
-4.834096	0.993
-4.533066	01,
-3.931006	03,
-4.834096	03/27/2000,
-4.834096	03/31/2000.In
-4.834096	04)
-4.834096	04/01/1999,
-4.533066	04:10
-4.232036	05,
-4.232036	06,
-4.533066	07,
-4.834096	07/17/2005."
-4.834096	07/29/2009
-4.834096	07/29/2009.Cadence
-4.533066	08,
-4.834096	08/31/2001."
-4.533066	08:00
-4.533066	08:15
-4.533066	08:30
-3.931006	09,
-4.834096	09/09/2002."
-4.834096	09/12/2002"
-4.834096	09/30/1998."
-4.533066	09:00
-4.834096	09:30
-3.931006	1
-4.356975	1%
-3.302618	1,
-4.533066	1,000
-4.834096	1,2005.
-4.834096	1,250
-4.834096	1,293
-4.834096	1,300+
-4.834096	1,400
-4.533066	1,430,000
-4.834096	1,520,100
-4.834096	1,580-MW
-4.834096	1,660,000
-4.834096	1,700
-4.834096	1,800
-4.834096	1,920,000
-4.834096	1-for-100
-4.834096	1.
-4.834096	1.1%
-4.834096	1.4%
-4.834096	1.4%,
-4.834096	1.5-inch
-4.834096	1.6%
-4.834096	1.7
-4.834096	1.9%
-4.834096	1.Between
-4.834096	1.Working
-3.879854	10
-4.533066	10%
-4.834096	10%.
-4.533066	10,
-4.533066	10-K
-4.834096	10-year
-4.834096	10.1%
-4.834096	10.This
-4.834096	10/1/01,
-4.834096	10/100
-4.834096	10/18/1999."
-4.834096	10/19/01,
-3.687968	100
-4.834096	100%
-4.834096	100,000
-4.834096	100-for-1
-4.834096	100.612
-4.356975	1000
-4.834096	10017,
-4.834096	10020-1095,United
-4.834096	1010
-4.834096	1010/1020
-4.834096	1020
-4.834096	103%
-4.834096	109
-4.135127	10:00
-4.533066	10:15
-4.834096	10:30,
-4.834096	10A-3
-4.834096	10b5-1
-4.834096	10kb
-4.135127	11
-4.135127	11%
-4.834096	11%.Investors
-3.754915	11,
-4.834096	11,000,000
-4.834096	11,100,000
-4.834096	11.7
-4.834096	110
-4.834096	110%
-4.834096	1114
-4.533066	1155
-4.834096	11:00
-4.356975	11:30
-3.834096	12
-4.834096	12%
-3.754915	12,
-4.834096	12-18
-4.533066	12-sample
-4.232036	120
-4.834096	1221
-4.834096	1228
-4.834096	123
-4.834096	123R,
-4.533066	125.697
-4.533066	12:00
-3.792704	13
-4.533066	13%
-4.055945	13,
-4.834096	13,610,680
-4.834096	13-week
-4.834096	13.
-4.834096	13.1%
-4.834096	13.8
-4.533066	1335
-4.834096	134,000
-4.834096	13:30
-4.055945	14
-3.754915	14,
-4.834096	14,287,586
-4.834096	14.5%
-4.533066	140
-4.834096	144%
-4.834096	145
-4.834096	146
-4.834096	14:00
-4.834096	14a-8
-4.055945	15
-4.533066	15%
-4.834096	15%.Then,
-3.578824	15,
-4.834096	15.2%.Diluted
-4.834096	15.3%
-4.533066	150
-4.834096	150,000,000
-4.834096	150.5
-4.834096	152.5
-4.834096	153%.Product
-4.834096	1536
-4.834096	156.8%
-4.834096	15th
-3.988998	16
-4.533066	16%
-3.931006	16,
-4.834096	16,000
-4.834096	16,000,000
-4.834096	16,304,200
-4.834096	16.7
-4.834096	16.She
-4.834096	160
-4.834096	162(m)
-4.834096	16HD
-4.834096	16b-3(b)(3)
-4.533066	17
-4.834096	17%
-4.834096	17%,
-3.754915	17,
-4.834096	17-month
-4.834096	17.4
-4.834096	17.8
-4.834096	17.BGI
-4.834096	174.032
-4.834096	1745
-4.834096	176,000
-4.834096	178.2
-4.533066	17:1,
-4.533066	18
-4.356975	18%
-3.658005	18,
-4.834096	18.5%
-4.834096	1890,
-4.533066	19
-4.834096	19%
-3.603647	19,
-4.834096	19-pole
-4.834096	19.5
-4.533066	19.9
-4.533066	1934,
-4.834096	1934.As
-4.834096	1934.The
-4.834096	1960s,
-4.834096	1962.From
-4.834096	1962.Mr.
-4.834096	1979
-4.834096	1980s,
-4.834096	1986
-4.834096	1989
-4.834096	1989,
-4.834096	199,968,608
-4.834096	1991.Dr.
-4.834096	1991.He
-4.533066	1993,
-4.834096	1993.A
-4.834096	1993.Sandra
-4.834096	1994
-4.834096	1995,
-4.834096	1996
-4.834096	1996.According
-4.834096	1996.In
-4.533066	1997
-4.834096	1997.The
-4.834096	1998
-4.834096	1998,
-4.834096	1998.Keating,
-4.356975	1999
-4.533066	1999,
-4.834096	1999.In
-4.533066	1999.The
-4.834096	1;
-4.533066	1st
-3.792704	2
-4.533066	2%
-4.834096	2%.For
-3.453885	2,
-4.834096	2,000,000
-4.834096	2,100
-4.834096	2,150
-4.834096	2,207,506
-4.834096	2,300
-4.834096	2,500
-4.834096	2,837
-4.834096	2,917,380
-4.834096	2-for-1
-4.834096	2.0
-4.533066	2.0%
-4.834096	2.1%
-4.834096	2.3
-4.834096	2.3%
-4.135127	2.4
-4.834096	2.5
-4.834096	2.5G
-3.834096	20
-4.055945	20%
-3.988998	20,
-4.834096	20-30,
-4.834096	20-year
-4.834096	20.5
-4.533066	200
-4.834096	200,000
-3.931006	2000
-4.232036	2000,
-4.533066	2000.
-4.834096	2000.In
-4.834096	2000.Simpson
-4.834096	2000.Starbucks
-4.834096	2000.The
-4.533066	2000.Under
-4.232036	2001
-3.834096	2001,
-4.232036	2001.
-3.988998	2001."
-4.356975	2001.Comparable
-4.533066	2001.Earnings
-4.232036	2001.For
-4.834096	2001.Health
-4.834096	2001.In
-4.834096	2001.Macquarie
-4.533066	2001.Net
-4.356975	2001.On
-4.834096	2001.Starbucks
-4.055945	2001.The
-3.436156	2002
-4.834096	2002"
-4.834096	2002's
-3.658005	2002,
-4.356975	2002.
-4.135127	2002."
-4.834096	2002."Health
-4.834096	2002."Panera
-4.834096	2002.Accordingly,
-4.834096	2002.Average
-4.834096	2002.Brocade
-4.834096	2002.Comparable
-4.834096	2002.Diluted
-4.834096	2002.Fluor
-4.533066	2002.For
-4.834096	2002.Highlights
-4.834096	2002.Mr.
-4.356975	2002.Net
-4.834096	2002.On
-4.834096	2002.Panera
-4.533066	2002.Starbucks
-4.135127	2002.The
-4.834096	2002.They
-4.834096	2002.Total
-4.834096	2002;
-3.629976	2003
-3.834096	2003,
-4.533066	2003.
-4.834096	2003."Hansen
-4.834096	2003."Starbucks
-4.834096	2003.Austin
-4.834096	2003.Fluor's
-4.834096	2003.For
-4.533066	2003.Mr.
-4.834096	2003.Net
-4.834096	2003.Prior
-4.533066	2003.The
-4.533066	2003;
-3.472368	2004
-3.879854	2004,
-4.533066	2004.
-4.834096	2004."Atheros
-4.834096	2004."Big
-4.834096	2004."Brocade
-4.834096	2004."Fluor
-4.834096	2004."Hansen
-4.834096	2004."Phillips-Van
-4.834096	2004."Service
-4.834096	2004."The
-4.356975	2004.Brocade
-4.834096	2004.Fluor
-4.533066	2004.For
-4.834096	2004.Hansen
-4.834096	2004.Illumina
-4.834096	2004.In
-4.135127	2004.Net
-4.834096	2004.Non-GAAP
-4.834096	2004.Reporting
-4.533066	2004.Revenue
-4.055945	2004.The
-4.834096	2004.Total
-4.834096	2004;
-3.171339	2005
-3.931006	2005,
-4.055945	2005.
-4.356975	2005."
-4.834096	2005."Atheros
-4.834096	2005."Brocade
-4.834096	2005."Cadence
-4.834096	2005."Hansen
-4.533066	2005."Illumina
-4.533066	2005."Kirby
-4.533066	2005.Brocade
-4.834096	2005.Comparable
-4.834096	2005.Craig
-4.533066	2005.Excluding
-4.834096	2005.Fluor
-3.720153	2005.For
-4.834096	2005.Fully
-4.834096	2005.Hansen
-4.834096	2005.Illumina
-4.834096	2005.MEGAPLEX's
-4.834096	2005.Net
-4.834096	2005.On
-4.834096	2005.Reporting
-3.931006	2005.The
-4.232036	2005;
-3.101702	2006
-3.472368	2006,
-3.658005	2006.
-4.834096	2006."Atheros
-4.834096	2006."Dolby
-4.232036	2006."Illumina
-4.834096	2006."KeyCorp,
-4.834096	2006."Phillips-Van
-4.533066	2006."Starbucks
-4.834096	2006..
-4.834096	2006.Approximately
-4.834096	2006.As
-4.356975	2006.Atheros
-4.356975	2006.Brocade
-4.834096	2006.Cephalon
-4.533066	2006.Comparable
-4.834096	2006.Consolidated
-4.834096	2006.Dr.
-4.834096	2006.Fidelity
-3.555343	2006.For
-4.834096	2006.GAAP
-4.533066	2006.Hansen
-4.356975	2006.Illumina
-4.356975	2006.In
-4.834096	2006.Molex
-4.834096	2006.N.M
-4.135127	2006.Net
-4.533066	2006.Non-GAAP
-4.834096	2006.On
-4.834096	2006.Reporting
-4.533066	2006.Service
-4.834096	2006.Starbucks
-3.629976	2006.The
-4.834096	2006.VIVITROL
-4.135127	2006;
-2.931006	2007
-3.419123	2007,
-3.754915	2007.
-4.135127	2007."
-4.533066	2007."AK
-4.834096	2007."Atheros
-4.834096	2007."Capitol
-4.834096	2007."Cephalon
-4.356975	2007."Dolby
-4.834096	2007."Hansen
-4.834096	2007."Illumina
-4.834096	2007."Kirby
-4.834096	2007."Panera
-4.533066	2007."Phillips-Van
-4.834096	2007."The
-4.356975	2007.AK
-4.834096	2007.As
-4.834096	2007.Atheros
-4.834096	2007.Both
-4.533066	2007.Brocade
-4.834096	2007.Cadence
-4.533066	2007.Cephalon
-4.834096	2007.Coles
-4.834096	2007.Comparable
-4.834096	2007.Dolby
-4.834096	2007.Earnings
-4.834096	2007.Excluding
-3.511877	2007.For
-4.834096	2007.GAAP
-4.834096	2007.Gentex
-4.834096	2007.Gross
-4.834096	2007.Health
-4.533066	2007.Impairments
-4.533066	2007.Kirby
-4.834096	2007.Looking
-4.356975	2007.Mr.
-4.232036	2007.Net
-4.834096	2007.Non-GAAP
-4.834096	2007.Operating
-4.834096	2007.Phillips-Van
-4.834096	2007.Record
-4.356975	2007.Revenue
-4.834096	2007.Revenues
-4.834096	2007.Sales
-4.356975	2007.Service
-4.834096	2007.Starbucks
-4.834096	2007.Th"
-3.511877	2007.The
-4.356975	2007.This
-4.533066	2007.Total
-4.834096	2007.Under
-4.055945	2007;
-2.593547	2008
-3.210847	2008,
-3.453885	2008.
-4.533066	2008."
-4.834096	2008."Big
-4.834096	2008."Discovery
-4.356975	2008."Dolby
-4.533066	2008."Fidelity
-4.834096	2008."Fluor
-4.533066	2008."Hansen
-4.356975	2008."Illumina
-4.533066	2008."Kirby
-4.533066	2008."Molex
-4.834096	2008."Panera
-4.834096	2008."Phillips-Van
-4.834096	2008."Principal
-4.834096	2008."Service
-4.834096	2008."The
-4.533066	2008.AK
-4.135127	2008.As
-4.834096	2008.At
-4.834096	2008.Atheros
-4.834096	2008.Brocade
-4.834096	2008.Cadence
-4.834096	2008.Capitol
-4.834096	2008.Discovery
-4.356975	2008.Dolby
-4.834096	2008.EBITDAX
-4.834096	2008.Eaton
-4.533066	2008.Fidelity
-4.834096	2008.Fluor
-3.302618	2008.For
-4.834096	2008.Fred
-4.834096	2008.Gentex
-4.834096	2008.Hansen
-4.533066	2008.Harsco
-4.533066	2008.KeyCorp
-4.533066	2008.Kirby
-4.533066	2008.Molex
-4.834096	2008.Net
-4.356975	2008.On
-4.356975	2008.Operating
-4.834096	2008.Panera
-4.356975	2008.Phillips-Van
-4.834096	2008.Principal
-4.834096	2008.Revenue
-3.658005	2008.The
-4.533066	2008.This
-4.533066	2008.Total
-4.834096	2008.Under
-3.687968	2008;
-2.834096	2009
-3.453885	2009,
-3.533066	2009.
-4.834096	2009."
-4.834096	2009."Cadence
-4.834096	2009."Carolina
-4.834096	2009."Eaton
-4.834096	2009."Fidelity
-4.834096	2009."Fluor
-4.834096	2009."Kirby
-4.834096	2009."Molex
-4.834096	2009."Panera
-4.834096	2009."Service
-4.834096	2009."The
-4.135127	2009.AK
-4.356975	2009.Atheros
-4.834096	2009.Big
-4.834096	2009.Cadence
-4.834096	2009.Comparable
-4.533066	2009.Concho
-4.834096	2009.Consolidated
-4.834096	2009.Discovery
-4.232036	2009.Dolby
-4.834096	2009.Dolby's
-4.135127	2009.Fidelity
-4.834096	2009.First
-4.834096	2009.Fluor
-3.578824	2009.For
-4.834096	2009.Frontier
-4.834096	2009.Gentex
-4.533066	2009.Hansen
-4.834096	2009.Health
-4.533066	2009.Illumina
-4.356975	2009.In
-4.356975	2009.Income
-4.834096	2009.Investment
-4.834096	2009.Mr.
-4.356975	2009.Net
-4.232036	2009.Non-GAAP
-4.533066	2009.On
-4.834096	2009.Panera
-4.834096	2009.Phillips-Van
-4.533066	2009.Principal
-4.834096	2009.Purchases
-4.834096	2009.SIM2's
-4.834096	2009.Service
-3.792704	2009.The
-3.578824	2009;
-3.161999	2010
-3.658005	2010,
-4.232036	2010.
-4.834096	2010."Atheros
-4.834096	2010."Fidelity
-4.834096	2010."Fluor
-4.834096	2010."Kirby
-4.834096	2010."Phillips-Van
-4.834096	2010."Principal
-4.834096	2010."Starbucks
-4.834096	2010.As
-4.533066	2010.Atheros
-4.834096	2010.Big
-4.834096	2010.BofA
-4.834096	2010.Competitive
-4.533066	2010.Dolby
-4.834096	2010.Fluor
-3.629976	2010.For
-4.834096	2010.Health
-4.232036	2010.Illumina
-4.834096	2010.Jeffery
-4.834096	2010.Merrill,
-4.834096	2010.News
-4.834096	2010.Phillips-Van
-4.533066	2010.Revenue
-4.533066	2010.Service
-4.834096	2010.SmartBeam
-4.055945	2010.The
-4.834096	2010.This
-4.834096	2010.Under
-4.533066	2010.Venue:
-4.834096	2010.Wells
-3.687968	2010;
-3.511877	2011
-4.135127	2011,
-4.356975	2011.
-4.533066	2011."Cadence
-4.533066	2011."Fluor
-4.834096	2011."Panera
-4.834096	2011."Phillips-Van
-4.834096	2011."Service
-4.834096	2011.Agenda:
-4.533066	2011.Big
-4.533066	2011.Brocade
-4.834096	2011.Cadence
-4.834096	2011.Cephalon
-4.232036	2011.Fluor
-4.834096	2011.Following
-4.055945	2011.For
-4.834096	2011.Gentex
-4.834096	2011.Howard
-4.834096	2011.IHS
-4.834096	2011.JPMorgan
-4.533066	2011.Kirby
-4.834096	2011.Ms.
-4.834096	2011.Seaton
-4.834096	2011.Service
-4.834096	2011.Starbucks
-4.834096	2011.The
-4.356975	2011.Venue:
-4.834096	2011.While
-4.232036	2011;
-4.533066	2012
-4.834096	2012.An
-4.533066	20;
-4.055945	21
-4.834096	21%
-3.754915	21,
-4.834096	21.2%
-4.834096	21.4%
-4.834096	21.7%
-4.834096	210,000
-3.988998	22
-4.356975	22%
-3.511877	22,
-4.834096	22-year
-4.533066	225
-3.988998	23
-4.834096	23%
-4.834096	23%.First
-4.834096	23%.Net
-4.834096	23%.Second
-3.419123	23,
-4.834096	23.2%,
-4.834096	23.4%
-4.834096	23.5%
-3.834096	24
-3.555343	24,
-4.834096	24,000,000
-4.533066	24-port
-4.834096	24.Speaking
-4.834096	244.9%
-4.834096	245%
-4.533066	248.686
-4.135127	25
-4.135127	25%
-3.931006	25,
-4.834096	25,000
-4.834096	25,387,586
-4.834096	250,000
-4.834096	250M,'
-4.834096	25th,
-4.533066	25x
-4.356975	26
-4.834096	26%
-4.834096	26%.Fourth
-3.687968	26,
-4.834096	26.1%
-4.834096	26.Mr.
-4.533066	260
-4.834096	26th
-4.232036	27
-4.834096	27%
-3.491674	27,
-4.834096	27.52%
-4.834096	27.9
-4.834096	27.9%
-4.834096	270
-4.055945	28
-4.834096	28%.Net
-3.356975	28,
-4.834096	28,566,944
-4.834096	28,589
-4.533066	28th
-4.055945	29
-4.834096	29%
-3.265895	29,
-4.834096	2U
-4.834096	2x100
-3.988998	3
-4.533066	3%
-3.687968	3,
-4.834096	3,000
-4.834096	3,053,633
-4.834096	3,100,000
-4.834096	3,300
-4.834096	3,440,000
-4.834096	3--5
-4.834096	3-D
-4.834096	3-tier
-4.834096	3.0%,
-4.834096	3.2
-4.356975	3.2%
-4.834096	3.4%
-4.834096	3.5
-4.834096	3.6%
-4.834096	3.7V,
-4.834096	3.8
-4.834096	3.8%
-4.834096	3.8%,
-4.834096	3.9%
-4.834096	3.The
-4.232036	30
-4.533066	30%
-2.67876	30,
-4.356975	300
-4.533066	3000
-4.834096	300X.
-4.834096	303A
-4.834096	309,800
-4.834096	30th
-4.834096	31%
-2.720153	31,
-4.834096	31.0
-4.834096	31.5
-4.533066	317,000
-4.356975	32
-4.834096	32%
-4.834096	32%,
-4.834096	3200
-4.834096	3200,
-4.834096	32204,United
-4.834096	325,000
-4.834096	33%,
-4.834096	33.15%.Diluted
-4.834096	335
-4.533066	34%
-4.834096	34%.Second-quarter
-4.356975	35
-4.834096	35,244,361
-4.834096	35.5%.Adjusted
-4.834096	35.8%
-4.834096	350,000
-4.834096	365
-4.834096	37.5%
-4.834096	37.7%
-4.834096	375,000,000."
-4.834096	38%
-4.834096	38.4%
-4.834096	38.5
-4.834096	380
-4.232036	39
-4.834096	39,
-4.834096	39.1%
-4.533066	39th
-4.834096	3Com
-4.135127	3D
-4.834096	3G
-4.834096	3GSM
-4.834096	3X
-4.834096	3x3
-3.629976	4
-4.834096	4%
-4.834096	4%.Sales
-4.834096	4+3+PE
-3.629976	4,
-4.533066	4,000,000
-4.834096	4,000-square-foot
-4.834096	4,304,200
-4.834096	4.0
-4.834096	4.0%
-4.834096	4.0,
-4.834096	4.3
-4.834096	4.3%
-4.533066	4.4%
-4.356975	4.9%
-4.232036	40
-4.533066	40%
-4.834096	40%-46%,
-4.055945	400
-4.834096	400,000
-4.834096	41
-4.834096	41%
-4.834096	41.2%
-4.834096	41.7%
-4.834096	4100,
-4.834096	42%
-4.834096	42.7%
-4.834096	42.75"
-4.834096	42nd
-4.533066	43
-4.533066	43%
-4.834096	43,
-4.834096	43-week
-4.533066	43.2%
-4.834096	44%.First
-4.834096	44.0%,
-4.834096	44.1%
-4.834096	44.8%
-4.232036	45
-4.834096	45-nanometer/65-nanometer
-4.834096	45th
-4.834096	46,
-4.834096	464,000
-4.834096	47
-4.834096	47%
-4.834096	47-inch
-4.834096	48,000
-4.834096	48-well
-4.834096	48.5
-4.356975	48000
-4.834096	48226,
-4.834096	49,
-4.834096	49.5%
-4.356975	4900
-4.533066	4900,
-4.834096	4900.Brocade
-4.834096	4Gb
-3.931006	5
-4.135127	5%
-4.834096	5+PE
-3.792704	5,
-4.834096	5,300,000
-4.834096	5,538,143
-4.834096	5,545,531,
-4.834096	5,795,716
-4.533066	5.1
-4.834096	5.1%
-4.834096	5.3
-4.834096	5.5%
-4.533066	5.563%
-4.533066	5.8%
-4.834096	5.9%
-3.879854	50
-4.055945	50%
-4.834096	50%,
-3.658005	500
-4.834096	500,000
-4.533066	500/Citigroup
-4.834096	500G
-4.834096	500G,
-4.834096	500GX
-4.834096	50392-0100,United
-4.533066	510
-4.533066	52
-4.834096	52-week
-4.834096	52.4
-4.834096	53.2%
-4.834096	53.5
-4.834096	54,
-4.834096	543
-4.834096	543,000
-4.533066	5480
-4.834096	55
-4.834096	55%
-4.834096	55,000
-4.834096	56
-4.356975	56%
-4.834096	565
-4.533066	58%
-4.834096	580
-4.834096	59%
-4.834096	59,
-4.356975	6
-4.232036	6%
-3.792704	6,
-4.834096	6,399,365,
-4.834096	6,600,000
-4.834096	6,622,517
-4.834096	6,646,243,
-4.834096	6,750,000
-4.834096	6-pole
-4.834096	6-port
-4.232036	6.1
-4.834096	6.1%
-4.834096	6.2%
-4.834096	6.4%
-4.533066	6.518%
-4.834096	6.6%
-4.055945	60
-4.834096	60%
-4.834096	60,000
-4.232036	600
-4.834096	600,000-metric-ton
-4.834096	601
-4.834096	60611,United
-4.533066	61
-4.834096	62.1%
-4.834096	62.2
-4.834096	63
-4.533066	63%
-4.834096	634,000
-4.356975	64
-4.834096	64-port
-4.533066	64-port,
-4.834096	640,000
-4.232036	65
-4.834096	65%
-4.834096	65,
-4.834096	655
-4.834096	66%
-4.834096	67
-4.834096	67%
-4.834096	676,000
-4.834096	68
-4.834096	68-718
-4.834096	69%
-4.533066	6;
-3.931006	7
-4.135127	7%
-4.834096	7%.
-4.834096	7%."
-3.834096	7,
-4.834096	7,740,757
-4.834096	7.1
-4.834096	7.4%
-4.834096	7.6
-4.834096	7.7%
-4.834096	7.750%
-4.834096	7.9%
-4.356975	7/8%
-4.834096	70
-4.232036	70%
-4.834096	70%.Additionally,
-4.834096	700,000
-4.834096	70112,
-4.533066	711
-4.533066	72.43%
-4.834096	73
-4.834096	73%
-4.834096	73.1%
-4.356975	75
-3.931006	75%
-4.834096	7500
-4.834096	755
-4.834096	76,000
-4.834096	77%
-4.834096	775
-4.834096	78
-4.533066	79
-4.834096	79%
-4.232036	8
-4.356975	8%
-3.931006	8,
-4.834096	8,000,000
-4.834096	8,000,000.On
-4.533066	8-Pole
-4.834096	8-pole
-4.834096	8-port,
-4.533066	80
-4.356975	80%
-4.834096	80%.Atheros'
-4.834096	80.1%
-4.533066	8000
-4.834096	800mAh
-4.533066	802.11
-4.834096	802.11a
-4.834096	802.11a/g
-4.834096	802.11b/g
-4.232036	802.11g
-3.988998	802.11n
-4.834096	802.11n-chipset,
-4.834096	802.16-2004
-4.834096	81
-4.834096	83
-4.834096	84
-4.834096	85
-4.834096	86%
-4.834096	87
-4.834096	88.9%
-4.834096	885
-4.834096	89
-4.834096	8:00
-4.135127	8:30,
-4.834096	9
-4.055945	9%
-4.834096	9%,
-4.834096	9%.In
-3.988998	9,
-4.834096	9,000,000
-4.533066	9.3
-4.834096	9.8%
-4.834096	90%
-4.533066	90-nanometer
-4.533066	900,000
-4.834096	900,831
-4.834096	91%
-4.533066	92
-4.834096	92.1%
-4.834096	92037,
-4.834096	94%
-4.834096	95
-4.834096	95.8
-4.533066	95054,United
-4.834096	95110,United
-4.834096	97
-4.834096	9700
-4.834096	99
-4.834096	99%
-4.834096	99.5%
-4.834096	99.99%
-3.008021	;
-1.913451	</s>
-99	<s>
-4.834096	?1,264
-4.834096	?1.162-27
-4.533066	?1.9
-4.533066	?11.8
-4.834096	?175
-4.834096	?205
-4.834096	?656
-4.533066	?total
-3.931006	A
-4.834096	A&E
-4.834096	A,
-4.055945	A.
-4.834096	A.G.
-4.834096	A.G.,
-4.834096	A.G.He
-4.834096	A/D
-4.834096	A/S
-4.834096	AAG).The
-4.232036	AB
-4.834096	ACTIQ
-4.533066	ACTIQ(R)
-4.834096	ACTIQ(R).Cephalon
-4.834096	ACTS
-4.834096	ADHD
-4.533066	ADM100
-4.533066	ADS
-4.834096	ADVP)
-2.834096	AES
-4.232036	AES's
-4.356975	AES)
-4.533066	AES,
-4.834096	AES.As
-4.834096	AG
-4.834096	AIDS
-3.265895	AK
-4.834096	AK's
-4.533066	AK-ISG
-4.834096	AM.Atheros
-4.834096	AM.Concho
-4.834096	AM.Health
-4.533066	AM.Illumina
-4.135127	AM.Venue:
-4.356975	AMR
-4.834096	AMRs
-4.834096	AOL
-4.834096	AOL.
-4.834096	AOL.McKinley
-4.533066	AP/ODA
-4.356975	APN
-4.834096	APN.News
-4.834096	APN.Tony
-4.533066	AR1900
-4.834096	AR1900,
-4.834096	AR5005G
-4.533066	AR5008AP-3NX2
-4.834096	AR5008AP-3NX2,
-4.135127	AR6002
-4.834096	AR7100
-4.834096	AR7161
-4.533066	AR7161.The
-4.533066	AR8216
-4.834096	ASIC
-4.834096	ASR
-4.834096	ASR.The
-4.533066	ASUSTek
-4.834096	ASX-listed
-4.232036	ATHR)
-4.834096	ATPG
-4.055945	AUD
-4.533066	AVR
-4.834096	AVY;
-4.533066	Abele
-4.834096	Abele,
-4.533066	Aberdeen
-4.232036	Abramson
-4.356975	Academy
-4.834096	Academy's
-4.533066	Accelerates
-4.135127	Access
-4.834096	Accountability
-4.834096	Accounting
-4.834096	Achieve
-4.834096	Acquired.Hansen
-4.834096	Acquisitions
-4.834096	Acquisitions.Discovery
-4.834096	Acquisitions.Dolby
-4.533066	Acquisitions.Eaton
-4.834096	Acquisitions.Illumina
-4.834096	Acquisitions.News
-4.834096	Across
-3.988998	Act
-4.834096	Act').The
-4.834096	Act."
-4.834096	Act.Carl
-4.834096	Act.Tribune
-4.232036	Action
-4.232036	ActiveParts
-4.834096	Acuity
-4.834096	Adapters,
-4.135127	Additional
-4.834096	Address
-4.356975	Adimos
-4.834096	Adimos'
-4.834096	Adjusted
-4.834096	Adler,
-4.232036	Administration
-4.834096	Administrator
-4.533066	Adopts
-4.055945	Advance
-4.834096	AdvancePCS;
-3.931006	Advanced
-4.834096	Advisers.The
-4.834096	Advises
-4.232036	Advisors,
-4.356975	Advisory
-4.834096	Advokatfirman
-4.834096	Aes
-4.232036	Affymetrix
-4.834096	Affymetrix'
-4.834096	Afghanistan
-4.834096	Afghanistan.DynCorp
-4.533066	Africa
-4.533066	Africa,
-4.834096	Africa.
-4.834096	Africa.Starbucks
-4.834096	Africa.The
-4.533066	African
-4.834096	After
-3.879854	Against
-4.834096	Aged
-4.834096	Agenda:
-4.055945	Agreement
-4.834096	Agreement,
-4.834096	Agreement.Basell
-4.834096	Agreement.Concho
-4.834096	Agreement.Illumina
-4.834096	Agreement.On
-4.135127	Agreements
-4.834096	Airline
-4.834096	Alacritus
-4.533066	Alan
-4.834096	Albany,
-4.356975	Albrecht
-4.834096	Alcohol
-4.834096	Alderwoods
-4.834096	Alex
-4.533066	Alfa
-4.533066	Alfa's
-4.834096	Alger
-4.834096	Ali
-4.533066	Alkermes
-4.834096	Alkermes,
-4.834096	Allegro
-4.834096	Allegro(R)
-4.834096	Allen
-4.232036	Alliance
-4.834096	Allied
-4.834096	Alt-A
-4.533066	Alta
-4.834096	Alternatives.Citizens
-4.135127	Altschul
-4.533066	Alzheimer's
-4.533066	AmLaw
-4.533066	Amazon
-4.834096	Amazon's
-4.533066	Amazon.com
-4.232036	Ambit
-4.834096	Ame
-3.931006	Amended
-3.931006	Amendment
-4.356975	Amendment,
-4.135127	Amendments
-4.834096	Amends
-3.834096	America
-4.135127	America,
-4.356975	America.
-4.834096	America.Cephalon
-4.834096	America.Excluding
-4.834096	America.Poulsen
-3.754915	American
-4.356975	Americas,
-4.834096	Amsterdam.SIM2
-4.533066	An
-4.834096	Analog
-4.356975	Analysis
-4.834096	Analysis.Illumina
-4.834096	Analyst
-4.834096	Analyst/Investor
-3.988998	Analyzer
-4.533066	Analyzer,
-4.834096	Analyzers,
-4.834096	Analyzers.Illumina
-4.834096	Analyzers.The
-4.834096	And
-4.834096	Andres
-4.834096	Andrews
-4.834096	Angela
-4.356975	Angeles
-4.834096	Angeles,
-4.232036	Anheuser-Busch
-4.834096	Animal
-4.834096	Anna
-4.232036	Announce
-3.555343	Announced
-3.055945	Announces
-3.265895	Annual
-4.533066	Annuity
-4.834096	Anonima
-4.834096	Another
-4.834096	Anritsu
-4.834096	Anticipates
-4.533066	Antitrust
-4.232036	Apax
-4.834096	Apnea,
-4.834096	Appeals
-4.135127	Application
-4.834096	Applications
-4.834096	Applications.Brocade
-4.055945	Applied
-4.533066	Appointment
-4.834096	Appointments.KeyCorp
-3.687968	Appoints
-4.533066	Approval
-4.533066	Approves
-4.533066	Approximately
-3.658005	Apr
-4.232036	Apr-11-2010
-4.834096	Apr-12-2010,
-4.834096	Apr-14-2010.Newspaper
-4.834096	Apr-14-2010.The
-4.533066	Apr-14-2010.Venue:
-4.834096	Apr-18-2006.Illumina
-4.533066	Apr-19-2011
-4.834096	Apr-21-2009.AK
-4.834096	Apr-22-2008.Molex
-4.834096	Apr-23-2009.Atheros
-4.834096	Apr-24-2008.Kirby
-4.834096	Apr-27-2005.Illumina
-4.834096	Apr-28-2009.Fidelity
-3.014552	April
-4.834096	April,
-4.834096	April.
-4.356975	Apron
-4.834096	Arabia
-4.834096	Arabian
-4.834096	ArcelorMittal
-3.658005	Area
-4.533066	Argentina
-4.356975	Argus-Courier
-4.533066	Argus-Courier;
-4.533066	Arizona
-4.533066	Arizona,
-4.834096	Arkansas.The
-4.834096	Arlington,
-4.834096	Arlington-based
-4.533066	Army
-4.834096	Army.Fluor
-4.834096	Army.Fluor,
-4.834096	Army.The
-4.135127	Array
-4.834096	Arrays
-4.834096	Art,
-4.232036	Arthur
-4.232036	Article
-4.232036	Articles
-4.834096	As
-4.232036	Asesoramiento
-4.356975	Asia
-4.834096	Asia,
-4.834096	Asia-Pacific
-4.533066	Assay
-4.834096	Assay,
-4.834096	Assays
-4.834096	Asset
-4.834096	Assets.Discovery
-4.834096	Assets.The
-4.356975	Assets;
-4.232036	Assist
-4.834096	Assist"
-4.834096	Associated
-4.232036	Associates
-4.232036	Associates,
-4.135127	Association
-4.834096	Association's
-4.356975	Association,
-4.533066	Astralloy
-4.834096	At
-3.027916	Atheros
-3.687968	Atheros'
-4.533066	Atheros,
-4.834096	Atheros.ASUSTek
-4.834096	Atlanta,
-4.533066	Atlantic
-4.533066	Attansic
-4.533066	Audio
-4.834096	Audio-processing
-3.931006	Audit
-4.834096	Auditorium
-4.834096	Auditorium,
-4.055945	Aug
-4.533066	Aug-01
-4.834096	Aug-01-2007.Dolby
-4.834096	Aug-01-2007.Starbucks
-4.533066	Aug-06
-4.834096	Aug-06-2008.Molex
-4.834096	Aug-06-2009.Hansen
-4.834096	Aug-10-2006.Service
-4.834096	Aug-11-2008.Fluor
-4.834096	Augmentation
-3.491674	August
-4.834096	Augusta,
-4.533066	Auris
-4.834096	Auris.In
-4.834096	Austin.Salomon
-4.232036	Australia
-4.834096	Australia's
-4.533066	Australia,
-4.533066	Australian
-4.834096	Austria
-4.834096	Austria.Fluor
-4.834096	Authority,
-4.834096	Authorizes
-4.356975	Auto
-4.834096	Auto-Dimming
-4.834096	Automated
-4.232036	Automatic
-3.834096	Automation
-4.533066	Automobile
-4.232036	Automotive
-4.135127	Availability
-4.533066	Available
-4.834096	Avantome
-4.232036	Avantome,
-4.834096	Ave.),
-4.232036	Avenue
-4.232036	Avenue,
-3.834096	Avery
-4.834096	Avoid
-4.533066	Awarded
-3.988998	B
-4.834096	B-vitamins,
-4.232036	B.
-4.533066	B.V.
-4.834096	B.V..
-4.834096	BASE(TM)
-4.834096	BASETM
-4.834096	BASF-YPC
-4.834096	BGI
-4.834096	BGI's
-4.533066	BIOCOM's
-4.533066	BLDA
-4.834096	BNP
-4.834096	BSkyB.FT.com
-4.834096	BSkyB.The
-4.834096	Backplane
-4.834096	Backup
-4.834096	Baghdad.
-4.533066	Baker
-4.834096	Bakery-Cafe
-4.834096	Bakery-Cafes
-4.834096	Bakke
-4.834096	Balance
-4.533066	Banc
-4.356975	BancBoston
-4.533066	Bangladesh
-4.834096	Bangladesh's
-3.687968	Bank
-4.533066	Bank,
-4.834096	Banking
-4.356975	Baquet
-4.834096	Barcelona
-4.834096	Barden
-4.834096	Barney
-4.834096	Baron
-4.834096	Baronne
-3.988998	Barr
-4.533066	Barratt,
-4.834096	Bartlett
-4.834096	Based
-4.533066	Basell
-4.834096	Basell.
-4.834096	Basin
-4.834096	Bassett
-4.533066	Bayway
-4.533066	Bead
-4.135127	BeadArray
-4.834096	BeadArray(TM)
-4.834096	BeadArray(TM),
-4.834096	BeadArray?technology
-3.720153	BeadChip
-4.135127	BeadChip,
-4.834096	BeadChip.
-4.232036	BeadChip.Illumina
-4.834096	BeadChip.Illumina's
-4.834096	BeadChip.The
-4.834096	BeadChip.This
-4.533066	BeadChips
-4.834096	BeadChips.Illumina
-4.834096	BeadChips.These
-4.356975	BeadLab
-4.834096	BeadLab,
-4.356975	BeadStation
-4.834096	BeadStudio
-4.834096	BeadXpress(R),
-4.834096	Beadchip,
-4.834096	Beadchips.Illumina
-4.356975	Beal
-4.834096	Beam
-4.834096	Beckman
-4.834096	Become
-4.834096	Behalf
-4.533066	Beijing
-4.834096	Beijing,
-4.834096	Being
-4.356975	Bell
-4.533066	Benaroya
-4.834096	Benchtop
-4.533066	Benefit
-4.533066	Berens
-4.834096	Bermant
-4.533066	Beverage
-4.834096	Beyond
-4.834096	Bid
-4.834096	Bid.News
-3.754915	Big
-4.356975	Bill
-4.356975	Billion
-4.356975	BioSciences
-4.834096	Biochemistry
-4.834096	Biochemistry.Illumina
-4.834096	Biomedical
-4.834096	Biopharmaceuticals,
-4.232036	Biosciences
-4.834096	Biosciences,
-4.834096	Biosite
-4.834096	Biosite,
-4.834096	Biosystems.
-4.356975	Biotechnology
-4.834096	Birck
-4.834096	Bird
-4.834096	Birthday
-4.533066	Bjarne
-4.356975	Black
-4.834096	Blade,
-3.720153	BladeSystem
-4.834096	Bladesystem
-4.834096	Blake
-4.834096	Blend
-4.834096	Blend(TM)
-4.533066	Blend(TM),
-4.834096	Blend,
-4.834096	Blend.Starbucks
-4.834096	Blood
-4.533066	Blue
-2.964864	Board
-4.834096	Board,
-4.834096	Board.AK
-4.834096	Board.In
-4.834096	Board.Lip-Bu
-4.834096	Board.The
-4.356975	Boeckmann
-4.834096	Boeckmann,
-4.135127	BofA
-4.834096	Boise
-4.834096	Boise,
-4.356975	Bolton
-4.834096	Bonus
-4.834096	Book
-4.834096	Boost
-3.931006	Boston
-4.135127	Boston,
-4.834096	Botts
-4.834096	Boulevard
-4.834096	Boulevard,
-4.834096	Brad
-4.834096	BradConnectivity
-4.533066	BradConnectivity(TM)
-4.834096	Brand
-4.356975	Brasil
-4.533066	Brazilian
-3.328946	Bread
-4.834096	Bread's
-4.834096	Breakfast,
-4.834096	Breaks
-4.834096	Breakthrough
-4.135127	Brew
-4.834096	BrightSide
-4.834096	Bring
-4.834096	Brings
-4.232036	Brinzo
-4.356975	British
-4.135127	Broad
-4.834096	Broad,
-4.834096	Broadband
-4.834096	Broadcast.Dolby
-2.744191	Brocade
-4.356975	Brocade's
-4.834096	Brocade,
-4.533066	Brothers
-4.834096	Brothers,
-4.834096	Brothers.
-4.834096	Bs.2,547
-4.834096	Bskyb
-4.834096	Budget
-4.834096	Bugs!,
-4.533066	Build
-4.533066	Builders
-4.834096	Builders,
-4.834096	Building
-4.533066	Bulgaria
-4.834096	Bulgaria.Starbucks
-4.834096	Bureau
-4.834096	Burnaby,
-4.834096	Bush
-3.687968	Business
-4.834096	Business.In
-4.834096	Business.Starbucks
-4.834096	Butler,
-3.754915	Buyback
-4.834096	Buyback.Gentex
-4.533066	Buyback.On
-3.386938	Buyer(s):
-4.834096	Buys.Fluor
-4.834096	Buys.Molex
-4.834096	Buys.Service
-4.834096	By
-4.834096	By-laws
-4.533066	By-laws,
-4.533066	By-laws.Section
-4.232036	Bylaws
-4.533066	Bylaws,
-4.356975	Bylaws.On
-4.834096	C-Class.Brocade
-4.533066	C4
-4.834096	C4,
-4.232036	CA
-4.834096	CAB.Built
-4.356975	CANTV
-4.834096	CANTVs
-4.834096	CANTV's
-4.834096	CARe
-4.834096	CARe)
-4.834096	CASH
-4.834096	CATCH
-4.834096	CDMA2000(R)
-4.356975	CDN)
-4.834096	CDN).Under
-4.834096	CE
-4.834096	CEE
-4.834096	CEE:
-3.792704	CEO
-4.834096	CEO.
-4.834096	CEO.Starbucks
-4.356975	CEPH)
-4.834096	CER)
-4.834096	CFFN
-4.834096	CFO
-4.834096	CFR
-4.834096	CGEMS
-4.834096	CIB
-4.834096	CIDR's
-4.135127	CILCORP
-4.834096	CILCORP's
-4.834096	CIO,
-4.232036	CIS
-4.356975	CMOS
-4.834096	CNA
-4.834096	CNA.The
-4.533066	CNAs
-4.533066	CNV
-4.533066	COO
-4.834096	COT
-4.533066	CPF-enabled
-4.356975	CSPro
-4.834096	CSProTM
-4.356975	CTC
-4.834096	CTC."We
-4.834096	CXO)
-4.834096	CXS
-4.533066	CXS)
-4.834096	Ca
-2.884706	Cadence
-4.533066	Cadence's
-3.687968	Cadence(R)
-4.834096	Cadence.This
-4.834096	Cadence/MatrixOne
-4.834096	Cadillac
-4.834096	Cajamarca.Fluor
-4.834096	Cake
-4.834096	Cake,
-3.792704	California
-4.533066	California's
-3.931006	California,
-4.533066	California.
-4.834096	California.Panera
-4.834096	California.The
-4.356975	Call
-2.825496	Call,
-4.834096	Call.Alkermes,
-3.754915	Call.Atheros
-4.055945	Call.Brocade
-4.533066	Call.Cadence
-4.834096	Call.Discovery
-4.533066	Call.Fidelity
-4.533066	Call.Fluor
-4.834096	Call.Harsco
-4.834096	Call.Health
-4.834096	Call.Illumina
-4.533066	Call.Kirby
-3.931006	Call.Molex
-4.533066	Call.Phillips-Van
-4.533066	Call.Service
-4.533066	Call.The
-3.658005	Call.To
-3.190644	Calls
-4.356975	Calvin
-4.834096	Camberley,
-4.356975	Camera
-4.834096	Cameron
-4.834096	Camp
-4.533066	Canada
-4.834096	Canada.
-4.834096	Canada.The
-4.834096	Canadian
-4.834096	Cancelled
-4.055945	Cancer
-4.834096	Candidate-gene
-4.834096	Canyon
-4.533066	Capabilities
-4.834096	Capabilities.Brocade
-4.834096	Capacity
-4.834096	Capacity.Brocade
-3.754915	Capital
-4.232036	Capital,
-4.834096	Capital.Paul
-4.834096	Capital.Wilson
-4.232036	Capitol
-4.834096	Cappuccino,
-4.533066	Capture
-4.232036	Card
-4.834096	Card."Starbucks
-4.834096	Card.Designed
-4.834096	Cards
-4.533066	Care
-4.834096	Carlton
-4.533066	Carlyle
-4.834096	Cartagena,
-4.533066	Carter
-3.879854	Cash
-4.533066	Caspian
-4.834096	Casualty
-4.834096	Category.Starbucks
-4.533066	Cathedral
-4.533066	Celestry
-4.533066	Celestry's
-4.834096	Celestry,
-4.834096	CellNet
-4.834096	Cellular
-4.834096	Cemeteries
-4.356975	Centennial
-4.834096	Centennial.
-3.491674	Center
-4.834096	Center's
-4.533066	Center,
-4.533066	Center.
-4.834096	Center.Big
-4.834096	Center.Brocade
-4.834096	Center.Lundberg,
-4.834096	Centerpoint
-3.931006	Central
-4.834096	Centralize
-4.533066	Centre
-4.834096	Centre.A
-4.834096	Centre.Fluor
-4.834096	Centre.Starbucks
-3.101702	Cephalon
-4.356975	Cephalon,
-4.834096	Cephalon.
-4.834096	Cephalon.Cephalon
-4.834096	Cephalon.PsychoGenics
-4.834096	Cephalon.The
-4.834096	Certain
-4.232036	Certificate
-4.533066	Certified
-3.720153	Chairman
-4.356975	Chairman,
-4.533066	Change(s)
-4.834096	Changed
-4.533066	Changes
-4.834096	Changes.Atheros
-4.834096	Changes.Discovery
-4.834096	Changes.Fluor
-4.834096	Changes.Health
-4.834096	Changes.Molex
-4.834096	Changes.The
-4.834096	Changes.Thomas
-3.834096	Channel
-4.356975	Channel,
-4.834096	Channel.
-4.834096	Channels
-4.834096	Channels,
-4.356975	Chapin
-4.232036	Charges
-4.834096	Charges."Atheros
-4.834096	Charges."Cadence
-4.834096	Charges."Concho
-4.834096	Charges."Health
-4.834096	Charges."Phillips-Van
-4.834096	Charges.Concho
-4.533066	Charges.Principal
-4.834096	Charretour
-3.988998	Chase
-4.055945	ChemGenex
-4.834096	ChemGenex.The
-3.792704	Chemical
-4.533066	Chicago,
-4.834096	Chicago.
-4.834096	Chicken
-3.277794	Chief
-4.834096	Chief.
-4.834096	Chile
-4.533066	China
-4.834096	China,
-4.834096	China.Atheros
-4.834096	China.Fluor
-4.834096	China.John
-4.834096	China.Starbucks
-4.834096	China.Startup
-4.834096	China.The
-4.834096	China.UTStarcom
-4.533066	Chinese
-4.834096	Chino.Officials
-4.356975	Chip
-4.834096	Chip,
-4.834096	Chips.These
-4.834096	Chocolate
-4.533066	Chooses
-4.834096	Chris
-4.533066	Christopher
-4.135127	Cinema
-4.533066	Circuit
-4.834096	Circulation-media
-3.834096	Citizens
-4.533066	Citroen
-4.834096	Citroen.The
-3.988998	City
-4.834096	City.But
-4.834096	City.The
-4.834096	Civil
-4.834096	Cl
-4.232036	Clara,
-3.511877	Class
-4.834096	Clean
-4.834096	Cleveland
-4.834096	Cleveland,
-4.533066	Cleveland-Cliffs
-4.834096	Cleveland.Employees
-4.834096	Cleveland.He
-4.834096	Clifton
-4.834096	Climb
-4.834096	Clinical
-4.834096	Close.Starbucks
-3.834096	Closed
-4.834096	Closures."Starbucks
-4.135127	Cluett
-4.533066	Co
-4.834096	Co-Chairman
-4.232036	Co-Lead
-4.834096	Co-operatives
-3.171339	Co.
-4.232036	Co.'s
-3.879854	Co.,
-4.055945	Co.;
-4.834096	Co.Announced
-4.533066	Co.Announces
-4.533066	Co.Incorporated
-4.834096	Coal
-4.834096	Coalition
-4.533066	Coating
-4.834096	Cocoa
-4.834096	Cocoa.
-4.834096	Code
-4.232036	Coding
-3.658005	Coffee
-4.834096	Coffee,
-4.533066	Cohen
-4.533066	Cold
-4.533066	Coles
-4.834096	Collaborate
-4.135127	Collaboration
-4.834096	Collaboration.Illumina
-4.834096	Collins
-4.834096	Colombia;
-4.533066	Colorado
-4.834096	Colorado.Together,
-4.834096	Columbia
-4.834096	Columbus,
-4.834096	CommVault
-4.834096	Commerce
-4.533066	Commercialization
-3.988998	Commission
-4.533066	Commission.The
-3.931006	Committee
-4.533066	Committee.
-4.834096	Committee.Mr.
-4.533066	Committee.The
-4.533066	Committees
-4.834096	Committees,
-3.988998	Common
-4.834096	Commons
-2.51395	Communications
-4.834096	Communications'
-4.834096	Communications).In
-3.658005	Communications,
-4.834096	Communications.
-4.834096	Communications.News
-4.834096	Compa
-4.834096	Compan
-4.834096	Companhia
-4.834096	Compania
-3.578824	Companies
-4.834096	Companies'
-3.931006	Companies,
-4.834096	Companies.Brocade
-4.834096	Companies.Health
-4.834096	Companies.In
-2.909817	Company
-3.135126	Company's
-4.834096	Company's"
-3.792704	Company,
-4.232036	Company-operated
-4.533066	Company.
-4.834096	Company."
-4.834096	Company..
-4.834096	Company.Attorney
-4.834096	Company.Hansen
-4.834096	Company.In
-4.834096	Company.Starbucks
-4.834096	Company.Terms
-4.232036	Company;
-4.834096	Comparable
-4.834096	Competition
-4.834096	Complaint
-4.834096	Completes
-4.834096	Complex
-4.834096	Complex.Fluor
-4.834096	Compliance,
-4.834096	Compresses
-4.533066	Computer
-4.834096	Concerning
-3.754915	Concho
-4.834096	Concourse
-4.834096	Cone
-2.909817	Conference
-3.603647	Conference,
-4.834096	Conferences
-4.834096	Conferences,
-4.834096	Conformal
-4.834096	Conformal(R)
-4.533066	Conga
-4.834096	Congress
-4.232036	Connect
-4.834096	Connecticut,
-4.356975	Connection
-4.533066	Connectivity
-4.834096	Connectors
-4.533066	Connors
-4.232036	ConocoPhillips
-4.834096	ConocoPhillips'
-4.834096	ConocoPhillips.River
-3.190644	Consolidated
-4.834096	Consolidation
-4.232036	Consortium
-4.834096	Consortium.He
-4.232036	Constellation
-4.232036	Construction
-4.834096	Consulting
-4.834096	Content
-4.834096	Context-aware
-4.834096	Continent.Starbucks
-4.533066	Continues
-3.988998	Contract
-4.834096	Contract.Fluor
-4.834096	Contractor
-4.533066	Contracts
-4.533066	Control
-4.533066	Controller
-4.533066	Converged
-4.834096	Convergence
-4.834096	Convertible
-4.533066	Core
-4.533066	Corolla
-3.834096	Corp
-4.533066	Corps
-4.834096	Corp's
-2.346958	Corp.
-4.834096	Corp.s
-4.055945	Corp.'s
-3.190644	Corp.,
-4.356975	Corp..
-3.687968	Corp.;
-3.931006	Corp.Announces
-4.834096	Corp.Awarded
-4.834096	Corp.Delays
-4.834096	Corp.Expands
-4.533066	Corp.Opens
-4.834096	Corp.Promotes
-4.834096	Corp.Provides
-4.834096	Corp.Recent
-4.533066	Corp.The
-4.834096	Corp.Under
-4.834096	Corp.s
-3.879854	Corporate
-2.569278	Corporation
-4.834096	Corporations
-4.232036	Corporation's
-4.834096	Corporation)
-3.371698	Corporation,
-4.533066	Corporation.
-4.356975	Corporation..
-4.834096	Corporation.Cadence
-4.834096	Corporation.Dreier
-4.834096	Corporation.Few
-4.834096	Corporation.Fluor
-4.834096	Corporation.There
-4.834096	Corporation.This
-4.533066	Corporation;
-4.834096	Coshocton
-4.834096	Coshocton.In
-4.834096	Cost
-4.834096	Cost.Cadence
-4.834096	Coulter
-4.834096	Council
-4.834096	Council.
-4.533066	County,
-4.834096	County.
-3.687968	Court
-4.834096	Court's
-4.834096	Cowen
-4.834096	Craig
-4.533066	Cream
-4.834096	Creation
-3.879854	Credit
-4.834096	Cross
-4.834096	Cryder
-4.834096	Cryder.They
-4.533066	Culture,
-4.834096	Culver,
-4.834096	Current
-4.135127	Custom
-4.834096	Customer
-4.834096	Customers
-4.834096	Customized
-4.834096	Cut
-4.533066	Cuts
-4.834096	D
-4.834096	D.
-4.533066	DDR
-4.356975	DDR-PHY
-4.834096	DDR-memory-subsystem
-4.834096	DEADLIEST
-4.834096	DFII
-4.834096	DFM
-4.533066	DLB)
-4.135127	DLJ
-4.834096	DMD
-3.879854	DNA
-4.834096	DOE
-4.834096	DRC/LVS/ERC
-4.533066	DS4
-4.834096	DTV
-4.834096	Daily.Before
-4.834096	Dakota,
-4.834096	Dale
-4.834096	Dalton
-4.533066	Darman
-4.834096	Darman,
-3.792704	Data
-4.834096	Databahn
-4.533066	Date
-4.055945	David
-4.834096	Davidson
-4.533066	Davis
-4.834096	Day
-4.834096	Day.To
-4.356975	Daylight
-4.055945	Daylight.Location:
-4.834096	Days
-4.834096	Deal
-4.834096	Deal.Gaiam
-4.834096	Deal.Hansen
-4.533066	Dealers
-4.533066	Dean
-4.834096	Death
-4.834096	Debevoise
-4.533066	Debt
-4.834096	Dec-22-1999
-4.834096	Dec-22-1999.The
-3.931006	Dec.
-2.879854	December
-4.834096	December,
-3.491674	Declares
-4.834096	Defendants
-4.834096	Defendants.Helicos
-4.533066	Definition
-4.834096	Delaware
-4.533066	Delaware,
-4.834096	Deliver
-4.533066	Delivers
-4.356975	Delivery
-4.232036	Deloitte
-4.356975	Delta
-4.356975	Demand
-4.533066	Denali
-4.834096	Denali's
-4.834096	Dennis
-3.754915	Dennison
-4.834096	Dennison's
-4.834096	Density
-4.834096	Density)
-4.834096	Denver
-4.834096	Denver.Starbucks
-4.135127	Department
-4.834096	Dependence.Alkermes
-4.834096	Depositary
-4.834096	Deputy
-4.533066	Des
-2.870308	Design
-4.834096	Design-build
-4.356975	Designer
-4.834096	Designs
-4.834096	Designs.Cadence
-4.356975	Detroit
-4.533066	Detroit,
-4.834096	Deutsche
-4.533066	Develop
-4.135127	Development
-4.834096	Development,
-4.834096	Development.Acquisition
-4.834096	Development.Dolby
-4.834096	Development.Illumina
-4.834096	Development.In
-4.834096	Dewey
-4.834096	DiPentima
-4.834096	Diabetes
-4.834096	Diabetes.One
-4.232036	Diagnostics
-4.834096	Diagnostics,
-4.834096	Diagnostics.Cadence
-4.834096	Diagnostics.Illumina
-4.135127	Diaz
-4.834096	Dickinson,
-4.533066	Diego
-4.834096	Diego,
-4.834096	Diego-based
-4.834096	DigRF(SM)
-4.834096	Digest
-4.834096	Digest,
-3.491674	Digital
-4.232036	Direct
-3.879854	Director
-4.834096	Director'
-4.834096	Director,
-4.834096	Director,'
-4.834096	Director.
-4.834096	Director.The
-3.180884	Directors
-4.232036	Directors,
-4.834096	Directors.AK
-4.834096	Directors.Brocade
-4.834096	Directors.Cephalon
-4.834096	Directors.Citizens
-4.834096	Directors.He
-4.834096	Directors.Krause,
-4.533066	Directors.Mr.
-4.834096	Directors.On
-4.834096	Directors.The
-4.834096	Directors.Wilderotter
-4.356975	Directors;
-4.834096	Disagreement
-3.254313	Discovery
-4.834096	Discoverys
-4.135127	Discovery's
-4.356975	Discovery,
-4.232036	Disease
-4.834096	Disease-Associated
-4.834096	Disease.Illumina
-4.834096	Disorder
-4.232036	Display
-4.834096	Disputes
-4.533066	Distressed
-4.834096	Distribution
-3.511877	District
-4.834096	District,
-3.603647	Dividend
-4.055945	Dividend,
-4.834096	Dividend.Capitol
-4.834096	Dividends,
-4.232036	Division
-4.356975	Division,
-2.995247	Dolby
-4.533066	Dolby's
-4.055945	Dolby(R)
-4.834096	Dolby.The
-4.533066	Dollar
-4.356975	Domain
-4.834096	Donald,
-4.834096	Doubleshot
-4.834096	Douglas,
-4.834096	Down
-4.834096	Dr.
-4.834096	Dr.-Ing.,
-4.834096	Drake
-4.055945	Drax
-4.834096	Dreier
-4.834096	Drink.Starbucks
-4.533066	Drive
-4.834096	Drive,
-4.055945	Drug
-4.834096	Dual-Concurrent
-4.834096	Dublin
-4.533066	Due
-4.356975	Duke
-4.834096	Dundrum
-4.834096	Dunn.
-4.356975	Dunsirn
-4.533066	Dyer
-4.834096	Dynamic
-4.834096	Dyncorp
-4.834096	E&C,
-4.834096	E&D
-4.533066	E-Discovery
-4.533066	E.
-4.135127	EBITDA
-4.834096	ECAD
-4.834096	ECOs,
-4.135127	EDA
-4.232036	EDF
-4.834096	EDF.The
-4.834096	EIA
-4.533066	EICS
-3.988998	EMC
-4.834096	EMEA
-4.834096	EPC
-4.834096	EPCM
-3.879854	EPS
-4.834096	ESC
-4.834096	ESCOS
-4.834096	ETERNUS(TM)
-4.834096	ETHOS
-4.533066	ETHOS(R)
-4.834096	EU
-4.834096	EXCLUSIVE
-4.533066	Each
-4.834096	Earl
-4.533066	Early
-4.356975	Earning
-2.327591	Earnings
-4.834096	Earnings."Health
-4.834096	Earnings."Panera
-4.356975	East
-4.834096	East,
-3.720153	Eastern
-4.834096	Eastham,
-3.792704	Eaton
-4.356975	Eco
-4.834096	Eco(TM)
-4.232036	Eddins
-4.356975	Edge
-4.533066	Edison
-4.834096	Edison,
-4.834096	Editing.The
-4.834096	Edmund
-4.533066	Education
-4.834096	Education,
-4.356975	Effective
-4.533066	Efficient
-4.834096	Eileen
-4.834096	Ekimae
-4.834096	Ekman
-4.533066	Electric
-4.834096	Electro-Galvanizing
-4.834096	Electronics
-4.533066	Elects
-4.834096	Elektrobit.These
-4.834096	Elet"
-4.533066	Eletricidade
-4.834096	Eliminate
-4.533066	Elizabeth
-4.834096	Elkins
-4.834096	Ellis
-4.834096	Eltoukhy
-4.834096	Embraced
-4.533066	Employee
-4.834096	Employees.AK
-4.834096	Enable
-4.834096	Enclosure.Brocade
-4.055945	Encounter
-4.135127	Encounter(R)
-4.232036	Encounter(TM)
-2.697376	Ended
-3.720153	Ending
-3.232036	Energy
-4.834096	Energy(R)
-4.834096	Energy(TM)
-4.834096	Energy+
-4.834096	Energy.Reliant
-4.834096	Engineer
-3.834096	Engineering
-4.834096	Engineering.Previously,
-4.834096	Engineering;
-4.834096	England
-4.834096	Enhanced
-4.834096	Enter
-3.988998	Enterprise
-4.356975	Enters
-4.533066	Entertainment
-4.533066	Entry
-4.834096	Entry-Level
-4.834096	Epidemiology
-4.834096	Eps
-4.055945	Equal
-4.356975	Equipment
-4.135127	Equipment,
-3.315582	Equity
-4.834096	Equity,
-4.533066	Eric
-4.356975	Ernst
-4.834096	Espresso
-4.834096	Esq.of
-4.834096	Estancia
-4.533066	Estate
-3.754915	Ethernet
-4.356975	Ethiopia
-4.834096	Ethiopia.Starbucks
-4.533066	Ethiopian
-4.356975	Europe
-4.834096	Europe,
-4.232036	Europea
-3.988998	European
-4.834096	Evolution.Brocade
-4.834096	Excessive
-3.931006	Exchange
-4.834096	Exclusive
-4.356975	Exclusives(TM)
-4.834096	Execution
-3.277794	Executive
-4.834096	Executive,
-4.834096	Existing
-4.834096	Exodus
-4.834096	Exon-Centric
-4.356975	Expand
-4.834096	Expanded
-4.533066	Expands
-4.356975	Expansion
-4.834096	Expasion
-4.834096	Expectations
-4.834096	Expenditure
-4.834096	Expenditures
-4.356975	Experience
-4.834096	Explorer
-4.834096	Explores
-4.533066	Express
-4.834096	Express'
-4.055945	Expression
-4.834096	Expression.The
-4.834096	Extend
-4.533066	Extends
-4.356975	Eyeing
-4.533066	Eyes
-4.356975	F.
-4.834096	FAN
-4.834096	FAS
-4.533066	FC
-4.533066	FCoE
-3.988998	FDA
-4.834096	FDA-approved
-4.834096	FHPS.The
-4.834096	FHS
-4.834096	FHS.Under
-4.533066	FIS
-4.834096	FL
-4.356975	FLR)
-4.533066	FPGA
-4.834096	FPGAs,
-4.135127	FPL
-4.834096	FR4-18i
-3.931006	Fabric
-4.356975	Facility
-4.834096	FacilitySource.
-4.834096	Facts:
-4.834096	FalconStor
-4.834096	Fallout
-4.533066	Family
-4.834096	Family.Atheros
-4.232036	Faraday
-4.834096	Faraday's
-4.055945	Fargo
-4.834096	Farm
-4.356975	Farmer
-4.834096	Farnan
-4.356975	Farnborough
-4.834096	Fasson
-4.356975	Fast
-4.834096	FastTrack
-4.834096	Faust,
-4.834096	Feature
-4.834096	Feature-Rich,
-4.533066	Featured
-3.931006	Feb
-4.834096	Feb-02-2010
-4.834096	Feb-02-2010.News
-4.834096	Feb-04
-4.834096	Feb-04-2009.Cadence
-4.834096	Feb-13-2009.Panera
-4.533066	Feb-24-2011
-4.834096	Feb-25-2009.Concho
-4.232036	Feb.
-3.277794	February
-4.834096	February,
-3.792704	Federal
-4.533066	Federated
-4.834096	Felt
-4.834096	Fenner
-4.533066	Fentora
-4.834096	Fentora.Fentora
-4.834096	Fentora.The
-4.834096	Fenwick
-4.055945	Fibre
-3.402733	Fidelity
-4.533066	Field
-4.834096	Fields
-4.834096	Fifth
-4.533066	File
-4.533066	Files
-4.834096	Filip
-4.834096	Final
-4.232036	Finance
-4.834096	Finance,
-2.970773	Financial
-3.629976	Financial,
-4.834096	Financial.announced
-4.834096	Fine
-4.834096	Finland-United
-4.533066	Firehouse
-4.834096	Firm
-2.959035	First
-4.834096	First-Quarter
-3.232036	Fiscal
-4.834096	Fisher
-4.834096	Fisher,
-4.834096	Fishman.Chapin
-4.533066	Five
-4.533066	Fixed
-3.834096	Fixed-Income
-4.834096	Flags
-4.533066	Flatley,
-4.533066	Florida,
-2.995247	Fluor
-4.135127	Fluor's
-4.834096	Focus
-4.533066	Folick
-4.834096	Folick,
-3.629976	Follow-on
-4.834096	Following
-4.232036	Food
-3.792704	For
-4.834096	Form
-4.533066	Format
-4.834096	Formulation
-4.533066	Fortune
-4.834096	Forum's
-3.988998	Forum,
-4.834096	Foster
-4.356975	Foundation
-4.834096	Foundation.He
-4.834096	Founder
-4.356975	Four
-3.078222	Fourth
-4.834096	Francis
-4.834096	Francisco's
-4.232036	Francisco,
-4.834096	Frappuccino(R)--Coffee
-4.834096	Frappuccino(R)--swirled
-4.834096	Frazer,
-4.834096	Fred
-4.834096	Frederick
-4.834096	French
-4.834096	From
-4.232036	Frontier
-4.834096	Fuels
-4.533066	Fujitsu
-4.834096	Fujitsu.Brocade
-2.959035	Full
-4.834096	Full-Time
-3.629976	Fund
-4.533066	Fund,
-4.533066	Funding,
-4.834096	Further
-4.834096	G
-4.834096	G.
-3.254313	GAAP
-4.834096	GAAP,
-4.533066	GBS
-4.834096	GE
-4.055945	GHz
-4.834096	GMT
-4.834096	GWAS
-4.834096	Gabbard
-4.533066	Gaiam
-4.834096	Games
-4.834096	Gardens
-4.834096	Garrison
-4.533066	Gary
-4.232036	Gas
-4.533066	Gas-Fired
-4.533066	Gate
-4.834096	Gatwick
-4.834096	Gbit/Sec
-3.879854	Gbit/sec
-4.533066	Gbps
-4.533066	Gellert,
-4.834096	Gen
-4.055945	Gene
-4.834096	Gener
-3.328946	General
-4.533066	Generating
-4.533066	Generation
-4.232036	Genetic
-4.533066	Genetics
-4.232036	Genizon
-4.356975	Genomas
-3.555343	Genome
-4.533066	Genomes
-4.834096	Genomes.Illumina
-4.834096	Genomic
-4.232036	Genomics
-4.834096	Genomics,
-3.658005	Genotyping
-4.533066	Genotyping,
-3.603647	Gentex
-4.834096	Gentex's
-4.834096	Geoff
-4.834096	Georgia.Principal
-4.834096	Georgia.The
-4.232036	Gerber
-4.834096	Gerber,
-4.834096	Gerber."On
-4.834096	Gerdau
-4.834096	Giant
-4.533066	Gibraltar
-4.834096	Gigabases
-4.356975	Gigabit
-4.834096	Gigafast
-4.834096	Gigahertz-based
-4.834096	Glaxo
-4.834096	GlaxoSmithKline
-4.533066	Glazer
-3.879854	Global
-4.232036	Globe
-4.834096	Globe,
-4.834096	Globe.Retired
-4.834096	Globe.The
-4.834096	Gluski,
-4.533066	GmbH
-4.834096	Goerge
-4.834096	Goes
-4.834096	Golden
-4.834096	GoldenGate(R)
-4.834096	GoldenGate?Human
-4.834096	Goldman,
-4.232036	Golf
-4.834096	GolfDigest.com.Sabin
-4.533066	Goodrich
-4.834096	Goodwill
-4.834096	Gordon
-4.834096	Gould
-4.834096	Gourmet
-4.232036	Governance
-4.232036	Government
-4.356975	Grace
-4.834096	Graduate
-4.834096	Grand
-4.834096	Grant
-4.834096	Granting
-4.834096	Graphic
-4.356975	Great
-4.135127	Greater
-4.834096	Green
-4.834096	Green,
-4.834096	Green.
-4.834096	Green.Michalchyshyn,
-4.533066	Gregory
-4.834096	Grey,
-4.232036	Greystone
-4.834096	Grinder
-3.041705	Group
-4.533066	Group's
-3.879854	Group,
-4.834096	Group.
-4.834096	Group..
-4.834096	Group.Apr-13-2010,
-4.834096	Group.Fluor
-4.834096	Group.He
-4.834096	Group.News
-4.834096	Group;
-4.834096	Grow
-4.055945	Growth
-4.834096	Guarantee
-4.356975	Guardian
-4.834096	Guatemala.
-2.821259	Guidance
-4.834096	Guidance.The
-4.834096	Guinea
-4.834096	H.
-4.834096	H?vermark
-3.988998	HD
-4.834096	HD-ready
-4.834096	HDMI.
-4.834096	HDR-enabled
-4.834096	HDTV,
-4.834096	HDTVs
-4.834096	HE-AACopen-standard
-4.834096	HIV
-4.834096	HIV-1
-4.834096	HIV-1.Working
-4.834096	HIV/AIDS'.
-4.834096	HNT)
-3.629976	HP
-4.834096	HP.Ali
-4.834096	HSBC
-4.834096	HSC)
-4.834096	HSR
-4.232036	Hackenson
-4.834096	Hackenson's
-4.834096	Hadley
-4.834096	Half
-4.834096	Hall
-4.533066	Hall,
-4.834096	Halloween.A
-4.834096	Hampshire.Financial
-4.834096	Handset
-4.834096	Handyphone
-4.834096	Hans
-3.290028	Hansen
-4.533066	Hansen's
-4.834096	Hansen.The
-4.834096	HapMap
-4.834096	Harbinger
-4.533066	Harbor
-4.356975	Hariri
-4.834096	Harman
-4.834096	Harrar
-4.834096	Harrar.Starbucks
-4.533066	Harry
-3.472368	Harsco
-4.232036	Harsco's
-4.533066	Hart-Scott-Rodino
-4.533066	Haywood
-4.356975	Head
-4.834096	Headlamp
-3.221312	Health
-3.720153	Healthcare
-4.834096	Hearst
-4.834096	Heart,
-4.533066	Heath
-4.834096	Heath,
-4.533066	Heinz
-4.834096	Heinz.
-4.533066	Helicos
-4.834096	Helicos'
-4.834096	Helixis
-4.232036	Helixis,
-4.834096	Helmy
-4.834096	Help
-4.834096	Helping
-4.533066	Helps
-4.834096	Hereford.
-3.152855	Heusen
-4.533066	HiScan
-4.834096	HiScanSQ
-4.834096	HiScanSQ,
-4.834096	HiScanSQ.Illumina
-3.988998	High
-4.232036	High-Beam
-4.834096	High-Density
-4.834096	High-Performance
-4.834096	High-Resolution
-4.834096	High-Throughput
-4.834096	Highest-Performance
-4.834096	Highly
-4.834096	Hills.Tom's
-4.533066	Hilton,
-4.055945	Hitachi
-4.834096	Hitachi's
-4.232036	Holden
-3.118093	Holding
-4.356975	Holdings
-4.533066	Holger
-4.834096	Home
-4.834096	Hong
-4.834096	Horizon
-4.533066	Horst
-4.834096	Hot
-4.356975	Hotel
-4.135127	Hotel,
-4.834096	Houston-based
-4.834096	Houttekiet
-4.135127	Howard
-4.834096	Huang
-4.533066	Hudson
-4.834096	Human
-4.533066	Human1M
-4.533066	Human1M-Duo
-4.533066	Human610-Quad
-4.055945	HumanHT-12
-4.232036	HumanHap300
-4.834096	HumanHap300,
-4.533066	HumanHap300-Duo
-4.533066	HumanHap300-Duo+
-4.834096	HumanHap550
-4.055945	HumanHap550-Duo
-4.834096	HumanHap550.The
-4.232036	HumanLinkage-12
-4.834096	HumanOmni1,
-4.834096	HumanOmni1-Quad,
-4.533066	HumanOmniExpress
-4.834096	HumanWG-6,
-4.834096	Hunter
-4.834096	Hunter,
-4.834096	Hyatt,
-4.232036	I
-4.356975	I,
-4.834096	I/O
-4.834096	IA
-4.834096	IBC
-3.988998	IBM
-4.533066	IBPS
-3.931006	IC
-4.834096	ICs
-4.834096	ID:
-4.834096	IEEE
-4.834096	IEEE-standard
-4.834096	IEEE802.3az-2010
-4.834096	IHS
-4.055945	II
-4.834096	II(SM)
-4.834096	II),
-4.834096	II,
-4.834096	II.Principal
-4.232036	III
-4.533066	IIJ
-4.533066	IIJ-Tech
-4.834096	IL
-4.356975	ILMN)
-4.834096	IMS
-4.834096	IOs
-3.792704	IP
-4.834096	IP-based
-4.834096	IP.Cadence
-4.834096	IP.DDR
-4.834096	IQ
-4.834096	ISG's
-3.754915	IT
-4.533066	IV
-4.834096	IV,
-4.533066	Ice
-4.834096	Iced
-4.533066	Illinois
-2.80879	Illumina
-3.356975	Illumina's
-4.135127	Illumina,
-4.834096	Illumina.Affymetrix
-4.834096	Illumina.Illumina
-4.834096	Illumina.Mr.
-3.687968	Impairment
-4.232036	Implementation
-4.834096	Improve
-4.834096	Improvements
-4.135127	In
-4.834096	In-bound
-3.931006	Inc
-4.533066	Incs
-2.037522	Inc.
-4.135127	Inc.'s
-3.931006	Inc.(NasdaqGM:CEPH)
-4.533066	Inc.)
-2.936469	Inc.,
-4.055945	Inc..
-4.834096	Inc...
-4.356975	Inc..The
-3.658005	Inc.;
-4.834096	Inc.Adds
-3.180884	Inc.Announces
-4.533066	Inc.Brocade
-4.834096	Inc.Connection
-4.533066	Inc.Expands
-4.834096	Inc.Files
-4.533066	Inc.Introduces
-4.834096	Inc.Joins
-4.834096	Inc.Most
-4.834096	Inc.Opens
-3.988998	Inc.Provides
-4.834096	Inc.Receive
-4.834096	Inc.Simultaneous
-4.356975	Inc.The
-4.834096	Inc.Together,
-4.533066	Inc.Under
-4.834096	Inc;
-4.356975	Incentive
-4.834096	Incipient
-4.834096	Incisive
-4.356975	Incisive(R)
-4.834096	Incisive(TM)
-4.834096	Include
-4.834096	Including
-3.754915	Income
-4.533066	Incorporated
-4.533066	Incorporated,
-4.232036	Incorporation
-4.834096	Incorporation."Fluor
-4.834096	Incorporation."Illumina
-4.834096	Incorporation.KeyCorp
-4.533066	Increase
-4.356975	Increased
-4.533066	Increases
-4.533066	Independent
-3.754915	Index
-4.135127	Index.Cephalon
-4.834096	Index.Cephalon,
-4.834096	Index.Fidelity
-4.533066	Index.Health
-4.834096	Index.KeyCorp
-4.533066	Index.The
-4.232036	Indices
-4.834096	Indigo
-4.834096	Industrial
-4.533066	Industries
-4.533066	Industry
-4.533066	Industry's
-4.834096	Industry.ACTS
-3.720153	Infinium
-4.533066	Infinium(R)
-4.533066	Infinium(TM)
-4.834096	Info
-3.356975	Information
-4.834096	Infosystems,
-4.834096	Infosystems.To
-4.533066	Infrastructure
-4.356975	Infrastructure.Brocade
-4.834096	Infrastructure.EMC
-4.356975	Infringement
-4.135127	Ingenieria
-4.533066	Inherited
-4.834096	Initiative
-4.834096	Initiative.OHIO
-4.834096	Initiative.OHIO-DA
-4.834096	Injection
-4.834096	Innovation
-4.356975	Innovations,
-4.533066	Insight,
-4.834096	Installs
-4.135127	Institute
-4.834096	Institute's
-4.533066	Institute,
-4.834096	Institute.The
-4.834096	Institution
-3.834096	Insurance
-4.834096	Int
-4.533066	Intangible
-4.055945	Integrated
-4.834096	Integrated,
-4.834096	Integration
-4.834096	Intelligent
-4.834096	Intention
-4.834096	InterComm,
-4.533066	InterContinental
-4.834096	InterSAN
-4.834096	Interactive
-4.533066	Interface
-4.533066	Interface,
-4.834096	Interfax,
-4.356975	Interim
-4.356975	Internal
-3.014552	International
-4.834096	International's
-4.232036	International,
-4.834096	International.In
-4.834096	International.Service
-4.356975	International;
-4.356975	Internet
-4.834096	Internet.
-4.356975	Interoperability
-4.834096	Interventional
-3.658005	Introduces
-4.834096	Introduction
-4.356975	Investigation
-3.834096	Investment
-4.533066	Investors
-4.533066	Investors,
-4.834096	Investors.Scott+Scott
-4.834096	Investors.The
-4.055945	Invitrogen
-4.533066	Invitrogen's
-4.834096	Iowa,United
-4.533066	Iraq
-4.834096	Iraq,
-4.834096	Iraq.Fluor
-4.834096	Ireland
-4.834096	Irish
-4.356975	Iron
-4.834096	Issues
-4.834096	Italy
-3.988998	Its
-4.533066	Izard,
-4.834096	J
-4.356975	J.
-4.834096	J.L.Kellogg
-4.135127	J.P.
-4.834096	JMP
-4.232036	JP
-4.135127	JPMorgan
-4.533066	Jack
-4.834096	Jacksonville,
-4.834096	Jaguar
-4.834096	Jaguar,
-4.834096	Jaguar.Gentex
-4.533066	James
-4.135127	Jan
-4.533066	Jan-12-2010
-4.834096	Jan-23-2008.Molex
-4.834096	Jan-27-2009.AK
-4.834096	Jan-29-2008.Gentex
-4.834096	Jan-29-2009.Harsco
-4.834096	Jan-30-2008.Starbucks
-4.834096	Jan-31-2003
-4.834096	Jan-31-2003.The
-4.055945	Jan.
-3.048766	January
-4.232036	Japan
-4.533066	Japan,
-4.834096	Japan.In
-4.834096	Jasper,
-4.356975	Jay
-4.834096	Jeff
-4.533066	Jeffrey
-4.834096	Jersey,
-4.834096	Jersey.
-4.533066	Jet
-4.834096	Jill
-4.834096	Jim
-4.834096	Jobs.KeyCorp
-4.232036	Joel
-4.533066	Johannesburg
-4.055945	John
-4.356975	Johnson
-4.834096	Johnson,
-4.834096	Join
-4.533066	Joins
-4.533066	Joint
-4.533066	Joker
-4.834096	Jolla
-4.834096	Jolla,
-4.834096	Jon
-4.834096	Jordan
-4.834096	Jordan,
-4.834096	Jos?Mar?a
-4.834096	Jose
-4.834096	Jose,
-4.533066	Joseph
-4.834096	Jospeh
-4.834096	Jr.
-4.834096	Jr.,
-4.232036	Judge
-3.792704	Jul
-4.834096	Jul-21-2009.AK
-4.834096	Jul-22-2008.AK
-4.834096	Jul-22-2008.KeyCorp,
-4.834096	Jul-23-2007.Gentex
-4.834096	Jul-23-2008.Cadence
-4.834096	Jul-23-2010
-4.834096	Jul-23-2010.The
-4.834096	Jul-24-2007.AK
-4.834096	Jul-28-2009.Fidelity
-4.834096	Jul-29-2004.The
-4.834096	Jul-29-2008.The
-3.055945	July
-4.834096	July,
-4.834096	July.For
-4.055945	Jun
-4.533066	Jun-24-2010
-2.942002	June
-4.834096	Justice
-4.055945	K.
-4.533066	KBR
-4.834096	KEY)
-4.533066	KG
-4.834096	KMB)
-4.533066	KPMG
-4.533066	KT
-4.834096	Kanner
-4.834096	Kardon,
-4.834096	Karin
-4.834096	Kate
-4.834096	Kaufmann
-4.834096	Kazakhstan.
-4.834096	Kazakhstan.Fluor
-4.834096	Kazakhstan.Partnered
-4.834096	Keller,
-4.834096	Kelly
-4.834096	Kelowna.Service
-4.232036	Kelvin
-4.834096	Kenneth
-4.834096	Ketchum,
-4.834096	Key
-4.356975	Key's
-4.834096	Key.Otherwise,
-4.834096	KeyBank
-4.356975	KeyBank's
-4.834096	KeyBank.In
-3.578824	KeyCorp
-4.834096	KeyCorp's
-4.356975	KeyCorp,
-4.834096	Keybank
-4.834096	Keymeulen
-4.834096	Keystone
-4.533066	Kimberly-Clark
-4.533066	Kindle
-4.834096	Kindle.Discovery,
-4.232036	Kingdom
-4.834096	Kingdom.Cancer
-3.578824	Kirby
-4.533066	Kirby's
-4.834096	Kirkland
-4.356975	Kit
-4.834096	Kit.Illumina
-4.834096	Kit.PAS
-4.533066	Klein
-4.834096	Klein.For
-4.834096	Klekamp
-4.834096	Kong,
-4.834096	Konka,
-4.834096	Korea,
-4.834096	Korolev
-4.533066	Koskinen
-4.834096	Koskinen,
-4.834096	Kraus,
-4.533066	Krause
-4.834096	Krehbiel,will
-4.834096	Kristina
-4.834096	Kurth,
-4.834096	Kuwait.KBR
-4.356975	Kyivoblenergo
-3.720153	L.
-4.834096	L.L.C.and
-4.834096	L.L.P.served
-4.356975	L.P.
-4.356975	L.P.,
-4.834096	LA
-3.931006	LAN
-4.533066	LAVA)
-4.533066	LBO
-3.988998	LCD
-4.533066	LED
-4.533066	LEDs
-3.720153	LLC
-3.720153	LLC,
-4.533066	LLC.for
-4.135127	LLC;
-3.453885	LLP
-4.834096	LOGCAP
-4.356975	LP
-4.533066	LSI
-4.834096	LTV
-4.834096	LTV's
-4.834096	LWK
-4.533066	La
-3.041705	Laboratories
-4.834096	Laboratories'
-4.834096	Laboratories,
-4.834096	Laboratories.
-4.834096	Laboratories.Mr.
-4.834096	Laboratory
-4.834096	Laboratory.Illumina
-4.356975	Labs
-4.834096	Lake,
-4.834096	Land
-4.232036	LandAmerica
-4.834096	Landau
-4.834096	Language
-4.834096	Large-Scale
-4.834096	Larry
-4.533066	Latest
-4.834096	Latham
-4.356975	Latin
-4.834096	Latvia,
-4.834096	Laughlin,
-4.135127	Launch
-3.792704	Launches
-4.834096	Laura
-4.834096	Law
-4.533066	Lawrence
-3.988998	Lawsuit
-4.834096	Lawsuit."A
-4.834096	Layer
-4.834096	Layoffs
-4.834096	Lays
-4.834096	LeBoeuf
-4.834096	Leach,
-4.533066	Leading
-4.533066	Legal
-4.135127	Legend
-4.356975	Lehman
-4.533066	Lending
-4.834096	Lengthy
-4.533066	Lenovo
-4.834096	Lerouge,
-4.533066	Level
-4.834096	Level,
-4.533066	Leverage
-4.834096	LexisNexis,
-4.834096	Liberia,
-4.834096	Liberian
-4.834096	Licensed
-4.356975	Licensing
-4.834096	Lidell
-3.555343	Life
-4.834096	Lifecycle
-4.135127	Light
-3.834096	Limited
-4.356975	Limited,
-4.834096	Linden,
-4.834096	Line
-4.834096	Line.Starbucks
-4.356975	Linkage
-4.356975	Linostar
-4.834096	Linux,
-4.533066	Lip-Bu
-4.834096	Listed
-4.834096	Litigation
-4.834096	Litigation.Ranbaxy
-4.834096	Little
-4.834096	Liu,
-4.834096	Live
-4.834096	Lives
-4.834096	Local
-4.834096	Loci
-4.834096	Locke,
-4.533066	Lockout
-4.533066	Logistics
-4.834096	Lon
-4.834096	London
-4.834096	London,
-4.356975	Longworth-Gentry
-4.533066	Lord
-4.232036	Los
-4.533066	Losses
-4.356975	Lost
-4.834096	Lost(R)
-3.491674	Lots
-4.834096	Louis
-4.834096	Low
-3.988998	Low-Power
-4.834096	Low-Power.By
-4.834096	Lower
-4.135127	Ltd
-4.533066	Ltd,
-3.687968	Ltd.
-4.232036	Ltd.,
-4.834096	Ltd.Announces
-4.834096	Ltda.;
-4.834096	Ltda.for
-4.834096	Ltda.which
-4.533066	Lucent
-4.834096	Lundberg,
-4.834096	Lung,
-3.988998	Lynch
-4.232036	Lynch,
-4.232036	M.
-4.834096	M.D.has
-4.834096	M12
-4.232036	M23
-4.834096	MATW)
-4.135127	MEGAPLEX
-4.533066	MEGAPLEX's
-4.135127	MHC
-4.834096	MHC-focused
-4.834096	MHN,
-4.356975	MHP
-4.356975	MHP)
-4.834096	MHz.This
-4.834096	MI
-4.834096	MIMO
-3.988998	MIPI
-4.533066	MMK
-4.834096	MP3
-4.834096	MPEG-4
-4.834096	MSM
-4.834096	MSM6280(TM)
-4.834096	MSM6550(TM)
-4.135127	MTG
-4.834096	MTH
-4.834096	MW
-4.834096	Mac,
-4.834096	Macchiato--swirled
-4.834096	Machine
-4.834096	Macon,
-4.834096	Macquarie
-4.533066	Mad
-4.834096	Madison
-4.834096	Madrid
-4.232036	Magazine
-4.834096	Maggie
-4.356975	Magma
-4.834096	Magnitogorsk
-4.834096	Maine,United
-4.834096	Make
-4.834096	Makers.A
-4.834096	Malonson,
-3.578824	Management
-4.834096	Management,
-4.533066	Management.Brocade
-3.687968	Manager
-4.834096	Managing
-4.834096	Manhattan,
-4.533066	Manual
-4.834096	Manual')
-4.834096	Manufacturer
-4.135127	Manufacturing
-4.533066	Mapping
-4.834096	Mapping.Illumina
-4.055945	Mar
-4.834096	Mar-04-2009
-4.834096	Mar-04-2009.Big
-4.834096	Mar-09
-4.834096	Mar-09-2006.Hansen
-4.834096	Mar-24-2009
-4.834096	Mar-24-2009.Phillips-Van
-4.533066	Marathon's
-4.834096	Marbob
-2.817063	March
-4.834096	Mariposa
-4.232036	Mark
-4.834096	Marker
-4.834096	Markers
-4.232036	Market
-4.834096	Market-Leading
-4.834096	Market.Brocade
-4.834096	Market.Starbucks
-4.356975	Marketing
-4.834096	Marketing,
-4.533066	Marketing.Illumina
-4.834096	Marketing.In
-4.834096	Marketing.Mr.
-4.356975	Markman
-4.356975	Martin
-4.834096	Marvin
-4.834096	Mary
-4.533066	Massachusetts,
-3.879854	Massey
-4.834096	Masters,
-4.834096	Material
-4.135127	Matrix
-4.834096	MatrixOne
-4.834096	MatrixOne.The
-4.834096	Mats
-4.834096	Matt
-4.834096	Matthew
-4.533066	Matthews
-4.356975	Mausoleum
-3.10982	May
-4.834096	May-01-1997
-4.834096	May-01-1997.The
-4.834096	May-05-2005
-4.834096	May-05-2005.The
-4.834096	May-07
-4.834096	May-07-2009.Frontier
-4.834096	May-09
-4.834096	May-09-2008.The
-4.834096	May-17-2005.Big
-4.834096	May-21-2008.Phillips-Van
-4.533066	Mayfield
-4.834096	Mayor
-4.533066	McComb
-4.834096	McComb,
-3.402733	McGraw-Hill
-4.834096	McKenzie,
-4.356975	McKinley
-4.834096	Mccomb
-3.792704	Media
-4.533066	Media,
-4.834096	Media.OWN
-4.232036	MediaXchange
-4.834096	Medicaid
-4.135127	Medical
-4.834096	Medicare
-4.232036	Medicine
-4.055945	Meeting
-3.386938	Meeting,
-4.834096	Meeting.
-4.834096	Melting
-3.988998	Member
-4.232036	Memorial
-4.834096	Menorah
-4.232036	Merchant
-4.533066	Merck
-3.386938	Merger/Acquisition
-3.931006	Merrill
-4.834096	Metabolic
-4.356975	Metal
-4.834096	Meter
-3.988998	Methodology
-4.834096	Methodology.Cadence
-4.356975	Metrics
-4.533066	MetroRED
-4.533066	Metropolitan
-4.533066	Mezzanine
-4.834096	Miami
-4.055945	Michael
-4.533066	Michalchyshyn
-4.834096	Michelle
-4.232036	Microsoft
-4.834096	Microsystems,
-4.533066	Midcap
-4.834096	Middle
-4.232036	Middletown
-4.834096	Mike
-4.834096	Military
-4.533066	Mill
-4.834096	Miller,
-4.055945	Million
-4.834096	Million."Molex
-4.533066	Million.Harsco
-4.834096	Milstain,
-4.834096	Milwaukee,
-4.533066	Minas
-4.533066	Mining's
-4.533066	Mirror
-4.834096	Mirror-Based
-4.356975	Mirrors
-4.834096	Mississippi
-4.834096	Mixed-Signal
-4.135127	Mobile
-4.834096	Mobile(TM)
-4.834096	Mobile.Dolby
-4.834096	Model
-4.834096	Model.Cadence
-4.834096	Modem(TM)
-4.232036	Modern
-4.834096	Module,
-4.356975	Modules
-4.232036	Mohave
-4.533066	Moines,
-4.533066	Molecular
-3.356975	Molex
-4.834096	Molex.
-4.533066	Monroe
-4.834096	Monroe,
-4.356975	Monster
-4.834096	Montana
-4.834096	Month
-3.078222	Months
-4.533066	Moose
-4.834096	Morawetz,
-3.687968	Morgan
-4.834096	Morgan,
-4.834096	Morris
-4.356975	Morse
-4.834096	Morse,
-4.834096	Mortuaries
-4.834096	Mosaic
-4.834096	Moses
-4.533066	Mountain
-4.834096	Move
-3.658005	Mr.
-4.232036	Ms.
-4.834096	Mtg
-4.834096	Muething
-4.135127	Mulls
-4.834096	Multi-Array
-4.834096	Multi-Gigabit
-4.834096	Multi-Language
-4.533066	Multi-Million
-4.834096	Multi-Room
-4.834096	Multi-Sample
-4.834096	Multi-Year
-4.356975	MultiServ
-4.533066	Multimedia
-4.533066	Multiprotocol
-4.834096	Municipality
-4.834096	Munir
-4.834096	Munir,
-4.834096	Murdoch,
-4.834096	Museum
-4.834096	Music
-4.533066	N.
-4.533066	N.A.,
-4.834096	N.J.The
-4.356975	N.V.
-4.834096	N.V..
-4.834096	N8
-4.834096	N8,
-4.232036	NADA/IHS
-4.356975	NCI
-4.834096	NCI's
-4.834096	NDA
-4.834096	NIH
-4.135127	NUVIGIL
-4.834096	NUVIGIL(R)
-4.834096	NV
-4.533066	NY
-4.834096	NYT)
-4.533066	NYT).The
-4.533066	Nacional
-4.356975	Nagano
-4.533066	Naim
-4.834096	Name
-4.232036	Names
-4.834096	Naming
-4.834096	Namini,
-4.834096	Nanjing,
-4.533066	Nanometer
-4.834096	Nanometer-Scale
-3.988998	Nanopore
-4.834096	Naphtha
-4.834096	Narcolepsy.Cephalon
-4.834096	Nat"
-3.048766	National
-3.126526	Natural
-4.834096	Natural's
-4.834096	Naylor
-4.834096	Nearly
-4.834096	Needham
-3.210847	Net
-4.356975	Net's
-4.232036	Net,
-3.453885	Network
-4.834096	Network,
-4.834096	Network.Illumina
-4.834096	NetworkSM,
-4.232036	Networking
-4.834096	Networking.Atheros
-4.834096	Networking.Brocade
-4.135127	Networks
-4.533066	Networks,
-4.834096	Networks.
-4.834096	Nev.
-4.533066	Nevada
-2.915018	New
-4.232036	NewEnergy
-4.834096	Newcastle,
-4.533066	Newmont
-3.491674	News
-4.834096	Newspaper
-4.135127	Newspapers,
-4.834096	Next
-4.533066	Next-Generation
-4.834096	Nilsson-Prevell
-3.419123	Nine
-4.834096	Nishan
-4.834096	No
-4.834096	No.123R,
-4.533066	No.123R.Excluding
-4.834096	No.142,
-4.834096	No.142.Health
-4.834096	No.1:10-cv-00735,
-4.834096	No.5310.
-4.356975	Nobel
-4.232036	Nokia
-4.834096	Nokia's
-4.834096	Nokia(R)
-4.533066	Nominating
-4.834096	Non-Cumulative
-4.834096	Non-Executive
-4.356975	Non-GAAP
-4.834096	Non-Linear
-4.834096	Nordics
-4.834096	Nordics.Brocade
-4.834096	Nordics.Poulsen
-3.988998	North
-4.533066	Northeast
-4.834096	Northeast.Health
-4.533066	Northern
-4.834096	Northside
-4.834096	Northwest
-4.834096	Nos.6,355,432,
-4.533066	Not
-4.356975	Notes
-4.834096	Notice
-4.356975	Nov
-4.533066	Nov-03
-4.834096	Nov-03-2009.Discovery
-4.834096	Nov-03-2009.Dolby
-4.834096	Nov-06
-4.834096	Nov-06-2008.Dolby
-4.834096	Nov-07
-4.834096	Nov-07-2008.The
-4.834096	Nov-09
-4.834096	Nov-09-2005.Hansen
-4.834096	Nov-16-2006.Starbucks
-4.533066	Nov-17-2009
-4.834096	Nov-19-2008.Phillips-Van
-4.834096	Nov-25-2008.Eaton
-4.533066	Nov-30-2010
-3.101702	November
-4.834096	November,
-4.834096	Now
-4.834096	Nucor
-4.834096	O'Neill,
-4.834096	O'Reilly,
-4.533066	O.
-4.834096	ODF
-3.988998	OEM
-4.533066	OGF
-4.834096	OHIO-DA
-4.356975	OHIO-DA's
-4.232036	OIBDA
-4.834096	OJSC
-4.834096	OMV
-4.834096	OMV's
-4.834096	OPMISR+compression
-4.834096	OS(R)
-3.754915	OVM
-4.834096	OVM-compliant
-4.356975	OWN
-4.834096	OWN:
-4.834096	Obstructive
-4.834096	Oc
-4.135127	Oct
-4.834096	Oct-02-1998
-4.834096	Oct-02-1998.The
-4.834096	Oct-21-2008.KeyCorp,
-4.834096	Oct-22-2008.Panera
-4.834096	Oct-23-2006.Atheros
-4.834096	Oct-23-2008.Fidelity
-4.834096	Oct-25-2007.Kirby
-4.834096	Oct-27-2010
-4.834096	Oct-27-2010.Cadence
-4.356975	Oct.
-3.085908	October
-4.533066	Of
-4.834096	Ofcom
-4.834096	Off
-3.533066	Offering
-4.232036	Offering.
-4.232036	Offering..
-4.834096	Offerings.Brocade
-3.988998	Office
-4.533066	Office,
-3.578824	Officer
-3.879854	Officer,
-4.834096	Officer.Cadence
-4.834096	Officer.Mr.
-4.834096	Officer.Principal
-4.834096	Officer.The
-4.533066	Officer/Director
-4.834096	Offshore
-4.356975	Ohio
-4.834096	Ohio,
-4.834096	Ohio.
-4.834096	Oil
-4.834096	Oka"
-4.055945	Okapi
-4.232036	Oligator
-4.834096	Oligator(TM)
-4.834096	Oligonucleotides
-4.356975	Omni
-4.135127	OmniExpress
-4.356975	On
-4.533066	One
-4.533066	OneSteel
-4.834096	Onkyo,
-4.834096	Online
-4.533066	Onsite
-3.720153	Open
-4.834096	Open-Source
-4.533066	Opening
-4.834096	Opens
-4.055945	Operating
-4.533066	Operations
-4.533066	Operations,
-4.834096	Operations.Big
-4.834096	Operations.In
-4.356975	Opportunity
-4.356975	Oprah
-4.834096	Oprah.com
-4.834096	Oprah.com,
-4.834096	Optimisation
-4.834096	Optimize
-4.232036	Option
-3.931006	OrCAD
-4.834096	OrCAD(R)
-4.834096	OrCAD.Cadence
-4.533066	Orbis
-4.356975	Order
-4.533066	Orders
-4.834096	Oregon,
-4.834096	Original
-4.533066	Orlando,
-4.834096	Orleans
-4.834096	Orleans,
-4.834096	Other
-4.834096	Outfit
-4.834096	Outlet
-3.629976	Outlook
-4.834096	Overall
-4.834096	Overy
-4.834096	OvineSNP50
-4.834096	Owen,
-4.055945	Oxford
-4.834096	P.
-4.834096	P.C.Announces
-4.834096	P.C.announced
-4.834096	P15.Brocade
-3.792704	PAS
-4.834096	PAS,
-4.533066	PC
-4.834096	PC,
-4.533066	PCB
-4.834096	PCB,
-3.834096	PCR
-4.834096	PCR-free
-4.834096	PCell
-4.834096	PCs
-4.356975	PDK
-4.834096	PDK's
-4.533066	PDK's,
-4.834096	PDK's.Using
-4.834096	PDK,
-4.834096	PDK-related
-4.533066	PFD
-4.834096	PHS
-4.834096	PHY
-4.834096	PHYs
-4.834096	PLC
-4.834096	PM,
-4.834096	PM.Fidelity
-4.834096	PM.The
-4.533066	PM.Venue:
-4.834096	PR
-4.356975	PROVIGIL
-4.356975	PROVIGIL(R)
-4.834096	PROVIGIL,
-4.834096	PROVIGIL.Cephalon
-4.834096	PROVIGIL.The
-4.834096	PSA
-4.834096	PSE)
-4.533066	Pa.,
-4.834096	PacifiCare
-3.879854	Pacific
-4.356975	Pack
-4.834096	Palatnik
-4.834096	Palladium's
-4.834096	Palladium(TM)
-4.533066	Palm
-4.834096	Palmieri
-4.834096	Panda
-4.055945	Panel
-4.834096	Panel,
-4.834096	Panels
-3.578824	Panera
-4.834096	Papua
-4.356975	Paradigm
-4.834096	Paradigm's
-4.834096	Paradigm,
-4.834096	Parallel
-4.533066	Park.The
-4.533066	Parkway,
-4.834096	Parsons
-4.533066	Part
-4.356975	Partner
-4.834096	Partner-Ready
-4.533066	Partnering
-3.603647	Partners
-4.834096	Partners.The
-4.834096	Partners.This
-4.356975	Partnership,
-4.834096	Partnership.Discovery
-4.834096	Partnership.Siemens
-4.834096	Passion
-4.055945	Patent
-4.834096	Pattison,
-4.533066	Paul
-4.834096	Paul,
-3.472368	Payable
-4.533066	Peaker
-4.834096	Pearson
-4.834096	Pending
-4.834096	Peninsular
-4.834096	Pennsylvania
-4.834096	Pennsylvania,
-4.834096	Pennsylvania.Prior
-4.834096	Pension
-4.834096	Pentagon
-4.533066	Pentoney
-4.834096	People's
-4.834096	PepsiCo,
-4.834096	Per
-4.834096	Percent
-4.834096	Percent.Cadence
-4.834096	Performance
-4.533066	Period
-4.356975	Period,
-4.834096	Perpetual
-4.834096	Personal
-4.834096	Personalized
-4.834096	Peru.Fluor
-4.834096	Peru.The
-4.135127	Petaluma
-4.834096	Peter
-4.834096	Petites,
-4.834096	Petrochemicals
-4.356975	Petroleum
-4.834096	Peugeot
-4.834096	Ph.D.,
-4.356975	Pharma
-4.356975	Pharmaceutical
-4.135127	Pharmaceuticals
-4.834096	Phase
-4.834096	Philippe
-4.533066	Phillips
-3.402733	Phillips-Van
-4.834096	Phillips-van
-4.834096	Physical
-4.834096	PhysioTypes
-4.834096	PhysioTypes(TM).PhysioTypes
-4.834096	Physiogenomics
-4.834096	Pierce,
-4.533066	Pike
-4.834096	Pilot
-4.834096	Pines
-4.055945	Plan
-4.533066	Plan.As
-4.834096	Plan.Gentex
-4.834096	Plan.Starbucks
-4.232036	Plan;
-4.232036	Planet
-4.533066	Planet(TM)
-4.834096	Planet,
-4.834096	Planning
-3.931006	Plans
-4.834096	Plans."Panera
-4.834096	Plans."Starbucks
-4.533066	Plant
-4.356975	Plastics
-4.834096	Plastics;
-4.232036	Platform
-4.834096	Platform.Illumina
-4.834096	Platforms.Brocade
-4.834096	Platforms.Illumina
-4.834096	Plaza
-4.834096	Plechschmidt,
-4.834096	Plimpton
-4.356975	Plus
-4.834096	Plus,
-4.533066	Polk
-4.834096	Polypropylene
-4.834096	Pops
-4.834096	Popular
-4.834096	PorcineSNP60
-4.834096	Portability
-4.834096	Portal
-4.533066	Portal,
-4.533066	Portfolio
-4.834096	Portfolio.The
-4.834096	Portland
-4.834096	Portland,
-4.356975	Ports
-4.135127	Posard
-4.834096	Positions.Cadence
-4.834096	Post
-4.834096	Posts.Dolby
-4.356975	Poulsen
-4.834096	Powder
-4.834096	Powell
-3.555343	Power
-4.834096	Power,
-4.834096	Practice.Brocade
-4.834096	Practices.Hansen
-4.834096	Pratt,
-4.834096	Pre-Certified
-4.356975	Preferred
-4.834096	Preliminary
-4.834096	Presence
-2.920283	Presentation
-3.629976	Presents
-3.078222	President
-4.356975	President,
-4.834096	President.
-4.834096	Previous
-4.834096	Price
-4.834096	Primary
-4.834096	Prime
-3.533066	Principal
-4.834096	Princor
-4.533066	Private
-4.834096	Processing
-4.356975	Processor
-4.834096	Procurement
-4.232036	Product
-4.834096	Productivity-Boosting
-4.356975	Products
-4.232036	Products,
-4.232036	Professional
-4.356975	Profile
-4.834096	Profile(R)
-4.055945	Program
