
\data\
ngram 1=11762

\1-grams:
-4.602114	0.17
-4.602114	10
-4.602114	21
-4.602114	253
-4.602114	279
-4.602114	290
-4.602114	300
-4.602114	4.48
-4.602114	On
-4.602114	Our
-4.602114	There
-4.301084	We
-4.602114	that
-4.602114	""new""
-4.602114	"Advance
-4.602114	"Auto
-4.602114	"Cadence
-4.426023	"Cephalon
-4.426023	"Concho
-4.602114	"Fidelity
-4.602114	"Fluor
-4.602114	"Health
-4.602114	"Illumina
-4.602114	"International
-4.602114	"KeyCorp
-4.602114	"Kimberly-Clark
-4.602114	"Macquarie
-4.602114	"Massey
-4.602114	"No."
-4.602114	"Oxford
-4.602114	"Pulitzer
-4.602114	"Tela
-4.602114	"The
-4.602114	"Thuris
-4.602114	"reverse,"
-4.602114	$.05
-4.602114	$.37
-4.602114	$.39
-4.602114	$.40
-4.602114	$.45
-4.602114	$.47
-4.602114	$.47,
-4.602114	$.52
-4.602114	$0
-4.301084	$0.00
-3.903144	$0.01
-4.602114	$0.01."
-4.204174	$0.02
-4.602114	$0.02.
-4.602114	$0.0250
-3.789201	$0.03
-4.602114	$0.0375
-4.000054	$0.04
-3.699024	$0.05
-4.602114	$0.05,
-3.903144	$0.06
-3.948902	$0.07
-4.602114	$0.07.The
-3.948902	$0.08
-4.058046	$0.09
-3.823963	$0.10
-3.903144	$0.11
-3.699024	$0.12
-4.301084	$0.125
-3.903144	$0.13
-3.757016	$0.14
-4.602114	$0.14.
-3.903144	$0.15
-3.624391	$0.16
-4.426023	$0.16)
-3.861752	$0.17
-4.058046	$0.18
-4.124993	$0.19
-4.602114	$0.195
-4.602114	$0.2
-4.204174	$0.20
-4.602114	$0.20.The
-3.861752	$0.21
-3.861752	$0.22
-4.204174	$0.23
-3.861752	$0.24
-3.861752	$0.25
-4.204174	$0.26
-4.124993	$0.27
-4.000054	$0.28
-3.789201	$0.29
-4.602114	$0.3
-4.058046	$0.30
-4.426023	$0.30,
-4.602114	$0.30.GAAP
-4.000054	$0.31
-4.602114	$0.32
-4.602114	$0.325
-4.602114	$0.33
-4.124993	$0.34
-4.602114	$0.345
-4.426023	$0.35
-4.602114	$0.35.The
-4.058046	$0.36
-4.602114	$0.36,
-4.124993	$0.37
-4.426023	$0.38
-4.204174	$0.39
-4.301084	$0.40
-4.426023	$0.407375
-4.426023	$0.41
-4.204174	$0.42
-4.204174	$0.43
-4.000054	$0.44
-4.602114	$0.44,
-4.058046	$0.45
-4.058046	$0.46
-4.426023	$0.47
-4.124993	$0.48
-4.426023	$0.49
-4.301084	$0.5
-4.426023	$0.50
-4.301084	$0.51
-4.426023	$0.52
-4.426023	$0.53
-4.602114	$0.53.GAAP
-4.204174	$0.54
-4.204174	$0.55
-4.426023	$0.56
-4.204174	$0.57
-4.426023	$0.58
-4.204174	$0.59
-4.602114	$0.59.This
-4.204174	$0.60
-4.124993	$0.61
-4.301084	$0.62
-4.602114	$0.62,
-4.204174	$0.63
-4.301084	$0.64
-4.602114	$0.64."
-4.602114	$0.65
-4.301084	$0.66
-4.124993	$0.67
-4.204174	$0.68
-4.602114	$0.71
-4.602114	$0.71,
-4.426023	$0.72
-4.602114	$0.73
-4.058046	$0.74
-4.426023	$0.75
-4.602114	$0.75.This
-4.426023	$0.76
-4.204174	$0.77
-4.426023	$0.78
-4.602114	$0.8
-4.426023	$0.80
-4.426023	$0.84
-4.602114	$0.86
-4.602114	$0.87
-4.426023	$0.89
-4.602114	$0.9
-4.602114	$0.90
-4.602114	$0.91
-4.602114	$0.92
-4.301084	$0.93
-4.426023	$0.94
-4.426023	$0.95
-4.426023	$0.96
-4.124993	$0.97
-4.602114	$0.98
-4.602114	$0.99
-4.058046	$1
-4.602114	$1"
-4.602114	$1,000.00
-4.602114	$1,107,000
-4.602114	$1,122.2
-4.602114	$1,125,034,000
-4.602114	$1,173.0
-4.602114	$1,281
-4.602114	$1,282
-4.602114	$1,288,938,000
-4.602114	$1,322,667
-4.602114	$1,339,038,000
-4.602114	$1,353.1
-4.602114	$1,366.9
-4.602114	$1,398,117,000
-4.426023	$1,400.8
-4.602114	$1,426,000
-4.602114	$1,45,615,000
-4.602114	$1,451.5
-4.602114	$1,48,004,000
-4.602114	$1,495,471,000
-4.602114	$1,507.1
-4.602114	$1,531.4
-4.602114	$1,538,000
-4.602114	$1,559,474,000
-4.602114	$1,582.2
-4.602114	$1,659,676,000.Non-GAAP
-4.602114	$1,669.000
-4.602114	$1,780,000
-4.602114	$1,790,000
-4.602114	$1,835,765,000
-4.602114	$1,840,652,000
-4.602114	$1,914,149,000.GAAP
-4.602114	$1."
-4.602114	$1.0
-4.301084	$1.00
-4.301084	$1.01
-4.602114	$1.02
-4.426023	$1.03
-4.426023	$1.04
-4.301084	$1.05
-4.204174	$1.06
-4.602114	$1.07
-4.602114	$1.07,
-4.602114	$1.08
-4.602114	$1.09
-4.301084	$1.1
-4.602114	$1.10
-4.426023	$1.12
-4.602114	$1.13
-4.602114	$1.14.The
-4.602114	$1.15
-4.602114	$1.18,
-4.602114	$1.19
-4.124993	$1.2
-4.602114	$1.21
-4.602114	$1.22
-4.426023	$1.22,
-4.602114	$1.23
-4.426023	$1.25
-4.602114	$1.27
-4.602114	$1.28
-4.602114	$1.29
-4.301084	$1.3
-4.602114	$1.30
-4.204174	$1.34
-4.426023	$1.37
-4.602114	$1.38.The
-4.426023	$1.39075
-4.602114	$1.40
-4.301084	$1.43
-4.602114	$1.44
-4.602114	$1.44.It
-4.602114	$1.44.While
-4.426023	$1.45
-4.602114	$1.45.The
-4.602114	$1.47
-4.602114	$1.50
-4.602114	$1.50,
-4.301084	$1.53
-4.426023	$1.55
-4.602114	$1.56
-4.602114	$1.57."
-4.124993	$1.6
-4.426023	$1.62
-4.602114	$1.63
-4.602114	$1.64
-4.602114	$1.7
-4.426023	$1.72
-4.602114	$1.76
-4.602114	$1.82
-4.602114	$1.85
-4.602114	$1.87
-4.204174	$1.9
-4.602114	$1.92
-4.426023	$1.97
-4.426023	$10
-4.602114	$10,447,000
-4.602114	$10.08.Existing
-4.426023	$10.1
-4.602114	$10.3
-4.602114	$10.4
-4.602114	$10.5
-4.602114	$10.64
-4.602114	$10.7
-4.204174	$10.8
-4.602114	$10.9
-4.124993	$100
-4.602114	$100,000
-4.602114	$100,000,022,
-4.602114	$1000.00
-4.602114	$101.5
-4.426023	$102
-4.426023	$102.1
-4.602114	$102.4
-4.602114	$103
-4.602114	$103.84
-4.602114	$104
-4.602114	$104,000,
-4.602114	$104.0
-4.602114	$104.2
-4.426023	$104.3
-4.602114	$104.4
-4.301084	$104.7
-4.426023	$105
-4.602114	$105.51
-4.602114	$106
-4.602114	$106.3
-4.602114	$106.7
-4.602114	$108.22
-4.426023	$108.4
-4.426023	$109.79
-4.301084	$11
-4.602114	$11"
-4.602114	$11,256,000
-4.602114	$11,325,"
-4.602114	$11.0
-4.602114	$11.1
-4.602114	$11.3
-4.602114	$11.8
-4.301084	$110
-4.602114	$110.4
-4.602114	$111
-4.602114	$111,169,000
-4.602114	$111,599,000
-4.602114	$111,866,000
-4.602114	$111.78
-4.426023	$112.5
-4.301084	$112.6
-4.602114	$112.8
-4.602114	$113
-4.602114	$113.70
-4.602114	$114,327,000
-4.602114	$114.5
-4.602114	$115
-4.602114	$115.5
-4.602114	$115.8
-4.602114	$116
-4.602114	$116.9
-4.602114	$117.4
-4.602114	$117.54
-4.602114	$119.6
-4.602114	$119.7
-4.426023	$12
-4.602114	$12,569,000
-4.602114	$12,595
-4.602114	$12.43.
-4.602114	$12.6
-4.602114	$12.7
-4.602114	$12.9
-4.301084	$120
-4.602114	$121.1
-4.602114	$121.9
-4.602114	$122
-4.602114	$122,757,000
-4.602114	$122.05
-4.602114	$122.4
-4.426023	$123
-4.602114	$123,591,000
-4.301084	$125
-4.602114	$127
-4.602114	$127.
-4.602114	$128.5
-4.602114	$129,369,000
-4.602114	$129,706,000
-4.602114	$129,899,000
-4.301084	$129.0
-4.602114	$129.1
-4.426023	$13
-4.602114	$13,111,000
-4.602114	$13,142,000
-4.602114	$13,166,000
-4.602114	$13,250,000
-4.602114	$13,279,000,
-4.602114	$13,301,000
-4.602114	$13,428,000
-4.602114	$13,512,000
-4.602114	$13,740,000
-4.602114	$13,813,000
-4.602114	$13,923,000
-4.426023	$13.1
-4.426023	$13.2
-4.602114	$13.4
-4.426023	$13.6
-4.602114	$130
-4.602114	$130,407,000
-4.426023	$130.4
-4.602114	$130.9
-4.602114	$131,775,000,
-4.602114	$131.5
-4.602114	$132.08
-4.602114	$133
-4.602114	$133.37
-4.602114	$133.93
-4.602114	$1332.44
-4.602114	$134
-4.602114	$136
-4.301084	$137
-4.602114	$137,614,000
-4.602114	$137.8
-4.426023	$138
-4.602114	$138,572,000
-4.602114	$138,883,000
-4.602114	$138.438
-4.602114	$138.5
-4.602114	$139
-4.602114	$139,571,000
-4.426023	$14
-4.602114	$14,022,000
-4.602114	$14,033,940,
-4.602114	$14,265,000
-4.602114	$14,722,500,
-4.204174	$14.27
-4.602114	$14.4
-4.602114	$14.5
-4.602114	$14.6
-4.602114	$14.7
-4.602114	$14.75
-4.602114	$14.8
-4.602114	$14.9
-4.301084	$140
-4.602114	$140.2
-4.602114	$142
-4.602114	$142.7
-4.301084	$145
-4.602114	$145,839,000
-4.602114	$145.0
-4.426023	$145.5
-4.602114	$146.0
-4.602114	$146.30
-4.602114	$146.380
-4.426023	$147
-4.602114	$148
-4.602114	$149,725
-4.602114	$149.5
-3.948902	$15
-4.602114	$15,062,000
-4.602114	$15,490,000
-4.602114	$15,855,000,
-4.602114	$15.0
-4.426023	$15.1
-4.602114	$15.2
-4.602114	$15.4
-4.602114	$15.59
-4.602114	$15.6
-4.602114	$15.68
-4.602114	$15.76
-4.602114	$15.8
-4.602114	$150
-4.602114	$150.2
-4.602114	$150.3
-4.602114	$151.5
-4.602114	$152
-4.602114	$152,985,000
-4.602114	$152.9
-4.602114	$153,505,000
-4.602114	$154.8
-4.426023	$155
-4.602114	$155.6
-4.602114	$156,099,000
-4.602114	$156.15
-4.602114	$156.6
-4.602114	$156.7
-4.426023	$157
-4.602114	$157,315,000
-4.602114	$158,360,000
-4.602114	$158.201
-4.602114	$16.1
-4.602114	$16.2
-4.602114	$16.4
-4.426023	$16.7
-4.204174	$16.8
-4.602114	$16.9
-4.426023	$160
-4.602114	$160.9
-4.602114	$161
-4.602114	$161,643,000
-4.426023	$161.6
-4.426023	$162
-4.602114	$162.8
-4.602114	$163
-4.426023	$164
-4.602114	$164.0
-4.602114	$165
-4.602114	$165,757,000
-4.602114	$165.6
-4.602114	$166.18mm.
-4.602114	$166.2
-4.602114	$166.213
-4.602114	$167
-4.426023	$168.3
-4.602114	$169
-4.426023	$169.6
-4.602114	$17
-4.602114	$17,077,000
-4.602114	$17,285,000
-4.602114	$17,564,000
-4.602114	$17,872,000
-4.426023	$17.1
-4.602114	$17.6
-4.204174	$170
-4.426023	$170.1
-4.602114	$172.6
-4.602114	$173,389,000
-4.602114	$173.75
-4.602114	$174
-4.602114	$174.2
-4.602114	$176.6
-4.602114	$177
-4.602114	$177.6
-4.602114	$178
-4.602114	$178,148,000
-4.602114	$178.6
-4.602114	$179.0
-4.602114	$179.9
-4.301084	$18
-4.602114	$18,440,197
-4.602114	$18,811,000
-4.602114	$18,894,000
-4.602114	$18.0
-4.602114	$18.4
-4.426023	$18.5
-4.602114	$180,341,135
-4.602114	$180.3
-4.426023	$182
-4.602114	$183.1
-4.602114	$183.5
-4.602114	$184,444,000,
-4.602114	$184.6
-4.602114	$185.7
-4.602114	$188
-4.602114	$1893.03641
-4.602114	$19,081,000
-4.602114	$19,516,000
-4.602114	$19,697,000
-4.602114	$19,888,000
-4.602114	$19,997,000
-4.602114	$19.0
-4.602114	$19.1
-4.602114	$19.5
-4.602114	$19.6
-4.426023	$19.61
-4.602114	$19.7
-4.426023	$19.8
-4.602114	$19.9
-4.602114	$192,131,000
-4.602114	$193.0
-4.602114	$194
-4.602114	$196,000
-4.602114	$197.54
-4.602114	$198,741,000
-4.426023	$198.4
-4.426023	$198.79
-4.204174	$2
-4.602114	$2,026,000
-4.602114	$2,048,541,000
-4.602114	$2,053.5
-4.602114	$2,070,754,000
-4.602114	$2,187,996,000
-4.602114	$2,188.6
-4.602114	$2,190.6
-4.602114	$2,277,000
-4.602114	$2,333.3
-4.602114	$2,359,805,000
-4.602114	$2,398,731,000
-4.602114	$2,403.9
-4.602114	$2,469,818,000
-4.602114	$2,484,694,000,
-4.602114	$2,500,000,000
-4.602114	$2,500.7
-4.602114	$2,534.7
-4.602114	$2,539
-4.602114	$2,574.0
-4.602114	$2,658.2
-4.602114	$2,708,924,000
-4.602114	$2,831.8
-4.602114	$2,984,000
-4.204174	$2.0
-4.602114	$2.00
-4.602114	$2.08
-4.602114	$2.1
-4.602114	$2.10,
-4.602114	$2.11
-4.602114	$2.13
-4.602114	$2.15
-4.602114	$2.16
-4.602114	$2.17
-4.602114	$2.17,
-4.426023	$2.19
-4.124993	$2.2
-4.602114	$2.20
-4.602114	$2.29
-4.426023	$2.3
-4.602114	$2.30
-4.602114	$2.32
-4.602114	$2.33
-4.426023	$2.4
-4.602114	$2.40
-4.602114	$2.41
-4.426023	$2.45
-4.602114	$2.46
-4.602114	$2.47
-4.602114	$2.48
-4.602114	$2.49
-4.602114	$2.5
-4.602114	$2.50
-4.602114	$2.51
-4.602114	$2.52
-4.426023	$2.55
-4.602114	$2.56
-4.602114	$2.57
-4.602114	$2.58
-4.426023	$2.59
-4.000054	$2.6
-4.602114	$2.60
-4.602114	$2.64
-4.426023	$2.65
-4.602114	$2.69
-4.301084	$2.7
-4.602114	$2.70
-4.602114	$2.72
-4.426023	$2.8
-4.602114	$2.80
-4.602114	$2.80-$3.20
-4.602114	$2.9
-4.602114	$2.95.GAAP
-4.602114	$2.97
-4.426023	$20
-4.602114	$20,386,804
-4.602114	$20.0
-4.602114	$20.2
-4.602114	$20.4
-4.204174	$200
-4.602114	$203,395,000
-4.602114	$204.0
-4.602114	$204.12
-4.602114	$204.6
-4.602114	$205
-4.602114	$206,302,000
-4.602114	$207
-4.602114	$208.8
-4.602114	$209,929,000
-4.602114	$21
-4.602114	$21,208,000
-4.602114	$21,237,000
-4.602114	$21.1
-4.602114	$21.3
-4.602114	$21.54
-4.602114	$21.6
-4.602114	$211
-4.602114	$212,003,000
-4.602114	$212,178,000
-4.602114	$213,076,000,
-4.602114	$213,885,000
-4.602114	$213.8
-4.602114	$214.7
-4.602114	$215.4
-4.426023	$217.3
-4.602114	$217.6
-4.301084	$22
-4.602114	$22,035,000
-4.602114	$22,561,000,
-4.602114	$22,721,000
-4.602114	$22.0
-4.602114	$22.1
-4.602114	$22.4
-4.426023	$22.5
-4.602114	$220,279,000
-4.602114	$221
-4.602114	$221.2
-4.602114	$222
-4.602114	$223.1
-4.602114	$224.2
-4.301084	$225
-4.602114	$225.04
-4.602114	$226.9
-4.602114	$227
-4.602114	$227,064,000
-4.602114	$228.9
-4.204174	$23
-4.602114	$23,104,000
-4.602114	$23,580,000
-4.602114	$23,643,000,
-4.602114	$23.0
-4.602114	$23.1
-4.426023	$23.4
-4.602114	$23.9
-4.426023	$230
-4.602114	$230.6
-4.602114	$231.9
-4.602114	$232.5
-4.602114	$233
-4.426023	$233.1
-4.602114	$235
-4.602114	$235,886
-4.602114	$237,309,000
-4.602114	$239,
-4.426023	$24
-4.602114	$24,688,000
-4.602114	$24.00
-4.602114	$24.095
-4.602114	$24.3
-4.602114	$24.9
-4.602114	$240.8
-4.602114	$241.1
-4.602114	$243
-4.602114	$243,292,000
-4.602114	$243,8"
-4.602114	$244,206,000
-4.602114	$244,763,000
-4.602114	$245.30
-4.602114	$246
-4.602114	$247.1
-4.426023	$247.2
-4.602114	$249,018,000
-4.204174	$25
-4.602114	$25,000),
-4.602114	$25,000,000)
-4.602114	$25,423,000
-4.602114	$25.0
-4.426023	$25.2
-4.602114	$25.4
-4.602114	$25.8
-4.301084	$25.9
-4.058046	$250
-4.602114	$251.4
-4.602114	$253.7
-4.602114	$254,000
-4.602114	$254.0
-4.602114	$255,986,000,
-4.602114	$255.6
-4.602114	$258.4
-4.602114	$259.6
-4.426023	$26
-4.602114	$26,558,000
-4.602114	$26.0
-4.602114	$26.1
-4.602114	$26.3
-4.426023	$26.5
-4.602114	$26.594
-4.602114	$26.6
-4.602114	$26.9
-4.204174	$260
-4.602114	$261
-4.602114	$264
-4.058046	$264.69
-4.602114	$265,000
-4.602114	$265.9
-4.602114	$27,023,000
-4.602114	$27,463,000
-4.602114	$27.00
-4.602114	$27.5
-4.426023	$27.6
-4.426023	$27.9
-4.602114	$270,750,000
-4.602114	$272.166
-4.602114	$272.7
-4.426023	$273.4
-4.602114	$276
-4.602114	$277.1
-4.602114	$277.8
-4.602114	$278.7
-4.602114	$28
-4.602114	$28,811,000
-4.426023	$28.0
-4.602114	$28.1
-4.602114	$28.3
-4.602114	$28.4
-4.426023	$28.8
-4.602114	$28.9
-4.602114	$280
-4.602114	$281
-4.602114	$281.0
-4.602114	$281.317
-4.602114	$282,244,000
-4.602114	$282.9
-4.602114	$284
-4.602114	$285.0
-4.602114	$286.3
-4.602114	$287.1
-4.602114	$287.9
-4.602114	$288,008,000,
-4.602114	$288.0
-4.602114	$288.8
-4.602114	$29,166,000
-4.602114	$29,299,000
-4.602114	$29,351,000
-4.426023	$29,696,000
-4.602114	$29,796,000
-4.602114	$29.1
-4.602114	$29.2
-4.602114	$29.3
-4.602114	$29.5
-4.602114	$29.7
-4.602114	$29.9
-4.602114	$290
-4.602114	$290.6
-4.602114	$292
-4.602114	$294.3
-4.602114	$294.82
-4.602114	$296
-4.602114	$298
-4.602114	$298.1
-4.602114	$299.88
-4.602114	$299.883
-4.301084	$3
-4.602114	$3,484
-4.602114	$3,605,000
-4.301084	$3.0
-4.602114	$3.05
-4.602114	$3.05,
-4.426023	$3.06
-4.602114	$3.1
-4.602114	$3.10
-4.426023	$3.18
-4.602114	$3.2
-4.301084	$3.3
-4.301084	$3.4
-4.602114	$3.43)
-4.602114	$3.46
-4.426023	$3.5
-4.426023	$3.52
-4.602114	$3.55
-4.426023	$3.6
-4.602114	$3.62
-4.602114	$3.65
-4.301084	$3.8
-4.204174	$3.9
-4.000054	$30
-4.602114	$30,137,000,
-4.602114	$30,511,000
-4.602114	$30.0
-4.602114	$30.1
-4.602114	$30.3
-4.602114	$30.33
-4.602114	$30.5
-4.602114	$30.687
-3.948902	$300
-4.602114	$300,000,020
-4.602114	$302.6
-4.602114	$303.8
-4.602114	$304,978,000
-4.602114	$306.8
-4.602114	$307.9
-4.602114	$31,397,000
-4.602114	$31,774,000
-4.602114	$31,922,000
-4.602114	$31.2
-4.602114	$31.3
-4.602114	$31.4
-4.602114	$31.6
-4.602114	$31.7
-4.602114	$311
-4.602114	$311.83
-4.602114	$312.1
-4.602114	$315,195,000
-4.426023	$32
-4.602114	$32,215
-4.602114	$32,487,000
-4.602114	$32.0
-4.602114	$32.4
-4.602114	$32.64
-4.602114	$32.7
-4.602114	$321.0
-4.602114	$323
-4.602114	$328.5
-4.602114	$33
-4.602114	$33,142,000
-4.602114	$33,361,000
-4.602114	$33.1
-4.602114	$33.2
-4.602114	$33.3
-4.602114	$33.7
-4.602114	$332
-4.602114	$335,018,000
-4.602114	$336.5
-4.602114	$338
-4.602114	$339.8
-4.602114	$34,036,000
-4.602114	$34,285
-4.602114	$34,508,000
-4.602114	$34.3
-4.426023	$34.38
-4.602114	$34.4
-4.602114	$34.53
-4.602114	$34.8
-4.602114	$343
-4.602114	$347.7
-4.602114	$347.8
-4.602114	$348
-4.602114	$348,886,366
-4.426023	$348.3
-4.301084	$35
-4.602114	$35,023,000
-4.602114	$35,447,000
-4.602114	$35.0
-4.602114	$35.014
-4.602114	$35.7
-4.602114	$350
-4.602114	$354.0
-4.204174	$36
-4.602114	$36,102,000
-4.602114	$36,384,000
-4.602114	$36,520,000
-4.602114	$36.5
-4.602114	$36.9
-4.602114	$360
-4.602114	$362
-4.602114	$365
-4.426023	$365.786
-4.602114	$366,972,000
-4.602114	$366.8
-4.602114	$37,584,000
-4.602114	$37.1
-4.602114	$37.4
-4.602114	$37.5
-4.426023	$37.6
-4.426023	$37.7
-4.602114	$37.9
-4.602114	$37.94
-4.602114	$370
-4.602114	$370.5
-4.602114	$378
-4.602114	$38
-4.602114	$38,225,000
-4.602114	$38,311,000
-4.602114	$38.3
-4.602114	$38.6
-4.602114	$38.7
-4.602114	$38.8
-4.602114	$381.3
-4.602114	$383.7
-4.602114	$384
-4.602114	$39,369,000
-4.602114	$39,413,000
-4.426023	$39.1
-4.602114	$39.4
-4.602114	$390,166,000
-4.602114	$4
-4.602114	$4,115.2
-4.602114	$4,219,739,000
-4.602114	$4,345
-4.602114	$4,486.8
-4.602114	$4,606.2
-4.602114	$4,636,848,000
-4.602114	$4,648,000
-4.602114	$4,687.0
-4.602114	$4,758,000
-4.426023	$4,918.9
-4.602114	$4,939,637,000
-4.602114	$4.0
-4.301084	$4.1
-4.301084	$4.3
-4.602114	$4.40
-4.602114	$4.50.Preliminary
-4.602114	$4.58
-4.602114	$4.75
-4.204174	$4.8
-4.301084	$4.9
-4.602114	$4.93
-4.426023	$40
-4.602114	$40,740,000,
-4.602114	$40,770,000,
-4.426023	$40.22
-4.426023	$40.22379
-4.204174	$40.3
-4.602114	$40.399
-4.602114	$40.7
-4.602114	$40.9
-4.426023	$400
-4.602114	$402.03mm.
-4.602114	$407.9
-4.602114	$41"
-4.602114	$41,233,000
-4.602114	$41,565,000
-4.602114	$41.2
-4.426023	$41.5
-4.602114	$41.50
-4.602114	$41.52
-4.602114	$41.6
-4.426023	$41.7
-4.602114	$41.71
-4.426023	$410
-4.602114	$410,615,000
-4.602114	$42
-4.602114	$42,828,000
-4.426023	$420
-4.602114	$421
-4.602114	$423.42
-4.602114	$428,161,000
-4.602114	$43,121,000
-4.602114	$43,442,000,
-4.602114	$43.62
-4.426023	$430
-4.602114	$435
-4.602114	$438.4
-4.602114	$44,562,000
-4.602114	$44,593,000
-4.602114	$44.2
-4.602114	$44.8
-4.602114	$44.9
-4.426023	$440
-4.602114	$442.0
-4.602114	$449,002,000
-4.602114	$45,263,000
-4.602114	$45.0
-4.602114	$45.1
-4.602114	$45.30
-4.602114	$45.5
-4.602114	$45.62
-4.301084	$45.8
-4.124993	$450
-4.602114	$452,018,000
-4.602114	$454.4
-4.602114	$455
-4.602114	$458
-4.602114	$46,154,000,
-4.602114	$46,226,000,
-4.602114	$46,454,000
-4.602114	$46,526,000
-4.602114	$46,968,000
-4.602114	$46.1
-4.602114	$46.2
-4.602114	$46.364
-4.602114	$46.67
-4.426023	$46.9
-4.301084	$460
-4.602114	$461
-4.602114	$465
-4.602114	$468,195,000
-4.602114	$47,307,000
-4.602114	$47,428,000
-4.602114	$47,962,000
-4.426023	$47.4
-4.602114	$47.6
-4.602114	$47.7
-4.602114	$47.73
-4.426023	$47.94
-4.602114	$473
-4.602114	$475
-4.301084	$48
-4.602114	$48,416,000,
-4.602114	$48.2
-4.602114	$48.23
-4.602114	$48.4
-4.602114	$48.7
-4.602114	$48.8
-4.602114	$482.3
-4.602114	$49,369,000
-4.602114	$49,814,000,
-4.602114	$49.0
-4.602114	$49.3
-4.426023	$49.4
-4.602114	$49.78
-4.602114	$49.8
-4.602114	$49.9
-4.602114	$494,422,000
-4.602114	$497.2
-4.124993	$5
-4.602114	$5,057.8
-4.602114	$5,091,000
-4.602114	$5,167,000
-4.602114	$5,311.1
-4.602114	$5,673.8
-4.602114	$5,797.9
-4.602114	$5,981,000
-4.426023	$5.1
-4.602114	$5.10
-4.602114	$5.4
-4.204174	$5.5
-4.602114	$5.50
-4.602114	$5.58
-4.602114	$5.8
-4.426023	$5.9
-4.602114	$50
-4.602114	$50,000,000
-4.602114	$50,232,000
-4.602114	$50,337,332
-4.602114	$50,748,000
-4.602114	$50.0
-4.602114	$50.1
-4.602114	$50.116
-4.602114	$50.3
-4.426023	$50.5
-4.426023	$50.8
-4.124993	$500
-4.426023	$5000
-4.602114	$501
-4.602114	$506.4
-4.301084	$51
-4.602114	$51.2
-4.602114	$51.5
-4.602114	$51.6
-4.602114	$51.7
-4.426023	$51.8
-4.602114	$510.6
-4.602114	$513,949,000
-4.602114	$513.9
-4.602114	$515
-4.602114	$516.4
-4.602114	$52,194,000
-4.602114	$52,813,000
-4.602114	$52.4
-4.602114	$52.48
-4.602114	$52.6
-4.602114	$52.72
-4.602114	$52.735
-4.602114	$52.8
-4.602114	$524.6
-4.426023	$53
-4.602114	$53,592,000
-4.602114	$53,699,000
-4.602114	$53,710,000
-4.602114	$53,778,000
-4.602114	$53,957,000
-4.602114	$53.1
-4.602114	$53.2
-4.602114	$53.5
-4.602114	$53.66
-4.602114	$531.8
-4.426023	$533
-4.602114	$533,983,000
-4.602114	$533.2
-4.602114	$533.8
-4.602114	$535
-4.301084	$54
-4.602114	$54,559,000,
-4.602114	$54,710,000
-4.602114	$54,828,000
-4.426023	$54.5
-4.602114	$54.66
-4.602114	$54.8
-4.426023	$54.80
-4.426023	$545
-4.602114	$548,782,000
-4.602114	$548.8
-4.602114	$55
-4.602114	$55,364,000
-4.602114	$55,993,000,
-4.602114	$55.0
-4.602114	$55.6
-4.426023	$550
-4.602114	$555
-4.602114	$555.3
-4.602114	$56,356,000
-4.602114	$56.8
-4.602114	$56.85
-4.426023	$560
-4.602114	$561
-4.602114	$561.29
-4.602114	$562,219,000,
-4.602114	$565.5
-4.602114	$568.3
-4.602114	$569.2
-4.602114	$57
-4.602114	$57,015,000
-4.602114	$57,335,000
-4.602114	$57,482,000
-4.602114	$57,763,000
-4.602114	$57.274
-4.602114	$57.7
-4.602114	$57.8
-4.602114	$57.9
-4.602114	$571.3
-4.602114	$573.5
-4.602114	$574,120,000
-4.426023	$575
-4.602114	$577.79
-4.602114	$578
-4.204174	$58
-4.602114	$58,509,000
-4.602114	$58,755,000,
-4.602114	$580
-4.602114	$584.52
-4.602114	$585
-4.602114	$59
-4.602114	$59,177,000
-4.426023	$59.2
-4.602114	$59.6
-4.602114	$59.866
-4.602114	$591.9
-4.602114	$6
-4.602114	$6,391
-4.602114	$6,417
-4.602114	$6,814,000
-4.602114	$6.25
-4.426023	$6.3
-4.602114	$6.32
-4.602114	$6.4
-4.602114	$6.5
-4.602114	$6.55,
-4.602114	$6.57
-4.426023	$6.7
-4.426023	$6.8
-4.426023	$6.9
-4.204174	$60
-4.602114	$60,809,000
-4.602114	$60,879,000
-4.301084	$60.0
-4.602114	$60.4
-4.204174	$600
-4.602114	$600,000,000.The
-4.602114	$605
-4.602114	$607,613,000
-4.602114	$607.6
-4.602114	$61,084,000
-4.602114	$61,560,000
-4.602114	$61,613,000
-4.602114	$61.1
-4.602114	$61.3
-4.426023	$61.7
-4.602114	$610
-4.602114	$611,399,000
-4.602114	$612
-4.602114	$612.8
-4.602114	$614,583,000
-4.301084	$615
-4.602114	$62
-4.602114	$62,775,976
-4.426023	$63
-4.602114	$63,254,000
-4.602114	$63,257,000
-4.602114	$63,577,000
-4.602114	$63.3
-4.602114	$633,000,
-4.602114	$634.7
-4.602114	$634.71
-4.602114	$636,210,000.Non-GAAP
-4.602114	$64
-4.602114	$64.2
-4.426023	$64.8
-4.602114	$640.23
-4.602114	$646,267,000
-4.301084	$65
-4.602114	$65,777,000
-4.602114	$65.3
-4.602114	$65.7
-4.602114	$650
-4.602114	$650.The
-4.602114	$656
-4.426023	$657.8
-4.602114	$659.82
-4.602114	$66.47
-4.602114	$66.5
-4.602114	$66.8
-4.602114	$660
-4.602114	$667
-4.602114	$67,537,000
-4.602114	$67,629,000
-4.602114	$67.72
-4.602114	$672
-4.602114	$68,648,000
-4.602114	$68,834,000
-4.602114	$68.73
-4.602114	$68.8
-4.602114	$683,570,000
-4.602114	$69,070,000,
-4.602114	$69,261,000
-4.426023	$69.1
-4.602114	$69.2
-4.602114	$69.45
-4.301084	$69.7
-4.602114	$69.79
-4.602114	$696,370,000
-4.602114	$698,887,000
-4.602114	$7
-4.602114	$7,326,726
-4.602114	$7,338,000
-4.602114	$7,871
-4.602114	$7,905
-4.602114	$7.29
-4.204174	$7.3
-4.602114	$7.4
-4.602114	$7.45
-4.602114	$7.5
-4.426023	$7.6
-4.204174	$7.8
-4.426023	$7.9
-4.204174	$70
-4.602114	$70.2
-4.602114	$70.3
-4.301084	$70.8
-4.602114	$700
-4.602114	$701
-4.602114	$71,038,000
-4.602114	$71,907,000
-4.602114	$71.1
-4.602114	$71.9
-4.602114	$712.81
-4.426023	$72
-4.602114	$72.0
-4.602114	$72.2
-4.602114	$72.8
-4.602114	$72.9
-4.602114	$727,484,000.GAAP
-4.602114	$73,510,000
-4.602114	$73.0
-4.602114	$73.85
-4.602114	$738,652,000
-4.602114	$74,357,000
-4.602114	$74,560,000
-4.602114	$74,796,000
-4.602114	$74.3
-4.602114	$748.5
-4.426023	$75
-4.602114	$75,
-4.602114	$75,198,000,
-4.602114	$75.7
-4.602114	$750,592,000
-4.602114	$76.783
-4.602114	$767,000,
-4.426023	$768.60
-4.602114	$77
-4.602114	$77,000,
-4.602114	$77.1
-4.602114	$77.4
-4.602114	$77.6
-4.602114	$77.8
-4.602114	$779.4
-4.602114	$78.0
-4.602114	$78.1
-4.602114	$78.6
-4.602114	$78.68
-4.602114	$78.8
-4.602114	$78.9
-4.602114	$79,043,000
-4.602114	$79.4
-4.426023	$79.6
-4.602114	$790
-4.602114	$791.848
-4.058046	$8
-4.602114	$8,397,000
-4.602114	$8,684
-4.602114	$8.6
-4.602114	$8.7
-4.602114	$8.8
-4.602114	$8.9
-4.426023	$80
-4.602114	$80.0
-4.426023	$80.40
-4.602114	$80.9
-4.602114	$800,000
-4.602114	$805
-4.602114	$807
-4.602114	$81.8
-4.602114	$82
-4.602114	$822.3
-4.602114	$822.570
-4.602114	$823.239
-4.602114	$83,069,000
-4.602114	$83,339,000,
-4.602114	$83.8
-4.602114	$834
-4.602114	$834.8
-4.426023	$84.5
-4.602114	$84.550
-4.602114	$84.629
-4.602114	$841.6
-4.602114	$845
-4.602114	$85
-4.602114	$85.1
-4.602114	$85.4
-4.426023	$85.6
-4.602114	$85.89
-4.301084	$850
-4.602114	$852,632,000
-4.602114	$855.3
-4.602114	$859
-4.602114	$86.0
-4.602114	$86.02
-4.602114	$86.32
-4.602114	$862.0
-4.602114	$869.7
-4.602114	$87.4
-4.602114	$87.9
-4.602114	$871.9
-4.602114	$872,"
-4.602114	$88.3
-4.602114	$88.5
-4.426023	$88.8
-4.602114	$885
-4.602114	$89,883,000
-4.426023	$89.6
-4.602114	$893.84
-4.602114	$9
-4.602114	$9,020,000,
-4.602114	$9,494,000
-4.602114	$9,915
-4.602114	$9,982,000
-4.602114	$9.0
-4.301084	$9.3
-4.426023	$9.34
-4.426023	$9.7
-4.602114	$90
-4.602114	$90.7
-4.602114	$90/sample,
-4.602114	$900,000
-4.602114	$904
-4.602114	$91,807,000
-4.602114	$91,943,000
-4.602114	$91,964,000
-4.426023	$91.3
-4.602114	$91.6
-4.602114	$91.77
-4.426023	$92
-4.426023	$92.0
-4.602114	$93
-4.602114	$93,591,000
-4.426023	$93.7
-4.602114	$935,954,000
-4.602114	$94
-4.602114	$94.2
-4.602114	$941,041,000
-4.426023	$942.83
-4.602114	$946
-4.602114	$95
-4.602114	$95.5
-4.602114	$95.7
-4.602114	$95.9
-4.602114	$955.9
-4.602114	$96.1
-4.602114	$960
-4.426023	$97.31
-4.602114	$97.5
-4.602114	$98
-4.602114	$98,010,085
-4.602114	$98,296,000
-4.602114	$985.1
-4.602114	$986,521,000
-4.602114	$99.4
-4.602114	%to
-3.0836	&
-4.602114	&amp;
-4.602114	'02
-4.602114	'02'
-4.602114	'08
-4.602114	'Corporate
-4.602114	'Exchange
-4.602114	'Listed
-4.602114	'Non-Employee
-4.602114	'Outside
-4.602114	'SN200
-4.602114	'Starbucks
-4.602114	'independent'
-4.602114	'realigning
-4.602114	'very
-4.602114	'wireline
-4.426023	(
-4.602114	(BLDA)
-4.602114	("CJMM"),
-4.602114	($0.04)
-4.602114	($0.06
-4.602114	($0.10)
-4.602114	($12.39
-4.602114	($14.6
-4.602114	($26.03
-4.602114	($30.3
-4.602114	($315
-4.602114	($345.77
-4.602114	($359.4
-4.602114	($371.79
-4.602114	($9.9
-4.602114	(11
-4.602114	(58
-4.602114	(96.94%)2;
-4.602114	(99.6%)
-4.602114	(A
-4.602114	(AAT),
-4.602114	(ACTS),
-4.602114	(ADHD)
-4.602114	(AHBA)
-4.602114	(AMR)
-4.602114	(AP)/router
-4.602114	(APN).The
-4.602114	(ARM)
-4.602114	(ASIC)
-4.426023	(ASX:
-4.602114	(AUD
-4.602114	(AVRs),
-4.124993	(Australia)
-4.602114	(B-type
-4.602114	(BGI)
-4.301084	(Brocade(R))
-4.602114	(CARe)
-4.426023	(CE)
-4.602114	(CEE)
-4.602114	(CEO)
-4.602114	(CGEMS)
-4.602114	(CGEMS),
-4.602114	(CGF)
-4.602114	(CIO).Ms.
-4.602114	(CNAs)
-4.602114	(COO)
-4.602114	(CPF)
-4.602114	(CPF)-based
-4.602114	(CR100).Sonos'
-4.602114	(CSHL)
-4.602114	(CSPro)
-4.602114	(DCEG),
-4.602114	(DGE)
-4.602114	(Dean)
-4.602114	(Design-for-Manufacturability)
-4.602114	(E&D)
-4.602114	(EDA)
-4.602114	(EEE)
-4.426023	(EIA)
-4.602114	(EICS).This
-4.602114	(EPCM)
-4.602114	(EPCM),
-4.602114	(EPS)
-4.602114	(English
-4.602114	(FAN)
-4.426023	(FC)
-4.602114	(FCIP)
-4.602114	(FCoE)-based
-4.602114	(FDA)
-4.602114	(FDA).He
-4.602114	(FERC),
-4.602114	(FFPE).The
-4.602114	(FHPS).Advance
-4.602114	(FPGA)
-4.602114	(Financial
-4.602114	(GA)
-4.124993	(GAAP),
-4.602114	(GHz)
-4.602114	(GSK)
-4.602114	(GWA)
-4.602114	(GWAS).Designed
-4.602114	(Gb)
-4.602114	(GbE)
-4.602114	(Gbit/sec)
-4.602114	(HBA)
-4.602114	(HD)
-4.602114	(HDR)
-4.602114	(HDR)-enabled
-4.602114	(HIPAA).
-4.602114	(HLCS)
-4.602114	(HRM);
-4.602114	(High
-4.602114	(I/O)
-4.602114	(IBPS)
-4.602114	(IC)
-4.602114	(ICC)
-4.602114	(ID/IQ)
-4.602114	(IIJ-Tech)
-4.602114	(IOPS)
-4.602114	(ISE)
-4.602114	(ISOs)
-4.602114	(IT)
-4.602114	(ITMAT)
-4.602114	(ITMAT,
-4.426023	(Industry)
-4.602114	(Institutional)
-4.426023	(Jay)
-4.602114	(LAN)
-4.602114	(LCD)
-4.602114	(LOGCAP)
-4.602114	(LSI)
-4.602114	(Light)
-4.602114	(MAC),
-4.602114	(MIPI(SM))
-4.602114	(MMK)
-4.602114	(MOLX)
-4.602114	(MOLXA)
-4.602114	(MS),
-4.602114	(MSM(TM))
-4.602114	(MTG)
-4.602114	(Mbps)
-4.426023	(NASDAQ:
-4.602114	(NCI)
-4.602114	(NHLBI)
-3.38463	(NYSE:
-4.602114	(NYSE:AVY)
-4.602114	(NYSE:CDN)
-4.602114	(NYSE:CZN)
-4.602114	(NYSE:FLR)'s
-4.426023	(NYSE:FNF)
-4.426023	(NYSE:HNT)
-4.602114	(NYSE:KEY)'s
-4.602114	(NYSE:LFG)
-4.602114	(NYSE:LFG)..
-4.602114	(NYSE:PFG)
-4.301084	(NYSE:SCI)
-4.602114	(NYSE:UNS)
-3.861752	(Nasdaq:
-4.301084	(NasdaqGS:
-4.602114	(NasdaqGS:CEPH)
-4.602114	(NasdaqGS:ILMN)
-4.602114	(NasdaqNM:GNTX)
-4.602114	(OCG).The
-4.602114	(OEM)
-4.602114	(OVM)
-4.602114	(OVM)-compliant,
-4.602114	(OVM).The
-4.602114	(OVM).This
-4.602114	(OmniExpress),
-4.602114	(PCB)
-4.602114	(PCX:AVY).The
-4.602114	(PDK's).The
-4.602114	(PHYs)
-4.602114	(POS).Transax
-4.602114	(PRO),
-4.602114	(PRODUCT)(RED)
-4.602114	(Pacific
-4.602114	(Penn),
-4.426023	(Personal
-4.602114	(Q3
-4.602114	(QoS),
-4.602114	(RCD)
-4.602114	(REC)
-4.426023	(RED)(TM)
-4.602114	(RNAi).
-4.602114	(ROCm)
-4.602114	(S)
-3.823963	(SAN)
-4.426023	(SAN).The
-4.602114	(SANs).The
-4.602114	(SBS),
-4.602114	(SBUX)
-4.602114	(SCE)
-4.602114	(SEC).The
-4.602114	(SGP/SGI)
-4.426023	(SLAs)
-4.602114	(SNIA)
-4.602114	(SNP)
-4.426023	(SNPs)
-4.602114	(SRV)
-4.602114	(STARBUCKS)(RED)
-4.426023	(SmartBeam)
-4.602114	(SoC).Sequans
-4.602114	(TCO)
-4.602114	(TLM)
-4.602114	(The
-4.602114	(UMTS)
-4.426023	(US
-4.602114	(USD)
-4.426023	(VIP)
-4.602114	(VUL
-4.602114	(VoIP)
-4.602114	(WAFS).
-4.124993	(WLAN)
-4.602114	(WLAN),
-4.602114	(WNPU)
-4.602114	(WNPU),
-4.602114	(WVM)
-4.602114	(ZP100)
-4.602114	(ZP80),
-4.602114	(an
-4.602114	(approximately
-4.602114	(armodafinil)
-4.602114	(at
-4.602114	(available
-4.426023	(benefit)
-4.602114	(bp),
-4.602114	(changes
-4.602114	(complementary
-4.602114	(customer-owned
-4.602114	(eQTL)
-4.602114	(either
-4.602114	(excluding
-4.602114	(exons),
-4.602114	(four
-4.426023	(i)
-4.602114	(iPAS(TM))
-4.602114	(ii)
-4.602114	(iii)
-4.602114	(impairment)
-4.602114	(including
-4.602114	(iv)
-4.301084	(modafinil)
-4.602114	(naltrexone
-4.602114	(net
-4.301084	(oligos)
-4.602114	(on
-4.426023	(oral
-4.602114	(original
-4.602114	(other
-4.602114	(patents-in-suit).In
-4.602114	(rep)
-4.602114	(sNDA)
-4.426023	(single
-4.204174	(stores
-4.426023	(the
-4.602114	(three
-4.602114	(two
-4.602114	+
-4.301084	,
-2.727053	-
-4.058046	--
-4.602114	-1994
-4.301084	."
-4.602114	.11n
-4.602114	0.02
-4.602114	0.04per
-4.602114	0.18-micron
-4.602114	0.2%
-4.602114	0.5%
-4.426023	0.6%
-4.602114	0.7
-4.602114	0.7%
-4.602114	0.8%
-4.602114	0.993
-4.426023	01,
-3.948902	03,
-4.602114	03/27/2000,
-4.602114	03/31/2000.In
-4.602114	04)
-4.602114	04/01/1999,
-4.426023	04:10
-4.204174	05,
-4.204174	06,
-4.426023	07,
-4.602114	07/17/2005."
-4.602114	07/29/2009
-4.602114	07/29/2009.Cadence
-4.426023	08,
-4.602114	08/31/2001."
-4.426023	08:00
-4.426023	08:15
-4.426023	08:30
-3.948902	09,
-4.602114	09/09/2002."
-4.602114	09/12/2002"
-4.602114	09/30/1998."
-4.426023	09:00
-4.602114	09:30
-3.948902	1
-4.301084	1%
-3.359076	1,
-4.426023	1,000
-4.602114	1,2005.
-4.602114	1,250
-4.602114	1,293
-4.602114	1,300+
-4.602114	1,400
-4.426023	1,430,000
-4.602114	1,520,100
-4.602114	1,580-MW
-4.602114	1,660,000
-4.602114	1,700
-4.602114	1,800
-4.602114	1,920,000
-4.602114	1-for-100
-4.602114	1.
-4.602114	1.1%
-4.602114	1.4%
-4.602114	1.4%,
-4.602114	1.5-inch
-4.602114	1.6%
-4.602114	1.7
-4.602114	1.9%
-4.602114	1.Between
-4.602114	1.Working
-3.903144	10
-4.426023	10%
-4.602114	10%.
-4.426023	10,
-4.426023	10-K
-4.602114	10-year
-4.602114	10.1%
-4.602114	10.This
-4.602114	10/1/01,
-4.602114	10/100
-4.602114	10/18/1999."
-4.602114	10/19/01,
-3.727053	100
-4.602114	100%
-4.602114	100,000
-4.602114	100-for-1
-4.602114	100.612
-4.301084	1000
-4.602114	10017,
-4.602114	10020-1095,United
-4.602114	1010
-4.602114	1010/1020
-4.602114	1020
-4.602114	103%
-4.602114	109
-4.124993	10:00
-4.426023	10:15
-4.602114	10:30,
-4.602114	10A-3
-4.602114	10b5-1
-4.602114	10kb
-4.124993	11
-4.124993	11%
-4.602114	11%.Investors
-3.789201	11,
-4.602114	11,000,000
-4.602114	11,100,000
-4.602114	11.7
-4.602114	110
-4.602114	110%
-4.602114	1114
-4.426023	1155
-4.602114	11:00
-4.301084	11:30
-3.861752	12
-4.602114	12%
-3.789201	12,
-4.602114	12-18
-4.426023	12-sample
-4.204174	120
-4.602114	1221
-4.602114	1228
-4.602114	123
-4.602114	123R,
-4.426023	125.697
-4.426023	12:00
-3.823963	13
-4.426023	13%
-4.058046	13,
-4.602114	13,610,680
-4.602114	13-week
-4.602114	13.
-4.602114	13.1%
-4.602114	13.8
-4.426023	1335
-4.602114	134,000
-4.602114	13:30
-4.058046	14
-3.789201	14,
-4.602114	14,287,586
-4.602114	14.5%
-4.426023	140
-4.602114	144%
-4.602114	145
-4.602114	146
-4.602114	14:00
-4.602114	14a-8
-4.058046	15
-4.426023	15%
-4.602114	15%.Then,
-3.624391	15,
-4.602114	15.2%.Diluted
-4.602114	15.3%
-4.426023	150
-4.602114	150,000,000
-4.602114	150.5
-4.602114	152.5
-4.602114	153%.Product
-4.602114	1536
-4.602114	156.8%
-4.602114	15th
-4.000054	16
-4.426023	16%
-3.948902	16,
-4.602114	16,000
-4.602114	16,000,000
-4.602114	16,304,200
-4.602114	16.7
-4.602114	16.She
-4.602114	160
-4.602114	162(m)
-4.602114	16HD
-4.602114	16b-3(b)(3)
-4.426023	17
-4.602114	17%
-4.602114	17%,
-3.789201	17,
-4.602114	17-month
-4.602114	17.4
-4.602114	17.8
-4.602114	17.BGI
-4.602114	174.032
-4.602114	1745
-4.602114	176,000
-4.602114	178.2
-4.426023	17:1,
-4.426023	18
-4.301084	18%
-3.699024	18,
-4.602114	18.5%
-4.602114	1890,
-4.426023	19
-4.602114	19%
-3.647872	19,
-4.602114	19-pole
-4.602114	19.5
-4.426023	19.9
-4.426023	1934,
-4.602114	1934.As
-4.602114	1934.The
-4.602114	1960s,
-4.602114	1962.From
-4.602114	1962.Mr.
-4.602114	1979
-4.602114	1980s,
-4.602114	1986
-4.602114	1989
-4.602114	1989,
-4.602114	199,968,608
-4.602114	1991.Dr.
-4.602114	1991.He
-4.426023	1993,
-4.602114	1993.A
-4.602114	1993.Sandra
-4.602114	1994
-4.602114	1995,
-4.602114	1996
-4.602114	1996.According
-4.602114	1996.In
-4.426023	1997
-4.602114	1997.The
-4.602114	1998
-4.602114	1998,
-4.602114	1998.Keating,
-4.301084	1999
-4.426023	1999,
-4.602114	1999.In
-4.426023	1999.The
-4.602114	1;
-4.426023	1st
-3.823963	2
-4.426023	2%
-4.602114	2%.For
-3.505204	2,
-4.602114	2,000,000
-4.602114	2,100
-4.602114	2,150
-4.602114	2,207,506
-4.602114	2,300
-4.602114	2,500
-4.602114	2,837
-4.602114	2,917,380
-4.602114	2-for-1
-4.602114	2.0
-4.426023	2.0%
-4.602114	2.1%
-4.602114	2.3
-4.602114	2.3%
-4.124993	2.4
-4.602114	2.5
-4.602114	2.5G
-3.861752	20
-4.058046	20%
-4.000054	20,
-4.602114	20-30,
-4.602114	20-year
-4.602114	20.5
-4.426023	200
-4.602114	200,000
-3.948902	2000
-4.204174	2000,
-4.426023	2000.
-4.602114	2000.In
-4.602114	2000.Simpson
-4.602114	2000.Starbucks
-4.602114	2000.The
-4.426023	2000.Under
-4.204174	2001
-3.861752	2001,
-4.204174	2001.
-4.000054	2001."
-4.301084	2001.Comparable
-4.426023	2001.Earnings
-4.204174	2001.For
-4.602114	2001.Health
-4.602114	2001.In
-4.602114	2001.Macquarie
-4.426023	2001.Net
-4.301084	2001.On
-4.602114	2001.Starbucks
-4.058046	2001.The
-3.488171	2002
-4.602114	2002"
-4.602114	2002's
-3.699024	2002,
-4.301084	2002.
-4.124993	2002."
-4.602114	2002."Health
-4.602114	2002."Panera
-4.602114	2002.Accordingly,
-4.602114	2002.Average
-4.602114	2002.Brocade
-4.602114	2002.Comparable
-4.602114	2002.Diluted
-4.602114	2002.Fluor
-4.426023	2002.For
-4.602114	2002.Highlights
-4.602114	2002.Mr.
-4.301084	2002.Net
-4.602114	2002.On
-4.602114	2002.Panera
-4.426023	2002.Starbucks
-4.124993	2002.The
-4.602114	2002.They
-4.602114	2002.Total
-4.602114	2002;
-3.672695	2003
-3.861752	2003,
-4.426023	2003.
-4.602114	2003."Hansen
-4.602114	2003."Starbucks
-4.602114	2003.Austin
-4.602114	2003.Fluor's
-4.602114	2003.For
-4.426023	2003.Mr.
-4.602114	2003.Net
-4.602114	2003.Prior
-4.426023	2003.The
-4.426023	2003;
-3.522933	2004
-3.903144	2004,
-4.426023	2004.
-4.602114	2004."Atheros
-4.602114	2004."Big
-4.602114	2004."Brocade
-4.602114	2004."Fluor
-4.602114	2004."Hansen
-4.602114	2004."Phillips-Van
-4.602114	2004."Service
-4.602114	2004."The
-4.301084	2004.Brocade
-4.602114	2004.Fluor
-4.426023	2004.For
-4.602114	2004.Hansen
-4.602114	2004.Illumina
-4.602114	2004.In
-4.124993	2004.Net
-4.602114	2004.Non-GAAP
-4.602114	2004.Reporting
-4.426023	2004.Revenue
-4.058046	2004.The
-4.602114	2004.Total
-4.602114	2004;
-3.231046	2005
-3.948902	2005,
-4.058046	2005.
-4.301084	2005."
-4.602114	2005."Atheros
-4.602114	2005."Brocade
-4.602114	2005."Cadence
-4.602114	2005."Hansen
-4.426023	2005."Illumina
-4.426023	2005."Kirby
-4.426023	2005.Brocade
-4.602114	2005.Comparable
-4.602114	2005.Craig
-4.426023	2005.Excluding
-4.602114	2005.Fluor
-3.757016	2005.For
-4.602114	2005.Fully
-4.602114	2005.Hansen
-4.602114	2005.Illumina
-4.602114	2005.MEGAPLEX's
-4.602114	2005.Net
-4.602114	2005.On
-4.602114	2005.Reporting
-3.948902	2005.The
-4.204174	2005;
-3.162781	2006
-3.522933	2006,
-3.699024	2006.
-4.602114	2006."Atheros
-4.602114	2006."Dolby
-4.204174	2006."Illumina
-4.602114	2006."KeyCorp,
-4.602114	2006."Phillips-Van
-4.426023	2006."Starbucks
-4.602114	2006..
-4.602114	2006.Approximately
-4.602114	2006.As
-4.301084	2006.Atheros
-4.301084	2006.Brocade
-4.602114	2006.Cephalon
-4.426023	2006.Comparable
-4.602114	2006.Consolidated
-4.602114	2006.Dr.
-4.602114	2006.Fidelity
-3.602114	2006.For
-4.602114	2006.GAAP
-4.426023	2006.Hansen
-4.301084	2006.Illumina
-4.301084	2006.In
-4.602114	2006.Molex
-4.602114	2006.N.M
-4.124993	2006.Net
-4.426023	2006.Non-GAAP
-4.602114	2006.On
-4.602114	2006.Reporting
-4.426023	2006.Service
-4.602114	2006.Starbucks
-3.672695	2006.The
-4.602114	2006.VIVITROL
-4.124993	2006;
-2.994659	2007
-3.471781	2007,
-3.789201	2007.
-4.124993	2007."
-4.426023	2007."AK
-4.602114	2007."Atheros
-4.602114	2007."Capitol
-4.602114	2007."Cephalon
-4.301084	2007."Dolby
-4.602114	2007."Hansen
-4.602114	2007."Illumina
-4.602114	2007."Kirby
-4.602114	2007."Panera
-4.426023	2007."Phillips-Van
-4.602114	2007."The
-4.301084	2007.AK
-4.602114	2007.As
-4.602114	2007.Atheros
-4.602114	2007.Both
-4.426023	2007.Brocade
-4.602114	2007.Cadence
-4.426023	2007.Cephalon
-4.602114	2007.Coles
-4.602114	2007.Comparable
-4.602114	2007.Dolby
-4.602114	2007.Earnings
-4.602114	2007.Excluding
-3.560722	2007.For
-4.602114	2007.GAAP
-4.602114	2007.Gentex
-4.602114	2007.Gross
-4.602114	2007.Health
-4.426023	2007.Impairments
-4.426023	2007.Kirby
-4.602114	2007.Looking
-4.301084	2007.Mr.
-4.204174	2007.Net
-4.602114	2007.Non-GAAP
-4.602114	2007.Operating
-4.602114	2007.Phillips-Van
-4.602114	2007.Record
-4.301084	2007.Revenue
-4.602114	2007.Revenues
-4.602114	2007.Sales
-4.301084	2007.Service
-4.602114	2007.Starbucks
-4.602114	2007.Th"
-3.560722	2007.The
-4.301084	2007.This
-4.426023	2007.Total
-4.602114	2007.Under
-4.058046	2007;
-2.660106	2008
-3.269676	2008,
-3.505204	2008.
-4.426023	2008."
-4.602114	2008."Big
-4.602114	2008."Discovery
-4.301084	2008."Dolby
-4.426023	2008."Fidelity
-4.602114	2008."Fluor
-4.426023	2008."Hansen
-4.301084	2008."Illumina
-4.426023	2008."Kirby
-4.426023	2008."Molex
-4.602114	2008."Panera
-4.602114	2008."Phillips-Van
-4.602114	2008."Principal
-4.602114	2008."Service
-4.602114	2008."The
-4.426023	2008.AK
-4.124993	2008.As
-4.602114	2008.At
-4.602114	2008.Atheros
-4.602114	2008.Brocade
-4.602114	2008.Cadence
-4.602114	2008.Capitol
-4.602114	2008.Discovery
-4.301084	2008.Dolby
-4.602114	2008.EBITDAX
-4.602114	2008.Eaton
-4.426023	2008.Fidelity
-4.602114	2008.Fluor
-3.359076	2008.For
-4.602114	2008.Fred
-4.602114	2008.Gentex
-4.602114	2008.Hansen
-4.426023	2008.Harsco
-4.426023	2008.KeyCorp
-4.426023	2008.Kirby
-4.426023	2008.Molex
-4.602114	2008.Net
-4.301084	2008.On
-4.301084	2008.Operating
-4.602114	2008.Panera
-4.301084	2008.Phillips-Van
-4.602114	2008.Principal
-4.602114	2008.Revenue
-3.699024	2008.The
-4.426023	2008.This
-4.426023	2008.Total
-4.602114	2008.Under
-3.727053	2008;
-2.898823	2009
-3.505204	2009,
-3.580925	2009.
-4.602114	2009."
-4.602114	2009."Cadence
-4.602114	2009."Carolina
-4.602114	2009."Eaton
-4.602114	2009."Fidelity
-4.602114	2009."Fluor
-4.602114	2009."Kirby
-4.602114	2009."Molex
-4.602114	2009."Panera
-4.602114	2009."Service
-4.602114	2009."The
-4.124993	2009.AK
-4.301084	2009.Atheros
-4.602114	2009.Big
-4.602114	2009.Cadence
-4.602114	2009.Comparable
-4.426023	2009.Concho
-4.602114	2009.Consolidated
-4.602114	2009.Discovery
-4.204174	2009.Dolby
-4.602114	2009.Dolby's
-4.124993	2009.Fidelity
-4.602114	2009.First
-4.602114	2009.Fluor
-3.624391	2009.For
-4.602114	2009.Frontier
-4.602114	2009.Gentex
-4.426023	2009.Hansen
-4.602114	2009.Health
-4.426023	2009.Illumina
-4.301084	2009.In
-4.301084	2009.Income
-4.602114	2009.Investment
-4.602114	2009.Mr.
-4.301084	2009.Net
-4.204174	2009.Non-GAAP
-4.426023	2009.On
-4.602114	2009.Panera
-4.602114	2009.Phillips-Van
-4.426023	2009.Principal
-4.602114	2009.Purchases
-4.602114	2009.SIM2's
-4.602114	2009.Service
-3.823963	2009.The
-3.624391	2009;
-3.221903	2010
-3.699024	2010,
-4.204174	2010.
-4.602114	2010."Atheros
-4.602114	2010."Fidelity
-4.602114	2010."Fluor
-4.602114	2010."Kirby
-4.602114	2010."Phillips-Van
-4.602114	2010."Principal
-4.602114	2010."Starbucks
-4.602114	2010.As
-4.426023	2010.Atheros
-4.602114	2010.Big
-4.602114	2010.BofA
-4.602114	2010.Competitive
-4.426023	2010.Dolby
-4.602114	2010.Fluor
-3.672695	2010.For
-4.602114	2010.Health
-4.204174	2010.Illumina
-4.602114	2010.Jeffery
-4.602114	2010.Merrill,
-4.602114	2010.News
-4.602114	2010.Phillips-Van
-4.426023	2010.Revenue
-4.426023	2010.Service
-4.602114	2010.SmartBeam
-4.058046	2010.The
-4.602114	2010.This
-4.602114	2010.Under
-4.426023	2010.Venue:
-4.602114	2010.Wells
-3.727053	2010;
-3.560722	2011
-4.124993	2011,
-4.301084	2011.
-4.426023	2011."Cadence
-4.426023	2011."Fluor
-4.602114	2011."Panera
-4.602114	2011."Phillips-Van
-4.602114	2011."Service
-4.602114	2011.Agenda:
-4.426023	2011.Big
-4.426023	2011.Brocade
-4.602114	2011.Cadence
-4.602114	2011.Cephalon
-4.204174	2011.Fluor
-4.602114	2011.Following
-4.058046	2011.For
-4.602114	2011.Gentex
-4.602114	2011.Howard
-4.602114	2011.IHS
-4.602114	2011.JPMorgan
-4.426023	2011.Kirby
-4.602114	2011.Ms.
-4.602114	2011.Seaton
-4.602114	2011.Service
-4.602114	2011.Starbucks
-4.602114	2011.The
-4.301084	2011.Venue:
-4.602114	2011.While
-4.204174	2011;
-4.426023	2012
-4.602114	2012.An
-4.426023	20;
-4.058046	21
-4.602114	21%
-3.789201	21,
-4.602114	21.2%
-4.602114	21.4%
-4.602114	21.7%
-4.602114	210,000
-4.000054	22
-4.301084	22%
-3.560722	22,
-4.602114	22-year
-4.426023	225
-4.000054	23
-4.602114	23%
-4.602114	23%.First
-4.602114	23%.Net
-4.602114	23%.Second
-3.471781	23,
-4.602114	23.2%,
-4.602114	23.4%
-4.602114	23.5%
-3.861752	24
-3.602114	24,
-4.602114	24,000,000
-4.426023	24-port
-4.602114	24.Speaking
-4.602114	244.9%
-4.602114	245%
-4.426023	248.686
-4.124993	25
-4.124993	25%
-3.948902	25,
-4.602114	25,000
-4.602114	25,387,586
-4.602114	250,000
-4.602114	250M,'
-4.602114	25th,
-4.426023	25x
-4.301084	26
-4.602114	26%
-4.602114	26%.Fourth
-3.727053	26,
-4.602114	26.1%
-4.602114	26.Mr.
-4.426023	260
-4.602114	26th
-4.204174	27
-4.602114	27%
-3.541416	27,
-4.602114	27.52%
-4.602114	27.9
-4.602114	27.9%
-4.602114	270
-4.058046	28
-4.602114	28%.Net
-3.411783	28,
-4.602114	28,566,944
-4.602114	28,589
-4.426023	28th
-4.058046	29
-4.602114	29%
-3.323361	29,
-4.602114	2U
-4.602114	2x100
-4.000054	3
-4.426023	3%
-3.727053	3,
-4.602114	3,000
-4.602114	3,053,633
-4.602114	3,100,000
-4.602114	3,300
-4.602114	3,440,000
-4.602114	3--5
-4.602114	3-D
-4.602114	3-tier
-4.602114	3.0%,
-4.602114	3.2
-4.301084	3.2%
-4.602114	3.4%
-4.602114	3.5
-4.602114	3.6%
-4.602114	3.7V,
-4.602114	3.8
-4.602114	3.8%
-4.602114	3.8%,
-4.602114	3.9%
-4.602114	3.The
-4.204174	30
-4.426023	30%
-2.744782	30,
-4.301084	300
-4.426023	3000
-4.602114	300X.
-4.602114	303A
-4.602114	309,800
-4.602114	30th
-4.602114	31%
-2.785873	31,
-4.602114	31.0
-4.602114	31.5
-4.426023	317,000
-4.301084	32
-4.602114	32%
-4.602114	32%,
-4.602114	3200
-4.602114	3200,
-4.602114	32204,United
-4.602114	325,000
-4.602114	33%,
-4.602114	33.15%.Diluted
-4.602114	335
-4.426023	34%
-4.602114	34%.Second-quarter
-4.301084	35
-4.602114	35,244,361
-4.602114	35.5%.Adjusted
-4.602114	35.8%
-4.602114	350,000
-4.602114	365
-4.602114	37.5%
-4.602114	37.7%
-4.602114	375,000,000."
-4.602114	38%
-4.602114	38.4%
-4.602114	38.5
-4.602114	380
-4.204174	39
-4.602114	39,
-4.602114	39.1%
-4.426023	39th
-4.602114	3Com
-4.124993	3D
-4.602114	3G
-4.602114	3GSM
-4.602114	3X
-4.602114	3x3
-3.672695	4
-4.602114	4%
-4.602114	4%.Sales
-4.602114	4+3+PE
-3.672695	4,
-4.426023	4,000,000
-4.602114	4,000-square-foot
-4.602114	4,304,200
-4.602114	4.0
-4.602114	4.0%
-4.602114	4.0,
-4.602114	4.3
-4.602114	4.3%
-4.426023	4.4%
-4.301084	4.9%
-4.204174	40
-4.426023	40%
-4.602114	40%-46%,
-4.058046	400
-4.602114	400,000
-4.602114	41
-4.602114	41%
-4.602114	41.2%
-4.602114	41.7%
-4.602114	4100,
-4.602114	42%
-4.602114	42.7%
-4.602114	42.75"
-4.602114	42nd
-4.426023	43
-4.426023	43%
-4.602114	43,
-4.602114	43-week
-4.426023	43.2%
-4.602114	44%.First
-4.602114	44.0%,
-4.602114	44.1%
-4.602114	44.8%
-4.204174	45
-4.602114	45-nanometer/65-nanometer
-4.602114	45th
-4.602114	46,
-4.602114	464,000
-4.602114	47
-4.602114	47%
-4.602114	47-inch
-4.602114	48,000
-4.602114	48-well
-4.602114	48.5
-4.301084	48000
-4.602114	48226,
-4.602114	49,
-4.602114	49.5%
-4.301084	4900
-4.426023	4900,
-4.602114	4900.Brocade
-4.602114	4Gb
-3.948902	5
-4.124993	5%
-4.602114	5+PE
-3.823963	5,
-4.602114	5,300,000
-4.602114	5,538,143
-4.602114	5,545,531,
-4.602114	5,795,716
-4.426023	5.1
-4.602114	5.1%
-4.602114	5.3
-4.602114	5.5%
-4.426023	5.563%
-4.426023	5.8%
-4.602114	5.9%
-3.903144	50
-4.058046	50%
-4.602114	50%,
-3.699024	500
-4.602114	500,000
-4.426023	500/Citigroup
-4.602114	500G
-4.602114	500G,
-4.602114	500GX
-4.602114	50392-0100,United
-4.426023	510
-4.426023	52
-4.602114	52-week
-4.602114	52.4
-4.602114	53.2%
-4.602114	53.5
-4.602114	54,
-4.602114	543
-4.602114	543,000
-4.426023	5480
-4.602114	55
-4.602114	55%
-4.602114	55,000
-4.602114	56
-4.301084	56%
-4.602114	565
-4.426023	58%
-4.602114	580
-4.602114	59%
-4.602114	59,
-4.301084	6
-4.204174	6%
-3.823963	6,
-4.602114	6,399,365,
-4.602114	6,600,000
-4.602114	6,622,517
-4.602114	6,646,243,
-4.602114	6,750,000
-4.602114	6-pole
-4.602114	6-port
-4.204174	6.1
-4.602114	6.1%
-4.602114	6.2%
-4.602114	6.4%
-4.426023	6.518%
-4.602114	6.6%
-4.058046	60
-4.602114	60%
-4.602114	60,000
-4.204174	600
-4.602114	600,000-metric-ton
-4.602114	601
-4.602114	60611,United
-4.426023	61
-4.602114	62.1%
-4.602114	62.2
-4.602114	63
-4.426023	63%
-4.602114	634,000
-4.301084	64
-4.602114	64-port
-4.426023	64-port,
-4.602114	640,000
-4.204174	65
-4.602114	65%
-4.602114	65,
-4.602114	655
-4.602114	66%
-4.602114	67
-4.602114	67%
-4.602114	676,000
-4.602114	68
-4.602114	68-718
-4.602114	69%
-4.426023	6;
-3.948902	7
-4.124993	7%
-4.602114	7%.
-4.602114	7%."
-3.861752	7,
-4.602114	7,740,757
-4.602114	7.1
-4.602114	7.4%
-4.602114	7.6
-4.602114	7.7%
-4.602114	7.750%
-4.602114	7.9%
-4.301084	7/8%
-4.602114	70
-4.204174	70%
-4.602114	70%.Additionally,
-4.602114	700,000
-4.602114	70112,
-4.426023	711
-4.426023	72.43%
-4.602114	73
-4.602114	73%
-4.602114	73.1%
-4.301084	75
-3.948902	75%
-4.602114	7500
-4.602114	755
-4.602114	76,000
-4.602114	77%
-4.602114	775
-4.602114	78
-4.426023	79
-4.602114	79%
-4.204174	8
-4.301084	8%
-3.948902	8,
-4.602114	8,000,000
-4.602114	8,000,000.On
-4.426023	8-Pole
-4.602114	8-pole
-4.602114	8-port,
-4.426023	80
-4.301084	80%
-4.602114	80%.Atheros'
-4.602114	80.1%
-4.426023	8000
-4.602114	800mAh
-4.426023	802.11
-4.602114	802.11a
-4.602114	802.11a/g
-4.602114	802.11b/g
-4.204174	802.11g
-4.000054	802.11n
-4.602114	802.11n-chipset,
-4.602114	802.16-2004
-4.602114	81
-4.602114	83
-4.602114	84
-4.602114	85
-4.602114	86%
-4.602114	87
-4.602114	88.9%
-4.602114	885
-4.602114	89
-4.602114	8:00
-4.124993	8:30,
-4.602114	9
-4.058046	9%
-4.602114	9%,
-4.602114	9%.In
-4.000054	9,
-4.602114	9,000,000
-4.426023	9.3
-4.602114	9.8%
-4.602114	90%
-4.426023	90-nanometer
-4.426023	900,000
-4.602114	900,831
-4.602114	91%
-4.426023	92
-4.602114	92.1%
-4.602114	92037,
-4.602114	94%
-4.602114	95
-4.602114	95.8
-4.426023	95054,United
-4.602114	95110,United
-4.602114	97
-4.602114	9700
-4.602114	99
-4.602114	99%
-4.602114	99.5%
-4.602114	99.99%
-3.070635	;
-1.981978	</s>
-99	<s>
-4.602114	?1,264
-4.602114	?1.162-27
-4.426023	?1.9
-4.426023	?11.8
-4.602114	?175
-4.602114	?205
-4.602114	?656
-4.426023	?total
-3.948902	A
-4.602114	A&E
-4.602114	A,
-4.058046	A.
-4.602114	A.G.
-4.602114	A.G.,
-4.602114	A.G.He
-4.602114	A/D
-4.602114	A/S
-4.602114	AAG).The
-4.204174	AB
-4.602114	ACTIQ
-4.426023	ACTIQ(R)
-4.602114	ACTIQ(R).Cephalon
-4.602114	ACTS
-4.602114	ADHD
-4.426023	ADM100
-4.426023	ADS
-4.602114	ADVP)
-2.898823	AES
-4.204174	AES's
-4.301084	AES)
-4.426023	AES,
-4.602114	AES.As
-4.602114	AG
-4.602114	AIDS
-3.323361	AK
-4.602114	AK's
-4.426023	AK-ISG
-4.602114	AM.Atheros
-4.602114	AM.Concho
-4.602114	AM.Health
-4.426023	AM.Illumina
-4.124993	AM.Venue:
-4.301084	AMR
-4.602114	AMRs
-4.602114	AOL
-4.602114	AOL.
-4.602114	AOL.McKinley
-4.426023	AP/ODA
-4.301084	APN
-4.602114	APN.News
-4.602114	APN.Tony
-4.426023	AR1900
-4.602114	AR1900,
-4.602114	AR5005G
-4.426023	AR5008AP-3NX2
-4.602114	AR5008AP-3NX2,
-4.124993	AR6002
-4.602114	AR7100
-4.602114	AR7161
-4.426023	AR7161.The
-4.426023	AR8216
-4.602114	ASIC
-4.602114	ASR
-4.602114	ASR.The
-4.426023	ASUSTek
-4.602114	ASX-listed
-4.204174	ATHR)
-4.602114	ATPG
-4.058046	AUD
-4.426023	AVR
-4.602114	AVY;
-4.426023	Abele
-4.602114	Abele,
-4.426023	Aberdeen
-4.204174	Abramson
-4.301084	Academy
-4.602114	Academy's
-4.426023	Accelerates
-4.124993	Access
-4.602114	Accountability
-4.602114	Accounting
-4.602114	Achieve
-4.602114	Acquired.Hansen
-4.602114	Acquisitions
-4.602114	Acquisitions.Discovery
-4.602114	Acquisitions.Dolby
-4.426023	Acquisitions.Eaton
-4.602114	Acquisitions.Illumina
-4.602114	Acquisitions.News
-4.602114	Across
-4.000054	Act
-4.602114	Act').The
-4.602114	Act."
-4.602114	Act.Carl
-4.602114	Act.Tribune
-4.204174	Action
-4.204174	ActiveParts
-4.602114	Acuity
-4.602114	Adapters,
-4.124993	Additional
-4.602114	Address
-4.301084	Adimos
-4.602114	Adimos'
-4.602114	Adjusted
-4.602114	Adler,
-4.204174	Administration
-4.602114	Administrator
-4.426023	Adopts
-4.058046	Advance
-4.602114	AdvancePCS;
-3.948902	Advanced
-4.602114	Advisers.The
-4.602114	Advises
-4.204174	Advisors,
-4.301084	Advisory
-4.602114	Advokatfirman
-4.602114	Aes
-4.204174	Affymetrix
-4.602114	Affymetrix'
-4.602114	Afghanistan
-4.602114	Afghanistan.DynCorp
-4.426023	Africa
-4.426023	Africa,
-4.602114	Africa.
-4.602114	Africa.Starbucks
-4.602114	Africa.The
-4.426023	African
-4.602114	After
-3.903144	Against
-4.602114	Aged
-4.602114	Agenda:
-4.058046	Agreement
-4.602114	Agreement,
-4.602114	Agreement.Basell
-4.602114	Agreement.Concho
-4.602114	Agreement.Illumina
-4.602114	Agreement.On
-4.124993	Agreements
-4.602114	Airline
-4.602114	Alacritus
-4.426023	Alan
-4.602114	Albany,
-4.301084	Albrecht
-4.602114	Alcohol
-4.602114	Alderwoods
-4.602114	Alex
-4.426023	Alfa
-4.426023	Alfa's
-4.602114	Alger
-4.602114	Ali
-4.426023	Alkermes
-4.602114	Alkermes,
-4.602114	Allegro
-4.602114	Allegro(R)
-4.602114	Allen
-4.204174	Alliance
-4.602114	Allied
-4.602114	Alt-A
-4.426023	Alta
-4.602114	Alternatives.Citizens
-4.124993	Altschul
-4.426023	Alzheimer's
-4.426023	AmLaw
-4.426023	Amazon
-4.602114	Amazon's
-4.426023	Amazon.com
-4.204174	Ambit
-4.602114	Ame
-3.948902	Amended
-3.948902	Amendment
-4.301084	Amendment,
-4.124993	Amendments
-4.602114	Amends
-3.861752	America
-4.124993	America,
-4.301084	America.
-4.602114	America.Cephalon
-4.602114	America.Excluding
-4.602114	America.Poulsen
-3.789201	American
-4.301084	Americas,
-4.602114	Amsterdam.SIM2
-4.426023	An
-4.602114	Analog
-4.301084	Analysis
-4.602114	Analysis.Illumina
-4.602114	Analyst
-4.602114	Analyst/Investor
-4.000054	Analyzer
-4.426023	Analyzer,
-4.602114	Analyzers,
-4.602114	Analyzers.Illumina
-4.602114	Analyzers.The
-4.602114	And
-4.602114	Andres
-4.602114	Andrews
-4.602114	Angela
-4.301084	Angeles
-4.602114	Angeles,
-4.204174	Anheuser-Busch
-4.602114	Animal
-4.602114	Anna
-4.204174	Announce
-3.602114	Announced
-3.117815	Announces
-3.323361	Annual
-4.426023	Annuity
-4.602114	Anonima
-4.602114	Another
-4.602114	Anritsu
-4.602114	Anticipates
-4.426023	Antitrust
-4.204174	Apax
-4.602114	Apnea,
-4.602114	Appeals
-4.124993	Application
-4.602114	Applications
-4.602114	Applications.Brocade
-4.058046	Applied
-4.426023	Appointment
-4.602114	Appointments.KeyCorp
-3.727053	Appoints
-4.426023	Approval
-4.426023	Approves
-4.426023	Approximately
-3.699024	Apr
-4.204174	Apr-11-2010
-4.602114	Apr-12-2010,
-4.602114	Apr-14-2010.Newspaper
-4.602114	Apr-14-2010.The
-4.426023	Apr-14-2010.Venue:
-4.602114	Apr-18-2006.Illumina
-4.426023	Apr-19-2011
-4.602114	Apr-21-2009.AK
-4.602114	Apr-22-2008.Molex
-4.602114	Apr-23-2009.Atheros
-4.602114	Apr-24-2008.Kirby
-4.602114	Apr-27-2005.Illumina
-4.602114	Apr-28-2009.Fidelity
-3.07707	April
-4.602114	April,
-4.602114	April.
-4.301084	Apron
-4.602114	Arabia
-4.602114	Arabian
-4.602114	ArcelorMittal
-3.699024	Area
-4.426023	Argentina
-4.301084	Argus-Courier
-4.426023	Argus-Courier;
-4.426023	Arizona
-4.426023	Arizona,
-4.602114	Arkansas.The
-4.602114	Arlington,
-4.602114	Arlington-based
-4.426023	Army
-4.602114	Army.Fluor
-4.602114	Army.Fluor,
-4.602114	Army.The
-4.124993	Array
-4.602114	Arrays
-4.602114	Art,
-4.204174	Arthur
-4.204174	Article
-4.204174	Articles
-4.602114	As
-4.204174	Asesoramiento
-4.301084	Asia
-4.602114	Asia,
-4.602114	Asia-Pacific
-4.426023	Assay
-4.602114	Assay,
-4.602114	Assays
-4.602114	Asset
-4.602114	Assets.Discovery
-4.602114	Assets.The
-4.301084	Assets;
-4.204174	Assist
-4.602114	Assist"
-4.602114	Associated
-4.204174	Associates
-4.204174	Associates,
-4.124993	Association
-4.602114	Association's
-4.301084	Association,
-4.426023	Astralloy
-4.602114	At
-3.090231	Atheros
-3.727053	Atheros'
-4.426023	Atheros,
-4.602114	Atheros.ASUSTek
-4.602114	Atlanta,
-4.426023	Atlantic
-4.426023	Attansic
-4.426023	Audio
-4.602114	Audio-processing
-3.948902	Audit
-4.602114	Auditorium
-4.602114	Auditorium,
-4.058046	Aug
-4.426023	Aug-01
-4.602114	Aug-01-2007.Dolby
-4.602114	Aug-01-2007.Starbucks
-4.426023	Aug-06
-4.602114	Aug-06-2008.Molex
-4.602114	Aug-06-2009.Hansen
-4.602114	Aug-10-2006.Service
-4.602114	Aug-11-2008.Fluor
-4.602114	Augmentation
-3.541416	August
-4.602114	Augusta,
-4.426023	Auris
-4.602114	Auris.In
-4.602114	Austin.Salomon
-4.204174	Australia
-4.602114	Australia's
-4.426023	Australia,
-4.426023	Australian
-4.602114	Austria
-4.602114	Austria.Fluor
-4.602114	Authority,
-4.602114	Authorizes
-4.301084	Auto
-4.602114	Auto-Dimming
-4.602114	Automated
-4.204174	Automatic
-3.861752	Automation
-4.426023	Automobile
-4.204174	Automotive
-4.124993	Availability
-4.426023	Available
-4.602114	Avantome
-4.204174	Avantome,
-4.602114	Ave.),
-4.204174	Avenue
-4.204174	Avenue,
-3.861752	Avery
-4.602114	Avoid
-4.426023	Awarded
-4.000054	B
-4.602114	B-vitamins,
-4.204174	B.
-4.426023	B.V.
-4.602114	B.V..
-4.602114	BASE(TM)
-4.602114	BASETM
-4.602114	BASF-YPC
-4.602114	BGI
-4.602114	BGI's
-4.426023	BIOCOM's
-4.426023	BLDA
-4.602114	BNP
-4.602114	BSkyB.FT.com
-4.602114	BSkyB.The
-4.602114	Backplane
-4.602114	Backup
-4.602114	Baghdad.
-4.426023	Baker
-4.602114	Bakery-Cafe
-4.602114	Bakery-Cafes
-4.602114	Bakke
-4.602114	Balance
-4.426023	Banc
-4.301084	BancBoston
-4.426023	Bangladesh
-4.602114	Bangladesh's
-3.727053	Bank
-4.426023	Bank,
-4.602114	Banking
-4.301084	Baquet
-4.602114	Barcelona
-4.602114	Barden
-4.602114	Barney
-4.602114	Baron
-4.602114	Baronne
-4.000054	Barr
-4.426023	Barratt,
-4.602114	Bartlett
-4.602114	Based
-4.426023	Basell
-4.602114	Basell.
-4.602114	Basin
-4.602114	Bassett
-4.426023	Bayway
-4.426023	Bead
-4.124993	BeadArray
-4.602114	BeadArray(TM)
-4.602114	BeadArray(TM),
-4.602114	BeadArray?technology
-3.757016	BeadChip
-4.124993	BeadChip,
-4.602114	BeadChip.
-4.204174	BeadChip.Illumina
-4.602114	BeadChip.Illumina's
-4.602114	BeadChip.The
-4.602114	BeadChip.This
-4.426023	BeadChips
-4.602114	BeadChips.Illumina
-4.602114	BeadChips.These
-4.301084	BeadLab
-4.602114	BeadLab,
-4.301084	BeadStation
-4.602114	BeadStudio
-4.602114	BeadXpress(R),
-4.602114	Beadchip,
-4.602114	Beadchips.Illumina
-4.301084	Beal
-4.602114	Beam
-4.602114	Beckman
-4.602114	Become
-4.602114	Behalf
-4.426023	Beijing
-4.602114	Beijing,
-4.602114	Being
-4.301084	Bell
-4.426023	Benaroya
-4.602114	Benchtop
-4.426023	Benefit
-4.426023	Berens
-4.602114	Bermant
-4.426023	Beverage
-4.602114	Beyond
-4.602114	Bid
-4.602114	Bid.News
-3.789201	Big
-4.301084	Bill
-4.301084	Billion
-4.301084	BioSciences
-4.602114	Biochemistry
-4.602114	Biochemistry.Illumina
-4.602114	Biomedical
-4.602114	Biopharmaceuticals,
-4.204174	Biosciences
-4.602114	Biosciences,
-4.602114	Biosite
-4.602114	Biosite,
-4.602114	Biosystems.
-4.301084	Biotechnology
-4.602114	Birck
-4.602114	Bird
-4.602114	Birthday
-4.426023	Bjarne
-4.301084	Black
-4.602114	Blade,
-3.757016	BladeSystem
-4.602114	Bladesystem
-4.602114	Blake
-4.602114	Blend
-4.602114	Blend(TM)
-4.426023	Blend(TM),
-4.602114	Blend,
-4.602114	Blend.Starbucks
-4.602114	Blood
-4.426023	Blue
-3.028083	Board
-4.602114	Board,
-4.602114	Board.AK
-4.602114	Board.In
-4.602114	Board.Lip-Bu
-4.602114	Board.The
-4.301084	Boeckmann
-4.602114	Boeckmann,
-4.124993	BofA
-4.602114	Boise
-4.602114	Boise,
-4.301084	Bolton
-4.602114	Bonus
-4.602114	Book
-4.602114	Boost
-3.948902	Boston
-4.124993	Boston,
-4.602114	Botts
-4.602114	Boulevard
-4.602114	Boulevard,
-4.602114	Brad
-4.602114	BradConnectivity
-4.426023	BradConnectivity(TM)
-4.602114	Brand
-4.301084	Brasil
-4.426023	Brazilian
-3.38463	Bread
-4.602114	Bread's
-4.602114	Breakfast,
-4.602114	Breaks
-4.602114	Breakthrough
-4.124993	Brew
-4.602114	BrightSide
-4.602114	Bring
-4.602114	Brings
-4.204174	Brinzo
-4.301084	British
-4.124993	Broad
-4.602114	Broad,
-4.602114	Broadband
-4.602114	Broadcast.Dolby
-2.809723	Brocade
-4.301084	Brocade's
-4.602114	Brocade,
-4.426023	Brothers
-4.602114	Brothers,
-4.602114	Brothers.
-4.602114	Bs.2,547
-4.602114	Bskyb
-4.602114	Budget
-4.602114	Bugs!,
-4.426023	Build
-4.426023	Builders
-4.602114	Builders,
-4.602114	Building
-4.426023	Bulgaria
-4.602114	Bulgaria.Starbucks
-4.602114	Bureau
-4.602114	Burnaby,
-4.602114	Bush
-3.727053	Business
-4.602114	Business.In
-4.602114	Business.Starbucks
-4.602114	Butler,
-3.789201	Buyback
-4.602114	Buyback.Gentex
-4.426023	Buyback.On
-3.440746	Buyer(s):
-4.602114	Buys.Fluor
-4.602114	Buys.Molex
-4.602114	Buys.Service
-4.602114	By
-4.602114	By-laws
-4.426023	By-laws,
-4.426023	By-laws.Section
-4.204174	Bylaws
-4.426023	Bylaws,
-4.301084	Bylaws.On
-4.602114	C-Class.Brocade
-4.426023	C4
-4.602114	C4,
-4.204174	CA
-4.602114	CAB.Built
-4.301084	CANTV
-4.602114	CANTVs
-4.602114	CANTV's
-4.602114	CARe
-4.602114	CARe)
-4.602114	CASH
-4.602114	CATCH
-4.602114	CDMA2000(R)
-4.301084	CDN)
-4.602114	CDN).Under
-4.602114	CE
-4.602114	CEE
-4.602114	CEE:
-3.823963	CEO
-4.602114	CEO.
-4.602114	CEO.Starbucks
-4.301084	CEPH)
-4.602114	CER)
-4.602114	CFFN
-4.602114	CFO
-4.602114	CFR
-4.602114	CGEMS
-4.602114	CIB
-4.602114	CIDR's
-4.124993	CILCORP
-4.602114	CILCORP's
-4.602114	CIO,
-4.204174	CIS
-4.301084	CMOS
-4.602114	CNA
-4.602114	CNA.The
-4.426023	CNAs
-4.426023	CNV
-4.426023	COO
-4.602114	COT
-4.426023	CPF-enabled
-4.301084	CSPro
-4.602114	CSProTM
-4.301084	CTC
-4.602114	CTC."We
-4.602114	CXO)
-4.602114	CXS
-4.426023	CXS)
-4.602114	Ca
-2.948902	Cadence
-4.426023	Cadence's
-3.727053	Cadence(R)
-4.602114	Cadence.This
-4.602114	Cadence/MatrixOne
-4.602114	Cadillac
-4.602114	Cajamarca.Fluor
-4.602114	Cake
-4.602114	Cake,
-3.823963	California
-4.426023	California's
-3.948902	California,
-4.426023	California.
-4.602114	California.Panera
-4.602114	California.The
-4.301084	Call
-2.890307	Call,
-4.602114	Call.Alkermes,
-3.789201	Call.Atheros
-4.058046	Call.Brocade
-4.426023	Call.Cadence
-4.602114	Call.Discovery
-4.426023	Call.Fidelity
-4.426023	Call.Fluor
-4.602114	Call.Harsco
-4.602114	Call.Health
-4.602114	Call.Illumina
-4.426023	Call.Kirby
-3.948902	Call.Molex
-4.426023	Call.Phillips-Van
-4.426023	Call.Service
-4.426023	Call.The
-3.699024	Call.To
-3.249932	Calls
-4.301084	Calvin
-4.602114	Camberley,
-4.301084	Camera
-4.602114	Cameron
-4.602114	Camp
-4.426023	Canada
-4.602114	Canada.
-4.602114	Canada.The
-4.602114	Canadian
-4.602114	Cancelled
-4.058046	Cancer
-4.602114	Candidate-gene
-4.602114	Canyon
-4.426023	Capabilities
-4.602114	Capabilities.Brocade
-4.602114	Capacity
-4.602114	Capacity.Brocade
-3.789201	Capital
-4.204174	Capital,
-4.602114	Capital.Paul
-4.602114	Capital.Wilson
-4.204174	Capitol
-4.602114	Cappuccino,
-4.426023	Capture
-4.204174	Card
-4.602114	Card."Starbucks
-4.602114	Card.Designed
-4.602114	Cards
-4.426023	Care
-4.602114	Carlton
-4.426023	Carlyle
-4.602114	Cartagena,
-4.426023	Carter
-3.903144	Cash
-4.426023	Caspian
-4.602114	Casualty
-4.602114	Category.Starbucks
-4.426023	Cathedral
-4.426023	Celestry
-4.426023	Celestry's
-4.602114	Celestry,
-4.602114	CellNet
-4.602114	Cellular
-4.602114	Cemeteries
-4.301084	Centennial
-4.602114	Centennial.
-3.541416	Center
-4.602114	Center's
-4.426023	Center,
-4.426023	Center.
-4.602114	Center.Big
-4.602114	Center.Brocade
-4.602114	Center.Lundberg,
-4.602114	Centerpoint
-3.948902	Central
-4.602114	Centralize
-4.426023	Centre
-4.602114	Centre.A
-4.602114	Centre.Fluor
-4.602114	Centre.Starbucks
-3.162781	Cephalon
-4.301084	Cephalon,
-4.602114	Cephalon.
-4.602114	Cephalon.Cephalon
-4.602114	Cephalon.PsychoGenics
-4.602114	Cephalon.The
-4.602114	Certain
-4.204174	Certificate
-4.426023	Certified
-3.757016	Chairman
-4.301084	Chairman,
-4.426023	Change(s)
-4.602114	Changed
-4.426023	Changes
-4.602114	Changes.Atheros
-4.602114	Changes.Discovery
-4.602114	Changes.Fluor
-4.602114	Changes.Health
-4.602114	Changes.Molex
-4.602114	Changes.The
-4.602114	Changes.Thomas
-3.861752	Channel
-4.301084	Channel,
-4.602114	Channel.
-4.602114	Channels
-4.602114	Channels,
-4.301084	Chapin
-4.204174	Charges
-4.602114	Charges."Atheros
-4.602114	Charges."Cadence
-4.602114	Charges."Concho
-4.602114	Charges."Health
-4.602114	Charges."Phillips-Van
-4.602114	Charges.Concho
-4.426023	Charges.Principal
-4.602114	Charretour
-4.000054	Chase
-4.058046	ChemGenex
-4.602114	ChemGenex.The
-3.823963	Chemical
-4.426023	Chicago,
-4.602114	Chicago.
-4.602114	Chicken
-3.334943	Chief
-4.602114	Chief.
-4.602114	Chile
-4.426023	China
-4.602114	China,
-4.602114	China.Atheros
-4.602114	China.Fluor
-4.602114	China.John
-4.602114	China.Starbucks
-4.602114	China.Startup
-4.602114	China.The
-4.602114	China.UTStarcom
-4.426023	Chinese
-4.602114	Chino.Officials
-4.301084	Chip
-4.602114	Chip,
-4.602114	Chips.These
-4.602114	Chocolate
-4.426023	Chooses
-4.602114	Chris
-4.426023	Christopher
-4.124993	Cinema
-4.426023	Circuit
-4.602114	Circulation-media
-3.861752	Citizens
-4.426023	Citroen
-4.602114	Citroen.The
-4.000054	City
-4.602114	City.But
-4.602114	City.The
-4.602114	Civil
-4.602114	Cl
-4.204174	Clara,
-3.560722	Class
-4.602114	Clean
-4.602114	Cleveland
-4.602114	Cleveland,
-4.426023	Cleveland-Cliffs
-4.602114	Cleveland.Employees
-4.602114	Cleveland.He
-4.602114	Clifton
-4.602114	Climb
-4.602114	Clinical
-4.602114	Close.Starbucks
-3.861752	Closed
-4.602114	Closures."Starbucks
-4.124993	Cluett
-4.426023	Co
-4.602114	Co-Chairman
-4.204174	Co-Lead
-4.602114	Co-operatives
-3.231046	Co.
-4.204174	Co.'s
-3.903144	Co.,
-4.058046	Co.;
-4.602114	Co.Announced
-4.426023	Co.Announces
-4.426023	Co.Incorporated
-4.602114	Coal
-4.602114	Coalition
-4.426023	Coating
-4.602114	Cocoa
-4.602114	Cocoa.
-4.602114	Code
-4.204174	Coding
-3.699024	Coffee
-4.602114	Coffee,
-4.426023	Cohen
-4.426023	Cold
-4.426023	Coles
-4.602114	Collaborate
-4.124993	Collaboration
-4.602114	Collaboration.Illumina
-4.602114	Collins
-4.602114	Colombia;
-4.426023	Colorado
-4.602114	Colorado.Together,
-4.602114	Columbia
-4.602114	Columbus,
-4.602114	CommVault
-4.602114	Commerce
-4.426023	Commercialization
-4.000054	Commission
-4.426023	Commission.The
-3.948902	Committee
-4.426023	Committee.
-4.602114	Committee.Mr.
-4.426023	Committee.The
-4.426023	Committees
-4.602114	Committees,
-4.000054	Common
-4.602114	Commons
-2.580925	Communications
-4.602114	Communications'
-4.602114	Communications).In
-3.699024	Communications,
-4.602114	Communications.
-4.602114	Communications.News
-4.602114	Compa
-4.602114	Compan
-4.602114	Companhia
-4.602114	Compania
-3.624391	Companies
-4.602114	Companies'
-3.948902	Companies,
-4.602114	Companies.Brocade
-4.602114	Companies.Health
-4.602114	Companies.In
-2.973725	Company
-3.195574	Company's
-4.602114	Company's"
-3.823963	Company,
-4.204174	Company-operated
-4.426023	Company.
-4.602114	Company."
-4.602114	Company..
-4.602114	Company.Attorney
-4.602114	Company.Hansen
-4.602114	Company.In
-4.602114	Company.Starbucks
-4.602114	Company.Terms
-4.204174	Company;
-4.602114	Comparable
-4.602114	Competition
-4.602114	Complaint
-4.602114	Completes
-4.602114	Complex
-4.602114	Complex.Fluor
-4.602114	Compliance,
-4.602114	Compresses
-4.426023	Computer
-4.602114	Concerning
-3.789201	Concho
-4.602114	Concourse
-4.602114	Cone
-2.973725	Conference
-3.647872	Conference,
-4.602114	Conferences
-4.602114	Conferences,
-4.602114	Conformal
-4.602114	Conformal(R)
-4.426023	Conga
-4.602114	Congress
-4.204174	Connect
-4.602114	Connecticut,
-4.301084	Connection
-4.426023	Connectivity
-4.602114	Connectors
-4.426023	Connors
-4.204174	ConocoPhillips
-4.602114	ConocoPhillips'
-4.602114	ConocoPhillips.River
-3.249932	Consolidated
-4.602114	Consolidation
-4.204174	Consortium
-4.602114	Consortium.He
-4.204174	Constellation
-4.204174	Construction
-4.602114	Consulting
-4.602114	Content
-4.602114	Context-aware
-4.602114	Continent.Starbucks
-4.426023	Continues
-4.000054	Contract
-4.602114	Contract.Fluor
-4.602114	Contractor
-4.426023	Contracts
-4.426023	Control
-4.426023	Controller
-4.426023	Converged
-4.602114	Convergence
-4.602114	Convertible
-4.426023	Core
-4.426023	Corolla
-3.861752	Corp
-4.426023	Corps
-4.602114	Corp's
-2.414593	Corp.
-4.602114	Corp.s
-4.058046	Corp.'s
-3.249932	Corp.,
-4.301084	Corp..
-3.727053	Corp.;
-3.948902	Corp.Announces
-4.602114	Corp.Awarded
-4.602114	Corp.Delays
-4.602114	Corp.Expands
-4.426023	Corp.Opens
-4.602114	Corp.Promotes
-4.602114	Corp.Provides
-4.602114	Corp.Recent
-4.426023	Corp.The
-4.602114	Corp.Under
-4.602114	Corp.s
-3.903144	Corporate
-2.635972	Corporation
-4.602114	Corporations
-4.204174	Corporation's
-4.602114	Corporation)
-3.426023	Corporation,
-4.426023	Corporation.
-4.301084	Corporation..
-4.602114	Corporation.Cadence
-4.602114	Corporation.Dreier
-4.602114	Corporation.Few
-4.602114	Corporation.Fluor
-4.602114	Corporation.There
-4.602114	Corporation.This
-4.426023	Corporation;
-4.602114	Coshocton
-4.602114	Coshocton.In
-4.602114	Cost
-4.602114	Cost.Cadence
-4.602114	Coulter
-4.602114	Council
-4.602114	Council.
-4.426023	County,
-4.602114	County.
-3.727053	Court
-4.602114	Court's
-4.602114	Cowen
-4.602114	Craig
-4.426023	Cream
-4.602114	Creation
-3.903144	Credit
-4.602114	Cross
-4.602114	Cryder
-4.602114	Cryder.They
-4.426023	Culture,
-4.602114	Culver,
-4.602114	Current
-4.124993	Custom
-4.602114	Customer
-4.602114	Customers
-4.602114	Customized
-4.602114	Cut
-4.426023	Cuts
-4.602114	D
-4.602114	D.
-4.426023	DDR
-4.301084	DDR-PHY
-4.602114	DDR-memory-subsystem
-4.602114	DEADLIEST
-4.602114	DFII
-4.602114	DFM
-4.426023	DLB)
-4.124993	DLJ
-4.602114	DMD
-3.903144	DNA
-4.602114	DOE
-4.602114	DRC/LVS/ERC
-4.426023	DS4
-4.602114	DTV
-4.602114	Daily.Before
-4.602114	Dakota,
-4.602114	Dale
-4.602114	Dalton
-4.426023	Darman
-4.602114	Darman,
-3.823963	Data
-4.602114	Databahn
-4.426023	Date
-4.058046	David
-4.602114	Davidson
-4.426023	Davis
-4.602114	Day
-4.602114	Day.To
-4.301084	Daylight
-4.058046	Daylight.Location:
-4.602114	Days
-4.602114	Deal
-4.602114	Deal.Gaiam
-4.602114	Deal.Hansen
-4.426023	Dealers
-4.426023	Dean
-4.602114	Death
-4.602114	Debevoise
-4.426023	Debt
-4.602114	Dec-22-1999
-4.602114	Dec-22-1999.The
-3.948902	Dec.
-2.944103	December
-4.602114	December,
-3.541416	Declares
-4.602114	Defendants
-4.602114	Defendants.Helicos
-4.426023	Definition
-4.602114	Delaware
-4.426023	Delaware,
-4.602114	Deliver
-4.426023	Delivers
-4.301084	Delivery
-4.204174	Deloitte
-4.301084	Delta
-4.301084	Demand
-4.426023	Denali
-4.602114	Denali's
-4.602114	Dennis
-3.789201	Dennison
-4.602114	Dennison's
-4.602114	Density
-4.602114	Density)
-4.602114	Denver
-4.602114	Denver.Starbucks
-4.124993	Department
-4.602114	Dependence.Alkermes
-4.602114	Depositary
-4.602114	Deputy
-4.426023	Des
-2.934661	Design
-4.602114	Design-build
-4.301084	Designer
-4.602114	Designs
-4.602114	Designs.Cadence
-4.301084	Detroit
-4.426023	Detroit,
-4.602114	Deutsche
-4.426023	Develop
-4.124993	Development
-4.602114	Development,
-4.602114	Development.Acquisition
-4.602114	Development.Dolby
-4.602114	Development.Illumina
-4.602114	Development.In
-4.602114	Dewey
-4.602114	DiPentima
-4.602114	Diabetes
-4.602114	Diabetes.One
-4.204174	Diagnostics
-4.602114	Diagnostics,
-4.602114	Diagnostics.Cadence
-4.602114	Diagnostics.Illumina
-4.124993	Diaz
-4.602114	Dickinson,
-4.426023	Diego
-4.602114	Diego,
-4.602114	Diego-based
-4.602114	DigRF(SM)
-4.602114	Digest
-4.602114	Digest,
-3.541416	Digital
-4.204174	Direct
-3.903144	Director
-4.602114	Director'
-4.602114	Director,
-4.602114	Director,'
-4.602114	Director.
-4.602114	Director.The
-3.240386	Directors
-4.204174	Directors,
-4.602114	Directors.AK
-4.602114	Directors.Brocade
-4.602114	Directors.Cephalon
-4.602114	Directors.Citizens
-4.602114	Directors.He
-4.602114	Directors.Krause,
-4.426023	Directors.Mr.
-4.602114	Directors.On
-4.602114	Directors.The
-4.602114	Directors.Wilderotter
-4.301084	Directors;
-4.602114	Disagreement
-3.31208	Discovery
-4.602114	Discoverys
-4.124993	Discovery's
-4.301084	Discovery,
-4.204174	Disease
-4.602114	Disease-Associated
-4.602114	Disease.Illumina
-4.602114	Disorder
-4.204174	Display
-4.602114	Disputes
-4.426023	Distressed
-4.602114	Distribution
-3.560722	District
-4.602114	District,
-3.647872	Dividend
-4.058046	Dividend,
-4.602114	Dividend.Capitol
-4.602114	Dividends,
-4.204174	Division
-4.301084	Division,
-3.058046	Dolby
-4.426023	Dolby's
-4.058046	Dolby(R)
-4.602114	Dolby.The
-4.426023	Dollar
-4.301084	Domain
-4.602114	Donald,
-4.602114	Doubleshot
-4.602114	Douglas,
-4.602114	Down
-4.602114	Dr.
-4.602114	Dr.-Ing.,
-4.602114	Drake
-4.058046	Drax
-4.602114	Dreier
-4.602114	Drink.Starbucks
-4.426023	Drive
-4.602114	Drive,
-4.058046	Drug
-4.602114	Dual-Concurrent
-4.602114	Dublin
-4.426023	Due
-4.301084	Duke
-4.602114	Dundrum
-4.602114	Dunn.
-4.301084	Dunsirn
-4.426023	Dyer
-4.602114	Dynamic
-4.602114	Dyncorp
-4.602114	E&C,
-4.602114	E&D
-4.426023	E-Discovery
-4.426023	E.
-4.124993	EBITDA
-4.602114	ECAD
-4.602114	ECOs,
-4.124993	EDA
-4.204174	EDF
-4.602114	EDF.The
-4.602114	EIA
-4.426023	EICS
-4.000054	EMC
-4.602114	EMEA
-4.602114	EPC
-4.602114	EPCM
-3.903144	EPS
-4.602114	ESC
-4.602114	ESCOS
-4.602114	ETERNUS(TM)
-4.602114	ETHOS
-4.426023	ETHOS(R)
-4.602114	EU
-4.602114	EXCLUSIVE
-4.426023	Each
-4.602114	Earl
-4.426023	Early
-4.301084	Earning
-2.395288	Earnings
-4.602114	Earnings."Health
-4.602114	Earnings."Panera
-4.301084	East
-4.602114	East,
-3.757016	Eastern
-4.602114	Eastham,
-3.823963	Eaton
-4.301084	Eco
-4.602114	Eco(TM)
-4.204174	Eddins
-4.301084	Edge
-4.426023	Edison
-4.602114	Edison,
-4.602114	Editing.The
-4.602114	Edmund
-4.426023	Education
-4.602114	Education,
-4.301084	Effective
-4.426023	Efficient
-4.602114	Eileen
-4.602114	Ekimae
-4.602114	Ekman
-4.426023	Electric
-4.602114	Electro-Galvanizing
-4.602114	Electronics
-4.426023	Elects
-4.602114	Elektrobit.These
-4.602114	Elet"
-4.426023	Eletricidade
-4.602114	Eliminate
-4.426023	Elizabeth
-4.602114	Elkins
-4.602114	Ellis
-4.602114	Eltoukhy
-4.602114	Embraced
-4.426023	Employee
-4.602114	Employees.AK
-4.602114	Enable
-4.602114	Enclosure.Brocade
-4.058046	Encounter
-4.124993	Encounter(R)
-4.204174	Encounter(TM)
-2.763265	Ended
-3.757016	Ending
-3.29036	Energy
-4.602114	Energy(R)
-4.602114	Energy(TM)
-4.602114	Energy+
-4.602114	Energy.Reliant
-4.602114	Engineer
-3.861752	Engineering
-4.602114	Engineering.Previously,
-4.602114	Engineering;
-4.602114	England
-4.602114	Enhanced
-4.602114	Enter
-4.000054	Enterprise
-4.301084	Enters
-4.426023	Entertainment
-4.426023	Entry
-4.602114	Entry-Level
-4.602114	Epidemiology
-4.602114	Eps
-4.058046	Equal
-4.301084	Equipment
-4.124993	Equipment,
-3.371665	Equity
-4.602114	Equity,
-4.426023	Eric
-4.301084	Ernst
-4.602114	Espresso
-4.602114	Esq.of
-4.602114	Estancia
-4.426023	Estate
-3.789201	Ethernet
-4.301084	Ethiopia
-4.602114	Ethiopia.Starbucks
-4.426023	Ethiopian
-4.301084	Europe
-4.602114	Europe,
-4.204174	Europea
-4.000054	European
-4.602114	Evolution.Brocade
-4.602114	Excessive
-3.948902	Exchange
-4.602114	Exclusive
-4.301084	Exclusives(TM)
-4.602114	Execution
-3.334943	Executive
-4.602114	Executive,
-4.602114	Existing
-4.602114	Exodus
-4.602114	Exon-Centric
-4.301084	Expand
-4.602114	Expanded
-4.426023	Expands
-4.301084	Expansion
-4.602114	Expasion
-4.602114	Expectations
-4.602114	Expenditure
-4.602114	Expenditures
-4.301084	Experience
-4.602114	Explorer
-4.602114	Explores
-4.426023	Express
-4.602114	Express'
-4.058046	Expression
-4.602114	Expression.The
-4.602114	Extend
-4.426023	Extends
-4.301084	Eyeing
-4.426023	Eyes
-4.301084	F.
-4.602114	FAN
-4.602114	FAS
-4.426023	FC
-4.426023	FCoE
-4.000054	FDA
-4.602114	FDA-approved
-4.602114	FHPS.The
-4.602114	FHS
-4.602114	FHS.Under
-4.426023	FIS
-4.602114	FL
-4.301084	FLR)
-4.426023	FPGA
-4.602114	FPGAs,
-4.124993	FPL
-4.602114	FR4-18i
-3.948902	Fabric
-4.301084	Facility
-4.602114	FacilitySource.
-4.602114	Facts:
-4.602114	FalconStor
-4.602114	Fallout
-4.426023	Family
-4.602114	Family.Atheros
-4.204174	Faraday
-4.602114	Faraday's
-4.058046	Fargo
-4.602114	Farm
-4.301084	Farmer
-4.602114	Farnan
-4.301084	Farnborough
-4.602114	Fasson
-4.301084	Fast
-4.602114	FastTrack
-4.602114	Faust,
-4.602114	Feature
-4.602114	Feature-Rich,
-4.426023	Featured
-3.948902	Feb
-4.602114	Feb-02-2010
-4.602114	Feb-02-2010.News
-4.602114	Feb-04
-4.602114	Feb-04-2009.Cadence
-4.602114	Feb-13-2009.Panera
-4.426023	Feb-24-2011
-4.602114	Feb-25-2009.Concho
-4.204174	Feb.
-3.334943	February
-4.602114	February,
-3.823963	Federal
-4.426023	Federated
-4.602114	Felt
-4.602114	Fenner
-4.426023	Fentora
-4.602114	Fentora.Fentora
-4.602114	Fentora.The
-4.602114	Fenwick
-4.058046	Fibre
-3.455986	Fidelity
-4.426023	Field
-4.602114	Fields
-4.602114	Fifth
-4.426023	File
-4.426023	Files
-4.602114	Filip
-4.602114	Final
-4.204174	Finance
-4.602114	Finance,
-3.033913	Financial
-3.672695	Financial,
-4.602114	Financial.announced
-4.602114	Fine
-4.602114	Finland-United
-4.426023	Firehouse
-4.602114	Firm
-3.022331	First
-4.602114	First-Quarter
-3.29036	Fiscal
-4.602114	Fisher
-4.602114	Fisher,
-4.602114	Fishman.Chapin
-4.426023	Five
-4.426023	Fixed
-3.861752	Fixed-Income
-4.602114	Flags
-4.426023	Flatley,
-4.426023	Florida,
-3.058046	Fluor
-4.124993	Fluor's
-4.602114	Focus
-4.426023	Folick
-4.602114	Folick,
-3.672695	Follow-on
-4.602114	Following
-4.204174	Food
-3.823963	For
-4.602114	Form
-4.426023	Format
-4.602114	Formulation
-4.426023	Fortune
-4.602114	Forum's
-4.000054	Forum,
-4.602114	Foster
-4.301084	Foundation
-4.602114	Foundation.He
-4.602114	Founder
-4.301084	Four
-3.139716	Fourth
-4.602114	Francis
-4.602114	Francisco's
-4.204174	Francisco,
-4.602114	Frappuccino(R)--Coffee
-4.602114	Frappuccino(R)--swirled
-4.602114	Frazer,
-4.602114	Fred
-4.602114	Frederick
-4.602114	French
-4.602114	From
-4.204174	Frontier
-4.602114	Fuels
-4.426023	Fujitsu
-4.602114	Fujitsu.Brocade
-3.022331	Full
-4.602114	Full-Time
-3.672695	Fund
-4.426023	Fund,
-4.426023	Funding,
-4.602114	Further
-4.602114	G
-4.602114	G.
-3.31208	GAAP
-4.602114	GAAP,
-4.426023	GBS
-4.602114	GE
-4.058046	GHz
-4.602114	GMT
-4.602114	GWAS
-4.602114	Gabbard
-4.426023	Gaiam
-4.602114	Games
-4.602114	Gardens
-4.602114	Garrison
-4.426023	Gary
-4.204174	Gas
-4.426023	Gas-Fired
-4.426023	Gate
-4.602114	Gatwick
-4.602114	Gbit/Sec
-3.903144	Gbit/sec
-4.426023	Gbps
-4.426023	Gellert,
-4.602114	Gen
-4.058046	Gene
-4.602114	Gener
-3.38463	General
-4.426023	Generating
-4.426023	Generation
-4.204174	Genetic
-4.426023	Genetics
-4.204174	Genizon
-4.301084	Genomas
-3.602114	Genome
-4.426023	Genomes
-4.602114	Genomes.Illumina
-4.602114	Genomic
-4.204174	Genomics
-4.602114	Genomics,
-3.699024	Genotyping
-4.426023	Genotyping,
-3.647872	Gentex
-4.602114	Gentex's
-4.602114	Geoff
-4.602114	Georgia.Principal
-4.602114	Georgia.The
-4.204174	Gerber
-4.602114	Gerber,
-4.602114	Gerber."On
-4.602114	Gerdau
-4.602114	Giant
-4.426023	Gibraltar
-4.602114	Gigabases
-4.301084	Gigabit
-4.602114	Gigafast
-4.602114	Gigahertz-based
-4.602114	Glaxo
-4.602114	GlaxoSmithKline
-4.426023	Glazer
-3.903144	Global
-4.204174	Globe
-4.602114	Globe,
-4.602114	Globe.Retired
-4.602114	Globe.The
-4.602114	Gluski,
-4.426023	GmbH
-4.602114	Goerge
-4.602114	Goes
-4.602114	Golden
-4.602114	GoldenGate(R)
-4.602114	GoldenGate?Human
-4.602114	Goldman,
-4.204174	Golf
-4.602114	GolfDigest.com.Sabin
-4.426023	Goodrich
-4.602114	Goodwill
-4.602114	Gordon
-4.602114	Gould
-4.602114	Gourmet
-4.204174	Governance
-4.204174	Government
-4.301084	Grace
-4.602114	Graduate
-4.602114	Grand
-4.602114	Grant
-4.602114	Granting
-4.602114	Graphic
-4.301084	Great
-4.124993	Greater
-4.602114	Green
-4.602114	Green,
-4.602114	Green.
-4.602114	Green.Michalchyshyn,
-4.426023	Gregory
-4.602114	Grey,
-4.204174	Greystone
-4.602114	Grinder
-3.103804	Group
-4.426023	Group's
-3.903144	Group,
-4.602114	Group.
-4.602114	Group..
-4.602114	Group.Apr-13-2010,
-4.602114	Group.Fluor
-4.602114	Group.He
-4.602114	Group.News
-4.602114	Group;
-4.602114	Grow
-4.058046	Growth
-4.602114	Guarantee
-4.301084	Guardian
-4.602114	Guatemala.
-2.886111	Guidance
-4.602114	Guidance.The
-4.602114	Guinea
-4.602114	H.
-4.602114	H?vermark
-4.000054	HD
-4.602114	HD-ready
-4.602114	HDMI.
-4.602114	HDR-enabled
-4.602114	HDTV,
-4.602114	HDTVs
-4.602114	HE-AACopen-standard
-4.602114	HIV
-4.602114	HIV-1
-4.602114	HIV-1.Working
-4.602114	HIV/AIDS'.
-4.602114	HNT)
-3.672695	HP
-4.602114	HP.Ali
-4.602114	HSBC
-4.602114	HSC)
-4.602114	HSR
-4.204174	Hackenson
-4.602114	Hackenson's
-4.602114	Hadley
-4.602114	Half
-4.602114	Hall
-4.426023	Hall,
-4.602114	Halloween.A
-4.602114	Hampshire.Financial
-4.602114	Handset
-4.602114	Handyphone
-4.602114	Hans
-3.346842	Hansen
-4.426023	Hansen's
-4.602114	Hansen.The
-4.602114	HapMap
-4.602114	Harbinger
-4.426023	Harbor
-4.301084	Hariri
-4.602114	Harman
-4.602114	Harrar
-4.602114	Harrar.Starbucks
-4.426023	Harry
-3.522933	Harsco
-4.204174	Harsco's
-4.426023	Hart-Scott-Rodino
-4.426023	Haywood
-4.301084	Head
-4.602114	Headlamp
-3.279895	Health
-3.757016	Healthcare
-4.602114	Hearst
-4.602114	Heart,
-4.426023	Heath
-4.602114	Heath,
-4.426023	Heinz
-4.602114	Heinz.
-4.426023	Helicos
-4.602114	Helicos'
-4.602114	Helixis
-4.204174	Helixis,
-4.602114	Helmy
-4.602114	Help
-4.602114	Helping
-4.426023	Helps
-4.602114	Hereford.
-3.212948	Heusen
-4.426023	HiScan
-4.602114	HiScanSQ
-4.602114	HiScanSQ,
-4.602114	HiScanSQ.Illumina
-4.000054	High
-4.204174	High-Beam
-4.602114	High-Density
-4.602114	High-Performance
-4.602114	High-Resolution
-4.602114	High-Throughput
-4.602114	Highest-Performance
-4.602114	Highly
-4.602114	Hills.Tom's
-4.426023	Hilton,
-4.058046	Hitachi
-4.602114	Hitachi's
-4.204174	Holden
-3.178868	Holding
-4.301084	Holdings
-4.426023	Holger
-4.602114	Home
-4.602114	Hong
-4.602114	Horizon
-4.426023	Horst
-4.602114	Hot
-4.301084	Hotel
-4.124993	Hotel,
-4.602114	Houston-based
-4.602114	Houttekiet
-4.124993	Howard
-4.602114	Huang
-4.426023	Hudson
-4.602114	Human
-4.426023	Human1M
-4.426023	Human1M-Duo
-4.426023	Human610-Quad
-4.058046	HumanHT-12
-4.204174	HumanHap300
-4.602114	HumanHap300,
-4.426023	HumanHap300-Duo
-4.426023	HumanHap300-Duo+
-4.602114	HumanHap550
-4.058046	HumanHap550-Duo
-4.602114	HumanHap550.The
-4.204174	HumanLinkage-12
-4.602114	HumanOmni1,
-4.602114	HumanOmni1-Quad,
-4.426023	HumanOmniExpress
-4.602114	HumanWG-6,
-4.602114	Hunter
-4.602114	Hunter,
-4.602114	Hyatt,
-4.204174	I
-4.301084	I,
-4.602114	I/O
-4.602114	IA
-4.602114	IBC
-4.000054	IBM
-4.426023	IBPS
-3.948902	IC
-4.602114	ICs
-4.602114	ID:
-4.602114	IEEE
-4.602114	IEEE-standard
-4.602114	IEEE802.3az-2010
-4.602114	IHS
-4.058046	II
-4.602114	II(SM)
-4.602114	II),
-4.602114	II,
-4.602114	II.Principal
-4.204174	III
-4.426023	IIJ
-4.426023	IIJ-Tech
-4.602114	IL
-4.301084	ILMN)
-4.602114	IMS
-4.602114	IOs
-3.823963	IP
-4.602114	IP-based
-4.602114	IP.Cadence
-4.602114	IP.DDR
-4.602114	IQ
-4.602114	ISG's
-3.789201	IT
-4.426023	IV
-4.602114	IV,
-4.426023	Ice
-4.602114	Iced
-4.426023	Illinois
-2.87376	Illumina
-3.411783	Illumina's
-4.124993	Illumina,
-4.602114	Illumina.Affymetrix
-4.602114	Illumina.Illumina
-4.602114	Illumina.Mr.
-3.727053	Impairment
-4.204174	Implementation
-4.602114	Improve
-4.602114	Improvements
-4.124993	In
-4.602114	In-bound
-3.948902	Inc
-4.426023	Incs
-2.105877	Inc.
-4.124993	Inc.'s
-3.948902	Inc.(NasdaqGM:CEPH)
-4.426023	Inc.)
-3.000054	Inc.,
-4.058046	Inc..
-4.602114	Inc...
-4.301084	Inc..The
-3.699024	Inc.;
-4.602114	Inc.Adds
-3.240386	Inc.Announces
-4.426023	Inc.Brocade
-4.602114	Inc.Connection
-4.426023	Inc.Expands
-4.602114	Inc.Files
-4.426023	Inc.Introduces
-4.602114	Inc.Joins
-4.602114	Inc.Most
-4.602114	Inc.Opens
-4.000054	Inc.Provides
-4.602114	Inc.Receive
-4.602114	Inc.Simultaneous
-4.301084	Inc.The
-4.602114	Inc.Together,
-4.426023	Inc.Under
-4.602114	Inc;
-4.301084	Incentive
-4.602114	Incipient
-4.602114	Incisive
-4.301084	Incisive(R)
-4.602114	Incisive(TM)
-4.602114	Include
-4.602114	Including
-3.789201	Income
-4.426023	Incorporated
-4.426023	Incorporated,
-4.204174	Incorporation
-4.602114	Incorporation."Fluor
-4.602114	Incorporation."Illumina
-4.602114	Incorporation.KeyCorp
-4.426023	Increase
-4.301084	Increased
-4.426023	Increases
-4.426023	Independent
-3.789201	Index
-4.124993	Index.Cephalon
-4.602114	Index.Cephalon,
-4.602114	Index.Fidelity
-4.426023	Index.Health
-4.602114	Index.KeyCorp
-4.426023	Index.The
-4.204174	Indices
-4.602114	Indigo
-4.602114	Industrial
-4.426023	Industries
-4.426023	Industry
-4.426023	Industry's
-4.602114	Industry.ACTS
-3.757016	Infinium
-4.426023	Infinium(R)
-4.426023	Infinium(TM)
-4.602114	Info
-3.411783	Information
-4.602114	Infosystems,
-4.602114	Infosystems.To
-4.426023	Infrastructure
-4.301084	Infrastructure.Brocade
-4.602114	Infrastructure.EMC
-4.301084	Infringement
-4.124993	Ingenieria
-4.426023	Inherited
-4.602114	Initiative
-4.602114	Initiative.OHIO
-4.602114	Initiative.OHIO-DA
-4.602114	Injection
-4.602114	Innovation
-4.301084	Innovations,
-4.426023	Insight,
-4.602114	Installs
-4.124993	Institute
-4.602114	Institute's
-4.426023	Institute,
-4.602114	Institute.The
-4.602114	Institution
-3.861752	Insurance
-4.602114	Int
-4.426023	Intangible
-4.058046	Integrated
-4.602114	Integrated,
-4.602114	Integration
-4.602114	Intelligent
-4.602114	Intention
-4.602114	InterComm,
-4.426023	InterContinental
-4.602114	InterSAN
-4.602114	Interactive
-4.426023	Interface
-4.426023	Interface,
-4.602114	Interfax,
-4.301084	Interim
-4.301084	Internal
-3.07707	International
-4.602114	International's
-4.204174	International,
-4.602114	International.In
-4.602114	International.Service
-4.301084	International;
-4.301084	Internet
-4.602114	Internet.
-4.301084	Interoperability
-4.602114	Interventional
-3.699024	Introduces
-4.602114	Introduction
-4.301084	Investigation
-3.861752	Investment
-4.426023	Investors
-4.426023	Investors,
-4.602114	Investors.Scott+Scott
-4.602114	Investors.The
-4.058046	Invitrogen
-4.426023	Invitrogen's
-4.602114	Iowa,United
-4.426023	Iraq
-4.602114	Iraq,
-4.602114	Iraq.Fluor
-4.602114	Ireland
-4.602114	Irish
-4.301084	Iron
-4.602114	Issues
-4.602114	Italy
-4.000054	Its
-4.426023	Izard,
-4.602114	J
-4.301084	J.
-4.602114	J.L.Kellogg
-4.124993	J.P.
-4.602114	JMP
-4.204174	JP
-4.124993	JPMorgan
-4.426023	Jack
-4.602114	Jacksonville,
-4.602114	Jaguar
-4.602114	Jaguar,
-4.602114	Jaguar.Gentex
-4.426023	James
-4.124993	Jan
-4.426023	Jan-12-2010
-4.602114	Jan-23-2008.Molex
-4.602114	Jan-27-2009.AK
-4.602114	Jan-29-2008.Gentex
-4.602114	Jan-29-2009.Harsco
-4.602114	Jan-30-2008.Starbucks
-4.602114	Jan-31-2003
-4.602114	Jan-31-2003.The
-4.058046	Jan.
-3.110753	January
-4.204174	Japan
-4.426023	Japan,
-4.602114	Japan.In
-4.602114	Jasper,
-4.301084	Jay
-4.602114	Jeff
-4.426023	Jeffrey
-4.602114	Jersey,
-4.602114	Jersey.
-4.426023	Jet
-4.602114	Jill
-4.602114	Jim
-4.602114	Jobs.KeyCorp
-4.204174	Joel
-4.426023	Johannesburg
-4.058046	John
-4.301084	Johnson
-4.602114	Johnson,
-4.602114	Join
-4.426023	Joins
-4.426023	Joint
-4.426023	Joker
-4.602114	Jolla
-4.602114	Jolla,
-4.602114	Jon
-4.602114	Jordan
-4.602114	Jordan,
-4.602114	Jos?Mar?a
-4.602114	Jose
-4.602114	Jose,
-4.426023	Joseph
-4.602114	Jospeh
-4.602114	Jr.
-4.602114	Jr.,
-4.204174	Judge
-3.823963	Jul
-4.602114	Jul-21-2009.AK
-4.602114	Jul-22-2008.AK
-4.602114	Jul-22-2008.KeyCorp,
-4.602114	Jul-23-2007.Gentex
-4.602114	Jul-23-2008.Cadence
-4.602114	Jul-23-2010
-4.602114	Jul-23-2010.The
-4.602114	Jul-24-2007.AK
-4.602114	Jul-28-2009.Fidelity
-4.602114	Jul-29-2004.The
-4.602114	Jul-29-2008.The
-3.117815	July
-4.602114	July,
-4.602114	July.For
-4.058046	Jun
-4.426023	Jun-24-2010
-3.005517	June
-4.602114	Justice
-4.058046	K.
-4.426023	KBR
-4.602114	KEY)
-4.426023	KG
-4.602114	KMB)
-4.426023	KPMG
-4.426023	KT
-4.602114	Kanner
-4.602114	Kardon,
-4.602114	Karin
-4.602114	Kate
-4.602114	Kaufmann
-4.602114	Kazakhstan.
-4.602114	Kazakhstan.Fluor
-4.602114	Kazakhstan.Partnered
-4.602114	Keller,
-4.602114	Kelly
-4.602114	Kelowna.Service
-4.204174	Kelvin
-4.602114	Kenneth
-4.602114	Ketchum,
-4.602114	Key
-4.301084	Key's
-4.602114	Key.Otherwise,
-4.602114	KeyBank
-4.301084	KeyBank's
-4.602114	KeyBank.In
-3.624391	KeyCorp
-4.602114	KeyCorp's
-4.301084	KeyCorp,
-4.602114	Keybank
-4.602114	Keymeulen
-4.602114	Keystone
-4.426023	Kimberly-Clark
-4.426023	Kindle
-4.602114	Kindle.Discovery,
-4.204174	Kingdom
-4.602114	Kingdom.Cancer
-3.624391	Kirby
-4.426023	Kirby's
-4.602114	Kirkland
-4.301084	Kit
-4.602114	Kit.Illumina
-4.602114	Kit.PAS
-4.426023	Klein
-4.602114	Klein.For
-4.602114	Klekamp
-4.602114	Kong,
-4.602114	Konka,
-4.602114	Korea,
-4.602114	Korolev
-4.426023	Koskinen
-4.602114	Koskinen,
-4.602114	Kraus,
-4.426023	Krause
-4.602114	Krehbiel,will
-4.602114	Kristina
-4.602114	Kurth,
-4.602114	Kuwait.KBR
-4.301084	Kyivoblenergo
-3.757016	L.
-4.602114	L.L.C.and
-4.602114	L.L.P.served
-4.301084	L.P.
-4.301084	L.P.,
-4.602114	LA
-3.948902	LAN
-4.426023	LAVA)
-4.426023	LBO
-4.000054	LCD
-4.426023	LED
-4.426023	LEDs
-3.757016	LLC
-3.757016	LLC,
-4.426023	LLC.for
-4.124993	LLC;
-3.505204	LLP
-4.602114	LOGCAP
-4.301084	LP
-4.426023	LSI
-4.602114	LTV
-4.602114	LTV's
-4.602114	LWK
-4.426023	La
-3.103804	Laboratories
-4.602114	Laboratories'
-4.602114	Laboratories,
-4.602114	Laboratories.
-4.602114	Laboratories.Mr.
-4.602114	Laboratory
-4.602114	Laboratory.Illumina
-4.301084	Labs
-4.602114	Lake,
-4.602114	Land
-4.204174	LandAmerica
-4.602114	Landau
-4.602114	Language
-4.602114	Large-Scale
-4.602114	Larry
-4.426023	Latest
-4.602114	Latham
-4.301084	Latin
-4.602114	Latvia,
-4.602114	Laughlin,
-4.124993	Launch
-3.823963	Launches
-4.602114	Laura
-4.602114	Law
-4.426023	Lawrence
-4.000054	Lawsuit
-4.602114	Lawsuit."A
-4.602114	Layer
-4.602114	Layoffs
-4.602114	Lays
-4.602114	LeBoeuf
-4.602114	Leach,
-4.426023	Leading
-4.426023	Legal
-4.124993	Legend
-4.301084	Lehman
-4.426023	Lending
-4.602114	Lengthy
-4.426023	Lenovo
-4.602114	Lerouge,
-4.426023	Level
-4.602114	Level,
-4.426023	Leverage
-4.602114	LexisNexis,
-4.602114	Liberia,
-4.602114	Liberian
-4.602114	Licensed
-4.301084	Licensing
-4.602114	Lidell
-3.602114	Life
-4.602114	Lifecycle
-4.124993	Light
-3.861752	Limited
-4.301084	Limited,
-4.602114	Linden,
-4.602114	Line
-4.602114	Line.Starbucks
-4.301084	Linkage
-4.301084	Linostar
-4.602114	Linux,
-4.426023	Lip-Bu
-4.602114	Listed
-4.602114	Litigation
-4.602114	Litigation.Ranbaxy
-4.602114	Little
-4.602114	Liu,
-4.602114	Live
-4.602114	Lives
-4.602114	Local
-4.602114	Loci
-4.602114	Locke,
-4.426023	Lockout
-4.426023	Logistics
-4.602114	Lon
-4.602114	London
-4.602114	London,
-4.301084	Longworth-Gentry
-4.426023	Lord
-4.204174	Los
-4.426023	Losses
-4.301084	Lost
-4.602114	Lost(R)
-3.541416	Lots
-4.602114	Louis
-4.602114	Low
-4.000054	Low-Power
-4.602114	Low-Power.By
-4.602114	Lower
-4.124993	Ltd
-4.426023	Ltd,
-3.727053	Ltd.
-4.204174	Ltd.,
-4.602114	Ltd.Announces
-4.602114	Ltda.;
-4.602114	Ltda.for
-4.602114	Ltda.which
-4.426023	Lucent
-4.602114	Lundberg,
-4.602114	Lung,
-4.000054	Lynch
-4.204174	Lynch,
-4.204174	M.
-4.602114	M.D.has
-4.602114	M12
-4.204174	M23
-4.602114	MATW)
-4.124993	MEGAPLEX
-4.426023	MEGAPLEX's
-4.124993	MHC
-4.602114	MHC-focused
-4.602114	MHN,
-4.301084	MHP
-4.301084	MHP)
-4.602114	MHz.This
-4.602114	MI
-4.602114	MIMO
-4.000054	MIPI
-4.426023	MMK
-4.602114	MP3
-4.602114	MPEG-4
-4.602114	MSM
-4.602114	MSM6280(TM)
-4.602114	MSM6550(TM)
-4.124993	MTG
-4.602114	MTH
-4.602114	MW
-4.602114	Mac,
-4.602114	Macchiato--swirled
-4.602114	Machine
-4.602114	Macon,
-4.602114	Macquarie
-4.426023	Mad
-4.602114	Madison
-4.602114	Madrid
-4.204174	Magazine
-4.602114	Maggie
-4.301084	Magma
-4.602114	Magnitogorsk
-4.602114	Maine,United
-4.602114	Make
-4.602114	Makers.A
-4.602114	Malonson,
-3.624391	Management
-4.602114	Management,
-4.426023	Management.Brocade
-3.727053	Manager
-4.602114	Managing
-4.602114	Manhattan,
-4.426023	Manual
-4.602114	Manual')
-4.602114	Manufacturer
-4.124993	Manufacturing
-4.426023	Mapping
-4.602114	Mapping.Illumina
-4.058046	Mar
-4.602114	Mar-04-2009
-4.602114	Mar-04-2009.Big
-4.602114	Mar-09
-4.602114	Mar-09-2006.Hansen
-4.602114	Mar-24-2009
-4.602114	Mar-24-2009.Phillips-Van
-4.426023	Marathon's
-4.602114	Marbob
-2.881955	March
-4.602114	Mariposa
-4.204174	Mark
-4.602114	Marker
-4.602114	Markers
-4.204174	Market
-4.602114	Market-Leading
-4.602114	Market.Brocade
-4.602114	Market.Starbucks
-4.301084	Marketing
-4.602114	Marketing,
-4.426023	Marketing.Illumina
-4.602114	Marketing.In
-4.602114	Marketing.Mr.
-4.301084	Markman
-4.301084	Martin
-4.602114	Marvin
-4.602114	Mary
-4.426023	Massachusetts,
-3.903144	Massey
-4.602114	Masters,
-4.602114	Material
-4.124993	Matrix
-4.602114	MatrixOne
-4.602114	MatrixOne.The
-4.602114	Mats
-4.602114	Matt
-4.602114	Matthew
-4.426023	Matthews
-4.301084	Mausoleum
-3.170751	May
-4.602114	May-01-1997
-4.602114	May-01-1997.The
-4.602114	May-05-2005
-4.602114	May-05-2005.The
-4.602114	May-07
-4.602114	May-07-2009.Frontier
-4.602114	May-09
-4.602114	May-09-2008.The
-4.602114	May-17-2005.Big
-4.602114	May-21-2008.Phillips-Van
-4.426023	Mayfield
-4.602114	Mayor
-4.426023	McComb
-4.602114	McComb,
-3.455986	McGraw-Hill
-4.602114	McKenzie,
-4.301084	McKinley
-4.602114	Mccomb
-3.823963	Media
-4.426023	Media,
-4.602114	Media.OWN
-4.204174	MediaXchange
-4.602114	Medicaid
-4.124993	Medical
-4.602114	Medicare
-4.204174	Medicine
-4.058046	Meeting
-3.440746	Meeting,
-4.602114	Meeting.
-4.602114	Melting
-4.000054	Member
-4.204174	Memorial
-4.602114	Menorah
-4.204174	Merchant
-4.426023	Merck
-3.440746	Merger/Acquisition
-3.948902	Merrill
-4.602114	Metabolic
-4.301084	Metal
-4.602114	Meter
-4.000054	Methodology
-4.602114	Methodology.Cadence
-4.301084	Metrics
-4.426023	MetroRED
-4.426023	Metropolitan
-4.426023	Mezzanine
-4.602114	Miami
-4.058046	Michael
-4.426023	Michalchyshyn
-4.602114	Michelle
-4.204174	Microsoft
-4.602114	Microsystems,
-4.426023	Midcap
-4.602114	Middle
-4.204174	Middletown
-4.602114	Mike
-4.602114	Military
-4.426023	Mill
-4.602114	Miller,
-4.058046	Million
-4.602114	Million."Molex
-4.426023	Million.Harsco
-4.602114	Milstain,
-4.602114	Milwaukee,
-4.426023	Minas
-4.426023	Mining's
-4.426023	Mirror
-4.602114	Mirror-Based
-4.301084	Mirrors
-4.602114	Mississippi
-4.602114	Mixed-Signal
-4.124993	Mobile
-4.602114	Mobile(TM)
-4.602114	Mobile.Dolby
-4.602114	Model
-4.602114	Model.Cadence
-4.602114	Modem(TM)
-4.204174	Modern
-4.602114	Module,
-4.301084	Modules
-4.204174	Mohave
-4.426023	Moines,
-4.426023	Molecular
-3.411783	Molex
-4.602114	Molex.
-4.426023	Monroe
-4.602114	Monroe,
-4.301084	Monster
-4.602114	Montana
-4.602114	Month
-3.139716	Months
-4.426023	Moose
-4.602114	Morawetz,
-3.727053	Morgan
-4.602114	Morgan,
-4.602114	Morris
-4.301084	Morse
-4.602114	Morse,
-4.602114	Mortuaries
-4.602114	Mosaic
-4.602114	Moses
-4.426023	Mountain
-4.602114	Move
-3.699024	Mr.
-4.204174	Ms.
-4.602114	Mtg
-4.602114	Muething
-4.124993	Mulls
-4.602114	Multi-Array
-4.602114	Multi-Gigabit
-4.602114	Multi-Language
-4.426023	Multi-Million
-4.602114	Multi-Room
-4.602114	Multi-Sample
-4.602114	Multi-Year
-4.301084	MultiServ
-4.426023	Multimedia
-4.426023	Multiprotocol
-4.602114	Municipality
-4.602114	Munir
-4.602114	Munir,
-4.602114	Murdoch,
-4.602114	Museum
-4.602114	Music
-4.426023	N.
-4.426023	N.A.,
-4.602114	N.J.The
-4.301084	N.V.
-4.602114	N.V..
-4.602114	N8
-4.602114	N8,
-4.204174	NADA/IHS
-4.301084	NCI
-4.602114	NCI's
-4.602114	NDA
-4.602114	NIH
-4.124993	NUVIGIL
-4.602114	NUVIGIL(R)
-4.602114	NV
-4.426023	NY
-4.602114	NYT)
-4.426023	NYT).The
-4.426023	Nacional
-4.301084	Nagano
-4.426023	Naim
-4.602114	Name
-4.204174	Names
-4.602114	Naming
-4.602114	Namini,
-4.602114	Nanjing,
-4.426023	Nanometer
-4.602114	Nanometer-Scale
-4.000054	Nanopore
-4.602114	Naphtha
-4.602114	Narcolepsy.Cephalon
-4.602114	Nat"
-3.110753	National
-3.187141	Natural
-4.602114	Natural's
-4.602114	Naylor
-4.602114	Nearly
-4.602114	Needham
-3.269676	Net
-4.301084	Net's
-4.204174	Net,
-3.505204	Network
-4.602114	Network,
-4.602114	Network.Illumina
-4.602114	NetworkSM,
-4.204174	Networking
-4.602114	Networking.Atheros
-4.602114	Networking.Brocade
-4.124993	Networks
-4.426023	Networks,
-4.602114	Networks.
-4.602114	Nev.
-4.426023	Nevada
-2.978865	New
-4.204174	NewEnergy
-4.602114	Newcastle,
-4.426023	Newmont
-3.541416	News
-4.602114	Newspaper
-4.124993	Newspapers,
-4.602114	Next
-4.426023	Next-Generation
-4.602114	Nilsson-Prevell
-3.471781	Nine
-4.602114	Nishan
-4.602114	No
-4.602114	No.123R,
-4.426023	No.123R.Excluding
-4.602114	No.142,
-4.602114	No.142.Health
-4.602114	No.1:10-cv-00735,
-4.602114	No.5310.
-4.301084	Nobel
-4.204174	Nokia
-4.602114	Nokia's
-4.602114	Nokia(R)
-4.426023	Nominating
-4.602114	Non-Cumulative
-4.602114	Non-Executive
-4.301084	Non-GAAP
-4.602114	Non-Linear
-4.602114	Nordics
-4.602114	Nordics.Brocade
-4.602114	Nordics.Poulsen
-4.000054	North
-4.426023	Northeast
-4.602114	Northeast.Health
-4.426023	Northern
-4.602114	Northside
-4.602114	Northwest
-4.602114	Nos.6,355,432,
-4.426023	Not
-4.301084	Notes
-4.602114	Notice
-4.301084	Nov
-4.426023	Nov-03
-4.602114	Nov-03-2009.Discovery
-4.602114	Nov-03-2009.Dolby
-4.602114	Nov-06
-4.602114	Nov-06-2008.Dolby
-4.602114	Nov-07
-4.602114	Nov-07-2008.The
-4.602114	Nov-09
-4.602114	Nov-09-2005.Hansen
-4.602114	Nov-16-2006.Starbucks
-4.426023	Nov-17-2009
-4.602114	Nov-19-2008.Phillips-Van
-4.602114	Nov-25-2008.Eaton
-4.426023	Nov-30-2010
-3.162781	November
-4.602114	November,
-4.602114	Now
-4.602114	Nucor
-4.602114	O'Neill,
-4.602114	O'Reilly,
-4.426023	O.
-4.602114	ODF
-4.000054	OEM
-4.426023	OGF
-4.602114	OHIO-DA
-4.301084	OHIO-DA's
-4.204174	OIBDA
-4.602114	OJSC
-4.602114	OMV
-4.602114	OMV's
-4.602114	OPMISR+compression
-4.602114	OS(R)
-3.789201	OVM
-4.602114	OVM-compliant
-4.301084	OWN
-4.602114	OWN:
-4.602114	Obstructive
-4.602114	Oc
-4.124993	Oct
-4.602114	Oct-02-1998
-4.602114	Oct-02-1998.The
-4.602114	Oct-21-2008.KeyCorp,
-4.602114	Oct-22-2008.Panera
-4.602114	Oct-23-2006.Atheros
-4.602114	Oct-23-2008.Fidelity
-4.602114	Oct-25-2007.Kirby
-4.602114	Oct-27-2010
-4.602114	Oct-27-2010.Cadence
-4.301084	Oct.
-3.147269	October
-4.426023	Of
-4.602114	Ofcom
-4.602114	Off
-3.580925	Offering
-4.204174	Offering.
-4.204174	Offering..
-4.602114	Offerings.Brocade
-4.000054	Office
-4.426023	Office,
-3.624391	Officer
-3.903144	Officer,
-4.602114	Officer.Cadence
-4.602114	Officer.Mr.
-4.602114	Officer.Principal
-4.602114	Officer.The
-4.426023	Officer/Director
-4.602114	Offshore
-4.301084	Ohio
-4.602114	Ohio,
-4.602114	Ohio.
-4.602114	Oil
-4.602114	Oka"
-4.058046	Okapi
-4.204174	Oligator
-4.602114	Oligator(TM)
-4.602114	Oligonucleotides
-4.301084	Omni
-4.124993	OmniExpress
-4.301084	On
-4.426023	One
-4.426023	OneSteel
-4.602114	Onkyo,
-4.602114	Online
-4.426023	Onsite
-3.757016	Open
-4.602114	Open-Source
-4.426023	Opening
-4.602114	Opens
-4.058046	Operating
-4.426023	Operations
-4.426023	Operations,
-4.602114	Operations.Big
-4.602114	Operations.In
-4.301084	Opportunity
-4.301084	Oprah
-4.602114	Oprah.com
-4.602114	Oprah.com,
-4.602114	Optimisation
-4.602114	Optimize
-4.204174	Option
-3.948902	OrCAD
-4.602114	OrCAD(R)
-4.602114	OrCAD.Cadence
-4.426023	Orbis
-4.301084	Order
-4.426023	Orders
-4.602114	Oregon,
-4.602114	Original
-4.426023	Orlando,
-4.602114	Orleans
-4.602114	Orleans,
-4.602114	Other
-4.602114	Outfit
-4.602114	Outlet
-3.672695	Outlook
-4.602114	Overall
-4.602114	Overy
-4.602114	OvineSNP50
-4.602114	Owen,
-4.058046	Oxford
-4.602114	P.
-4.602114	P.C.Announces
-4.602114	P.C.announced
-4.602114	P15.Brocade
-3.823963	PAS
-4.602114	PAS,
-4.426023	PC
-4.602114	PC,
-4.426023	PCB
-4.602114	PCB,
-3.861752	PCR
-4.602114	PCR-free
-4.602114	PCell
-4.602114	PCs
-4.301084	PDK
-4.602114	PDK's
-4.426023	PDK's,
-4.602114	PDK's.Using
-4.602114	PDK,
-4.602114	PDK-related
-4.426023	PFD
-4.602114	PHS
-4.602114	PHY
-4.602114	PHYs
-4.602114	PLC
-4.602114	PM,
-4.602114	PM.Fidelity
-4.602114	PM.The
-4.426023	PM.Venue:
-4.602114	PR
-4.301084	PROVIGIL
-4.301084	PROVIGIL(R)
-4.602114	PROVIGIL,
-4.602114	PROVIGIL.Cephalon
-4.602114	PROVIGIL.The
-4.602114	PSA
-4.602114	PSE)
-4.426023	Pa.,
-4.602114	PacifiCare
-3.903144	Pacific
-4.301084	Pack
-4.602114	Palatnik
-4.602114	Palladium's
-4.602114	Palladium(TM)
-4.426023	Palm
-4.602114	Palmieri
-4.602114	Panda
-4.058046	Panel
-4.602114	Panel,
-4.602114	Panels
-3.624391	Panera
-4.602114	Papua
-4.301084	Paradigm
-4.602114	Paradigm's
-4.602114	Paradigm,
-4.602114	Parallel
-4.426023	Park.The
-4.426023	Parkway,
-4.602114	Parsons
-4.426023	Part
-4.301084	Partner
-4.602114	Partner-Ready
-4.426023	Partnering
-3.647872	Partners
-4.602114	Partners.The
-4.602114	Partners.This
-4.301084	Partnership,
-4.602114	Partnership.Discovery
-4.602114	Partnership.Siemens
-4.602114	Passion
-4.058046	Patent
-4.602114	Pattison,
-4.426023	Paul
-4.602114	Paul,
-3.522933	Payable
-4.426023	Peaker
-4.602114	Pearson
-4.602114	Pending
-4.602114	Peninsular
-4.602114	Pennsylvania
-4.602114	Pennsylvania,
-4.602114	Pennsylvania.Prior
-4.602114	Pension
-4.602114	Pentagon
-4.426023	Pentoney
-4.602114	People's
-4.602114	PepsiCo,
-4.602114	Per
-4.602114	Percent
-4.602114	Percent.Cadence
-4.602114	Performance
-4.426023	Period
-4.301084	Period,
-4.602114	Perpetual
-4.602114	Personal
-4.602114	Personalized
-4.602114	Peru.Fluor
-4.602114	Peru.The
-4.124993	Petaluma
-4.602114	Peter
-4.602114	Petites,
-4.602114	Petrochemicals
-4.301084	Petroleum
-4.602114	Peugeot
-4.602114	Ph.D.,
-4.301084	Pharma
-4.301084	Pharmaceutical
-4.124993	Pharmaceuticals
-4.602114	Phase
-4.602114	Philippe
-4.426023	Phillips
-3.455986	Phillips-Van
-4.602114	Phillips-van
-4.602114	Physical
-4.602114	PhysioTypes
-4.602114	PhysioTypes(TM).PhysioTypes
-4.602114	Physiogenomics
-4.602114	Pierce,
-4.426023	Pike
-4.602114	Pilot
-4.602114	Pines
-4.058046	Plan
-4.426023	Plan.As
-4.602114	Plan.Gentex
-4.602114	Plan.Starbucks
-4.204174	Plan;
-4.204174	Planet
-4.426023	Planet(TM)
-4.602114	Planet,
-4.602114	Planning
-3.948902	Plans
-4.602114	Plans."Panera
-4.602114	Plans."Starbucks
-4.426023	Plant
-4.301084	Plastics
-4.602114	Plastics;
-4.204174	Platform
-4.602114	Platform.Illumina
-4.602114	Platforms.Brocade
-4.602114	Platforms.Illumina
-4.602114	Plaza
-4.602114	Plechschmidt,
-4.602114	Plimpton
-4.301084	Plus
-4.602114	Plus,
-4.426023	Polk
-4.602114	Polypropylene
-4.602114	Pops
-4.602114	Popular
-4.602114	PorcineSNP60
-4.602114	Portability
-4.602114	Portal
-4.426023	Portal,
-4.426023	Portfolio
-4.602114	Portfolio.The
-4.602114	Portland
-4.602114	Portland,
-4.301084	Ports
-4.124993	Posard
-4.602114	Positions.Cadence
-4.602114	Post
-4.602114	Posts.Dolby
-4.301084	Poulsen
-4.602114	Powder
-4.602114	Powell
-3.602114	Power
-4.602114	Power,
-4.602114	Practice.Brocade
-4.602114	Practices.Hansen
-4.602114	Pratt,
-4.602114	Pre-Certified
-4.301084	Preferred
-4.602114	Preliminary
-4.602114	Presence
-2.984066	Presentation
-3.672695	Presents
-3.139716	President
-4.301084	President,
-4.602114	President.
-4.602114	Previous
-4.602114	Price
-4.602114	Primary
-4.602114	Prime
-3.580925	Principal
-4.602114	Princor
-4.426023	Private
-4.602114	Processing
-4.301084	Processor
-4.602114	Procurement
-4.204174	Product
-4.602114	Productivity-Boosting
-4.301084	Products
-4.204174	Products,
-4.204174	Professional
-4.301084	Profile
-4.602114	Profile(R)
-4.058046	Program
