
\data\
ngram 1=11762
ngram 2=34561

\1-grams:
-4.602114	0.17	-6.299719e-05
-4.602114	10	0.003884864
-4.602114	21	0.003884864
-4.602114	253	5.100868e-05
-4.602114	279	0.003884864
-4.602114	290	0.003884864
-4.602114	300	0.003884864
-4.602114	4.48	0.003884864
-4.602114	On	0.01810522
-4.602114	Our	0.0002791102
-4.602114	There	0.0003823385
-4.301084	We	0.002200643
-4.602114	that	0.0003823385
-4.602114	""new""	0.0003062731
-4.602114	"Advance	-4.671246e-05
-4.602114	"Auto	-3.042715e-05
-4.602114	"Cadence	0.0004312445
-4.426023	"Cephalon	0.003305988
-4.426023	"Concho	-5.649186e-05
-4.602114	"Fidelity	0.0002628133
-4.602114	"Fluor	0.0009314899
-4.602114	"Health	-4.671246e-05
-4.602114	"Illumina	0.00334291
-4.602114	"International	-3.585566e-05
-4.602114	"KeyCorp	0.0001053076
-4.602114	"Kimberly-Clark	0.001601198
-4.602114	"Macquarie	-4.671246e-05
-4.602114	"Massey	0.0001487518
-4.602114	"No."	-4.128409e-05
-4.602114	"Oxford	-3.042715e-05
-4.602114	"Pulitzer	-4.128409e-05
-4.602114	"Tela	-5.214077e-05
-4.602114	"The	0.0004747214
-4.602114	"Thuris	0.0009314899
-4.602114	"reverse,"	0.005371865
-4.602114	$.05	0.003118661
-4.602114	$.37	0.003118661
-4.602114	$.39	0.005190519
-4.602114	$.40	0.005190519
-4.602114	$.45	0.003118661
-4.602114	$.47	0.008942736
-4.602114	$.47,	0.001394186
-4.602114	$.52	0.008809753
-4.602114	$0	0.008942736
-4.301084	$0.00	0.00304482
-3.903144	$0.01	0.01018727
-4.602114	$0.01."	0.00447686
-4.204174	$0.02	0.01205479
-4.602114	$0.02.	0.00447686
-4.602114	$0.0250	0.003118661
-3.789201	$0.03	0.01527085
-4.602114	$0.0375	0.003118661
-4.000054	$0.04	0.01181007
-3.699024	$0.05	0.007766893
-4.602114	$0.05,	-6.299719e-05
-3.903144	$0.06	0.01743618
-3.948902	$0.07	0.01449603
-4.602114	$0.07.The	0.0001378904
-3.948902	$0.08	0.01385134
-4.058046	$0.09	0.006511779
-3.823963	$0.10	0.01204998
-3.903144	$0.11	0.00806403
-3.699024	$0.12	0.004748399
-4.301084	$0.125	0.00304482
-3.903144	$0.13	0.004733466
-3.757016	$0.14	0.01172269
-4.602114	$0.14.	0.00447686
-3.903144	$0.15	0.01381444
-3.624391	$0.16	0.006306286
-4.426023	$0.16)	0.003081739
-3.861752	$0.17	0.01015037
-4.058046	$0.18	0.004837168
-4.124993	$0.19	0.01201788
-4.602114	$0.195	0.003118661
-4.602114	$0.2	0.001296162
-4.204174	$0.20	0.003007904
-4.602114	$0.20.The	0.001759247
-3.861752	$0.21	0.009979968
-3.861752	$0.22	0.01144692
-4.204174	$0.23	0.00491099
-3.861752	$0.24	0.02752123
-3.861752	$0.25	0.006845881
-4.204174	$0.26	0.00491099
-4.124993	$0.27	0.01079326
-4.000054	$0.28	0.004800261
-3.789201	$0.29	0.01820857
-4.602114	$0.3	0.001296162
-4.058046	$0.30	0.01950266
-4.426023	$0.30,	0.00036826
-4.602114	$0.30.GAAP	0.001617545
-4.000054	$0.31	0.01009067
-4.602114	$0.32	0.003118661
-4.602114	$0.325	0.003118661
-4.602114	$0.33	0.003118661
-4.124993	$0.34	0.008237512
-4.602114	$0.345	0.001966433
-4.426023	$0.35	0.003081739
-4.602114	$0.35.The	0.000393206
-4.058046	$0.36	0.008174739
-4.602114	$0.36,	0.001132838
-4.124993	$0.37	0.01396206
-4.426023	$0.38	0.003081739
-4.204174	$0.39	0.008274425
-4.301084	$0.40	0.0120917
-4.426023	$0.407375	0.003081739
-4.426023	$0.41	0.003081739
-4.204174	$0.42	0.01205479
-4.204174	$0.43	0.0174341
-4.000054	$0.44	0.007929332
-4.602114	$0.44,	0.0003986399
-4.058046	$0.45	0.005173886
-4.058046	$0.46	0.002934082
-4.426023	$0.47	0.003055744
-4.124993	$0.48	0.01717938
-4.426023	$0.49	0.003081739
-4.301084	$0.5	0.003811023
-4.426023	$0.50	0.01212862
-4.301084	$0.51	0.004947905
-4.426023	$0.52	0.003081739
-4.426023	$0.53	0.01212862
-4.602114	$0.53.GAAP	0.001617545
-4.204174	$0.54	0.003007904
-4.204174	$0.55	0.003007904
-4.426023	$0.56	0.003081739
-4.204174	$0.57	0.01205479
-4.426023	$0.58	0.01212862
-4.204174	$0.59	0.003007904
-4.602114	$0.59.This	-8.712406e-06
-4.204174	$0.60	0.00755544
-4.124993	$0.61	0.004874077
-4.301084	$0.62	0.00304482
-4.602114	$0.62,	-8.712406e-06
-4.204174	$0.63	0.004449862
-4.301084	$0.64	0.00304482
-4.602114	$0.64."	0.00447686
-4.602114	$0.65	0.003118661
-4.301084	$0.66	0.00304482
-4.124993	$0.67	0.01201788
-4.204174	$0.68	0.00491099
-4.602114	$0.71	0.003118661
-4.602114	$0.71,	0.001394186
-4.426023	$0.72	0.01083515
-4.602114	$0.73	0.008942736
-4.058046	$0.74	0.008200603
-4.426023	$0.75	0.003081739
-4.602114	$0.75.This	-8.712406e-06
-4.426023	$0.76	0.003081739
-4.204174	$0.77	0.002981909
-4.426023	$0.78	0.003081739
-4.602114	$0.8	0.003884864
-4.426023	$0.80	0.00306668
-4.426023	$0.84	0.008348259
-4.602114	$0.86	-6.299719e-05
-4.602114	$0.87	0.003118661
-4.426023	$0.89	0.01044563
-4.602114	$0.9	0.003884864
-4.602114	$0.90	0.003118661
-4.602114	$0.91	0.005190519
-4.602114	$0.92	0.008942736
-4.301084	$0.93	0.004947905
-4.426023	$0.94	0.01212862
-4.426023	$0.95	0.01044563
-4.426023	$0.96	0.003081739
-4.124993	$0.97	0.00441295
-4.602114	$0.98	0.003118661
-4.602114	$0.99	0.007272309
-4.058046	$1	0.009401705
-4.602114	$1"	0.00447686
-4.602114	$1,000.00	5.100868e-05
-4.602114	$1,107,000	0.007272309
-4.602114	$1,122.2	0.003884864
-4.602114	$1,125,034,000	0.007272309
-4.602114	$1,173.0	0.003884864
-4.602114	$1,281	0.003884864
-4.602114	$1,282	-6.299719e-05
-4.602114	$1,288,938,000	0.0006051774
-4.602114	$1,322,667	0.001394186
-4.602114	$1,339,038,000	0.0006051774
-4.602114	$1,353.1	0.001296162
-4.602114	$1,366.9	0.00447686
-4.602114	$1,398,117,000	0.0006051774
-4.426023	$1,400.8	0.00519359
-4.602114	$1,426,000	0.002621354
-4.602114	$1,45,615,000	0.007272309
-4.602114	$1,451.5	0.003884864
-4.602114	$1,48,004,000	0.002621354
-4.602114	$1,495,471,000	0.0006051774
-4.602114	$1,507.1	0.001296162
-4.602114	$1,531.4	0.003884864
-4.602114	$1,538,000	0.0006051774
-4.602114	$1,559,474,000	0.007272309
-4.602114	$1,582.2	0.001296162
-4.602114	$1,659,676,000.Non-GAAP	0.001944619
-4.602114	$1,669.000	0.002621354
-4.602114	$1,780,000	0.007272309
-4.602114	$1,790,000	0.002621354
-4.602114	$1,835,765,000	0.001394186
-4.602114	$1,840,652,000	0.007272309
-4.602114	$1,914,149,000.GAAP	0.001944619
-4.602114	$1."	0.00447686
-4.602114	$1.0	1.300341e-05
-4.301084	$1.00	0.003018825
-4.301084	$1.01	0.004947905
-4.602114	$1.02	0.003118661
-4.426023	$1.03	0.003055744
-4.426023	$1.04	0.003132305
-4.301084	$1.05	0.01040872
-4.204174	$1.06	0.004351113
-4.602114	$1.07	0.003118661
-4.602114	$1.07,	0.0002410849
-4.602114	$1.08	0.003118661
-4.602114	$1.09	0.0007411113
-4.301084	$1.1	0.001535233
-4.602114	$1.10	0.003118661
-4.426023	$1.12	0.003081739
-4.602114	$1.13	0.008942736
-4.602114	$1.14.The	0.001759247
-4.602114	$1.15	0.003118661
-4.602114	$1.18,	0.001781051
-4.602114	$1.19	0.003118661
-4.124993	$1.2	0.005322309
-4.602114	$1.21	0.003118661
-4.602114	$1.22	0.003118661
-4.426023	$1.22,	0.001075314
-4.602114	$1.23	0.007272309
-4.426023	$1.25	0.01070156
-4.602114	$1.27	0.008942736
-4.602114	$1.28	-3.042715e-05
-4.602114	$1.29	0.0002247895
-4.301084	$1.3	0.0001357449
-4.602114	$1.30	0.003118661
-4.204174	$1.34	0.02884276
-4.426023	$1.37	0.003055744
-4.602114	$1.38.The	0.0001541826
-4.426023	$1.39075	0.003081739
-4.602114	$1.40	0.0007411113
-4.301084	$1.43	0.004652899
-4.602114	$1.44	0.003118661
-4.602114	$1.44.It	0.0001976316
-4.602114	$1.44.While	0.0001541826
-4.426023	$1.45	0.0001878676
-4.602114	$1.45.The	0.001759247
-4.602114	$1.47	0.008942736
-4.602114	$1.50	0.008942736
-4.602114	$1.50,	0.001394186
-4.301084	$1.53	0.000124881
-4.426023	$1.55	0.001619987
-4.602114	$1.56	0.003118661
-4.602114	$1.57."	0.00447686
-4.124993	$1.6	0.003986634
-4.426023	$1.62	0.003345655
-4.602114	$1.63	1.300341e-05
-4.602114	$1.64	1.300341e-05
-4.602114	$1.7	0.001296162
-4.426023	$1.72	0.0001878676
-4.602114	$1.76	0.003118661
-4.602114	$1.82	0.001851923
-4.602114	$1.85	1.300341e-05
-4.602114	$1.87	0.001851923
-4.204174	$1.9	0.004038554
-4.602114	$1.92	-3.042715e-05
-4.426023	$1.97	0.003081739
-4.426023	$10	0.003821966
-4.602114	$10,447,000	0.0006051774
-4.602114	$10.08.Existing	-5.214077e-05
-4.426023	$10.1	0.00125924
-4.602114	$10.3	0.001296162
-4.602114	$10.4	0.003884864
-4.602114	$10.5	0.003884864
-4.602114	$10.64	0.003118661
-4.602114	$10.7	0.001296162
-4.204174	$10.8	0.005119756
-4.602114	$10.9	0.003884864
-4.124993	$100	0.00692212
-4.602114	$100,000	0.003118661
-4.602114	$100,000,022,	7.815733e-05
-4.602114	$1000.00	2.929098e-05
-4.602114	$101.5	0.003884864
-4.426023	$102	0.003847942
-4.426023	$102.1	0.003847942
-4.602114	$102.4	0.003884864
-4.602114	$103	0.003884864
-4.602114	$103.84	0.003884864
-4.602114	$104	0.003884864
-4.602114	$104,000,	0.002621354
-4.602114	$104.0	0.003884864
-4.602114	$104.2	0.003884864
-4.426023	$104.3	0.00125924
-4.602114	$104.4	0.003884864
-4.301084	$104.7	0.005156672
-4.426023	$105	0.00519359
-4.602114	$105.51	0.003884864
-4.602114	$106	0.003884864
-4.602114	$106.3	0.001296162
-4.602114	$106.7	0.003884864
-4.602114	$108.22	0.003884864
-4.426023	$108.4	0.00519359
-4.426023	$109.79	8.032934e-05
-4.301084	$11	0.005130728
-4.602114	$11"	0.00447686
-4.602114	$11,256,000	0.005371865
-4.602114	$11,325,"	0.00447686
-4.602114	$11.0	0.003884864
-4.602114	$11.1	0.001296162
-4.602114	$11.3	0.003884864
-4.602114	$11.8	0.003884864
-4.301084	$110	0.003900097
-4.602114	$110.4	0.003884864
-4.602114	$111	0.003884864
-4.602114	$111,169,000	0.007272309
-4.602114	$111,599,000	0.008809753
-4.602114	$111,866,000	0.002621354
-4.602114	$111.78	0.003884864
-4.426023	$112.5	0.00130944
-4.301084	$112.6	0.005156672
-4.602114	$112.8	0.001296162
-4.602114	$113	0.003884864
-4.602114	$113.70	0.003884864
-4.602114	$114,327,000	0.007272309
-4.602114	$114.5	0.003884864
-4.602114	$115	-5.756902e-05
-4.602114	$115.5	0.003884864
-4.602114	$115.8	0.003884864
-4.602114	$116	0.003884864
-4.602114	$116.9	0.003884864
-4.602114	$117.4	0.001296162
-4.602114	$117.54	-5.756902e-05
-4.602114	$119.6	0.003884864
-4.602114	$119.7	0.003884864
-4.426023	$12	0.00519359
-4.602114	$12,569,000	0.005371865
-4.602114	$12,595	0.003884864
-4.602114	$12.43.	0.00447686
-4.602114	$12.6	0.001296162
-4.602114	$12.7	0.001296162
-4.602114	$12.9	0.003884864
-4.301084	$120	0.005156672
-4.602114	$121.1	0.003884864
-4.602114	$121.9	0.001296162
-4.602114	$122	0.003884864
-4.602114	$122,757,000	0.002621354
-4.602114	$122.05	0.003884864
-4.602114	$122.4	0.001296162
-4.426023	$123	0.003915099
-4.602114	$123,591,000	0.005371865
-4.301084	$125	0.001310646
-4.602114	$127	-5.756902e-05
-4.602114	$127.	0.00447686
-4.602114	$128.5	0.003884864
-4.602114	$129,369,000	0.0006051774
-4.602114	$129,706,000	0.002621354
-4.602114	$129,899,000	0.005371865
-4.301084	$129.0	0.005156672
-4.602114	$129.1	0.003884864
-4.426023	$13	0.003827444
-4.602114	$13,111,000	0.001394186
-4.602114	$13,142,000	0.001394186
-4.602114	$13,166,000	0.0006051774
-4.602114	$13,250,000	0.002621354
-4.602114	$13,279,000,	0.002621354
-4.602114	$13,301,000	0.002621354
-4.602114	$13,428,000	0.002621354
-4.602114	$13,512,000	0.007272309
-4.602114	$13,740,000	0.002621354
-4.602114	$13,813,000	0.005371865
-4.602114	$13,923,000	0.001394186
-4.426023	$13.1	0.00519359
-4.426023	$13.2	0.00519359
-4.602114	$13.4	0.001296162
-4.426023	$13.6	0.003847942
-4.602114	$130	0.008809753
-4.602114	$130,407,000	0.007272309
-4.426023	$130.4	0.00519359
-4.602114	$130.9	0.003884864
-4.602114	$131,775,000,	0.008809753
-4.602114	$131.5	0.001296162
-4.602114	$132.08	0.003884864
-4.602114	$133	0.001296162
-4.602114	$133.37	0.003884864
-4.602114	$133.93	0.003884864
-4.602114	$1332.44	-5.756902e-05
-4.602114	$134	0.003884864
-4.602114	$136	0.003884864
-4.301084	$137	0.00119628
-4.602114	$137,614,000	0.002621354
-4.602114	$137.8	0.003884864
-4.426023	$138	0.00519359
-4.602114	$138,572,000	0.002621354
-4.602114	$138,883,000	0.0006051774
-4.602114	$138.438	0.003884864
-4.602114	$138.5	0.003884864
-4.602114	$139	0.001296162
-4.602114	$139,571,000	0.002621354
-4.426023	$14	0.003847942
-4.602114	$14,022,000	0.007272309
-4.602114	$14,033,940,	-6.299719e-05
-4.602114	$14,265,000	0.001394186
-4.602114	$14,722,500,	-2.499855e-05
-4.204174	$14.27	-8.581989e-05
-4.602114	$14.4	0.003884864
-4.602114	$14.5	0.003884864
-4.602114	$14.6	0.0002247895
-4.602114	$14.7	0.003884864
-4.602114	$14.75	0.003118661
-4.602114	$14.8	0.003884864
-4.602114	$14.9	0.003884864
-4.301084	$140	0.01021051
-4.602114	$140.2	0.003884864
-4.602114	$142	0.008809753
-4.602114	$142.7	0.001296162
-4.301084	$145	0.003811023
-4.602114	$145,839,000	0.001394186
-4.602114	$145.0	0.003884864
-4.426023	$145.5	0.003915099
-4.602114	$146.0	0.003884864
-4.602114	$146.30	0.003884864
-4.602114	$146.380	0.003884864
-4.426023	$147	0.003847942
-4.602114	$148	0.003884864
-4.602114	$149,725	0.002621354
-4.602114	$149.5	0.008942736
-3.948902	$15	0.004953208
-4.602114	$15,062,000	0.005371865
-4.602114	$15,490,000	0.007272309
-4.602114	$15,855,000,	-6.299719e-05
-4.602114	$15.0	0.003884864
-4.426023	$15.1	0.003847942
-4.602114	$15.2	0.003884864
-4.602114	$15.4	0.003884864
-4.602114	$15.59	0.003884864
-4.602114	$15.6	0.003884864
-4.602114	$15.68	0.003884864
-4.602114	$15.76	1.300341e-05
-4.602114	$15.8	0.003884864
-4.602114	$150	-5.756902e-05
-4.602114	$150.2	0.001296162
-4.602114	$150.3	0.003884864
-4.602114	$151.5	0.003884864
-4.602114	$152	2.929098e-05
-4.602114	$152,985,000	0.002621354
-4.602114	$152.9	0.003884864
-4.602114	$153,505,000	0.005371865
-4.602114	$154.8	0.003884864
-4.426023	$155	0.008896593
-4.602114	$155.6	0.003884864
-4.602114	$156,099,000	0.002621354
-4.602114	$156.15	-6.299719e-05
-4.602114	$156.6	0.003884864
-4.602114	$156.7	0.003884864
-4.426023	$157	0.01291103
-4.602114	$157,315,000	0.00166659
-4.602114	$158,360,000	0.007272309
-4.602114	$158.201	0.003884864
-4.602114	$16.1	0.001296162
-4.602114	$16.2	0.001296162
-4.602114	$16.4	0.003884864
-4.426023	$16.7	0.00519359
-4.204174	$16.8	0.005119756
-4.602114	$16.9	0.003884864
-4.426023	$160	0.003849356
-4.602114	$160.9	0.001296162
-4.602114	$161	0.003884864
-4.602114	$161,643,000	0.007272309
-4.426023	$161.6	0.00519359
-4.426023	$162	0.003898662
-4.602114	$162.8	0.001296162
-4.602114	$163	0.001296162
-4.426023	$164	0.003821966
-4.602114	$164.0	0.003884864
-4.602114	$165	-6.299719e-05
-4.602114	$165,757,000	0.005371865
-4.602114	$165.6	0.003884864
-4.602114	$166.18mm.	0.00447686
-4.602114	$166.2	0.001296162
-4.602114	$166.213	0.003884864
-4.602114	$167	-3.585566e-05
-4.426023	$168.3	0.00519359
-4.602114	$169	0.003884864
-4.426023	$169.6	0.00519359
-4.602114	$17	0.0002247895
-4.602114	$17,077,000	0.002621354
-4.602114	$17,285,000	0.002621354
-4.602114	$17,564,000	0.0006051774
-4.602114	$17,872,000	0.0006051774
-4.426023	$17.1	0.00125924
-4.602114	$17.6	0.003884864
-4.204174	$170	0.003774107
-4.426023	$170.1	0.003827444
-4.602114	$172.6	0.001296162
-4.602114	$173,389,000	0.007272309
-4.602114	$173.75	0.003884864
-4.602114	$174	0.003884864
-4.602114	$174.2	0.001296162
-4.602114	$176.6	0.003884864
-4.602114	$177	0.003884864
-4.602114	$177.6	0.003884864
-4.602114	$178	0.003884864
-4.602114	$178,148,000	0.0006051774
-4.602114	$178.6	0.003884864
-4.602114	$179.0	0.003884864
-4.602114	$179.9	0.003884864
-4.301084	$18	0.005156672
-4.602114	$18,440,197	0.002621354
-4.602114	$18,811,000	0.002621354
-4.602114	$18,894,000	0.002621354
-4.602114	$18.0	0.001296162
-4.602114	$18.4	0.003884864
-4.426023	$18.5	0.00519359
-4.602114	$180,341,135	0.007272309
-4.602114	$180.3	0.003884864
-4.426023	$182	-2.284464e-05
-4.602114	$183.1	0.003884864
-4.602114	$183.5	0.001296162
-4.602114	$184,444,000,	0.001132838
-4.602114	$184.6	0.003884864
-4.602114	$185.7	0.003884864
-4.602114	$188	0.003884864
-4.602114	$1893.03641	-5.756902e-05
-4.602114	$19,081,000	0.007272309
-4.602114	$19,516,000	0.0006051774
-4.602114	$19,697,000	0.007272309
-4.602114	$19,888,000	0.002621354
-4.602114	$19,997,000	0.007272309
-4.602114	$19.0	0.003884864
-4.602114	$19.1	0.003884864
-4.602114	$19.5	0.003884864
-4.602114	$19.6	0.003884864
-4.426023	$19.61	-6.555638e-06
-4.602114	$19.7	0.003884864
-4.426023	$19.8	0.00519359
-4.602114	$19.9	0.003884864
-4.602114	$192,131,000	0.0006051774
-4.602114	$193.0	0.003884864
-4.602114	$194	0.003884864
-4.602114	$196,000	0.007272309
-4.602114	$197.54	2.929098e-05
-4.602114	$198,741,000	0.0006051774
-4.426023	$198.4	0.00519359
-4.426023	$198.79	-1.198538e-05
-4.204174	$2	0.0083316
-4.602114	$2,026,000	0.002621354
-4.602114	$2,048,541,000	0.001394186
-4.602114	$2,053.5	0.003884864
-4.602114	$2,070,754,000	0.005371865
-4.602114	$2,187,996,000	0.007272309
-4.602114	$2,188.6	0.001296162
-4.602114	$2,190.6	0.003884864
-4.602114	$2,277,000	0.007272309
-4.602114	$2,333.3	0.003884864
-4.602114	$2,359,805,000	0.005190519
-4.602114	$2,398,731,000	0.005371865
-4.602114	$2,403.9	0.003884864
-4.602114	$2,469,818,000	0.001851923
-4.602114	$2,484,694,000,	0.001394186
-4.602114	$2,500,000,000	0.001781051
-4.602114	$2,500.7	0.003884864
-4.602114	$2,534.7	0.003884864
-4.602114	$2,539	0.003884864
-4.602114	$2,574.0	0.003884864
-4.602114	$2,658.2	0.003884864
-4.602114	$2,708,924,000	0.0006051774
-4.602114	$2,831.8	0.003884864
-4.602114	$2,984,000	0.007272309
-4.204174	$2.0	0.005119756
-4.602114	$2.00	0.008942736
-4.602114	$2.08	-6.299719e-05
-4.602114	$2.1	0.003884864
-4.602114	$2.10,	6.729768e-05
-4.602114	$2.11	0.008942736
-4.602114	$2.13	0.003118661
-4.602114	$2.15	0.001296162
-4.602114	$2.16	0.003118661
-4.602114	$2.17	0.003118661
-4.602114	$2.17,	0.001394186
-4.426023	$2.19	0.005100183
-4.124993	$2.2	0.005348249
-4.602114	$2.20	0.008942736
-4.602114	$2.29	0.003118661
-4.426023	$2.3	0.004112388
-4.602114	$2.30	0.003118661
-4.602114	$2.32	0.0002247895
-4.602114	$2.33	-6.299719e-05
-4.426023	$2.4	0.0002378527
-4.602114	$2.40	0.003118661
-4.602114	$2.41	1.300341e-05
-4.426023	$2.45	0.01212862
-4.602114	$2.46	1.300341e-05
-4.602114	$2.47	0.0002247895
-4.602114	$2.48	0.003118661
-4.602114	$2.49	-5.756902e-05
-4.602114	$2.5	0.0002247895
-4.602114	$2.50	0.0002247895
-4.602114	$2.51	0.003118661
-4.602114	$2.52	0.0002247895
-4.426023	$2.55	0.01212862
-4.602114	$2.56	0.003884864
-4.602114	$2.57	-5.756902e-05
-4.602114	$2.58	-5.756902e-05
-4.426023	$2.59	0.01212862
-4.000054	$2.6	0.005239049
-4.602114	$2.60	0.0002247895
-4.602114	$2.64	0.003118661
-4.426023	$2.65	0.003081739
-4.602114	$2.69	0.003884864
-4.301084	$2.7	0.003861743
-4.602114	$2.70	0.003118661
-4.602114	$2.72	0.0002247895
-4.426023	$2.8	0.004112388
-4.602114	$2.80	-5.214077e-05
-4.602114	$2.80-$3.20	0.003118661
-4.602114	$2.9	0.001296162
-4.602114	$2.95.GAAP	0.001617545
-4.602114	$2.97	0.008942736
-4.426023	$20	0.00519359
-4.602114	$20,386,804	0.002621354
-4.602114	$20.0	0.001296162
-4.602114	$20.2	0.003884864
-4.602114	$20.4	0.001296162
-4.204174	$200	0.003755022
-4.602114	$203,395,000	0.0006051774
-4.602114	$204.0	0.003884864
-4.602114	$204.12	0.003884864
-4.602114	$204.6	0.003884864
-4.602114	$205	0.001296162
-4.602114	$206,302,000	0.001394186
-4.602114	$207	0.003884864
-4.602114	$208.8	0.003884864
-4.602114	$209,929,000	0.007272309
-4.602114	$21	0.003118661
-4.602114	$21,208,000	0.002621354
-4.602114	$21,237,000	0.002621354
-4.602114	$21.1	0.001296162
-4.602114	$21.3	0.003884864
-4.602114	$21.54	0.003884864
-4.602114	$21.6	0.003884864
-4.602114	$211	0.003884864
-4.602114	$212,003,000	0.001394186
-4.602114	$212,178,000	0.007272309
-4.602114	$213,076,000,	0.008809753
-4.602114	$213,885,000	0.0006051774
-4.602114	$213.8	0.001296162
-4.602114	$214.7	0.001296162
-4.602114	$215.4	0.003884864
-4.426023	$217.3	0.003847942
-4.602114	$217.6	0.003884864
-4.301084	$22	0.005156672
-4.602114	$22,035,000	0.007272309
-4.602114	$22,561,000,	0.002621354
-4.602114	$22,721,000	0.007272309
-4.602114	$22.0	0.001296162
-4.602114	$22.1	0.003884864
-4.602114	$22.4	0.001296162
-4.426023	$22.5	0.00519359
-4.602114	$220,279,000	0.005371865
-4.602114	$221	0.001296162
-4.602114	$221.2	0.001296162
-4.602114	$222	0.003884864
-4.602114	$223.1	0.003884864
-4.602114	$224.2	-5.756902e-05
-4.301084	$225	0.003812437
-4.602114	$225.04	0.003884864
-4.602114	$226.9	0.003884864
-4.602114	$227	0.001296162
-4.602114	$227,064,000	0.0006051774
-4.602114	$228.9	0.003884864
-4.204174	$23	0.005099307
-4.602114	$23,104,000	0.002621354
-4.602114	$23,580,000	0.002621354
-4.602114	$23,643,000,	0.002621354
-4.602114	$23.0	0.001296162
-4.602114	$23.1	0.003884864
-4.426023	$23.4	0.00519359
-4.602114	$23.9	0.0002247895
-4.426023	$230	0.003821966
-4.602114	$230.6	0.003884864
-4.602114	$231.9	1.300341e-05
-4.602114	$232.5	0.003884864
-4.602114	$233	0.003884864
-4.426023	$233.1	0.003847942
-4.602114	$235	-5.756902e-05
-4.602114	$235,886	0.002621354
-4.602114	$237,309,000	0.001394186
-4.602114	$239,	-6.299719e-05
-4.426023	$24	0.003847942
-4.602114	$24,688,000	0.002621354
-4.602114	$24.00	0.003118661
-4.602114	$24.095	0.003884864
-4.602114	$24.3	0.003884864
-4.602114	$24.9	0.003884864
-4.602114	$240.8	0.003884864
-4.602114	$241.1	0.003884864
-4.602114	$243	0.001296162
-4.602114	$243,292,000	0.00166659
-4.602114	$243,8"	0.00447686
-4.602114	$244,206,000	0.0006051774
-4.602114	$244,763,000	0.007272309
-4.602114	$245.30	0.003884864
-4.602114	$246	0.003884864
-4.602114	$247.1	0.001296162
-4.426023	$247.2	0.003847942
-4.602114	$249,018,000	0.0006051774
-4.204174	$25	0.00831499
-4.602114	$25,000),	-4.671246e-05
-4.602114	$25,000,000)	-5.214077e-05
-4.602114	$25,423,000	0.002621354
-4.602114	$25.0	0.003884864
-4.426023	$25.2	0.00125924
-4.602114	$25.4	0.001296162
-4.602114	$25.8	0.003884864
-4.301084	$25.9	0.005156672
-4.058046	$250	0.003648331
-4.602114	$251.4	0.003884864
-4.602114	$253.7	0.003884864
-4.602114	$254,000	0.002621354
-4.602114	$254.0	0.003884864
-4.602114	$255,986,000,	0.008809753
-4.602114	$255.6	0.003884864
-4.602114	$258.4	0.003884864
-4.602114	$259.6	0.003884864
-4.426023	$26	0.00125924
-4.602114	$26,558,000	0.002621354
-4.602114	$26.0	0.003884864
-4.602114	$26.1	0.003884864
-4.602114	$26.3	0.003884864
-4.426023	$26.5	0.00519359
-4.602114	$26.594	0.003884864
-4.602114	$26.6	0.003884864
-4.602114	$26.9	0.003884864
-4.204174	$260	0.005067865
-4.602114	$261	0.003884864
-4.602114	$264	-6.299719e-05
-4.058046	$264.69	0.003856544
-4.602114	$265,000	0.005190519
-4.602114	$265.9	0.003884864
-4.602114	$27,023,000	0.002621354
-4.602114	$27,463,000	0.007272309
-4.602114	$27.00	0.003884864
-4.602114	$27.5	0.003884864
-4.426023	$27.6	9.73398e-06
-4.426023	$27.9	0.00125924
-4.602114	$270,750,000	0.007272309
-4.602114	$272.166	0.003884864
-4.602114	$272.7	0.003884864
-4.426023	$273.4	0.00519359
-4.602114	$276	0.003884864
-4.602114	$277.1	0.001296162
-4.602114	$277.8	0.003884864
-4.602114	$278.7	0.001296162
-4.602114	$28	0.003884864
-4.602114	$28,811,000	0.008809753
-4.426023	$28.0	0.00125924
-4.602114	$28.1	0.003884864
-4.602114	$28.3	0.001296162
-4.602114	$28.4	0.003884864
-4.426023	$28.8	0.003847942
-4.602114	$28.9	0.001296162
-4.602114	$280	-4.671246e-05
-4.602114	$281	0.003884864
-4.602114	$281.0	0.001296162
-4.602114	$281.317	0.003884864
-4.602114	$282,244,000	0.001394186
-4.602114	$282.9	0.003884864
-4.602114	$284	0.001296162
-4.602114	$285.0	0.003884864
-4.602114	$286.3	0.003884864
-4.602114	$287.1	0.003884864
-4.602114	$287.9	0.001296162
-4.602114	$288,008,000,	0.001132838
-4.602114	$288.0	0.003884864
-4.602114	$288.8	0.003884864
-4.602114	$29,166,000	0.002621354
-4.602114	$29,299,000	0.007272309
-4.602114	$29,351,000	0.005371865
-4.426023	$29,696,000	0.01148698
-4.602114	$29,796,000	0.002621354
-4.602114	$29.1	0.001296162
-4.602114	$29.2	0.001296162
-4.602114	$29.3	0.003884864
-4.602114	$29.5	0.003884864
-4.602114	$29.7	0.003884864
-4.602114	$29.9	0.001296162
-4.602114	$290	0.008809753
-4.602114	$290.6	0.003884864
-4.602114	$292	0.0007411113
-4.602114	$294.3	0.003884864
-4.602114	$294.82	0.003884864
-4.602114	$296	0.001296162
-4.602114	$298	0.003884864
-4.602114	$298.1	0.001296162
-4.602114	$299.88	-6.299719e-05
-4.602114	$299.883	5.100868e-05
-4.301084	$3	0.01411442
-4.602114	$3,484	0.003884864
-4.602114	$3,605,000	0.002621354
-4.301084	$3.0	0.001272521
-4.602114	$3.05	0.007272309
-4.602114	$3.05,	0.003042116
-4.426023	$3.06	0.003081739
-4.602114	$3.1	0.0002247895
-4.602114	$3.10	0.003118661
-4.426023	$3.18	8.032934e-05
-4.602114	$3.2	0.001296162
-4.301084	$3.3	0.004126248
-4.301084	$3.4	0.00407547
-4.602114	$3.43)	0.003118661
-4.602114	$3.46	0.003118661
-4.426023	$3.5	0.001521895
-4.426023	$3.52	8.032934e-05
-4.602114	$3.55	0.003118661
-4.426023	$3.6	0.0001878676
-4.602114	$3.62	0.003118661
-4.602114	$3.65	0.003118661
-4.301084	$3.8	0.00407547
-4.204174	$3.9	0.004038554
-4.000054	$30	0.005009028
-4.602114	$30,137,000,	0.002621354
-4.602114	$30,511,000	0.001394186
-4.602114	$30.0	0.003884864
-4.602114	$30.1	0.001296162
-4.602114	$30.3	0.003884864
-4.602114	$30.33	0.003884864
-4.602114	$30.5	0.001296162
-4.602114	$30.687	0.003884864
-3.948902	$300	0.003665013
-4.602114	$300,000,020	0.003042116
-4.602114	$302.6	0.003884864
-4.602114	$303.8	0.001296162
-4.602114	$304,978,000	0.0006051774
-4.602114	$306.8	0.001296162
-4.602114	$307.9	0.001296162
-4.602114	$31,397,000	0.002621354
-4.602114	$31,774,000	0.002621354
-4.602114	$31,922,000	0.001394186
-4.602114	$31.2	0.003884864
-4.602114	$31.3	0.003884864
-4.602114	$31.4	0.003884864
-4.602114	$31.6	0.001296162
-4.602114	$31.7	0.003884864
-4.602114	$311	0.003884864
-4.602114	$311.83	0.003884864
-4.602114	$312.1	0.003884864
-4.602114	$315,195,000	0.007272309
-4.426023	$32	0.003937016
-4.602114	$32,215	0.007272309
-4.602114	$32,487,000	0.002621354
-4.602114	$32.0	0.001296162
-4.602114	$32.4	0.003884864
-4.602114	$32.64	0.003884864
-4.602114	$32.7	0.003884864
-4.602114	$321.0	0.003884864
-4.602114	$323	0.003884864
-4.602114	$328.5	0.003884864
-4.602114	$33	0.003884864
-4.602114	$33,142,000	0.002621354
-4.602114	$33,361,000	0.0006051774
-4.602114	$33.1	0.003884864
-4.602114	$33.2	0.003884864
-4.602114	$33.3	0.001296162
-4.602114	$33.7	0.001296162
-4.602114	$332	0.003884864
-4.602114	$335,018,000	0.001394186
-4.602114	$336.5	0.003884864
-4.602114	$338	0.003884864
-4.602114	$339.8	0.003884864
-4.602114	$34,036,000	0.002621354
-4.602114	$34,285	0.007272309
-4.602114	$34,508,000	0.005371865
-4.602114	$34.3	0.003884864
-4.426023	$34.38	0.003847942
-4.602114	$34.4	0.001296162
-4.602114	$34.53	0.003884864
-4.602114	$34.8	0.003884864
-4.602114	$343	0.003884864
-4.602114	$347.7	0.003884864
-4.602114	$347.8	0.001296162
-4.602114	$348	0.003884864
-4.602114	$348,886,366	0.001394186
-4.426023	$348.3	0.00519359
-4.301084	$35	0.005156672
-4.602114	$35,023,000	0.007272309
-4.602114	$35,447,000	0.002621354
-4.602114	$35.0	0.003884864
-4.602114	$35.014	0.003884864
-4.602114	$35.7	0.003884864
-4.602114	$350	0.003884864
-4.602114	$354.0	0.003884864
-4.204174	$36	0.003744065
-4.602114	$36,102,000	0.007272309
-4.602114	$36,384,000	0.008809753
-4.602114	$36,520,000	0.002621354
-4.602114	$36.5	0.003884864
-4.602114	$36.9	0.003884864
-4.602114	$360	0.003884864
-4.602114	$362	0.001296162
-4.602114	$365	-3.585566e-05
-4.426023	$365.786	0.003937016
-4.602114	$366,972,000	0.007272309
-4.602114	$366.8	0.001296162
-4.602114	$37,584,000	0.002621354
-4.602114	$37.1	0.001296162
-4.602114	$37.4	0.003884864
-4.602114	$37.5	0.003884864
-4.426023	$37.6	0.003847942
-4.426023	$37.7	0.003847942
-4.602114	$37.9	0.003884864
-4.602114	$37.94	0.003884864
-4.602114	$370	0.003118661
-4.602114	$370.5	0.003884864
-4.602114	$378	0.003884864
-4.602114	$38	0.008942736
-4.602114	$38,225,000	0.0006051774
-4.602114	$38,311,000	0.002621354
-4.602114	$38.3	0.003884864
-4.602114	$38.6	0.003884864
-4.602114	$38.7	0.003884864
-4.602114	$38.8	0.003884864
-4.602114	$381.3	0.003884864
-4.602114	$383.7	0.003884864
-4.602114	$384	-6.299719e-05
-4.602114	$39,369,000	0.007272309
-4.602114	$39,413,000	0.007272309
-4.426023	$39.1	0.00125924
-4.602114	$39.4	0.003884864
-4.602114	$390,166,000	0.003042116
-4.602114	$4	0.003884864
-4.602114	$4,115.2	0.003884864
-4.602114	$4,219,739,000	0.0006051774
-4.602114	$4,345	0.003884864
-4.602114	$4,486.8	0.003884864
-4.602114	$4,606.2	0.001296162
-4.602114	$4,636,848,000	0.0006051774
-4.602114	$4,648,000	0.007272309
-4.602114	$4,687.0	0.003884864
-4.602114	$4,758,000	0.002621354
-4.426023	$4,918.9	0.003847942
-4.602114	$4,939,637,000	0.001394186
-4.602114	$4.0	0.003884864
-4.301084	$4.1	0.001201725
-4.301084	$4.3	0.003852204
-4.602114	$4.40	0.0007411113
-4.602114	$4.50.Preliminary	0.0002030631
-4.602114	$4.58	0.003118661
-4.602114	$4.75	0.005371865
-4.204174	$4.8	0.004089333
-4.301084	$4.9	0.00407547
-4.602114	$4.93	0.005371865
-4.426023	$40	0.003898662
-4.602114	$40,740,000,	0.002621354
-4.602114	$40,770,000,	-5.756902e-05
-4.426023	$40.22	-1.198538e-05
-4.426023	$40.22379	1.408675e-05
-4.204174	$40.3	0.005119756
-4.602114	$40.399	0.003884864
-4.602114	$40.7	0.003884864
-4.602114	$40.9	0.003884864
-4.426023	$400	0.004633444
-4.602114	$402.03mm.	0.00447686
-4.602114	$407.9	-6.299719e-05
-4.602114	$41"	0.00447686
-4.602114	$41,233,000	0.007272309
-4.602114	$41,565,000	0.008809753
-4.602114	$41.2	0.003884864
-4.426023	$41.5	0.00519359
-4.602114	$41.50	0.003884864
-4.602114	$41.52	0.003884864
-4.602114	$41.6	0.003884864
-4.426023	$41.7	0.00519359
-4.602114	$41.71	0.003884864
-4.426023	$410	0.003821966
-4.602114	$410,615,000	0.007272309
-4.602114	$42	0.003884864
-4.602114	$42,828,000	0.002621354
-4.426023	$420	0.00519359
-4.602114	$421	0.001296162
-4.602114	$423.42	0.003884864
-4.602114	$428,161,000	0.0006051774
-4.602114	$43,121,000	0.002621354
-4.602114	$43,442,000,	0.0004095079
-4.602114	$43.62	0.003884864
-4.426023	$430	-0.0001259941
-4.602114	$435	0.003884864
-4.602114	$438.4	0.003884864
-4.602114	$44,562,000	0.005371865
-4.602114	$44,593,000	0.008809753
-4.602114	$44.2	0.001296162
-4.602114	$44.8	0.003884864
-4.602114	$44.9	0.003884864
-4.426023	$440	0.003937016
-4.602114	$442.0	0.003884864
-4.602114	$449,002,000	0.0006051774
-4.602114	$45,263,000	0.0006051774
-4.602114	$45.0	0.003884864
-4.602114	$45.1	0.003884864
-4.602114	$45.30	0.003118661
-4.602114	$45.5	-3.585566e-05
-4.602114	$45.62	0.003884864
-4.301084	$45.8	0.005156672
-4.124993	$450	0.01284613
-4.602114	$452,018,000	0.003042116
-4.602114	$454.4	0.003884864
-4.602114	$455	0.003884864
-4.602114	$458	0.003884864
-4.602114	$46,154,000,	0.002621354
-4.602114	$46,226,000,	0.002621354
-4.602114	$46,454,000	0.007272309
-4.602114	$46,526,000	0.001394186
-4.602114	$46,968,000	0.0006051774
-4.602114	$46.1	0.003884864
-4.602114	$46.2	0.003884864
-4.602114	$46.364	0.003884864
-4.602114	$46.67	0.003884864
-4.426023	$46.9	0.003937016
-4.301084	$460	-2.61079e-05
-4.602114	$461	0.003884864
-4.602114	$465	0.003884864
-4.602114	$468,195,000	0.007272309
-4.602114	$47,307,000	0.005371865
-4.602114	$47,428,000	0.001394186
-4.602114	$47,962,000	0.005371865
-4.426023	$47.4	0.003847942
-4.602114	$47.6	0.003884864
-4.602114	$47.7	0.001296162
-4.602114	$47.73	0.003884864
-4.426023	$47.94	-3.370363e-05
-4.602114	$473	0.003884864
-4.602114	$475	-3.585566e-05
-4.301084	$48	0.005156672
-4.602114	$48,416,000,	0.0004095079
-4.602114	$48.2	0.001296162
-4.602114	$48.23	0.003884864
-4.602114	$48.4	0.001296162
-4.602114	$48.7	0.001296162
-4.602114	$48.8	0.003884864
-4.602114	$482.3	2.929098e-05
-4.602114	$49,369,000	0.002621354
-4.602114	$49,814,000,	0.008809753
-4.602114	$49.0	0.003884864
-4.602114	$49.3	0.001296162
-4.426023	$49.4	0.00519359
-4.602114	$49.78	0.003884864
-4.602114	$49.8	0.003884864
-4.602114	$49.9	0.001296162
-4.602114	$494,422,000	0.001394186
-4.602114	$497.2	0.001296162
-4.124993	$5	0.004001642
-4.602114	$5,057.8	0.003884864
-4.602114	$5,091,000	0.001394186
-4.602114	$5,167,000	0.001394186
-4.602114	$5,311.1	0.001296162
-4.602114	$5,673.8	0.003884864
-4.602114	$5,797.9	0.003884864
-4.602114	$5,981,000	0.001394186
-4.426023	$5.1	0.00519359
-4.602114	$5.10	0.008942736
-4.602114	$5.4	0.0002247895
-4.204174	$5.5	0.004038554
-4.602114	$5.50	0.003118661
-4.602114	$5.58	0.003118661
-4.602114	$5.8	0.0002247895
-4.426023	$5.9	0.00519359
-4.602114	$50	0.001296162
-4.602114	$50,000,000	-6.299719e-05
-4.602114	$50,232,000	0.002621354
-4.602114	$50,337,332	0.007272309
-4.602114	$50,748,000	0.005371865
-4.602114	$50.0	0.003884864
-4.602114	$50.1	1.300341e-05
-4.602114	$50.116	0.003884864
-4.602114	$50.3	0.001296162
-4.426023	$50.5	0.003847942
-4.426023	$50.8	0.00125924
-4.124993	$500	0.003827691
-4.426023	$5000	1.408675e-05
-4.602114	$501	0.003884864
-4.602114	$506.4	1.300341e-05
-4.301084	$51	0.003759068
-4.602114	$51.2	0.003884864
-4.602114	$51.5	0.001296162
-4.602114	$51.6	0.003884864
-4.602114	$51.7	0.001296162
-4.426023	$51.8	0.003847942
-4.602114	$510.6	0.003884864
-4.602114	$513,949,000	0.001394186
-4.602114	$513.9	0.003884864
-4.602114	$515	0.008809753
-4.602114	$516.4	0.001296162
-4.602114	$52,194,000	0.002621354
-4.602114	$52,813,000	0.005371865
-4.602114	$52.4	0.001296162
-4.602114	$52.48	0.003884864
-4.602114	$52.6	0.003884864
-4.602114	$52.72	0.003884864
-4.602114	$52.735	0.003884864
-4.602114	$52.8	0.003884864
-4.602114	$524.6	0.003884864
-4.426023	$53	0.00519359
-4.602114	$53,592,000	0.007272309
-4.602114	$53,699,000	0.002621354
-4.602114	$53,710,000	0.0006051774
-4.602114	$53,778,000	0.005371865
-4.602114	$53,957,000	0.005371865
-4.602114	$53.1	0.001296162
-4.602114	$53.2	0.003884864
-4.602114	$53.5	0.003884864
-4.602114	$53.66	0.003884864
-4.602114	$531.8	0.003884864
-4.426023	$533	-0.0001151374
-4.602114	$533,983,000	0.005371865
-4.602114	$533.2	1.300341e-05
-4.602114	$533.8	0.001296162
-4.602114	$535	0.001296162
-4.301084	$54	0.005156672
-4.602114	$54,559,000,	0.002621354
-4.602114	$54,710,000	0.001394186
-4.602114	$54,828,000	0.001394186
-4.426023	$54.5	0.00519359
-4.602114	$54.66	0.003884864
-4.602114	$54.8	0.003884864
-4.426023	$54.80	8.032934e-05
-4.426023	$545	0.0038384
-4.602114	$548,782,000	0.007272309
-4.602114	$548.8	0.003884864
-4.602114	$55	0.003884864
-4.602114	$55,364,000	0.0006051774
-4.602114	$55,993,000,	0.002621354
-4.602114	$55.0	0.003884864
-4.602114	$55.6	0.003884864
-4.426023	$550	0.00519359
-4.602114	$555	2.929098e-05
-4.602114	$555.3	0.003884864
-4.602114	$56,356,000	0.002621354
-4.602114	$56.8	0.001296162
-4.602114	$56.85	0.003884864
-4.426023	$560	0.003847942
-4.602114	$561	0.001296162
-4.602114	$561.29	-4.671246e-05
-4.602114	$562,219,000,	0.005371865
-4.602114	$565.5	0.003884864
-4.602114	$568.3	0.003884864
-4.602114	$569.2	-3.585566e-05
-4.602114	$57	-4.671246e-05
-4.602114	$57,015,000	0.007272309
-4.602114	$57,335,000	0.001394186
-4.602114	$57,482,000	0.002621354
-4.602114	$57,763,000	0.0006051774
-4.602114	$57.274	0.003884864
-4.602114	$57.7	0.003884864
-4.602114	$57.8	0.003884864
-4.602114	$57.9	0.001296162
-4.602114	$571.3	0.003884864
-4.602114	$573.5	0.003884864
-4.602114	$574,120,000	0.007272309
-4.426023	$575	0.003847942
-4.602114	$577.79	0.003884864
-4.602114	$578	0.001296162
-4.204174	$58	0.003798851
-4.602114	$58,509,000	0.002621354
-4.602114	$58,755,000,	0.005190519
-4.602114	$580	0.008809753
-4.602114	$584.52	0.003884864
-4.602114	$585	0.003884864
-4.602114	$59	0.003884864
-4.602114	$59,177,000	0.001394186
-4.426023	$59.2	0.00519359
-4.602114	$59.6	0.003884864
-4.602114	$59.866	0.003884864
-4.602114	$591.9	0.003884864
-4.602114	$6	0.003884864
-4.602114	$6,391	0.001296162
-4.602114	$6,417	0.003884864
-4.602114	$6,814,000	0.002621354
-4.602114	$6.25	0.008942736
-4.426023	$6.3	0.003847942
-4.602114	$6.32	0.001296162
-4.602114	$6.4	0.0002247895
-4.602114	$6.5	0.001296162
-4.602114	$6.55,	0.0002410849
-4.602114	$6.57	0.003118661
-4.426023	$6.7	0.003847942
-4.426023	$6.8	0.00519359
-4.426023	$6.9	0.003821966
-4.204174	$60	0.01277452
-4.602114	$60,809,000	0.001394186
-4.602114	$60,879,000	0.002621354
-4.301084	$60.0	0.003785047
-4.602114	$60.4	0.003884864
-4.204174	$600	0.005093812
-4.602114	$600,000,000.The	-6.299719e-05
-4.602114	$605	0.003884864
-4.602114	$607,613,000	0.001394186
-4.602114	$607.6	0.003884864
-4.602114	$61,084,000	0.0006051774
-4.602114	$61,560,000	0.005371865
-4.602114	$61,613,000	0.008809753
-4.602114	$61.1	0.003884864
-4.602114	$61.3	0.001296162
-4.426023	$61.7	0.00125924
-4.602114	$610	0.003884864
-4.602114	$611,399,000	0.007272309
-4.602114	$612	0.001296162
-4.602114	$612.8	0.003884864
-4.602114	$614,583,000	0.005371865
-4.301084	$615	-0.0001249133
-4.602114	$62	0.003884864
-4.602114	$62,775,976	0.002621354
-4.426023	$63	0.003847942
-4.602114	$63,254,000	0.001394186
-4.602114	$63,257,000	0.002621354
-4.602114	$63,577,000	0.005371865
-4.602114	$63.3	0.003884864
-4.602114	$633,000,	0.002621354
-4.602114	$634.7	-6.299719e-05
-4.602114	$634.71	-6.299719e-05
-4.602114	$636,210,000.Non-GAAP	0.001944619
-4.602114	$64	0.003884864
-4.602114	$64.2	0.003884864
-4.426023	$64.8	0.003847942
-4.602114	$640.23	0.003884864
-4.602114	$646,267,000	0.001394186
-4.301084	$65	0.006995948
-4.602114	$65,777,000	0.002621354
-4.602114	$65.3	0.003884864
-4.602114	$65.7	0.003884864
-4.602114	$650	-4.671246e-05
-4.602114	$650.The	-5.756902e-05
-4.602114	$656	0.003884864
-4.426023	$657.8	0.003847942
-4.602114	$659.82	0.003884864
-4.602114	$66.47	0.003884864
-4.602114	$66.5	0.001296162
-4.602114	$66.8	0.003884864
-4.602114	$660	0.008942736
-4.602114	$667	0.003884864
-4.602114	$67,537,000	0.002621354
-4.602114	$67,629,000	0.002621354
-4.602114	$67.72	0.003884864
-4.602114	$672	0.001296162
-4.602114	$68,648,000	0.001394186
-4.602114	$68,834,000	0.007272309
-4.602114	$68.73	5.100868e-05
-4.602114	$68.8	0.001296162
-4.602114	$683,570,000	0.002621354
-4.602114	$69,070,000,	0.001939166
-4.602114	$69,261,000	0.002621354
-4.426023	$69.1	0.00519359
-4.602114	$69.2	0.003884864
-4.602114	$69.45	0.003884864
-4.301084	$69.7	0.003811023
-4.602114	$69.79	0.003884864
-4.602114	$696,370,000	0.007272309
-4.602114	$698,887,000	0.001394186
-4.602114	$7	0.003884864
-4.602114	$7,326,726	0.002621354
-4.602114	$7,338,000	0.001394186
-4.602114	$7,871	0.001296162
-4.602114	$7,905	0.001296162
-4.602114	$7.29	0.003118661
-4.204174	$7.3	0.005119756
-4.602114	$7.4	0.003884864
-4.602114	$7.45	0.003884864
-4.602114	$7.5	0.003884864
-4.426023	$7.6	0.003847942
-4.204174	$7.8	0.005170753
-4.426023	$7.9	0.003847942
-4.204174	$70	0.00693483
-4.602114	$70.2	0.003884864
-4.602114	$70.3	0.001296162
-4.301084	$70.8	0.001222321
-4.602114	$700	0.001296162
-4.602114	$701	0.003884864
-4.602114	$71,038,000	0.007272309
-4.602114	$71,907,000	0.002621354
-4.602114	$71.1	-5.756902e-05
-4.602114	$71.9	0.003884864
-4.602114	$712.81	0.003884864
-4.426023	$72	0.003849356
-4.602114	$72.0	0.003884864
-4.602114	$72.2	0.003884864
-4.602114	$72.8	0.003884864
-4.602114	$72.9	0.003884864
-4.602114	$727,484,000.GAAP	0.001944619
-4.602114	$73,510,000	0.002621354
-4.602114	$73.0	0.003884864
-4.602114	$73.85	0.003884864
-4.602114	$738,652,000	0.007272309
-4.602114	$74,357,000	0.002621354
-4.602114	$74,560,000	0.0006051774
-4.602114	$74,796,000	0.001394186
-4.602114	$74.3	0.001296162
-4.602114	$748.5	0.003884864
-4.426023	$75	0.003821966
-4.602114	$75,	-3.042715e-05
-4.602114	$75,198,000,	-6.299719e-05
-4.602114	$75.7	0.001296162
-4.602114	$750,592,000	0.0006051774
-4.602114	$76.783	0.003884864
-4.602114	$767,000,	0.002621354
-4.426023	$768.60	-3.370363e-05
-4.602114	$77	0.001296162
-4.602114	$77,000,	0.002621354
-4.602114	$77.1	0.003884864
-4.602114	$77.4	0.003884864
-4.602114	$77.6	0.003884864
-4.602114	$77.8	0.003884864
-4.602114	$779.4	0.003884864
-4.602114	$78.0	0.003884864
-4.602114	$78.1	0.001296162
-4.602114	$78.6	0.003884864
-4.602114	$78.68	0.003884864
-4.602114	$78.8	0.001296162
-4.602114	$78.9	0.003884864
-4.602114	$79,043,000	0.002621354
-4.602114	$79.4	0.003884864
-4.426023	$79.6	0.003847942
-4.602114	$790	0.003884864
-4.602114	$791.848	0.003884864
-4.058046	$8	0.003653809
-4.602114	$8,397,000	0.007272309
-4.602114	$8,684	0.001296162
-4.602114	$8.6	0.003884864
-4.602114	$8.7	0.003884864
-4.602114	$8.8	0.003884864
-4.602114	$8.9	0.003884864
-4.426023	$80	0.00519359
-4.602114	$80.0	0.003884864
-4.426023	$80.40	8.032934e-05
-4.602114	$80.9	0.003884864
-4.602114	$800,000	0.008942736
-4.602114	$805	0.001296162
-4.602114	$807	0.003884864
-4.602114	$81.8	0.001296162
-4.602114	$82	0.003884864
-4.602114	$822.3	0.001296162
-4.602114	$822.570	0.003884864
-4.602114	$823.239	0.003884864
-4.602114	$83,069,000	0.002621354
-4.602114	$83,339,000,	0.001939166
-4.602114	$83.8	0.003884864
-4.602114	$834	1.300341e-05
-4.602114	$834.8	0.001296162
-4.426023	$84.5	0.00519359
-4.602114	$84.550	0.003884864
-4.602114	$84.629	0.003884864
-4.602114	$841.6	0.001296162
-4.602114	$845	0.003884864
-4.602114	$85	0.003884864
-4.602114	$85.1	0.003884864
-4.602114	$85.4	0.001296162
-4.426023	$85.6	0.00519359
-4.602114	$85.89	0.003884864
-4.301084	$850	0.001306393
-4.602114	$852,632,000	0.005371865
-4.602114	$855.3	0.003884864
-4.602114	$859	0.003884864
-4.602114	$86.0	0.003884864
-4.602114	$86.02	0.003884864
-4.602114	$86.32	0.003884864
-4.602114	$862.0	0.003884864
-4.602114	$869.7	0.001296162
-4.602114	$87.4	0.003884864
-4.602114	$87.9	0.003884864
-4.602114	$871.9	0.001296162
-4.602114	$872,"	0.00447686
-4.602114	$88.3	0.003884864
-4.602114	$88.5	0.003884864
-4.426023	$88.8	0.003847942
-4.602114	$885	1.300341e-05
-4.602114	$89,883,000	0.002621354
-4.426023	$89.6	0.00519359
-4.602114	$893.84	0.003884864
-4.602114	$9	0.003884864
-4.602114	$9,020,000,	0.002621354
-4.602114	$9,494,000	0.007272309
-4.602114	$9,915	0.003884864
-4.602114	$9,982,000	0.0006051774
-4.602114	$9.0	0.003884864
-4.301084	$9.3	0.005130728
-4.426023	$9.34	1.408675e-05
-4.426023	$9.7	0.00519359
-4.602114	$90	0.003884864
-4.602114	$90.7	0.003884864
-4.602114	$90/sample,	0.005371865
-4.602114	$900,000	1.84325e-05
-4.602114	$904	0.003884864
-4.602114	$91,807,000	0.0006051774
-4.602114	$91,943,000	0.002621354
-4.602114	$91,964,000	0.001394186
-4.426023	$91.3	0.003847942
-4.602114	$91.6	0.001296162
-4.602114	$91.77	0.003884864
-4.426023	$92	0.00519359
-4.426023	$92.0	0.00519359
-4.602114	$93	0.003884864
-4.602114	$93,591,000	0.001394186
-4.426023	$93.7	0.00519359
-4.602114	$935,954,000	0.0006051774
-4.602114	$94	0.003884864
-4.602114	$94.2	0.003884864
-4.602114	$941,041,000	0.007272309
-4.426023	$942.83	8.032934e-05
-4.602114	$946	0.003884864
-4.602114	$95	0.001296162
-4.602114	$95.5	0.001296162
-4.602114	$95.7	0.001296162
-4.602114	$95.9	0.003884864
-4.602114	$955.9	0.003884864
-4.602114	$96.1	0.003884864
-4.602114	$960	0.003884864
-4.426023	$97.31	8.032934e-05
-4.602114	$97.5	0.003884864
-4.602114	$98	0.003884864
-4.602114	$98,010,085	0.001394186
-4.602114	$98,296,000	0.001394186
-4.602114	$985.1	0.001296162
-4.602114	$986,521,000	0.001394186
-4.602114	$99.4	0.003884864
-4.602114	%to	-4.671246e-05
-3.0836	&	-0.002533741
-4.602114	&amp;	-4.128409e-05
-4.602114	'02	0.001988247
-4.602114	'02'	4.557913e-05
-4.602114	'08	7.574352e-06
-4.602114	'Corporate	-5.214077e-05
-4.602114	'Exchange	-6.299719e-05
-4.602114	'Listed	0.0003877722
-4.602114	'Non-Employee	-6.299719e-05
-4.602114	'Outside	-6.299719e-05
-4.602114	'SN200	-6.299719e-05
-4.602114	'Starbucks	-6.299719e-05
-4.602114	'independent'	0.001851923
-4.602114	'realigning	0.008809753
-4.602114	'very	-6.299719e-05
-4.602114	'wireline	-6.299719e-05
-4.426023	(	-9.449095e-05
-4.602114	(BLDA)	0.008942736
-4.602114	("CJMM"),	0.0003986399
-4.602114	($0.04)	-1.41412e-05
-4.602114	($0.06	0.003118661
-4.602114	($0.10)	0.008809753
-4.602114	($12.39	-4.671246e-05
-4.602114	($14.6	0.003884864
-4.602114	($26.03	-4.671246e-05
-4.602114	($30.3	0.003884864
-4.602114	($315	0.003884864
-4.602114	($345.77	-4.671246e-05
-4.602114	($359.4	-4.671246e-05
-4.602114	($371.79	-6.299719e-05
-4.602114	($9.9	0.003884864
-4.602114	(11	-6.299719e-05
-4.602114	(58	0.0001922003
-4.602114	(96.94%)2;	-6.299719e-05
-4.602114	(99.6%)	-4.671246e-05
-4.602114	(A	-3.042715e-05
-4.602114	(AAT),	0.005371865
-4.602114	(ACTS),	5.100868e-05
-4.602114	(ADHD)	0.005190519
-4.602114	(AHBA)	0.001149168
-4.602114	(AMR)	0.008809753
-4.602114	(AP)/router	6.729768e-05
-4.602114	(APN).The	-5.756902e-05
-4.602114	(ARM)	0.008809753
-4.602114	(ASIC)	-5.756902e-05
-4.426023	(ASX:	-9.449095e-05
-4.602114	(AUD	-6.299719e-05
-4.602114	(AVRs),	0.008809753
-4.124993	(Australia)	-0.000182455
-4.602114	(B-type	-6.299719e-05
-4.602114	(BGI)	-1.41412e-05
-4.301084	(Brocade(R))	0.01279803
-4.602114	(CARe)	-4.671246e-05
-4.426023	(CE)	0.00875252
-4.602114	(CEE)	-6.299719e-05
-4.602114	(CEO)	0.008809753
-4.602114	(CGEMS)	-6.299719e-05
-4.602114	(CGEMS),	0.001132838
-4.602114	(CGF)	0.008809753
-4.602114	(CIO).Ms.	-4.671246e-05
-4.602114	(CNAs)	0.0002139262
-4.602114	(COO)	-3.585566e-05
-4.602114	(CPF)	-5.756902e-05
-4.602114	(CPF)-based	0.000414942
-4.602114	(CR100).Sonos'	-5.214077e-05
-4.602114	(CSHL)	0.008942736
-4.602114	(CSPro)	-6.299719e-05
-4.602114	(DCEG),	0.01810522
-4.602114	(DGE)	-3.283589e-06
-4.602114	(Dean)	0.01371268
-4.602114	(Design-for-Manufacturability)	0.008809753
-4.602114	(E&D)	-4.671246e-05
-4.602114	(EDA)	-6.299719e-05
-4.602114	(EEE)	-6.299719e-05
-4.426023	(EIA)	0.0002476208
-4.602114	(EICS).This	-1.41412e-05
-4.602114	(EPCM)	0.0001487518
-4.602114	(EPCM),	0.008809753
-4.602114	(EPS)	0.007272309
-4.602114	(English	-6.299719e-05
-4.602114	(FAN)	-3.042715e-05
-4.426023	(FC)	-4.456237e-05
-4.602114	(FCIP)	2.14536e-06
-4.602114	(FCoE)-based	6.729768e-05
-4.602114	(FDA)	0.001345171
-4.602114	(FDA).He	0.001988247
-4.602114	(FERC),	0.01810522
-4.602114	(FFPE).The	-4.671246e-05
-4.602114	(FHPS).Advance	-5.214077e-05
-4.602114	(FPGA)	-4.128409e-05
-4.602114	(Financial	0.0001922003
-4.602114	(GA)	3.47203e-05
-4.124993	(GAAP),	0.02002558
-4.602114	(GHz)	-4.671246e-05
-4.602114	(GSK)	-6.299719e-05
-4.602114	(GWA)	-5.756902e-05
-4.602114	(GWAS).Designed	0.001851923
-4.602114	(Gb)	0.01371268
-4.602114	(GbE)	-6.299719e-05
-4.602114	(Gbit/sec)	-3.042715e-05
-4.602114	(HBA)	0.0001813377
-4.602114	(HD)	-3.585566e-05
-4.602114	(HDR)	-5.756902e-05
-4.602114	(HDR)-enabled	-3.042715e-05
-4.602114	(HIPAA).	0.00447686
-4.602114	(HLCS)	0.001906447
-4.602114	(HRM);	7.574352e-06
-4.602114	(High	-6.299719e-05
-4.602114	(I/O)	9.98775e-05
-4.602114	(IBPS)	0.0001704755
-4.602114	(IC)	0.008809753
-4.602114	(ICC)	0.008809753
-4.602114	(ID/IQ)	3.47203e-05
-4.602114	(IIJ-Tech)	-1.956993e-05
-4.602114	(IOPS)	0.003118661
-4.602114	(ISE)	-6.299719e-05
-4.602114	(ISOs)	-3.283589e-06
-4.602114	(IT)	-3.042715e-05
-4.602114	(ITMAT)	0.001127395
-4.602114	(ITMAT,	-6.299719e-05
-4.426023	(Industry)	-4.456237e-05
-4.602114	(Institutional)	0.001988247
-4.426023	(Jay)	-8.363438e-05
-4.602114	(LAN)	-5.756902e-05
-4.602114	(LCD)	0.002173717
-4.602114	(LOGCAP)	-5.756902e-05
-4.602114	(LSI)	-3.042715e-05
-4.602114	(Light)	0.008942736
-4.602114	(MAC),	-6.299719e-05
-4.602114	(MIPI(SM))	-6.299719e-05
-4.602114	(MMK)	0.0014541
-4.602114	(MOLX)	0.001127395
-4.602114	(MOLXA)	0.008809753
-4.602114	(MS),	-6.299719e-05
-4.602114	(MSM(TM))	-6.299719e-05
-4.602114	(MTG)	0.0014541
-4.602114	(Mbps)	-3.042715e-05
-4.426023	(NASDAQ:	-9.449095e-05
-4.602114	(NCI)	0.008942736
-4.602114	(NHLBI)	-6.299719e-05
-3.38463	(NYSE:	-0.001636863
-4.602114	(NYSE:AVY)	-6.299719e-05
-4.602114	(NYSE:CDN)	0.001906447
-4.602114	(NYSE:CZN)	2.14536e-06
-4.602114	(NYSE:FLR)'s	0.000110738
-4.426023	(NYSE:FNF)	-5.542079e-05
-4.426023	(NYSE:HNT)	0.0001509361
-4.602114	(NYSE:KEY)'s	0.000110738
-4.602114	(NYSE:LFG)	0.007272309
-4.602114	(NYSE:LFG)..	0.00447686
-4.602114	(NYSE:PFG)	1.84325e-05
-4.301084	(NYSE:SCI)	0.007459751
-4.602114	(NYSE:UNS)	0.007272309
-3.861752	(Nasdaq:	-0.0004723547
-4.301084	(NasdaqGS:	-0.0001259815
-4.602114	(NasdaqGS:CEPH)	0.001906447
-4.602114	(NasdaqGS:ILMN)	1.84325e-05
-4.602114	(NasdaqNM:GNTX)	0.001906447
-4.602114	(OCG).The	-6.299719e-05
-4.602114	(OEM)	0.0002247895
-4.602114	(OVM)	-8.712406e-06
-4.602114	(OVM)-compliant,	-5.756902e-05
-4.602114	(OVM).The	-3.283589e-06
-4.602114	(OVM).This	6.729768e-05
-4.602114	(OmniExpress),	0.01810522
-4.602114	(PCB)	0.0001922003
-4.602114	(PCX:AVY).The	-5.214077e-05
-4.602114	(PDK's).The	0.000414942
-4.602114	(PHYs)	0.008809753
-4.602114	(POS).Transax	-4.671246e-05
-4.602114	(PRO),	0.005371865
-4.602114	(PRODUCT)(RED)	0.0001596136
-4.602114	(Pacific	-4.671246e-05
-4.602114	(Penn),	0.01810522
-4.426023	(Personal	-0.0001042805
-4.602114	(Q3	-6.299719e-05
-4.602114	(QoS),	0.005371865
-4.602114	(RCD)	7.574352e-06
-4.602114	(REC)	0.0002682456
-4.426023	(RED)(TM)	0.01089082
-4.602114	(RNAi).	0.00447686
-4.602114	(ROCm)	6.729768e-05
-4.602114	(S)	-5.756902e-05
-3.823963	(SAN)	0.01120507
-4.426023	(SAN).The	0.0005628191
-4.602114	(SANs).The	-3.585566e-05
-4.602114	(SBS),	0.01810522
-4.602114	(SBUX)	0.001617545
-4.602114	(SCE)	0.001345171
-4.602114	(SEC).The	0.0001541826
-4.602114	(SGP/SGI)	-6.299719e-05
-4.426023	(SLAs)	0.007235387
-4.602114	(SNIA)	-6.299719e-05
-4.602114	(SNP)	6.186796e-05
-4.426023	(SNPs)	0.008348259
-4.602114	(SRV)	0.001906447
-4.602114	(STARBUCKS)(RED)	-6.299719e-05
-4.426023	(SmartBeam)	-5.542079e-05
-4.602114	(SoC).Sequans	0.001067526
-4.602114	(TCO)	0.001851923
-4.602114	(TLM)	-5.756902e-05
-4.602114	(The	-3.585566e-05
-4.602114	(UMTS)	-5.756902e-05
-4.426023	(US	-0.0001259941
-4.602114	(USD)	0.003118661
-4.426023	(VIP)	0.008879967
-4.602114	(VUL	-3.283589e-06
-4.602114	(VoIP)	-6.299719e-05
-4.602114	(WAFS).	0.00447686
-4.124993	(WLAN)	0.0003695699
-4.602114	(WLAN),	0.01810522
-4.602114	(WNPU)	4.557913e-05
-4.602114	(WNPU),	0.01810522
-4.602114	(WVM)	0.007272309
-4.602114	(ZP100)	0.008809753
-4.602114	(ZP80),	-5.214077e-05
-4.602114	(an	-1.956993e-05
-4.602114	(approximately	0.0001215987
-4.602114	(armodafinil)	-4.671246e-05
-4.602114	(at	-6.299719e-05
-4.602114	(available	0.005190519
-4.426023	(benefit)	0.007235387
-4.602114	(bp),	0.0004475479
-4.602114	(changes	0.005190519
-4.602114	(complementary	-6.299719e-05
-4.602114	(customer-owned	-6.299719e-05
-4.602114	(eQTL)	-5.756902e-05
-4.602114	(either	-4.671246e-05
-4.602114	(excluding	-3.283589e-06
-4.602114	(exons),	6.729768e-05
-4.602114	(four	-6.299719e-05
-4.426023	(i)	0.0003139187
-4.602114	(iPAS(TM))	-4.128409e-05
-4.602114	(ii)	0.0004475479
-4.602114	(iii)	-5.214077e-05
-4.602114	(impairment)	0.01371268
-4.602114	(including	-6.299719e-05
-4.602114	(iv)	-5.214077e-05
-4.301084	(modafinil)	-0.0001205532
-4.602114	(naltrexone	0.007272309
-4.602114	(net	0.01371268
-4.301084	(oligos)	0.007625515
-4.602114	(on	0.005371865
-4.426023	(oral	-9.449095e-05
-4.602114	(original	-5.756902e-05
-4.602114	(other	0.0002139262
-4.602114	(patents-in-suit).In	0.005371865
-4.602114	(rep)	-4.671246e-05
-4.602114	(sNDA)	-3.585566e-05
-4.426023	(single	-8.363438e-05
-4.204174	(stores	-4.888851e-05
-4.426023	(the	-0.0001259941
-4.602114	(three	-8.712406e-06
-4.602114	(two	-6.299719e-05
-4.602114	+	-6.299719e-05
-4.301084	,	-0.0001259815
-2.727053	-	-0.004867255
-4.058046	--	0.02728548
-4.602114	-1994	-5.756902e-05
-4.301084	."	0.004403019
-4.602114	.11n	-4.671246e-05
-4.602114	0.02	0.007272309
-4.602114	0.04per	0.0002030631
-4.602114	0.18-micron	-6.299719e-05
-4.602114	0.2%	0.0002682456
-4.602114	0.5%	0.0002682456
-4.426023	0.6%	0.007728756
-4.602114	0.7	0.007272309
-4.602114	0.7%	0.001394186
-4.602114	0.8%	0.008942736
-4.602114	0.993	0.0002519489
-4.426023	01,	9.73398e-06
-3.948902	03,	-0.0002280741
-4.602114	03/27/2000,	2.929098e-05
-4.602114	03/31/2000.In	-2.499855e-05
-4.602114	04)	0.001100181
-4.602114	04/01/1999,	-3.585566e-05
-4.426023	04:10	-0.0001205658
-4.204174	05,	-1.849688e-05
-4.204174	06,	-7.633789e-06
-4.426023	07,	-2.284464e-05
-4.602114	07/17/2005."	0.00447686
-4.602114	07/29/2009	0.00447686
-4.602114	07/29/2009.Cadence	0.0004312445
-4.426023	08,	3.145439e-05
-4.602114	08/31/2001."	0.00447686
-4.426023	08:00	-9.885187e-05
-4.426023	08:15	-0.0001042805
-4.426023	08:30	-0.0001042805
-3.948902	09,	0.0005875027
-4.602114	09/09/2002."	0.00447686
-4.602114	09/12/2002"	0.00447686
-4.602114	09/30/1998."	0.00447686
-4.426023	09:00	-6.192048e-05
-4.602114	09:30	3.47203e-05
-3.948902	1	0.005709994
-4.301084	1%	0.009314375
-3.359076	1,	-0.0001613221
-4.426023	1,000	-8.256573e-05
-4.602114	1,2005.	0.00447686
-4.602114	1,250	-3.585566e-05
-4.602114	1,293	-2.499855e-05
-4.602114	1,300+	-5.756902e-05
-4.602114	1,400	-4.128409e-05
-4.426023	1,430,000	0.0001889599
-4.602114	1,520,100	-6.299719e-05
-4.602114	1,580-MW	-6.299719e-05
-4.602114	1,660,000	0.0002519489
-4.602114	1,700	-6.299719e-05
-4.602114	1,800	-4.671246e-05
-4.602114	1,920,000	-6.299719e-05
-4.602114	1-for-100	-5.214077e-05
-4.602114	1.	-4.671246e-05
-4.602114	1.1%	-4.128409e-05
-4.602114	1.4%	0.001966433
-4.602114	1.4%,	0.0001922003
-4.602114	1.5-inch	-6.299719e-05
-4.602114	1.6%	-4.128409e-05
-4.602114	1.7	0.003884864
-4.602114	1.9%	0.001394186
-4.602114	1.Between	-3.042715e-05
-4.602114	1.Working	0.005190519
-3.903144	10	0.004500808
-4.426023	10%	-6.084995e-05
-4.602114	10%.	0.00447686
-4.426023	10,	8.657204e-06
-4.426023	10-K	0.001086201
-4.602114	10-year	2.386171e-05
-4.602114	10.1%	0.001394186
-4.602114	10.This	5.100868e-05
-4.602114	10/1/01,	0.01810522
-4.602114	10/100	-5.214077e-05
-4.602114	10/18/1999."	0.00447686
-4.602114	10/19/01,	0.01810522
-3.727053	100	0.02099939
-4.602114	100%	0.01371268
-4.602114	100,000	-6.299719e-05
-4.602114	100-for-1	-4.671246e-05
-4.602114	100.612	1.300341e-05
-4.301084	1000	-0.0001184157
-4.602114	10017,	0.0001541826
-4.602114	10020-1095,United	-8.712406e-06
-4.602114	1010	-6.299719e-05
-4.602114	1010/1020	-5.756902e-05
-4.602114	1020	-6.299719e-05
-4.602114	103%	0.0004475479
-4.602114	109	-5.214077e-05
-4.124993	10:00	-9.558306e-05
-4.426023	10:15	-0.0001042805
-4.602114	10:30,	3.47203e-05
-4.602114	10A-3	0.0001541826
-4.602114	10b5-1	-1.41412e-05
-4.602114	10kb	0.01371268
-4.124993	11	0.001507443
-4.124993	11%	0.01099025
-4.602114	11%.Investors	0.005190519
-3.789201	11,	-0.0001115401
-4.602114	11,000,000	0.0002519489
-4.602114	11,100,000	0.0002519489
-4.602114	11.7	0.0001704755
-4.602114	110	-3.585566e-05
-4.602114	110%	0.01371268
-4.602114	1114	-1.41412e-05
-4.426023	1155	-5.106313e-05
-4.602114	11:00	3.47203e-05
-4.301084	11:30	-9.669794e-05
-3.861752	12	0.009202419
-4.602114	12%	0.008942736
-3.789201	12,	9.398896e-05
-4.602114	12-18	4.557913e-05
-4.426023	12-sample	-4.456237e-05
-4.204174	120	0.005287739
-4.602114	1221	-4.671246e-05
-4.602114	1228	-2.499855e-05
-4.602114	123	-6.299719e-05
-4.602114	123R,	-3.585566e-05
-4.426023	125.697	0.003937016
-4.426023	12:00	-0.0001205658
-3.823963	13	0.0002079743
-4.426023	13%	0.01095207
-4.058046	13,	0.0002336913
-4.602114	13,610,680	0.0004421132
-4.602114	13-week	0.0009314899
-4.602114	13.	0.00447686
-4.602114	13.1%	0.005190519
-4.602114	13.8	0.0001704755
-4.426023	1335	-8.363438e-05
-4.602114	134,000	-4.671246e-05
-4.602114	13:30	-2.499855e-05
-4.058046	14	0.006351332
-3.789201	14,	-0.0002235183
-4.602114	14,287,586	0.0002519489
-4.602114	14.5%	0.008942736
-4.426023	140	0.003937016
-4.602114	144%	0.001394186
-4.602114	145	0.003042116
-4.602114	146	0.005190519
-4.602114	14:00	-1.956993e-05
-4.602114	14a-8	0.0001541826
-4.058046	15	0.02838171
-4.426023	15%	0.0007162046
-4.602114	15%.Then,	0.003042116
-3.624391	15,	0.001266305
-4.602114	15.2%.Diluted	0.001617545
-4.602114	15.3%	0.008942736
-4.426023	150	9.733951e-06
-4.602114	150,000,000	0.008942736
-4.602114	150.5	0.003884864
-4.602114	152.5	0.003884864
-4.602114	153%.Product	0.000844449
-4.602114	1536	1.84325e-05
-4.602114	156.8%	0.008942736
-4.602114	15th	-4.671246e-05
-4.000054	16	0.009189092
-4.426023	16%	0.003367543
-3.948902	16,	-1.073675e-05
-4.602114	16,000	-4.128409e-05
-4.602114	16,000,000	0.0002519489
-4.602114	16,304,200	-6.299719e-05
-4.602114	16.7	0.0001704755
-4.602114	16.She	-6.299719e-05
-4.602114	160	-5.756902e-05
-4.602114	162(m)	0.01371268
-4.602114	16HD	-6.299719e-05
-4.602114	16b-3(b)(3)	0.0001541826
-4.426023	17	0.0003519569
-4.602114	17%	0.0002682456
-4.602114	17%,	0.008942736
-3.789201	17,	0.000802799
-4.602114	17-month	1.300341e-05
-4.602114	17.4	0.0001704755
-4.602114	17.8	-6.299719e-05
-4.602114	17.BGI	0.0014541
-4.602114	174.032	-6.299719e-05
-4.602114	1745	8.358726e-05
-4.602114	176,000	-4.128409e-05
-4.602114	178.2	-6.299719e-05
-4.426023	17:1,	-6.192048e-05
-4.426023	18	0.0002704508
-4.301084	18%	0.01109545
-3.699024	18,	-2.642535e-05
-4.602114	18.5%	0.008942736
-4.602114	1890,	-5.756902e-05
-4.426023	19	0.001069871
-4.602114	19%	-8.712406e-06
-3.647872	19,	-0.0001326835
-4.602114	19-pole	0.005190519
-4.602114	19.5	0.0001922003
-4.426023	19.9	0.0001335535
-4.426023	1934,	0.001815001
-4.602114	1934.As	0.005371865
-4.602114	1934.The	-4.671246e-05
-4.602114	1960s,	0.001988247
-4.602114	1962.From	-6.299719e-05
-4.602114	1962.Mr.	-6.299719e-05
-4.602114	1979	0.0001813377
-4.602114	1980s,	-6.299719e-05
-4.602114	1986	1.300341e-05
-4.602114	1989	0.008942736
-4.602114	1989,	5.643827e-05
-4.602114	199,968,608	0.0002519489
-4.602114	1991.Dr.	-5.756902e-05
-4.602114	1991.He	0.001988247
-4.426023	1993,	0.0002161219
-4.602114	1993.A	-4.128409e-05
-4.602114	1993.Sandra	-5.756902e-05
-4.602114	1994	0.001851923
-4.602114	1995,	-6.299719e-05
-4.602114	1996	-6.299719e-05
-4.602114	1996.According	0.008942736
-4.602114	1996.In	4.014968e-05
-4.426023	1997	0.01794081
-4.602114	1997.The	-4.128409e-05
-4.602114	1998	0.007272309
-4.602114	1998,	0.008809753
-4.602114	1998.Keating,	-6.299719e-05
-4.301084	1999	0.02288697
-4.426023	1999,	0.0181559
-4.602114	1999.In	-4.671246e-05
-4.426023	1999.The	0.001881673
-4.602114	1;	0.008809753
-4.426023	1st	-9.885189e-05
-3.823963	2	0.02762257
-4.426023	2%	0.008905814
-4.602114	2%.For	0.01810522
-3.505204	2,	0.0009796238
-4.602114	2,000,000	0.0002519489
-4.602114	2,100	-5.214077e-05
-4.602114	2,150	0.0001759066
-4.602114	2,207,506	0.0002519489
-4.602114	2,300	-6.299719e-05
-4.602114	2,500	-5.756902e-05
-4.602114	2,837	-4.128409e-05
-4.602114	2,917,380	0.0002519489
-4.602114	2-for-1	0.0002736778
-4.602114	2.0	-5.756902e-05
-4.426023	2.0%	0.008691581
-4.602114	2.1%	-1.956993e-05
-4.602114	2.3	0.003884864
-4.602114	2.3%	-4.128409e-05
-4.124993	2.4	0.008638082
-4.602114	2.5	-5.756902e-05
-4.602114	2.5G	0.008809753
-3.861752	20	0.02208912
-4.058046	20%	0.01369985
-4.000054	20,	-0.000104249
-4.602114	20-30,	6.729768e-05
-4.602114	20-year	-5.214077e-05
-4.602114	20.5	0.0001704755
-4.426023	200	-4.563433e-05
-4.602114	200,000	0.005190519
-3.948902	2000	0.01878428
-4.204174	2000,	0.001292462
-4.426023	2000.	0.004457862
-4.602114	2000.In	0.01810522
-4.602114	2000.Simpson	-6.299719e-05
-4.602114	2000.Starbucks	0.0001704755
-4.602114	2000.The	0.001759247
-4.426023	2000.Under	0.0180683
-4.204174	2001	0.009220232
-3.861752	2001,	0.03196856
-4.204174	2001.	0.004366104
-4.000054	2001."	0.004255376
-4.301084	2001.Comparable	2.060666e-05
-4.426023	2001.Earnings	0.003081739
-4.204174	2001.For	0.01799446
-4.602114	2001.Health	0.0001596136
-4.602114	2001.In	0.01810522
-4.602114	2001.Macquarie	-4.671246e-05
-4.426023	2001.Net	0.002531115
-4.301084	2001.On	0.005298025
-4.602114	2001.Starbucks	0.0009314899
-4.058046	2001.The	0.000240237
-3.488171	2002	0.02584418
-4.602114	2002"	0.00447686
-4.602114	2002's	0.001219937
-3.699024	2002,	0.03770886
-4.301084	2002.	0.004403019
-4.124993	2002."	0.004329191
-4.602114	2002."Health	0.0001596136
-4.602114	2002."Panera	0.0001053076
-4.602114	2002.Accordingly,	0.01810522
-4.602114	2002.Average	-5.214077e-05
-4.602114	2002.Brocade	0.001067526
-4.602114	2002.Comparable	9.444738e-05
-4.602114	2002.Diluted	0.001617545
-4.602114	2002.Fluor	0.001601198
-4.426023	2002.For	0.0180683
-4.602114	2002.Highlights	0.007272309
-4.602114	2002.Mr.	-5.214077e-05
-4.301084	2002.Net	0.002494197
-4.602114	2002.On	0.005371865
-4.602114	2002.Panera	0.0001053076
-4.426023	2002.Starbucks	0.001772618
-4.124993	2002.The	0.0002010481
-4.602114	2002.They	0.0001270292
-4.602114	2002.Total	0.000844449
-4.602114	2002;	0.008942736
-3.672695	2003	0.01427219
-3.861752	2003,	0.04935966
-4.426023	2003.	0.004439938
-4.602114	2003."Hansen	0.0002084945
-4.602114	2003."Starbucks	0.0009314899
-4.602114	2003.Austin	-3.585566e-05
-4.602114	2003.Fluor's	0.001944619
-4.602114	2003.For	0.01810522
-4.426023	2003.Mr.	-0.000109709
-4.602114	2003.Net	0.001939166
-4.602114	2003.Prior	0.008942736
-4.426023	2003.The	0.001173305
-4.426023	2003;	0.009273628
-3.522933	2004	0.03779773
-3.903144	2004,	0.02131724
-4.426023	2004.	0.004439938
-4.602114	2004."Atheros	0.001067526
-4.602114	2004."Big	5.100868e-05
-4.602114	2004."Brocade	0.001067526
-4.602114	2004."Fluor	0.001601198
-4.602114	2004."Hansen	0.0002084945
-4.602114	2004."Phillips-Van	0.0001922003
-4.602114	2004."Service	0.001601198
-4.602114	2004."The	0.0004747214
-4.301084	2004.Brocade	0.001228953
-4.602114	2004.Fluor	-3.585566e-05
-4.426023	2004.For	0.0180683
-4.602114	2004.Hansen	0.0002084945
-4.602114	2004.Illumina	0.00334291
-4.602114	2004.In	-1.41412e-05
-4.124993	2004.Net	0.002420368
-4.602114	2004.Non-GAAP	0.001944619
-4.602114	2004.Reporting	0.003042116
-4.426023	2004.Revenue	0.006850795
-4.058046	2004.The	0.002681134
-4.602114	2004.Total	0.0004747214
-4.602114	2004;	-1.41412e-05
-3.231046	2005	0.03732334
-3.948902	2005,	0.03949613
-4.058046	2005.	0.004292282
-4.301084	2005."	0.004403019
-4.602114	2005."Atheros	0.001067526
-4.602114	2005."Brocade	0.001067526
-4.602114	2005."Cadence	0.0004312445
-4.602114	2005."Hansen	0.0002084945
-4.426023	2005."Illumina	0.003305988
-4.426023	2005."Kirby	0.001564276
-4.426023	2005.Brocade	0.001030604
-4.602114	2005.Comparable	9.444738e-05
-4.602114	2005.Craig	-5.756902e-05
-4.426023	2005.Excluding	0.0180683
-4.602114	2005.Fluor	-6.299719e-05
-3.757016	2005.For	0.01836186
-4.602114	2005.Fully	0.001851923
-4.602114	2005.Hansen	0.0002084945
-4.602114	2005.Illumina	0.00334291
-4.602114	2005.MEGAPLEX's	-6.299719e-05
-4.602114	2005.Net	0.0004747214
-4.602114	2005.On	0.005371865
-4.602114	2005.Reporting	0.003042116
-3.948902	2005.The	0.002350486
-4.204174	2005;	0.00950136
-3.162781	2006	0.03500959
-3.522933	2006,	0.05113861
-3.699024	2006.	0.003960238
-4.602114	2006."Atheros	0.001067526
-4.602114	2006."Dolby	0.0002682456
-4.204174	2006."Illumina	0.003232153
-4.602114	2006."KeyCorp,	0.0001324598
-4.602114	2006."Phillips-Van	0.0001922003
-4.426023	2006."Starbucks	0.002536578
-4.602114	2006..	0.00447686
-4.602114	2006.Approximately	-6.299719e-05
-4.602114	2006.As	0.01810522
-4.301084	2006.Atheros	0.000993685
-4.301084	2006.Brocade	0.000993685
-4.602114	2006.Cephalon	0.00334291
-4.426023	2006.Comparable	5.752545e-05
-4.602114	2006.Consolidated	0.0004747214
-4.602114	2006.Dr.	-5.756902e-05
-4.602114	2006.Fidelity	0.0002628133
-3.602114	2006.For	0.0174411
-4.602114	2006.GAAP	0.001944619
-4.426023	2006.Hansen	0.0001715726
-4.301084	2006.Illumina	0.003269069
-4.301084	2006.In	-0.0001140557
-4.602114	2006.Molex	0.00334291
-4.602114	2006.N.M	-6.299719e-05
-4.124993	2006.Net	0.002754981
-4.426023	2006.Non-GAAP	0.001907697
-4.602114	2006.On	0.000235653
-4.602114	2006.Reporting	0.003042116
-4.426023	2006.Service	0.001564276
-4.602114	2006.Starbucks	0.001601198
-3.672695	2006.The	0.00224926
-4.602114	2006.VIVITROL	0.001988247
-4.124993	2006;	0.009148136
-2.994659	2007	0.06211704
-3.471781	2007,	0.03564502
-3.789201	2007.	0.004070891
-4.124993	2007."	0.004329191
-4.426023	2007."AK	0.0002421883
-4.602114	2007."Atheros	0.001067526
-4.602114	2007."Capitol	-8.712406e-06
-4.602114	2007."Cephalon	0.00334291
-4.301084	2007."Dolby	0.0001944049
-4.602114	2007."Hansen	0.0002084945
-4.602114	2007."Illumina	0.00334291
-4.602114	2007."Kirby	0.001601198
-4.602114	2007."Panera	0.0001053076
-4.426023	2007."Phillips-Van	0.0001552784
-4.602114	2007."The	7.815733e-05
-4.301084	2007.AK	0.0002052695
-4.602114	2007.As	0.01371268
-4.602114	2007.Atheros	0.001067526
-4.602114	2007.Both	0.001219937
-4.426023	2007.Brocade	0.001030604
-4.602114	2007.Cadence	0.00166659
-4.426023	2007.Cephalon	0.003305988
-4.602114	2007.Coles	0.0014541
-4.602114	2007.Comparable	9.444738e-05
-4.602114	2007.Dolby	0.0001270292
-4.602114	2007.Earnings	0.003118661
-4.602114	2007.Excluding	0.01810522
-3.560722	2007.For	0.01736738
-4.602114	2007.GAAP	0.001944619
-4.602114	2007.Gentex	0.001601198
-4.602114	2007.Gross	0.0005888685
-4.602114	2007.Health	0.0001596136
-4.426023	2007.Impairments	0.01367576
-4.426023	2007.Kirby	0.001564276
-4.602114	2007.Looking	-6.299719e-05
-4.301084	2007.Mr.	-0.0001292741
-4.204174	2007.Net	0.001828409
-4.602114	2007.Non-GAAP	0.001944619
-4.602114	2007.Operating	0.001617545
-4.602114	2007.Phillips-Van	0.0001922003
-4.602114	2007.Record	0.001939166
-4.301084	2007.Revenue	0.01251627
-4.602114	2007.Revenues	0.007272309
-4.602114	2007.Sales	-4.128409e-05
-4.301084	2007.Service	0.001527357
-4.602114	2007.Starbucks	0.001601198
-4.602114	2007.Th"	0.00447686
-3.560722	2007.The	0.004833451
-4.301084	2007.This	0.0004574711
-4.426023	2007.Total	0.001320332
-4.602114	2007.Under	0.01810522
-4.058046	2007;	0.008992864
-2.660106	2008	0.05064528
-3.269676	2008,	0.06600632
-3.505204	2008.	0.003628449
-4.426023	2008."	0.004439938
-4.602114	2008."Big	5.100868e-05
-4.602114	2008."Discovery	0.001067526
-4.301084	2008."Dolby	0.0001944049
-4.426023	2008."Fidelity	0.0002258914
-4.602114	2008."Fluor	0.0009314899
-4.426023	2008."Hansen	0.0001715726
-4.301084	2008."Illumina	0.003670028
-4.426023	2008."Kirby	0.001564276
-4.426023	2008."Molex	0.003305988
-4.602114	2008."Panera	0.0001053076
-4.602114	2008."Phillips-Van	0.0001922003
-4.602114	2008."Principal	0.0003280046
-4.602114	2008."Service	0.001601198
-4.602114	2008."The	7.815733e-05
-4.426023	2008.AK	0.0002421883
-4.124993	2008.As	0.01370181
-4.602114	2008.At	0.0004203762
-4.602114	2008.Atheros	0.001067526
-4.602114	2008.Brocade	0.001067526
-4.602114	2008.Cadence	0.0004312445
-4.602114	2008.Capitol	-8.712406e-06
-4.602114	2008.Discovery	0.0002139262
-4.301084	2008.Dolby	0.0001944049
-4.602114	2008.EBITDAX	0.0004258104
-4.602114	2008.Eaton	1.84325e-05
-4.426023	2008.Fidelity	0.0002258914
-4.602114	2008.Fluor	0.0009314899
-3.359076	2008.For	0.01688845
-4.602114	2008.Fred	-6.299719e-05
-4.602114	2008.Gentex	0.001601198
-4.602114	2008.Hansen	0.0002084945
-4.426023	2008.Harsco	0.001564276
-4.426023	2008.KeyCorp	0.001869526
-4.426023	2008.Kirby	0.001564276
-4.426023	2008.Molex	0.003305988
-4.602114	2008.Net	0.001617545
-4.301084	2008.On	0.0005879665
-4.301084	2008.Operating	0.004044017
-4.602114	2008.Panera	0.0001053076
-4.301084	2008.Phillips-Van	0.0001183596
-4.602114	2008.Principal	0.0003280046
-4.602114	2008.Revenue	0.007272309
-3.699024	2008.The	0.002608696
-4.426023	2008.This	-2.284463e-05
-4.426023	2008.Total	0.001320332
-4.602114	2008.Under	0.01810522
-3.727053	2008;	0.0003377942
-2.898823	2009	0.050619
-3.505204	2009,	0.0587386
-3.580925	2009.	0.003775879
-4.602114	2009."	0.00447686
-4.602114	2009."Cadence	0.0004312445
-4.602114	2009."Carolina	7.574352e-06
-4.602114	2009."Eaton	1.84325e-05
-4.602114	2009."Fidelity	0.0002628133
-4.602114	2009."Fluor	0.0009314899
-4.602114	2009."Kirby	0.0009314899
-4.602114	2009."Molex	0.00334291
-4.602114	2009."Panera	0.0001053076
-4.602114	2009."Service	0.001601198
-4.602114	2009."The	0.0004747214
-4.124993	2009.AK	0.0001314412
-4.301084	2009.Atheros	0.000993685
-4.602114	2009.Big	5.100868e-05
-4.602114	2009.Cadence	0.0001976316
-4.602114	2009.Comparable	9.444738e-05
-4.426023	2009.Concho	-4.020552e-05
-4.602114	2009.Consolidated	-6.299719e-05
-4.602114	2009.Discovery	0.001067526
-4.204174	2009.Dolby	0.0001911831
-4.602114	2009.Dolby's	0.0001053076
-4.124993	2009.Fidelity	0.0001151443
-4.602114	2009.First	0.002599507
-4.602114	2009.Fluor	-4.671246e-05
-3.624391	2009.For	0.01747797
-4.602114	2009.Frontier	0.001067526
-4.602114	2009.Gentex	0.001601198
-4.426023	2009.Hansen	0.0001715726
-4.602114	2009.Health	0.0001596136
-4.426023	2009.Illumina	0.003305988
-4.301084	2009.In	-4.890417e-05
-4.301084	2009.Income	0.002221203
-4.602114	2009.Investment	0.001939166
-4.602114	2009.Mr.	-5.214077e-05
-4.301084	2009.Net	0.002692174
-4.204174	2009.Non-GAAP	0.004100299
-4.426023	2009.On	0.005594924
-4.602114	2009.Panera	0.0001053076
-4.602114	2009.Phillips-Van	0.0001922003
-4.426023	2009.Principal	0.0002910827
-4.602114	2009.Purchases	0.01371268
-4.602114	2009.SIM2's	-4.671246e-05
-4.602114	2009.Service	0.001601198
-3.823963	2009.The	0.002569032
-3.624391	2009;	0.01879579
-3.221903	2010	0.04961575
-3.699024	2010,	0.02648204
-4.204174	2010.	0.004366104
-4.602114	2010."Atheros	0.001067526
-4.602114	2010."Fidelity	0.0002628133
-4.602114	2010."Fluor	0.0009314899
-4.602114	2010."Kirby	0.0009314899
-4.602114	2010."Phillips-Van	0.0001922003
-4.602114	2010."Principal	0.0003280046
-4.602114	2010."Starbucks	0.001601198
-4.602114	2010.As	0.00166659
-4.426023	2010.Atheros	0.001030604
-4.602114	2010.Big	5.100868e-05
-4.602114	2010.BofA	-2.499855e-05
-4.602114	2010.Competitive	-5.214077e-05
-4.426023	2010.Dolby	0.0002313237
-4.602114	2010.Fluor	0.0009314899
-3.672695	2010.For	0.01760536
-4.602114	2010.Health	0.0001596136
-4.204174	2010.Illumina	0.003232153
-4.602114	2010.Jeffery	-3.585566e-05
-4.602114	2010.Merrill,	-4.671246e-05
-4.602114	2010.News	0.001601198
-4.602114	2010.Phillips-Van	0.0001922003
-4.426023	2010.Revenue	0.005259538
-4.426023	2010.Service	0.001564276
-4.602114	2010.SmartBeam	0.0014541
-4.058046	2010.The	0.002489857
-4.602114	2010.This	0.008809753
-4.602114	2010.Under	0.01810522
-4.426023	2010.Venue:	-0.000109709
-4.602114	2010.Wells	-3.585566e-05
-3.727053	2010;	0.008930837
-3.560722	2011	0.02581806
-4.124993	2011,	0.01977543
-4.301084	2011.	0.004403019
-4.426023	2011."Cadence	0.0003943225
-4.426023	2011."Fluor	0.000894568
-4.602114	2011."Panera	0.0001053076
-4.602114	2011."Phillips-Van	0.0001922003
-4.602114	2011."Service	0.001601198
-4.602114	2011.Agenda:	3.47203e-05
-4.426023	2011.Big	1.408675e-05
-4.426023	2011.Brocade	0.001030604
-4.602114	2011.Cadence	0.0004312445
-4.602114	2011.Cephalon	0.001988247
-4.204174	2011.Fluor	0.001460169
-4.602114	2011.Following	0.01810522
-4.058046	2011.For	0.01792064
-4.602114	2011.Gentex	0.001601198
-4.602114	2011.Howard	-4.671246e-05
-4.602114	2011.IHS	-1.956993e-05
-4.602114	2011.JPMorgan	-3.042715e-05
-4.426023	2011.Kirby	0.000894568
-4.602114	2011.Ms.	-4.671246e-05
-4.602114	2011.Seaton	0.0014541
-4.602114	2011.Service	0.001601198
-4.602114	2011.Starbucks	0.0009314899
-4.602114	2011.The	-6.299719e-05
-4.301084	2011.Venue:	0.0002672353
-4.602114	2011.While	0.01810522
-4.204174	2011;	0.0002346506
-4.426023	2012	-2.391852e-05
-4.602114	2012.An	-3.042715e-05
-4.426023	20;	0.0272988
-4.058046	21	0.001436611
-4.602114	21%	0.0002682456
-3.789201	21,	1.352356e-05
-4.602114	21.2%	0.001394186
-4.602114	21.4%	0.01371268
-4.602114	21.7%	0.001394186
-4.602114	210,000	-4.671246e-05
-4.000054	22	0.001067344
-4.301084	22%	0.01122918
-3.560722	22,	-0.0001985271
-4.602114	22-year	-4.671246e-05
-4.426023	225	-0.0001205658
-4.000054	23	0.002066464
-4.602114	23%	0.001966433
-4.602114	23%.First	0.002599507
-4.602114	23%.Net	0.001939166
-4.602114	23%.Second	0.002599507
-3.471781	23,	0.001147018
-4.602114	23.2%,	0.001966433
-4.602114	23.4%	0.005190519
-4.602114	23.5%	0.00447686
-3.861752	24	0.00110307
-3.602114	24,	-0.0004816527
-4.602114	24,000,000	-5.756902e-05
-4.426023	24-port	-1.741508e-05
-4.602114	24.Speaking	0.005190519
-4.602114	244.9%	0.008942736
-4.602114	245%	0.001966433
-4.426023	248.686	0.003937016
-4.124993	25	0.001855232
-4.124993	25%	0.03217214
-3.948902	25,	0.000986154
-4.602114	25,000	0.0002519489
-4.602114	25,387,586	0.0002519489
-4.602114	250,000	0.0002519489
-4.602114	250M,'	0.01810522
-4.602114	25th,	-5.756902e-05
-4.426023	25x	-9.885189e-05
-4.301084	26	7.056561e-05
-4.602114	26%	9.444738e-05
-4.602114	26%.Fourth	0.002599507
-3.727053	26,	0.0004765076
-4.602114	26.1%	0.008942736
-4.602114	26.Mr.	-5.214077e-05
-4.426023	260	0.003937016
-4.602114	26th	-5.214077e-05
-4.204174	27	0.0007643392
-4.602114	27%	0.001966433
-3.541416	27,	0.0006180081
-4.602114	27.52%	0.005190519
-4.602114	27.9	0.0001704755
-4.602114	27.9%	0.008942736
-4.602114	270	-3.042715e-05
-4.058046	28	0.0005175661
-4.602114	28%.Net	0.001939166
-3.411783	28,	0.001519111
-4.602114	28,566,944	-3.283589e-06
-4.602114	28,589	-4.128409e-05
-4.426023	28th	9.553783e-05
-4.058046	29	0.008632584
-4.602114	29%	0.008942736
-3.323361	29,	0.001653866
-4.602114	2U	-5.214077e-05
-4.602114	2x100	-6.299719e-05
-4.000054	3	0.0004740864
-4.426023	3%	0.008963104
-3.727053	3,	-0.0001124171
-4.602114	3,000	0.008942736
-4.602114	3,053,633	0.0002519489
-4.602114	3,100,000	0.0002519489
-4.602114	3,300	-6.299719e-05
-4.602114	3,440,000	0.0002519489
-4.602114	3--5	0.005190519
-4.602114	3-D	0.003042116
-4.602114	3-tier	3.47203e-05
-4.602114	3.0%,	0.001851923
-4.602114	3.2	0.001345171
-4.301084	3.2%	0.01424348
-4.602114	3.4%	0.008942736
-4.602114	3.5	0.003884864
-4.602114	3.6%	0.005190519
-4.602114	3.7V,	-6.299719e-05
-4.602114	3.8	0.001345171
-4.602114	3.8%	0.001394186
-4.602114	3.8%,	0.001851923
-4.602114	3.9%	0.005190519
-4.602114	3.The	2.929098e-05
-4.204174	30	0.001990353
-4.426023	30%	0.01417705
-2.744782	30,	-0.002175623
-4.301084	300	-0.0001564191
-4.426023	3000	-6.084995e-05
-4.602114	300X.	0.00447686
-4.602114	303A	0.01371268
-4.602114	309,800	0.0002519489
-4.602114	30th	-5.214077e-05
-4.602114	31%	0.008942736
-2.785873	31,	-0.001818041
-4.602114	31.0	0.003884864
-4.602114	31.5	0.0001704755
-4.426023	317,000	-3.913305e-05
-4.301084	32	0.009105486
-4.602114	32%	0.008942736
-4.602114	32%,	0.001127395
-4.602114	3200	-6.299719e-05
-4.602114	3200,	0.01810522
-4.602114	32204,United	-8.712406e-06
-4.602114	325,000	0.0002519489
-4.602114	33%,	0.008942736
-4.602114	33.15%.Diluted	0.001617545
-4.602114	335	-6.299719e-05
-4.426023	34%	0.002416437
-4.602114	34%.Second-quarter	0.001944619
-4.301084	35	-8.583868e-05
-4.602114	35,244,361	0.0004421132
-4.602114	35.5%.Adjusted	-4.128409e-05
-4.602114	35.8%	0.008942736
-4.602114	350,000	0.0002519489
-4.602114	365	-6.299719e-05
-4.602114	37.5%	0.008942736
-4.602114	37.7%	0.008942736
-4.602114	375,000,000."	0.00447686
-4.602114	38%	1.84325e-05
-4.602114	38.4%	0.008942736
-4.602114	38.5	0.0001704755
-4.602114	380	-6.299719e-05
-4.204174	39	-2.608914e-05
-4.602114	39,	2.14536e-06
-4.602114	39.1%	9.444738e-05
-4.426023	39th	9.553783e-05
-4.602114	3Com	0.0009314899
-4.124993	3D	-1.738747e-05
-4.602114	3G	-5.756902e-05
-4.602114	3GSM	0.005190519
-4.602114	3X	-2.499855e-05
-4.602114	3x3	-6.299719e-05
-3.672695	4	0.00846142
-4.602114	4%	0.001966433
-4.602114	4%.Sales	-5.214077e-05
-4.602114	4+3+PE	-6.299719e-05
-3.672695	4,	0.001145321
-4.426023	4,000,000	0.0001998245
-4.602114	4,000-square-foot	-1.956993e-05
-4.602114	4,304,200	0.0002519489
-4.602114	4.0	-8.712406e-06
-4.602114	4.0%	0.001851923
-4.602114	4.0,	0.001132838
-4.602114	4.3	0.001345171
-4.602114	4.3%	0.003042116
-4.426023	4.4%	0.001107975
-4.301084	4.9%	0.01636431
-4.204174	40	-5.448819e-06
-4.426023	40%	0.01381256
-4.602114	40%-46%,	-4.671246e-05
-4.058046	400	0.0005164318
-4.602114	400,000	0.0002519489
-4.602114	41	0.0001922003
-4.602114	41%	-1.956993e-05
-4.602114	41.2%	0.008942736
-4.602114	41.7%	0.008942736
-4.602114	4100,	0.0003986399
-4.602114	42%	0.008942736
-4.602114	42.7%	0.008942736
-4.602114	42.75"	0.00447686
-4.602114	42nd	-6.299719e-05
-4.426023	43	6.838572e-05
-4.426023	43%	0.0003845638
-4.602114	43,	-6.299719e-05
-4.602114	43-week	0.0009314899
-4.426023	43.2%	0.01367576
-4.602114	44%.First	0.002599507
-4.602114	44.0%,	0.001966433
-4.602114	44.1%	0.008942736
-4.602114	44.8%	0.008942736
-4.204174	45	-0.0001868396
-4.602114	45-nanometer/65-nanometer	-3.585566e-05
-4.602114	45th	-5.214077e-05
-4.602114	46,	0.001345171
-4.602114	464,000	-4.128409e-05
-4.602114	47	-6.299719e-05
-4.602114	47%	0.008942736
-4.602114	47-inch	-3.042715e-05
-4.602114	48,000	-6.299719e-05
-4.602114	48-well	-5.214077e-05
-4.602114	48.5	0.008942736
-4.301084	48000	7.599682e-05
-4.602114	48226,	0.0001541826
-4.602114	49,	0.001345171
-4.602114	49.5%	0.008809753
-4.301084	4900	0.001349973
-4.426023	4900,	0.006519951
-4.602114	4900.Brocade	0.001067526
-4.602114	4Gb	0.0001433211
-3.948902	5	0.008895094
-4.124993	5%	0.02832218
-4.602114	5+PE	0.008809753
-3.823963	5,	0.0009093364
-4.602114	5,300,000	-5.214077e-05
-4.602114	5,538,143	0.0002519489
-4.602114	5,545,531,	-6.299719e-05
-4.602114	5,795,716	-6.299719e-05
-4.426023	5.1	-9.342321e-05
-4.602114	5.1%	0.008942736
-4.602114	5.3	0.0001704755
-4.602114	5.5%	0.007272309
-4.426023	5.563%	-6.192048e-05
-4.426023	5.8%	0.007235387
-4.602114	5.9%	0.003042116
-3.903144	50	0.00850895
-4.058046	50%	0.01382419
-4.602114	50%,	-6.299719e-05
-3.699024	500	0.003393173
-4.602114	500,000	-6.299719e-05
-4.426023	500/Citigroup	-7.277759e-05
-4.602114	500G	0.001988247
-4.602114	500G,	0.005371865
-4.602114	500GX	0.007272309
-4.602114	50392-0100,United	-8.712406e-06
-4.426023	510	-9.449095e-05
-4.426023	52	6.838572e-05
-4.602114	52-week	0.0009314899
-4.602114	52.4	0.003884864
-4.602114	53.2%	0.008942736
-4.602114	53.5	0.003884864
-4.602114	54,	0.001851923
-4.602114	543	-6.299719e-05
-4.602114	543,000	0.0002519489
-4.426023	5480	-8.90627e-05
-4.602114	55	0.0001596136
-4.602114	55%	0.001966433
-4.602114	55,000	-6.299719e-05
-4.602114	56	0.0001704755
-4.301084	56%	0.002364425
-4.602114	565	-6.299719e-05
-4.426023	58%	0.001412931
-4.602114	580	-6.299719e-05
-4.602114	59%	1.84325e-05
-4.602114	59,	0.0014541
-4.301084	6	0.004020658
-4.204174	6%	0.01232165
-3.823963	6,	0.001493969
-4.602114	6,399,365,	0.008809753
-4.602114	6,600,000	-6.299719e-05
-4.602114	6,622,517	0.0002519489
-4.602114	6,646,243,	-6.299719e-05
-4.602114	6,750,000	0.0002519489
-4.602114	6-pole	0.008942736
-4.602114	6-port	-6.299719e-05
-4.204174	6.1	2.387221e-05
-4.602114	6.1%	0.001966433
-4.602114	6.2%	0.0002682456
-4.602114	6.4%	0.008942736
-4.426023	6.518%	-6.192048e-05
-4.602114	6.6%	0.008942736
-4.058046	60	0.002142865
-4.602114	60%	0.001988247
-4.602114	60,000	-3.585566e-05
-4.204174	600	-0.000220478
-4.602114	600,000-metric-ton	-6.299719e-05
-4.602114	601	-6.299719e-05
-4.602114	60611,United	-8.712406e-06
-4.426023	61	0.0001552784
-4.602114	62.1%	0.008942736
-4.602114	62.2	2.929098e-05
-4.602114	63	0.0001922003
-4.426023	63%	0.009218161
-4.602114	634,000	0.000393206
-4.301084	64	0.0001042424
-4.602114	64-port	0.0001433211
-4.426023	64-port,	1.516393e-05
-4.602114	640,000	-4.128409e-05
-4.204174	65	0.008907772
-4.602114	65%	-6.299719e-05
-4.602114	65,	-6.299719e-05
-4.602114	655	-6.299719e-05
-4.602114	66%	0.008942736
-4.602114	67	0.0001922003
-4.602114	67%	0.001966433
-4.602114	676,000	0.00166659
-4.602114	68	0.0001922003
-4.602114	68-718	-5.756902e-05
-4.602114	69%	0.0004475479
-4.426023	6;	0.01804835
-3.948902	7	0.0001261634
-4.124993	7%	0.01288867
-4.602114	7%.	0.00447686
-4.602114	7%."	0.00447686
-3.861752	7,	-0.0001117068
-4.602114	7,740,757	-6.299719e-05
-4.602114	7.1	-6.299719e-05
-4.602114	7.4%	0.003042116
-4.602114	7.6	0.0001704755
-4.602114	7.7%	0.001966433
-4.602114	7.750%	-6.299719e-05
-4.602114	7.9%	0.008942736
-4.301084	7/8%	9.746538e-06
-4.602114	70	0.0001704755
-4.204174	70%	0.02289585
-4.602114	70%.Additionally,	0.01810522
-4.602114	700,000	-5.756902e-05
-4.602114	70112,	0.0001541826
-4.426023	711	-6.734908e-05
-4.426023	72.43%	5.752545e-05
-4.602114	73	0.0001922003
-4.602114	73%	0.008942736
-4.602114	73.1%	0.008942736
-4.301084	75	0.001899291
-3.948902	75%	-0.0001639404
-4.602114	7500	-3.042715e-05
-4.602114	755	0.008809753
-4.602114	76,000	-4.671246e-05
-4.602114	77%	0.01371268
-4.602114	775	0.003884864
-4.602114	78	-5.756902e-05
-4.426023	79	0.0001292098
-4.602114	79%	0.0004475479
-4.204174	8	0.0003553221
-4.301084	8%	0.00763832
-3.948902	8,	-1.507695e-05
-4.602114	8,000,000	-5.756902e-05
-4.602114	8,000,000.On	0.0002193577
-4.426023	8-Pole	-8.90627e-05
-4.602114	8-pole	-3.042715e-05
-4.602114	8-port,	-8.712406e-06
-4.426023	80	0.0001292098
-4.301084	80%	2.060666e-05
-4.602114	80%.Atheros'	-6.299719e-05
-4.602114	80.1%	0.01371268
-4.426023	8000	-6.734908e-05
-4.602114	800mAh	-4.128409e-05
-4.426023	802.11	9.733936e-06
-4.602114	802.11a	-2.499855e-05
-4.602114	802.11a/g	4.557913e-05
-4.602114	802.11b/g	-5.756902e-05
-4.204174	802.11g	0.00889114
-4.000054	802.11n	0.009218751
-4.602114	802.11n-chipset,	0.01810522
-4.602114	802.16-2004	1.84325e-05
-4.602114	81	0.0001922003
-4.602114	83	0.0001922003
-4.602114	84	-4.671246e-05
-4.602114	85	0.002621354
-4.602114	86%	0.0004475479
-4.602114	87	0.0001922003
-4.602114	88.9%	0.008942736
-4.602114	885	-6.299719e-05
-4.602114	89	0.0001922003
-4.602114	8:00	-6.299719e-05
-4.124993	8:30,	-7.386235e-05
-4.602114	9	0.0001704755
-4.058046	9%	0.02826422
-4.602114	9%,	-4.671246e-05
-4.602114	9%.In	-1.41412e-05
-4.000054	9,	0.0001881318
-4.602114	9,000,000	0.01810522
-4.426023	9.3	0.0001335535
-4.602114	9.8%	-4.671246e-05
-4.602114	90%	0.01371268
-4.426023	90-nanometer	0.0001292098
-4.426023	900,000	0.000215027
-4.602114	900,831	4.557913e-05
-4.602114	91%	0.001966433
-4.426023	92	0.0001552784
-4.602114	92.1%	0.0004475479
-4.602114	92037,	0.0001541826
-4.602114	94%	0.001966433
-4.602114	95	-6.299719e-05
-4.602114	95.8	0.0001704755
-4.426023	95054,United	-4.563433e-05
-4.602114	95110,United	-8.712406e-06
-4.602114	97	0.0001922003
-4.602114	9700	-3.042715e-05
-4.602114	99	-4.671246e-05
-4.602114	99%	0.0004475479
-4.602114	99.5%	0.008942736
-4.602114	99.99%	0.01371268
-3.070635	;	-0.001636385
-1.981978	</s>
-99	<s>	-0.02383947
-4.602114	?1,264	1.300341e-05
-4.602114	?1.162-27	-6.299719e-05
-4.426023	?1.9	0.0001617998
-4.426023	?11.8	0.003847942
-4.602114	?175	0.003884864
-4.602114	?205	0.003884864
-4.602114	?656	-5.214077e-05
-4.426023	?total	0.0004377995
-3.948902	A	0.01077427
-4.602114	A&E	-6.299719e-05
-4.602114	A,	-5.214077e-05
-4.058046	A.	-0.0003345464
-4.602114	A.G.	0.00447686
-4.602114	A.G.,	0.001132838
-4.602114	A.G.He	1.300341e-05
-4.602114	A/D	-6.299719e-05
-4.602114	A/S	0.008809753
-4.602114	AAG).The	7.574352e-06
-4.204174	AB	0.00710977
-4.602114	ACTIQ	2.929098e-05
-4.426023	ACTIQ(R)	-9.449095e-05
-4.602114	ACTIQ(R).Cephalon	0.00334291
-4.602114	ACTS	-6.299719e-05
-4.602114	ADHD	-6.299719e-05
-4.426023	ADM100	-0.0001151374
-4.426023	ADS	0.005127654
-4.602114	ADVP)	0.001906447
-2.898823	AES	0.03002899
-4.204174	AES's	0.0001390441
-4.301084	AES)	0.008820881
-4.426023	AES,	0.005314502
-4.602114	AES.As	-6.299719e-05
-4.602114	AG	0.0014541
-4.602114	AIDS	-4.671246e-05
-3.323361	AK	-0.001100242
-4.602114	AK's	-5.756902e-05
-4.426023	AK-ISG	0.0002421883
-4.602114	AM.Atheros	0.001067526
-4.602114	AM.Concho	-1.956993e-05
-4.602114	AM.Health	0.0001596136
-4.426023	AM.Illumina	0.003305988
-4.124993	AM.Venue:	0.0001086605
-4.301084	AMR	0.008833826
-4.602114	AMRs	4.557913e-05
-4.602114	AOL	6.729768e-05
-4.602114	AOL.	0.00447686
-4.602114	AOL.McKinley	0.001345171
-4.426023	AP/ODA	-9.449095e-05
-4.301084	APN	0.001638795
-4.602114	APN.News	0.001601198
-4.602114	APN.Tony	-6.299719e-05
-4.426023	AR1900	4.304035e-06
-4.602114	AR1900,	0.0014541
-4.602114	AR5005G	-6.299719e-05
-4.426023	AR5008AP-3NX2	-0.0001151374
-4.602114	AR5008AP-3NX2,	0.0003986399
-4.124993	AR6002	-7.605544e-05
-4.602114	AR7100	-8.712406e-06
-4.602114	AR7161	0.001639342
-4.426023	AR7161.The	-9.885189e-05
-4.426023	AR8216	-6.084992e-05
-4.602114	ASIC	0.0001487518
-4.602114	ASR	0.001639342
-4.602114	ASR.The	-6.299719e-05
-4.426023	ASUSTek	-9.449095e-05
-4.602114	ASX-listed	-3.585566e-05
-4.204174	ATHR)	-5.43182e-05
-4.602114	ATPG	-6.299719e-05
-4.058046	AUD	-0.0003149519
-4.426023	AVR	-0.0001259941
-4.602114	AVY;	-6.299719e-05
-4.426023	Abele	-0.0001205658
-4.602114	Abele,	9.444738e-05
-4.426023	Aberdeen	-6.6279e-05
-4.204174	Abramson	0.008536496
-4.301084	Academy	0.01363884
-4.602114	Academy's	-6.299719e-05
-4.426023	Accelerates	-8.90627e-05
-4.124993	Access	-0.0002009658
-4.602114	Accountability	-3.042715e-05
-4.602114	Accounting	-6.299719e-05
-4.602114	Achieve	-5.756902e-05
-4.602114	Acquired.Hansen	0.0002084945
-4.602114	Acquisitions	-4.128409e-05
-4.602114	Acquisitions.Discovery	1.300341e-05
-4.602114	Acquisitions.Dolby	0.0002682456
-4.426023	Acquisitions.Eaton	-1.848942e-05
-4.602114	Acquisitions.Illumina	0.00334291
-4.602114	Acquisitions.News	0.001601198
-4.602114	Across	-6.299719e-05
-4.000054	Act	0.0226134
-4.602114	Act').The	0.0003334377
-4.602114	Act."	0.00447686
-4.602114	Act.Carl	-6.299719e-05
-4.602114	Act.Tribune	0.0001813377
-4.204174	Action	-0.0001672577
-4.204174	ActiveParts	-0.0002096209
-4.602114	Acuity	-6.299719e-05
-4.602114	Adapters,	0.01810522
-4.124993	Additional	0.0005109613
-4.602114	Address	-4.128409e-05
-4.301084	Adimos	0.00882274
-4.602114	Adimos'	-5.214077e-05
-4.602114	Adjusted	-4.671246e-05
-4.602114	Adler,	-6.299719e-05
-4.204174	Administration	0.008759971
-4.602114	Administrator	0.007272309
-4.426023	Adopts	0.0007977945
-4.058046	Advance	-0.0002725855
-4.602114	AdvancePCS;	2.929098e-05
-3.948902	Advanced	-0.0002834625
-4.602114	Advisers.The	4.014968e-05
-4.602114	Advises	-1.956993e-05
-4.204174	Advisors,	0.00444585
-4.301084	Advisory	0.000500965
-4.602114	Advokatfirman	-6.299719e-05
-4.602114	Aes	0.0005725597
-4.204174	Affymetrix	0.005249254
-4.602114	Affymetrix'	-4.671246e-05
-4.602114	Afghanistan	0.008809753
-4.602114	Afghanistan.DynCorp	0.0002899751
-4.426023	Africa	0.0162352
-4.426023	Africa,	0.005314502
-4.602114	Africa.	0.00447686
-4.602114	Africa.Starbucks	0.001601198
-4.602114	Africa.The	-4.128409e-05
-4.426023	African	3.688468e-05
-4.602114	After	-3.585566e-05
-3.903144	Against	0.0006431313
-4.602114	Aged	-6.299719e-05
-4.602114	Agenda:	3.47203e-05
-4.058046	Agreement	0.01059489
-4.602114	Agreement,	-5.214077e-05
-4.602114	Agreement.Basell	-4.671246e-05
-4.602114	Agreement.Concho	-3.283589e-06
-4.602114	Agreement.Illumina	0.00334291
-4.602114	Agreement.On	0.0002628133
-4.124993	Agreements	0.008954024
-4.602114	Airline	-6.299719e-05
-4.602114	Alacritus	-5.756902e-05
-4.426023	Alan	-3.477657e-05
-4.602114	Albany,	-6.299719e-05
-4.301084	Albrecht	-0.0001835623
-4.602114	Alcohol	-6.299719e-05
-4.602114	Alderwoods	0.0002682456
-4.602114	Alex	-6.299719e-05
-4.426023	Alfa	0.0002106894
-4.426023	Alfa's	-0.0001151374
-4.602114	Alger	0.001988247
-4.602114	Ali	-5.214077e-05
-4.426023	Alkermes	0.003312826
-4.602114	Alkermes,	0.000360604
-4.602114	Allegro	0.0004312445
-4.602114	Allegro(R)	0.0004312445
-4.602114	Allen	0.0002845427
-4.204174	Alliance	0.004721791
-4.602114	Allied	-6.299719e-05
-4.602114	Alt-A	0.008809753
-4.426023	Alta	-1.306022e-05
-4.602114	Alternatives.Citizens	0.001067526
-4.124993	Altschul	-0.0001390212
-4.426023	Alzheimer's	-7.170795e-05
-4.426023	AmLaw	-2.934758e-05
-4.426023	Amazon	-0.0001205658
-4.602114	Amazon's	-5.756902e-05
-4.426023	Amazon.com	0.003279999
-4.204174	Ambit	0.0003813854
-4.602114	Ame	0.00447686
-3.948902	Amended	0.008542135
-3.948902	Amendment	0.009042964
-4.301084	Amendment,	0.01801143
-4.124993	Amendments	0.008795067
-4.602114	Amends	-3.585566e-05
-3.861752	America	0.00300114
-4.124993	America,	0.001653428
-4.301084	America.	0.004403019
-4.602114	America.Cephalon	0.00334291
-4.602114	America.Excluding	0.01810522
-4.602114	America.Poulsen	-2.499855e-05
-3.789201	American	0.001513378
-4.301084	Americas,	0.0003084978
-4.602114	Amsterdam.SIM2	1.300341e-05
-4.426023	An	-9.449095e-05
-4.602114	Analog	-6.299719e-05
-4.301084	Analysis	0.00145894
-4.602114	Analysis.Illumina	0.00334291
-4.602114	Analyst	-6.299719e-05
-4.602114	Analyst/Investor	-6.299719e-05
-4.000054	Analyzer	0.00866587
-4.426023	Analyzer,	-0.000109709
-4.602114	Analyzers,	-3.585566e-05
-4.602114	Analyzers.Illumina	0.00334291
-4.602114	Analyzers.The	8.901727e-05
-4.602114	And	-4.671246e-05
-4.602114	Andres	-6.299719e-05
-4.602114	Andrews	0.0002845427
-4.602114	Angela	-6.299719e-05
-4.301084	Angeles	-0.0001357707
-4.602114	Angeles,	5.643827e-05
-4.204174	Anheuser-Busch	0.003202057
-4.602114	Animal	-6.299719e-05
-4.602114	Anna	-6.299719e-05
-4.204174	Announce	-0.0002031274
-3.602114	Announced	-0.0006011695
-3.117815	Announces	0.02087176
-3.323361	Annual	-0.0009762923
-4.426023	Annuity	-5.649186e-05
-4.602114	Anonima	-5.756902e-05
-4.602114	Another	-3.042715e-05
-4.602114	Anritsu	8.901727e-05
-4.602114	Anticipates	6.729768e-05
-4.426023	Antitrust	-9.342324e-05
-4.204174	Apax	-8.689476e-05
-4.602114	Apnea,	-6.299719e-05
-4.602114	Appeals	7.574352e-06
-4.124993	Application	-0.000261756
-4.602114	Applications	0.007272309
-4.602114	Applications.Brocade	0.001067526
-4.058046	Applied	-8.796877e-05
-4.426023	Appointment	0.01367576
-4.602114	Appointments.KeyCorp	0.001906447
-3.727053	Appoints	-0.0007200617
-4.426023	Approval	0.02294938
-4.426023	Approves	-7.820601e-05
-4.426023	Approximately	-0.0001205658
-3.699024	Apr	-0.00022763
-4.204174	Apr-11-2010	7.058126e-05
-4.602114	Apr-12-2010,	-6.299719e-05
-4.602114	Apr-14-2010.Newspaper	-4.128409e-05
-4.602114	Apr-14-2010.The	0.0003823385
-4.426023	Apr-14-2010.Venue:	-9.449095e-05
-4.602114	Apr-18-2006.Illumina	0.000360604
-4.426023	Apr-19-2011	-9.449095e-05
-4.602114	Apr-21-2009.AK	0.0002791102
-4.602114	Apr-22-2008.Molex	0.000360604
-4.602114	Apr-23-2009.Atheros	0.001067526
-4.602114	Apr-24-2008.Kirby	8.901727e-05
-4.602114	Apr-27-2005.Illumina	0.000360604
-4.602114	Apr-28-2009.Fidelity	0.0002628133
-3.07707	April	-9.344448e-05
-4.602114	April,	-4.671246e-05
-4.602114	April.	0.00447686
-4.301084	Apron	-0.0001259815
-4.602114	Arabia	7.574352e-06
-4.602114	Arabian	7.574352e-06
-4.602114	ArcelorMittal	-4.671246e-05
-3.699024	Area	-0.0005003962
-4.426023	Argentina	0.006332584
-4.301084	Argus-Courier	0.008868895
-4.426023	Argus-Courier;	4.666533e-05
-4.426023	Arizona	-0.0001151374
-4.426023	Arizona,	0.001827142
-4.602114	Arkansas.The	0.0001053076
-4.602114	Arlington,	-6.299719e-05
-4.602114	Arlington-based	7.574352e-06
-4.426023	Army	0.01205046
-4.602114	Army.Fluor	0.0009314899
-4.602114	Army.Fluor,	0.0003986399
-4.602114	Army.The	-6.299719e-05
-4.124993	Array	0.01348451
-4.602114	Arrays	-5.214077e-05
-4.602114	Art,	-6.299719e-05
-4.204174	Arthur	-0.0001238261
-4.204174	Article	0.0001325164
-4.204174	Articles	0.01360192
-4.602114	As	-5.214077e-05
-4.204174	Asesoramiento	0.0001531526
-4.301084	Asia	0.009177589
-4.602114	Asia,	0.0003986399
-4.602114	Asia-Pacific	-6.299719e-05
-4.426023	Assay	0.007209497
-4.602114	Assay,	0.0001324598
-4.602114	Assays	0.001127395
-4.602114	Asset	1.84325e-05
-4.602114	Assets.Discovery	0.001067526
-4.602114	Assets.The	6.729768e-05
-4.301084	Assets;	9.746538e-06
-4.204174	Assist	0.001934537
-4.602114	Assist"	-6.299719e-05
-4.602114	Associated	0.001781051
-4.204174	Associates	0.003207528
-4.204174	Associates,	-9.667914e-05
-4.124993	Association	0.02265028
-4.602114	Association's	-6.299719e-05
-4.301084	Association,	0.001768412
-4.426023	Astralloy	0.0002161218
-4.602114	At	-5.756902e-05
-3.090231	Atheros	0.01761186
-3.727053	Atheros'	0.0009518067
-4.426023	Atheros,	-4.99916e-05
-4.602114	Atheros.ASUSTek	4.557913e-05
-4.602114	Atlanta,	0.0001596136
-4.426023	Atlantic	-8.363438e-05
-4.426023	Attansic	4.666533e-05
-4.426023	Audio	3.145437e-05
-4.602114	Audio-processing	-6.299719e-05
-3.948902	Audit	0.009709473
-4.602114	Auditorium	0.001127395
-4.602114	Auditorium,	-6.299719e-05
-4.058046	Aug	-0.0001955045
-4.426023	Aug-01	0.0003291157
-4.602114	Aug-01-2007.Dolby	0.0002682456
-4.602114	Aug-01-2007.Starbucks	0.0001704755
-4.426023	Aug-06	0.001353012
-4.602114	Aug-06-2008.Molex	0.000360604
-4.602114	Aug-06-2009.Hansen	0.0002084945
-4.602114	Aug-10-2006.Service	0.001601198
-4.602114	Aug-11-2008.Fluor	8.901727e-05
-4.602114	Augmentation	-3.585566e-05
-3.541416	August	0.01401161
-4.602114	Augusta,	-6.299719e-05
-4.426023	Auris	0.0015001
-4.602114	Auris.In	-2.499855e-05
-4.602114	Austin.Salomon	-5.756902e-05
-4.204174	Australia	0.002118794
-4.602114	Australia's	6.186796e-05
-4.426023	Australia,	0.00874698
-4.426023	Australian	0.001996209
-4.602114	Austria	0.008942736
-4.602114	Austria.Fluor	0.001601198
-4.602114	Authority,	0.003042116
-4.602114	Authorizes	-4.128409e-05
-4.301084	Auto	-7.605182e-05
-4.602114	Auto-Dimming	-5.214077e-05
-4.602114	Automated	-6.299719e-05
-4.204174	Automatic	-0.0001726864
-3.861752	Automation	0.003663889
-4.426023	Automobile	-9.449095e-05
-4.204174	Automotive	-0.0001411836
-4.124993	Availability	0.01356501
-4.426023	Available	0.005127654
-4.602114	Avantome	-3.585566e-05
-4.204174	Avantome,	0.003232153
-4.602114	Ave.),	0.0003823385
-4.204174	Avenue	0.01365465
-4.204174	Avenue,	-0.0002041922
-3.861752	Avery	-0.0003615416
-4.602114	Avoid	-6.299719e-05
-4.426023	Awarded	-4.99916e-05
-4.000054	B	0.0002522583
-4.602114	B-vitamins,	-6.299719e-05
-4.204174	B.	-0.0002411298
-4.426023	B.V.	0.003005194
-4.602114	B.V..	0.00447686
-4.602114	BASE(TM)	8.358726e-05
-4.602114	BASETM	-6.299719e-05
-4.602114	BASF-YPC	0.0001813377
-4.602114	BGI	4.014968e-05
-4.602114	BGI's	-4.128409e-05
-4.426023	BIOCOM's	-5.649186e-05
-4.426023	BLDA	-8.799453e-05
-4.602114	BNP	-6.299719e-05
-4.602114	BSkyB.FT.com	0.00166659
-4.602114	BSkyB.The	0.0002736778
-4.602114	Backplane	3.47203e-05
-4.602114	Backup	-5.214077e-05
-4.602114	Baghdad.	0.00447686
-4.426023	Baker	0.0002215545
-4.602114	Bakery-Cafe	7.574352e-06
-4.602114	Bakery-Cafes	0.005190519
-4.602114	Bakke	0.0001270292
-4.602114	Balance	-5.756902e-05
-4.426023	Banc	0.01367576
-4.301084	BancBoston	-0.0001205532
-4.426023	Bangladesh	0.00874698
-4.602114	Bangladesh's	-6.299719e-05
-3.727053	Bank	0.02784084
-4.426023	Bank,	0.0003410886
-4.602114	Banking	-6.299719e-05
-4.301084	Baquet	0.001250736
-4.602114	Barcelona	0.008809753
-4.602114	Barden	0.001966433
-4.602114	Barney	0.001639342
-4.602114	Baron	-6.299719e-05
-4.602114	Baronne	-1.956993e-05
-4.000054	Barr	0.01269061
-4.426023	Barratt,	0.0002215545
-4.602114	Bartlett	6.186796e-05
-4.602114	Based	0.003042116
-4.426023	Basell	0.001941664
-4.602114	Basell.	0.00447686
-4.602114	Basin	0.01371268
-4.602114	Bassett	6.729768e-05
-4.426023	Bayway	-7.71369e-05
-4.426023	Bead	-0.0001259941
-4.124993	BeadArray	1.085995e-05
-4.602114	BeadArray(TM)	0.008809753
-4.602114	BeadArray(TM),	-6.299719e-05
-4.602114	BeadArray?technology	0.008942736
-3.757016	BeadChip	0.01557629
-4.124993	BeadChip,	0.02382508
-4.602114	BeadChip.	0.00447686
-4.204174	BeadChip.Illumina	0.003232153
-4.602114	BeadChip.Illumina's	-4.128409e-05
-4.602114	BeadChip.The	0.0008390098
-4.602114	BeadChip.This	2.14536e-06
-4.426023	BeadChips	0.00875252
-4.602114	BeadChips.Illumina	0.00334291
-4.602114	BeadChips.These	-5.756902e-05
-4.301084	BeadLab	0.0107947
-4.602114	BeadLab,	0.005371865
-4.301084	BeadStation	-0.0001889907
-4.602114	BeadStudio	-6.299719e-05
-4.602114	BeadXpress(R),	0.008809753
-4.602114	Beadchip,	-4.128409e-05
-4.602114	Beadchips.Illumina	0.00334291
-4.301084	Beal	0.003217087
-4.602114	Beam	-6.299719e-05
-4.602114	Beckman	-6.299719e-05
-4.602114	Become	0.0001270292
-4.602114	Behalf	0.01371268
-4.426023	Beijing	-8.363438e-05
-4.602114	Beijing,	-6.299719e-05
-4.602114	Being	-6.299719e-05
-4.301084	Bell	-0.0001259815
-4.426023	Benaroya	-9.449095e-05
-4.602114	Benchtop	1.84325e-05
-4.426023	Benefit	-3.370363e-05
-4.426023	Berens	2.494603e-05
-4.602114	Bermant	0.0002845427
-4.426023	Beverage	-9.342324e-05
-4.602114	Beyond	-4.671246e-05
-4.602114	Bid	-8.712406e-06
-4.602114	Bid.News	-1.41412e-05
-3.789201	Big	-0.0003549603
-4.301084	Bill	-0.0001889907
-4.301084	Billion	-0.0001889907
-4.301084	BioSciences	0.004000168
-4.602114	Biochemistry	-6.299719e-05
-4.602114	Biochemistry.Illumina	0.00334291
-4.602114	Biomedical	-3.042715e-05
-4.602114	Biopharmaceuticals,	-6.299719e-05
-4.204174	Biosciences	0.02112465
-4.602114	Biosciences,	0.00334291
-4.602114	Biosite	0.000360604
-4.602114	Biosite,	1.300341e-05
-4.602114	Biosystems.	0.00447686
-4.301084	Biotechnology	-6.519295e-05
-4.602114	Birck	0.001851923
-4.602114	Bird	0.01371268
-4.602114	Birthday	-6.299719e-05
-4.426023	Bjarne	-8.90627e-05
-4.301084	Black	-0.0001259815
-4.602114	Blade,	9.444738e-05
-3.757016	BladeSystem	0.0008834089
-4.602114	Bladesystem	-6.299719e-05
-4.602114	Blake	0.000360604
-4.602114	Blend	0.0014541
-4.602114	Blend(TM)	0.005190519
-4.426023	Blend(TM),	0.001265872
-4.602114	Blend,	0.005371865
-4.602114	Blend.Starbucks	0.001601198
-4.602114	Blood	-6.299719e-05
-4.426023	Blue	-0.0001259941
-3.028083	Board	0.03806516
-4.602114	Board,	0.001345171
-4.602114	Board.AK	0.0002791102
-4.602114	Board.In	-1.41412e-05
-4.602114	Board.Lip-Bu	-6.299719e-05
-4.602114	Board.The	0.0004747214
-4.301084	Boeckmann	0.003812438
-4.602114	Boeckmann,	2.14536e-06
-4.124993	BofA	-0.0001726675
-4.602114	Boise	-1.41412e-05
-4.602114	Boise,	-6.299719e-05
-4.301084	Bolton	0.0001944049
-4.602114	Bonus	-4.671246e-05
-4.602114	Book	-6.299719e-05
-4.602114	Boost	0.0001433211
-3.948902	Boston	0.001748259
-4.124993	Boston,	0.003154201
-4.602114	Botts	0.0001053076
-4.602114	Boulevard	0.008809753
-4.602114	Boulevard,	-5.756902e-05
-4.602114	Brad	-8.712406e-06
-4.602114	BradConnectivity	-5.214077e-05
-4.426023	BradConnectivity(TM)	-8.363438e-05
-4.602114	Brand	0.008809753
-4.301084	Brasil	-0.0001520562
-4.426023	Brazilian	-7.170797e-05
-3.38463	Bread	0.0002836275
-4.602114	Bread's	0.001219937
-4.602114	Breakfast,	-6.299719e-05
-4.602114	Breaks	-3.585566e-05
-4.602114	Breakthrough	-5.214077e-05
-4.124993	Brew	0.01232045
-4.602114	BrightSide	7.574352e-06
-4.602114	Bring	-3.042715e-05
-4.602114	Brings	0.0003823385
-4.204174	Brinzo	0.01181902
-4.301084	British	-0.0001021275
-4.124993	Broad	-0.0001922439
-4.602114	Broad,	-6.299719e-05
-4.602114	Broadband	-5.214077e-05
-4.602114	Broadcast.Dolby	0.0002682456
-2.809723	Brocade	0.02846726
-4.301084	Brocade's	-9.126836e-05
-4.602114	Brocade,	-5.214077e-05
-4.426023	Brothers	0.003290941
-4.602114	Brothers,	0.008809753
-4.602114	Brothers.	0.00447686
-4.602114	Bs.2,547	-5.756902e-05
-4.602114	Bskyb	-6.299719e-05
-4.602114	Budget	0.001966433
-4.602114	Bugs!,	0.001132838
-4.426023	Build	0.005309005
-4.426023	Builders	0.001870766
-4.602114	Builders,	-5.756902e-05
-4.602114	Building	-4.671246e-05
-4.426023	Bulgaria	0.007844846
-4.602114	Bulgaria.Starbucks	0.001601198
-4.602114	Bureau	-6.299719e-05
-4.602114	Burnaby,	-5.756902e-05
-4.602114	Bush	-6.299719e-05
-3.727053	Business	0.008391077
-4.602114	Business.In	4.014968e-05
-4.602114	Business.Starbucks	0.001601198
-4.602114	Butler,	-5.756902e-05
-3.789201	Buyback	0.009291358
-4.602114	Buyback.Gentex	0.001601198
-4.426023	Buyback.On	0.0001878676
-3.440746	Buyer(s):	0.0007873409
-4.602114	Buys.Fluor	0.001601198
-4.602114	Buys.Molex	0.00334291
-4.602114	Buys.Service	0.001601198
-4.602114	By	3.47203e-05
-4.602114	By-laws	-6.299719e-05
-4.426023	By-laws,	0.0005585077
-4.426023	By-laws.Section	-7.170799e-05
-4.204174	Bylaws	0.01375224
-4.426023	Bylaws,	0.0001226916
-4.301084	Bylaws.On	0.0004889689
-4.602114	C-Class.Brocade	0.001067526
-4.426023	C4	0.001445617
-4.602114	C4,	0.005371865
-4.204174	CA	-0.000220478
-4.602114	CAB.Built	0.007272309
-4.301084	CANTV	0.003463359
-4.602114	CANTVs	4.557913e-05
-4.602114	CANTV's	2.386171e-05
-4.602114	CARe	-4.671246e-05
-4.602114	CARe)	-6.299719e-05
-4.602114	CASH	-6.299719e-05
-4.602114	CATCH	0.008809753
-4.602114	CDMA2000(R)	-5.756902e-05
-4.301084	CDN)	0.000103154
-4.602114	CDN).Under	0.01810522
-4.602114	CE	-6.299719e-05
-4.602114	CEE	-3.585566e-05
-4.602114	CEE:	0.0003823385
-3.823963	CEO	0.02460996
-4.602114	CEO.	0.00447686
-4.602114	CEO.Starbucks	0.001601198
-4.301084	CEPH)	0.001888383
-4.602114	CER)	0.0001324598
-4.602114	CFFN	0.0004421132
-4.602114	CFO	0.01371268
-4.602114	CFR	-6.299719e-05
-4.602114	CGEMS	-6.299719e-05
-4.602114	CIB	0.001639342
-4.602114	CIDR's	-4.128409e-05
-4.124993	CILCORP	0.005410306
-4.602114	CILCORP's	-6.299719e-05
-4.602114	CIO,	-4.671246e-05
-4.204174	CIS	0.008874509
-4.301084	CMOS	9.229101e-05
-4.602114	CNA	0.008809753
-4.602114	CNA.The	0.0005997409
-4.426023	CNAs	0.002558424
-4.426023	CNV	4.30402e-06
-4.426023	COO	0.01366684
-4.602114	COT	-6.299719e-05
-4.426023	CPF-enabled	0.0003791291
-4.301084	CSPro	-0.0001357707
-4.602114	CSProTM	-3.585566e-05
-4.301084	CTC	-0.0001031978
-4.602114	CTC."We	0.0001324598
-4.602114	CXO)	0.001906447
-4.602114	CXS	-5.214077e-05
-4.426023	CXS)	0.001929511
-4.602114	Ca	0.00447686
-2.948902	Cadence	0.02501402
-4.426023	Cadence's	0.0003139187
-3.727053	Cadence(R)	0.0173749
-4.602114	Cadence.This	1.84325e-05
-4.602114	Cadence/MatrixOne	-5.214077e-05
-4.602114	Cadillac	-5.756902e-05
-4.602114	Cajamarca.Fluor	0.001988247
-4.602114	Cake	-6.299719e-05
-4.602114	Cake,	-6.299719e-05
-3.823963	California	0.00255529
-4.426023	California's	-0.0001151374
-3.948902	California,	0.0002599694
-4.426023	California.	0.004439938
-4.602114	California.Panera	0.0001053076
-4.602114	California.The	-1.41412e-05
-4.301084	Call	0.01827459
-2.890307	Call,	-0.005032748
-4.602114	Call.Alkermes,	0.000360604
-3.789201	Call.Atheros	0.0006615567
-4.058046	Call.Brocade	0.0008829474
-4.426023	Call.Cadence	0.0003943225
-4.602114	Call.Discovery	1.300341e-05
-4.426023	Call.Fidelity	0.0002258914
-4.426023	Call.Fluor	0.000894568
-4.602114	Call.Harsco	0.001601198
