
\data\
ngram 1=10630
ngram 2=30048
ngram 3=5236

\1-grams:
-4.76996	As	-0.1206636
-4.76996	But	-0.120671
-4.76996	The	-0.120671
-4.76996	We	-0.1202503
-4.76996	What	-0.1206636
-4.46893	""go-shop""	-0.2284829
-4.76996	"Atheros	-0.119393
-4.167901	"Brocade	-0.3698853
-4.76996	"Bruckmann,	-0.1206636
-4.76996	"CIENA	-0.1195409
-4.76996	"ConocoPhillips	-0.1206488
-4.46893	"Fidelity	-0.2279365
-4.76996	"Genizon	-0.1206488
-4.76996	"Illumina,	-0.1165652
-4.76996	"LiveWorld	-0.1165652
-4.76996	"Mitsui	-0.1206267
-4.76996	"Optical	-0.1205751
-4.76996	"Packeteer	-0.1206488
-4.76996	"Starbucks	-0.1205677
-4.46893	"The	-0.119977
-4.76996	"Theta	-0.1206636
-4.76996	"attractive	-0.1195188
-4.76996	#02-00	-0.1138088
-4.292839	$	-0.1206267
-4.76996	$(0.05)	-0.1170192
-4.76996	$(0.09)	-0.1170192
-4.46893	$(0.10)	-0.1030814
-4.76996	$(0.12)	-0.1138088
-4.76996	$(0.18)	-0.1101213
-4.76996	$(0.34)	-0.1101213
-4.76996	$(0.49).For	-0.09966529
-4.76996	$(0.67)	-0.1170192
-4.76996	$(0.79)."	-0.1153946
-4.76996	$(10.3)	-0.1157379
-4.76996	$(10.6)	-0.1157379
-4.46893	$(143.0)	-0.1157006
-4.46893	$(231.7)	-0.1157006
-4.76996	$(24.976)	-0.1157379
-4.76996	$(25.067)	-0.1157379
-4.76996	$(28.889)	-0.1157379
-4.76996	$(46.321)	-0.1157379
-4.46893	$.02	-0.1100911
-4.46893	$.04	-0.224986
-4.76996	$.05	-0.1170192
-4.46893	$.09	-0.224986
-4.76996	$.11	-0.1170192
-4.76996	$.12	-0.1138088
-4.76996	$.23	-0.1170192
-4.46893	$.25	-0.224986
-4.76996	$.49	-0.1101213
-4.76996	$.51,	-0.1190452
-4.76996	$.55	-0.1206193
-4.76996	$.55,	-0.1190452
-4.76996	$.57	-0.1101213
-4.76996	$.59	-0.1170192
-4.76996	$.79	-0.1101213
-4.167901	$0.00	-0.2142471
-3.991809	$0.01	-0.6121066
-4.070991	$0.02	-0.4516036
-4.76996	$0.02.Revenues	-0.1120442
-3.728568	$0.03	-0.8377148
-3.991809	$0.04	-0.6184838
-4.76996	$0.04.These	-0.119356
-3.623832	$0.05	-0.7641271
-3.815718	$0.06	-0.4224007
-4.76996	$0.06,	-0.1192154
-4.76996	$0.06-$0.08	-0.1170192
-4.76996	$0.06.	-0.1153946
-4.76996	$0.0625	-0.1170192
-3.815718	$0.07	-1.060523
-4.76996	$0.07,	-0.1205013
-4.76996	$0.075	-0.1170192
-3.815718	$0.08	-0.4705264
-4.76996	$0.08),	-0.1180222
-4.070991	$0.09	-0.3740087
-4.76996	$0.09)	-0.1170192
-4.76996	$0.09.The	-0.1206341
-3.815718	$0.10	-0.424332
-4.76996	$0.10.On	-0.1148193
-4.070991	$0.11	-0.1989162
-4.76996	$0.1125	-0.1170192
-3.76996	$0.12	-1.037734
-4.46893	$0.125	-0.1168183
-3.924862	$0.13	-0.2241468
-3.76996	$0.14	-0.4547785
-3.815718	$0.15	-0.9963409
-4.46893	$0.15,	-0.1189563
-4.76996	$0.15."	-0.1153946
-4.76996	$0.155	-0.1170192
-3.86687	$0.16	-0.4260325
-4.76996	$0.16)	-0.1170192
-4.76996	$0.16.For	-0.1205234
-3.991809	$0.17	-0.6170739
-3.924862	$0.18	-0.490503
-4.76996	$0.18,	-0.1190452
-4.76996	$0.185	-0.1170192
-4.76996	$0.1875	-0.1170192
-4.167901	$0.19	-0.486973
-4.76996	$0.19.Prior	-0.1206415
-4.292839	$0.20	-0.7503977
-4.167901	$0.21	-0.09894471
-4.76996	$0.21),	-0.1180222
-3.924862	$0.22	-0.5028606
-4.76996	$0.22.These	-0.1206562
-4.76996	$0.225	-0.1189859
-4.070991	$0.23	-0.8672919
-4.292839	$0.24	-0.1752905
-4.76996	$0.24,	-0.1202577
-3.86687	$0.25	-0.9505834
-4.76996	$0.25,	-0.1190452
-4.292839	$0.26	-0.1080988
-4.292839	$0.27	-0.1139587
-4.292839	$0.28	-0.7503977
-4.070991	$0.29	-0.8672919
-4.292839	$0.3	-0.103043
-4.167901	$0.30	-0.3675115
-4.76996	$0.30.The	-0.1203241
-4.46893	$0.31	-0.224986
-3.924862	$0.32	-0.7041372
-4.76996	$0.33	-0.1170192
-4.76996	$0.33"	-0.1153946
-3.924862	$0.34	-0.4866644
-4.292839	$0.35	-0.7503977
-4.292839	$0.36	-0.1007014
-4.292839	$0.37	-0.1837231
-4.76996	$0.37,	-0.1192154
-3.991809	$0.38	-0.2647874
-4.76996	$0.38,	-0.120671
-4.46893	$0.39	-0.1148043
-4.76996	$0.40	-0.1100306
-4.76996	$0.40.	-0.1153946
-4.76996	$0.407375	-0.1170192
-4.167901	$0.41	-0.4822597
-4.292839	$0.42	-0.7503977
-4.76996	$0.42.Total	-0.1197184
-4.167901	$0.43	-0.3675115
-3.991809	$0.44	-0.2609415
-4.167901	$0.45	-0.4784489
-3.991809	$0.46	-0.3077055
-4.070991	$0.47	-0.3045165
-4.46893	$0.48	-0.1062803
-4.76996	$0.49	-0.1184821
-4.76996	$0.5	-0.1157379
-4.167901	$0.50	-0.1650448
-4.46893	$0.51	-0.1062803
-4.76996	$0.51,	-0.1206636
-3.991809	$0.52	-0.3175292
-4.76996	$0.52,	-0.1190452
-4.76996	$0.53	-0.1100306
-4.76996	$0.53,	-0.1177253
-4.292839	$0.54	-0.7503977
-4.46893	$0.55	-0.1148043
-4.76996	$0.55,	-0.1148193
-4.76996	$0.56	-0.1170192
-4.070991	$0.57	-0.8672919
-4.76996	$0.58	-0.119881
-4.46893	$0.59	-0.1148043
-4.76996	$0.59.The	-0.1201322
-4.46893	$0.6	-0.2237047
-4.292839	$0.60	-0.1837231
-4.46893	$0.62	-0.224986
-4.167901	$0.63	-0.4875408
-4.76996	$0.63,	-0.1190452
-4.76996	$0.65	-0.1170192
-4.76996	$0.66	-0.1184821
-4.292839	$0.67	-0.1790098
-4.76996	$0.69	-0.1120442
-4.46893	$0.71	-0.1060362
-4.46893	$0.72	-0.224986
-4.46893	$0.73	-0.1148043
-4.76996	$0.74	-0.1148193
-4.292839	$0.75	-0.1040098
-4.76996	$0.75.The	-0.1183412
-4.46893	$0.76	-0.1148043
-4.76996	$0.77.In	-0.1206341
-4.76996	$0.78,	-0.1201322
-4.76996	$0.8	-0.1205529
-4.46893	$0.82	-0.224986
-4.76996	$0.84	-0.1170192
-4.76996	$0.85	-0.1170192
-4.76996	$0.86	-0.1138088
-4.167901	$0.87	-0.1000445
-4.76996	$0.88	-0.1170192
-4.76996	$0.89,	-0.1190452
-4.76996	$0.91	-0.1184821
-4.76996	$0.92	-0.1120442
-4.76996	$0.93	-0.1170192
-4.76996	$0.95	-0.1170192
-4.76996	$0.97	-0.1205751
-4.76996	$0.98	-0.1170192
-4.76996	$0.98,	-0.1201765
-4.292839	$0.99	-0.1790098
-3.991809	$1	-0.1446636
-4.76996	$1,002.4	-0.118823
-4.76996	$1,012,000	-0.1101213
-4.76996	$1,021.4	-0.1157379
-4.76996	$1,030.6	-0.118823
-4.76996	$1,049.5	-0.1157379
-4.76996	$1,052	-0.1157379
-4.76996	$1,055	-0.1157379
-4.76996	$1,084,891,000	-0.1185637
-4.76996	$1,089.7	-0.1157379
-4.76996	$1,105,189,000	-0.119844
-4.76996	$1,106.3	-0.1157379
-4.76996	$1,112	-0.1157379
-4.76996	$1,117.6	-0.1157379
-4.76996	$1,125,109,000	-0.1120442
-4.76996	$1,134.4	-0.1157379
-4.76996	$1,152.1	-0.1157379
-4.76996	$1,157	-0.1157379
-4.76996	$1,157,070,000	-0.1120442
-4.76996	$1,173	-0.1157379
-4.76996	$1,200,000,000	-0.120671
-4.76996	$1,234	-0.1157379
-4.76996	$1,250.00	-0.1170192
-4.76996	$1,289,116,0"	-0.1153946
-4.76996	$1,296.5	-0.1157379
-4.76996	$1,311.8	-0.1157379
-4.76996	$1,322,667,000	-0.1120442
-4.76996	$1,338,000.For	-0.09966529
-4.76996	$1,343.3	-0.1157379
-4.76996	$1,357,483,000	-0.1190452
-4.76996	$1,413	-0.1157379
-4.76996	$1,422.5	-0.1157379
-4.76996	$1,431.9	-0.1157379
-4.76996	$1,434,416,000	-0.1190452
-4.76996	$1,447	-0.1157379
-4.76996	$1,453,000	-0.1177253
-4.76996	$1,454.6	-0.118823
-4.76996	$1,455.5	-0.1157379
-4.76996	$1,465,180,000	-0.1187415
-4.76996	$1,521.8	-0.1157379
-4.76996	$1,533.6	-0.1157379
-4.76996	$1,601,799,000.Third	-0.1172869
-4.76996	$1,637.1	-0.1157379
-4.76996	$1,673,225,000	-0.1120442
-4.76996	$1,840.7	-0.1157379
-4.76996	$1,845million	-0.1190452
-4.76996	$1.00	-0.1170192
-4.76996	$1.00."	-0.1153946
-4.76996	$1.00.On	-0.120302
-4.76996	$1.01	-0.1170192
-4.46893	$1.02	-0.09920828
-4.76996	$1.03	-0.1170192
-4.76996	$1.03-$1.13	-0.1100306
-4.76996	$1.04	-0.1170192
-4.76996	$1.05	-0.1170192
-4.46893	$1.06	-0.1148043
-4.76996	$1.07	-0.1138088
-4.46893	$1.09	-0.1170043
-4.167901	$1.1	-0.1602062
-4.76996	$1.10	-0.1170192
-4.76996	$1.10)	-0.1170192
-4.46893	$1.11	-0.2264489
-4.46893	$1.18	-0.1143705
-4.76996	$1.19	-0.1170192
-4.167901	$1.2	-0.4922786
-4.76996	$1.21	-0.1170192
-4.76996	$1.23	-0.1170192
-4.76996	$1.24	-0.1202356
-4.76996	$1.25	-0.1202356
-4.76996	$1.27	-0.1170192
-4.76996	$1.28	-0.1184821
-4.76996	$1.292	-0.120671
-4.070991	$1.3	-0.3862094
-4.76996	$1.32	-0.1170192
-4.76996	$1.35	-0.1120442
-4.76996	$1.38	-0.119881
-4.76996	$1.39075	-0.1170192
-4.167901	$1.4	-0.1662256
-4.76996	$1.41	-0.1120442
-4.76996	$1.42	-0.1202356
-4.46893	$1.44	-0.1148043
-4.76996	$1.45-1.50	-0.120671
-4.76996	$1.48	-0.120671
-4.070991	$1.5	-0.3813687
-4.76996	$1.50	-0.1202356
-4.76996	$1.51	-0.1170192
-4.76996	$1.52	-0.1170192
-4.46893	$1.55	-0.1062803
-4.76996	$1.58	-0.1202356
-3.991809	$1.6	-0.6278352
-4.76996	$1.60	-0.1100306
-4.76996	$1.61	-0.1170192
-4.76996	$1.62	-0.1205529
-4.76996	$1.63	-0.1101213
-4.46893	$1.64	-0.1040251
-4.76996	$1.65	-0.1170192
-4.76996	$1.65-1.75.	-0.1153946
-4.76996	$1.66	-0.1202356
-4.167901	$1.7	-0.4909842
-4.76996	$1.70.Revenue	-0.1182374
-4.76996	$1.73	-0.1170192
-4.76996	$1.75	-0.1170192
-4.76996	$1.8	-0.118823
-4.292839	$1.80	-0.1098416
-4.76996	$1.84	-0.1170192
-4.76996	$1.85	-0.1138088
-4.76996	$1.9	-0.1100306
-4.46893	$1.90	-0.09920828
-4.76996	$1.90.Same-store	-0.1200288
-4.76996	$1.9375	-0.1170192
-4.76996	$10,103,000,	-0.119881
-4.76996	$10,619,000	-0.1120442
-4.76996	$10,703,000	-0.1177253
-4.76996	$10.1	-0.118823
-4.46893	$10.3	-0.2237047
-4.46893	$10.7	-0.2237047
-3.924862	$100	-0.2734044
-4.76996	$100.4	-0.118823
-4.76996	$100.8	-0.1157379
-4.76996	$101.0	-0.1157379
-4.76996	$102.46	-0.1157379
-4.76996	$103	-0.1157379
-4.76996	$104,172,000	-0.1101213
-4.76996	$104,451,000	-0.1177253
-4.76996	$104.7	-0.1157379
-4.76996	$105,512,000,	-0.1179851
-4.292839	$105.3	-0.7491164
-4.76996	$106	-0.118823
-4.76996	$106,000	-0.1120442
-4.76996	$106,052,000,	-0.1179851
-4.76996	$106,379,000	-0.1120442
-4.46893	$106.23	-0.1156185
-4.76996	$106.4	-0.1157379
-4.76996	$107,349,000	-0.1148193
-4.76996	$108	-0.1157379
-4.76996	$108,219,000,	-0.1180222
-4.76996	$108,299,000,	-0.1180222
-4.76996	$109,202,000	-0.1101213
-4.76996	$11	-0.118823
-4.76996	$11,486,000	-0.1187415
-4.76996	$11,595,000	-0.1177253
-4.76996	$11,978,000	-0.1190452
-4.292839	$11.7	-0.18278
-4.76996	$110	-0.1157379
-4.76996	$110,708,000	-0.1177253
-4.76996	$110.8	-0.1157379
-4.46893	$1106.6	-0.2285198
-4.76996	$111,066,000	-0.1190452
-4.76996	$112	-0.1157379
-4.76996	$112.2	-0.1157379
-4.76996	$112.335	-0.118823
-4.76996	$112.48	-0.1157379
-4.46893	$1125.12	-0.1206636
-4.76996	$113.6	-0.118823
-4.76996	$114.2	-0.1157379
-4.76996	$114.3	-0.118823
-4.46893	$114.38	-0.1203832
-4.76996	$115.2	-0.1157379
-4.76996	$115.4	-0.118823
-4.76996	$116	-0.118823
-4.76996	$116.4	-0.118823
-4.76996	$117	-0.1205013
-4.76996	$117.3	-0.1157379
-4.76996	$118,972,000,	-0.1180222
-4.76996	$118.8	-0.1157379
-4.76996	$119.0)	-0.118823
-4.76996	$119.8	-0.1157379
-4.76996	$119.9	-0.1157379
-4.76996	$12	-0.118823
-4.76996	$12,305,000,	-0.1177253
-4.76996	$12,398,000,	-0.1177253
-4.76996	$12,635,000	-0.1177253
-4.46893	$12.0	-0.2237047
-4.76996	$12.2	-0.1157379
-4.76996	$12.3	-0.1157379
-4.76996	$12.44	-0.118823
-4.292839	$12.6	-0.1138538
-4.46893	$12.7	-0.2237047
-4.76996	$12.72	-0.1190452
-4.76996	$12.8	-0.1157379
-4.76996	$12.801	-0.1157379
-3.815718	$120	-0.3679029
-4.76996	$120,876,000	-0.1205382
-4.76996	$121	-0.1100306
-4.76996	$121.9	-0.1157379
-4.76996	$122	-0.1157379
-4.46893	$123	-0.1157155
-4.070991	$123.1	-0.3032427
-4.76996	$123.7	-0.1157379
-3.991809	$125	-0.1485032
-4.76996	$125,513,000.The	-0.1202577
-4.76996	$127.9	-0.118823
-4.76996	$128,300,000,	-0.1206562
-4.76996	$128.5	-0.118823
-4.76996	$129,000	-0.1138088
-4.76996	$13	-0.118823
-4.76996	$13,567,000	-0.1177253
-4.76996	$13.17	-0.1206562
-4.76996	$13.33	-0.1170192
-4.76996	$13.38	-0.1170192
-4.76996	$13.5	-0.1157379
-4.76996	$13.6	-0.1157379
-4.76996	$130	-0.1157379
-4.76996	$130,000,000	-0.1206636
-4.76996	$130.9	-0.118823
-4.76996	$132,824,000	-0.1100306
-4.76996	$133	-0.118823
-4.76996	$134	-0.118823
-4.76996	$134,277,000	-0.1190452
-4.76996	$134.0	-0.118823
-4.76996	$134.3	-0.1157379
-4.76996	$134.8	-0.1157379
-4.46893	$135.0	-0.1138613
-4.76996	$135.7	-0.1157379
-4.76996	$138.1	-0.1157379
-4.76996	$139.0	-0.1157379
-4.76996	$139.692	-0.1157379
-4.292839	$14	-0.110144
-4.46893	$14,052,000	-0.2256921
-4.46893	$14.0	-0.1138613
-4.76996	$14.3	-0.118823
-4.46893	$14.5	-0.2267898
-4.292839	$14.6	-0.7491164
-4.76996	$14.7	-0.1157379
-4.46893	$14.8	-0.2267898
-4.46893	$14.9	-0.115708
-4.167901	$140	-0.1028586
-4.76996	$141,000,	-0.1180222
-4.76996	$141.0	-0.1157379
-4.76996	$143	-0.118823
-4.76996	$143.05	-0.1205013
-4.76996	$144	-0.1206193
-4.76996	$144.3	-0.1157379
-4.76996	$144.8	-0.1157379
-4.292839	$145	-0.1770479
-4.76996	$145.5	-0.1157379
-4.76996	$145.6	-0.1157379
-4.76996	$145.8	-0.118823
-4.76996	$146	-0.1157379
-4.76996	$146.0	-0.118823
-4.76996	$147,546,000	-0.1177253
-4.76996	$149.4	-0.118823
-4.76996	$15	-0.1206193
-4.46893	$15.1	-0.2237047
-4.76996	$15.2	-0.118823
-4.76996	$15.66	-0.1157379
-4.76996	$15.7	-0.118823
-4.76996	$15.70	-0.1157379
-4.76996	$15.9	-0.1157379
-3.991809	$150	-0.1484659
-4.292839	$150.3	-0.18278
-4.76996	$151,893,000,	-0.1179851
-4.76996	$151,908,000	-0.1120442
-4.76996	$151.3	-0.1157379
-4.76996	$151.66	-0.1157379
-4.76996	$152,989,000	-0.1177253
-4.76996	$152.058	-0.118823
-4.76996	$153.0	-0.1157379
-4.76996	$153.1	-0.1157379
-4.76996	$154,999,000	-0.1101213
-4.76996	$155	-0.1157379
-4.76996	$155,647,000,	-0.1180222
-4.76996	$155.3	-0.1157379
-4.76996	$155.7	-0.1157379
-4.76996	$156,880,000,	-0.1180222
-4.76996	$157.2	-0.1157379
-4.76996	$157.8	-0.1157379
-4.76996	$158.4	-0.118823
-4.76996	$159,501,000,	-0.1180222
-4.76996	$16	-0.1157379
-4.76996	$16,631,000	-0.119844
-4.76996	$16.0	-0.1157379
-4.76996	$16.2	-0.118823
-4.76996	$16.4	-0.118823
-4.46893	$16.6	-0.1138613
-4.76996	$16.9	-0.1157379
-4.46893	$161	-0.1138613
-4.76996	$162	-0.118823
-4.76996	$163.1	-0.1157379
-4.76996	$163.8	-0.1157379
-4.76996	$163.9	-0.118823
-4.76996	$164	-0.1157379
-4.76996	$164,093,000	-0.1177253
-4.76996	$165	-0.1206636
-4.76996	$165.3	-0.1157379
-4.76996	$165.4	-0.118823
-4.76996	$165.8	-0.118823
-4.76996	$165.9	-0.1157379
-4.76996	$167,891,000,	-0.1180222
-4.46893	$168	-0.1049668
-4.76996	$168.2	-0.1157379
-4.76996	$169	-0.118823
-4.76996	$17	-0.118823
-4.76996	$17,402,000	-0.1177253
-4.76996	$17,552,000	-0.1177253
-4.46893	$17.1	-0.2267898
-4.76996	$17.3	-0.118823
-4.46893	$17.4	-0.1157304
-4.76996	$17.43	-0.118823
-4.76996	$17.7	-0.118823
-4.76996	$17.90mm.	-0.1153946
-4.46893	$170	-0.2237047
-4.76996	$171	-0.118823
-4.76996	$171,244,000	-0.1120442
-4.76996	$172,557,000	-0.119844
-4.292839	$173	-0.1844775
-4.46893	$174.88	-0.1156185
-4.76996	$174.9,	-0.1177253
-4.76996	$176	-0.118823
-4.76996	$176,749,000	-0.1177253
-4.76996	$176.455	-0.120671
-4.292839	$18	-0.1845895
-4.76996	$18.027	-0.1190452
-4.76996	$18.3	-0.1157379
-4.46893	$18.5	-0.2217757
-4.76996	$18.59	-0.1157379
-4.76996	$18.6	-0.1157379
-4.76996	$18.8	-0.1157379
-4.76996	$180.0	-0.1157379
-4.76996	$181.2	-0.1157379
-4.76996	$182	-0.1157379
-4.76996	$184	-0.1157379
-4.76996	$184.6	-0.118823
-4.76996	$185	-0.118823
-4.76996	$186	-0.1157379
-4.76996	$187,500.In	-0.1148193
-4.76996	$187.8	-0.118823
-4.76996	$188.89	-0.1205013
-4.292839	$19	-0.18278
-4.76996	$19.1	-0.118823
-4.76996	$19.4	-0.118823
-4.76996	$19.5	-0.1157379
-4.76996	$19.7	-0.1157379
-4.46893	$19.8	-0.2237047
-4.292839	$19.9	-0.1824352
-4.76996	$19.99	-0.1157379
-4.76996	$190.1	-0.1157379
-4.167901	$191	-0.3662302
-4.76996	$191,861,000,	-0.1179851
-4.76996	$196,524,000,	-0.1180222
-4.76996	$196.3	-0.1157379
-4.46893	$197,135,000	-0.1111932
-4.76996	$197.9	-0.1157379
-4.76996	$198,302,000	-0.1177253
-4.76996	$199.6	-0.1157379
-3.991809	$2	-0.264331
-4.76996	$2,138	-0.1157379
-4.76996	$2,157.8	-0.1157379
-4.76996	$2,233.6	-0.1157379
-4.76996	$2,321.0	-0.1157379
-4.76996	$2,326,000	-0.1177253
-4.76996	$2,335.8	-0.1157379
-4.76996	$2,354,000	-0.1120442
-4.76996	$2,446.2	-0.1157379
-4.76996	$2,469,818,000	-0.1101213
-4.76996	$2,510.3	-0.1157379
-4.76996	$2,523,379,000	-0.1120442
-4.76996	$2,544,939,000	-0.1138088
-4.76996	$2,559.6	-0.1157379
-4.76996	$2,564.1	-0.1157379
-4.76996	$2,564.7	-0.118823
-4.76996	$2,577,650,000	-0.1138088
-4.76996	$2,581,841,000	-0.119844
-4.76996	$2,612,541,000	-0.1190452
-4.76996	$2,613,387,000	-0.1187415
-4.76996	$2,752,302,000	-0.1182003
-4.76996	$2,769	-0.1157379
-4.76996	$2,815	-0.1157379
-4.76996	$2,877.1	-0.118823
-4.167901	$2.0	-0.1659046
-4.76996	$2.03	-0.1101213
-4.76996	$2.05	-0.1184821
-4.167901	$2.1	-0.2280768
-4.292839	$2.10	-0.09717306
-4.76996	$2.12	-0.1170192
-4.76996	$2.16	-0.1138088
-4.46893	$2.17	-0.2282024
-4.76996	$2.17-2.22,	-0.1202577
-4.76996	$2.19	-0.1170192
-3.991809	$2.2	-0.1823227
-4.76996	$2.22	-0.1138088
-4.76996	$2.23	-0.120671
-4.76996	$2.24	-0.1205529
-4.76996	$2.28	-0.1170192
-4.76996	$2.30	-0.1100306
-4.46893	$2.32	-0.1180371
-4.76996	$2.36,	-0.1201765
-4.76996	$2.37	-0.1170192
-4.46893	$2.4	-0.1202134
-4.76996	$2.43	-0.1170192
-4.76996	$2.46	-0.1170192
-4.070991	$2.5	-0.3028023
-4.76996	$2.52	-0.1202356
-4.76996	$2.54	-0.1157379
-4.76996	$2.55	-0.1100306
-4.76996	$2.56	-0.1101213
-4.76996	$2.57	-0.1184821
-4.76996	$2.60	-0.1170192
-4.76996	$2.61	-0.1202356
-4.76996	$2.62	-0.1170192
-4.76996	$2.63	-0.1100306
-4.76996	$2.65	-0.1170192
-4.76996	$2.67	-0.1170192
-4.46893	$2.7	-0.2237047
-4.76996	$2.70	-0.1100306
-4.76996	$2.71	-0.1170192
-4.76996	$2.76	-0.120671
-4.76996	$2.79	-0.1184821
-4.76996	$2.8	-0.118823
-4.76996	$2.80,	-0.1201765
-4.76996	$2.82	-0.1100306
-4.46893	$2.86	-0.1165726
-4.76996	$2.87	-0.1100306
-4.070991	$2.9	-0.199387
-4.76996	$2.91.	-0.1153946
-4.76996	$2.93,	-0.1201765
-4.76996	$2.97	-0.1170192
-4.76996	$2.98	-0.1170192
-3.924862	$20	-0.2866957
-4.76996	$20,266,000	-0.1177253
-4.76996	$20.02	-0.1157379
-4.76996	$20.1	-0.118823
-4.76996	$20.2	-0.118823
-4.76996	$20.27	-0.1157379
-4.76996	$20.9	-0.118823
-4.76996	$20.98	-0.1157379
-3.86687	$200	-0.2978987
-4.76996	$200,000.Avery	-0.1190378
-4.76996	$200,103,000	-0.1101213
-4.76996	$200.5	-0.1157379
-4.76996	$203.5	-0.1157379
-4.76996	$203.9	-0.118823
-4.76996	$204,124,000	-0.1120442
-4.76996	$204,954,000	-0.1120442
-4.76996	$205	-0.1157379
-4.76996	$206.8	-0.1157379
-4.76996	$208.1	-0.118823
-4.76996	$208.8	-0.120671
-4.76996	$209.5	-0.1157379
-4.76996	$21,033,000	-0.1177253
-4.76996	$21,076,000,	-0.119881
-4.76996	$21,540,000	-0.119844
-4.46893	$21.0	-0.1138613
-4.76996	$21.149	-0.1157379
-4.76996	$21.2	-0.118823
-4.76996	$21.3	-0.1157379
-4.76996	$210	-0.118823
-4.76996	$210,962,000	-0.1177253
-4.76996	$211.5	-0.118823
-4.76996	$212,294,000	-0.1177253
-4.76996	$212.2	-0.1157379
-4.76996	$213.5	-0.118823
-4.76996	$214.7	-0.1157379
-4.76996	$215	-0.1157379
-4.76996	$215,083,000	-0.1177253
-4.76996	$215,289,000	-0.119844
-4.76996	$215,437,000	-0.1177253
-4.76996	$216	-0.118823
-4.76996	$216,000	-0.1177253
-4.76996	$216,058,000	-0.119844
-4.76996	$216,950,000,	-0.1180222
-4.76996	$216.19	-0.118823
-4.46893	$218	-0.1188156
-4.76996	$219,740,000,	-0.1177253
-4.76996	$219,985,000,	-0.1179851
-4.76996	$22,289,000	-0.1187415
-4.76996	$22,380,000	-0.1177253
-4.76996	$22.03	-0.1157379
-4.76996	$22.2	-0.118823
-4.46893	$22.5	-0.2237047
-4.76996	$22.75,	-0.1120442
-4.76996	$22.9	-0.118823
-4.76996	$221	-0.1157379
-4.76996	$221,216,000	-0.1120442
-4.46893	$225	-0.1156857
-4.76996	$225,179,000,	-0.1180222
-4.76996	$225.08	-0.118823
-4.76996	$226	-0.1157379
-4.76996	$227	-0.118823
-4.76996	$227,037,000	-0.1177253
-4.76996	$227,097,000	-0.1177253
-4.76996	$229	-0.1157379
-4.46893	$23	-0.2267898
-4.76996	$23,384,000	-0.1177253
-4.76996	$23.0	-0.1157379
-4.76996	$23.1	-0.1157379
-4.76996	$23.3	-0.118823
-4.76996	$23.4	-0.1157379
-4.76996	$23.8	-0.1206415
-4.292839	$23.9	-0.7491164
-4.76996	$230,269,000	-0.119844
-4.76996	$231,910,000	-0.1192154
-4.46893	$232	-0.1138613
-4.76996	$233,294,000	-0.120671
-4.76996	$233,876,000,	-0.1180222
-4.76996	$234.8	-0.1157379
-4.76996	$235	-0.118823
-4.76996	$235,886,000	-0.1177253
-4.76996	$238,955,000,	-0.1180222
-4.76996	$238.1	-0.1157379
-4.76996	$238.2	-0.118823
-4.76996	$239	-0.118823
-4.46893	$24	-0.1138613
-4.76996	$24.1	-0.118823
-4.76996	$24.42	-0.1157379
-4.167901	$24.7	-0.2218281
-4.76996	$24.8	-0.1157379
-4.76996	$242	-0.1206562
-4.76996	$242,712,000	-0.1190452
-4.76996	$242.7	-0.120671
-4.76996	$244.0	-0.118823
-4.76996	$244.2	-0.1157379
-4.76996	$245,810,000	-0.1205382
-4.76996	$246.6	-0.1157379
-4.76996	$247	-0.1157379
-4.46893	$25	-0.2237047
-4.76996	$25,014,000	-0.1205382
-4.76996	$25.0	-0.118823
-4.76996	$25.4	-0.1157379
-4.76996	$25.5	-0.1157379
-4.76996	$25.6	-0.1157379
-3.924862	$250	-0.5037494
-4.76996	$252,959,000	-0.119844
-4.76996	$258.0	-0.1157379
-4.76996	$258.1	-0.1157379
-4.76996	$26	-0.118823
-4.76996	$26,025,000	-0.1177253
-4.76996	$26.0	-0.1157379
-4.76996	$26.2	-0.118823
-4.76996	$26.3	-0.118823
-4.76996	$26.4	-0.1157379
-4.76996	$26.5	-0.1157379
-4.76996	$26.53	-0.1157379
-4.76996	$26.67	-0.118823
-4.76996	$260	-0.1157379
-4.76996	$263	-0.1157379
-4.76996	$263,979,000,	-0.1180222
-4.76996	$265.9	-0.1157379
-4.76996	$268,494,000	-0.1100306
-4.76996	$27,245,000	-0.1177253
-4.76996	$27,245,000,	-0.1177253
-4.76996	$27,299,000,	-0.1177253
-4.76996	$27.0	-0.1157379
-4.76996	$27.17	-0.1157379
-4.76996	$270	-0.120671
-4.76996	$271	-0.1157379
-4.76996	$272	-0.1157379
-4.76996	$272.7	-0.118823
-4.76996	$273	-0.1157379
-4.76996	$273,213,000	-0.119844
-4.76996	$273.7	-0.118823
-4.76996	$274	-0.1157379
-4.76996	$276,710,000	-0.1177253
-4.76996	$277	-0.118823
-4.76996	$278	-0.118823
-4.76996	$279	-0.1157379
-4.76996	$28.15	-0.1157379
-4.46893	$28.2	-0.1138613
-4.76996	$28.24	-0.118823
-4.46893	$28.3	-0.2237047
-4.76996	$28.37."	-0.1153946
-4.76996	$28.50	-0.1170192
-4.76996	$28.6	-0.1157379
-4.76996	$28.7	-0.1157379
-4.76996	$28.79	-0.1157379
-4.46893	$28.8	-0.1138613
-4.76996	$28.938	-0.1157379
-4.76996	$282	-0.1157379
-4.76996	$284.1	-0.118823
-4.76996	$289.8	-0.1157379
-4.76996	$29,530,000	-0.1120442
-4.76996	$29.3	-0.1157379
-4.76996	$29.4	-0.1157379
-4.292839	$29.5	-0.18278
-4.76996	$29.6	-0.1157379
-4.76996	$29.7	-0.1157379
-4.76996	$29.8	-0.118823
-4.76996	$292.4	-0.1157379
-4.76996	$296	-0.118823
-4.76996	$296,327,000,	-0.1179851
-4.76996	$298.65	-0.1205529
-4.76996	$298.653	-0.1205529
-4.292839	$3	-0.1842088
-4.76996	$3,328,347,000	-0.1120442
-4.76996	$3,439	-0.1157379
-4.76996	$3,516,000	-0.1177253
-4.76996	$3,820	-0.1157379
-4.76996	$3,873,000	-0.1190452
-4.46893	$3.0	-0.1157304
-4.76996	$3.08	-0.1202356
-4.76996	$3.1	-0.1205529
-4.76996	$3.15	-0.1101213
-4.76996	$3.17	-0.1170192
-4.167901	$3.2	-0.1640484
-4.46893	$3.3	-0.1188082
-4.76996	$3.33	-0.1202356
-4.46893	$3.45	-0.2237047
-4.76996	$3.5	-0.1205529
-4.76996	$3.55	-0.1184821
-4.46893	$3.6	-0.1156707
-4.76996	$3.80-$4.00	-0.1206488
-4.76996	$3.95	-0.1100306
-4.76996	$30	-0.1157379
-4.76996	$30,000-and	-0.09966529
-4.76996	$30.4	-0.1157379
-4.76996	$30.6	-0.1157379
-4.46893	$30.75	-0.1203832
-4.070991	$300	-0.4609344
-4.46893	$300.00	-0.1203832
-4.76996	$301.5	-0.1157379
-4.76996	$304.98	-0.118823
-4.76996	$306.7	-0.1157379
-4.46893	$308	-0.1138613
-4.76996	$31,747,000	-0.1177253
-4.76996	$31.1	-0.1157379
-4.76996	$31.8	-0.1157379
-4.76996	$312	-0.1157379
-4.76996	$314	-0.1157379
-4.76996	$316.9	-0.1157379
-4.76996	$317,247,000,	-0.1180222
-4.76996	$317,950,000	-0.1120442
-4.76996	$318,888,000	-0.119844
-4.76996	$32	-0.118823
-4.76996	$32,722,000	-0.1177253
-4.76996	$32,835,000	-0.1100306
-4.46893	$32.1	-0.1138613
-4.292839	$32.5	-0.1138463
-4.76996	$32.51	-0.1157379
-4.76996	$32.6	-0.118823
-4.76996	$32.88	-0.1157379
-4.76996	$320	-0.120671
-4.76996	$320.71	-0.118823
-4.76996	$320.86	-0.1157379
-4.76996	$321,287,000,	-0.1177253
-4.76996	$322,784,000	-0.119844
-4.76996	$325.6	-0.1157379
-4.76996	$327	-0.120671
-4.76996	$329	-0.118823
-4.76996	$33.1	-0.1157379
-4.76996	$33.2	-0.1157379
-4.76996	$33.4	-0.1205013
-4.76996	$33.5	-0.1157379
-4.76996	$33.7	-0.1157379
-4.76996	$33.9	-0.1157379
-4.76996	$330.79	-0.1157379
-4.46893	$34.1	-0.2237047
-4.76996	$34.2	-0.1157379
-4.46893	$34.3	-0.1138613
-4.76996	$34.5	-0.1157379
-4.76996	$340	-0.1157379
-4.76996	$344,327,000,	-0.1180222
-4.76996	$344.820	-0.1157379
-4.76996	$345	-0.1206193
-4.76996	$346,196,000	-0.119844
-4.76996	$347.575	-0.1157379
-4.76996	$347.8	-0.1157379
-4.76996	$35	-0.1157379
-4.76996	$35.4	-0.1157379
-4.46893	$35.55	-0.1203832
-4.76996	$35.582	-0.1157379
-4.76996	$35.8	-0.1157379
-4.76996	$350	-0.1157379
-4.76996	$36.0	-0.1157379
-4.76996	$36.7	-0.120671
-4.76996	$364,681,000,	-0.1179851
-4.76996	$364.2	-0.1157379
-4.46893	$365	-0.1206488
-4.76996	$365,696,000	-0.1120442
-4.76996	$366	-0.1157379
-4.76996	$367	-0.1157379
-4.76996	$367,729,000,	-0.1180222
-4.76996	$368	-0.1157379
-4.76996	$37,634,000	-0.1148193
-4.76996	$37.17	-0.118823
-4.76996	$37.2	-0.1157379
-4.76996	$37.46	-0.1157379
-4.76996	$370	-0.1157379
-4.76996	$374.0	-0.1157379
-4.46893	$375	-0.1157155
-4.76996	$38	-0.118823
-4.76996	$38.4	-0.118823
-4.76996	$38.8	-0.1205013
-4.76996	$383,333,333.34	-0.120671
-4.76996	$39	-0.1157379
-4.76996	$39.8	-0.1157379
-4.76996	$391	-0.1157379
-4.76996	$393	-0.1157379
-4.167901	$4	-0.4878991
-4.76996	$4,373,089,00"	-0.1153946
-4.76996	$4.	-0.1153946
-4.46893	$4.0	-0.1138613
-4.76996	$4.1	-0.1157379
-4.46893	$4.20	-0.1062803
-4.167901	$4.3	-0.1663524
-4.76996	$4.4	-0.1157379
-4.76996	$4.453.	-0.1153946
-4.292839	$4.7	-0.1842088
-4.76996	$4.76	-0.1157379
-4.76996	$4.8	-0.1157379
-4.76996	$4.9	-0.1157379
-4.46893	$4.93	-0.1083113
-4.76996	$4.99	-0.1206488
-3.86687	$40	-0.125568
-4.76996	$40.0	-0.118823
-4.76996	$40.1	-0.1157379
-4.76996	$40.6	-0.1157379
-4.76996	$40.7	-0.1157379
-4.76996	$40.8	-0.118823
-4.070991	$400	-0.1537151
-4.76996	$400-$500	-0.1100306
-4.46893	$401	-0.1138613
-4.76996	$401,000	-0.1177253
-4.76996	$401.62	-0.1205013
-4.76996	$405.0	-0.1206193
-4.76996	$409.1	-0.1157379
-4.76996	$41	-0.1157379
-4.76996	$41,712,000	-0.119844
-4.292839	$41.2	-0.18278
-4.76996	$41.20	-0.1206415
-4.76996	$41.5	-0.1157379
-4.76996	$41.6	-0.118823
-4.46893	$41.7	-0.2237047
-4.46893	$416.5	-0.115723
-4.46893	$418	-0.1138613
-4.76996	$42	-0.118823
-4.76996	$42,105,000,	-0.1180222
-4.76996	$42.2	-0.1157379
-4.76996	$42.4	-0.1157379
-4.76996	$420,668,000,	-0.1179851
-4.76996	$421.5	-0.1206193
-4.46893	$425	-0.1156707
-4.76996	$43	-0.1157379
-4.76996	$43.0	-0.118823
-4.76996	$43.4	-0.1157379
-4.76996	$43.6	-0.1157379
-4.76996	$43.68	-0.1157379
-4.76996	$430	-0.1157379
-4.76996	$431	-0.1157379
-4.76996	$431.4	-0.1157379
-4.46893	$431.6	-0.2237047
-4.76996	$438.4	-0.1206193
-4.76996	$44,297,000	-0.1177253
-4.76996	$44,424,000,	-0.1179851
-4.76996	$44,826,000	-0.1167811
-4.76996	$44.1	-0.118823
-4.46893	$44.3	-0.2267898
-4.76996	$44.5	-0.1157379
-4.76996	$44.8	-0.118823
-4.76996	$45	-0.1157379
-4.76996	$45"	-0.1153946
-4.76996	$45,292,000	-0.1185637
-4.76996	$45,634,000	-0.119844
-4.76996	$45.1	-0.118823
-4.76996	$45.7	-0.1157379
-4.292839	$450	-0.1155663
-4.46893	$452	-0.2237047
-4.76996	$454.6	-0.1157379
-4.76996	$458	-0.118823
-4.76996	$459	-0.1157379
-4.76996	$46.0	-0.1157379
-4.46893	$46.1	-0.1138613
-4.76996	$46.7	-0.118823
-4.76996	$46.8	-0.1157379
-4.76996	$47	-0.1157379
-4.76996	$47,126,000	-0.1177253
-4.76996	$47.0	-0.1157379
-4.76996	$47.1	-0.1157379
-4.76996	$47.3	-0.1157379
-4.46893	$47.4	-0.2237047
-4.76996	$47.9	-0.118823
-4.76996	$472.1	-0.1157379
-4.76996	$4769,000	-0.1185637
-4.76996	$477,557,000,	-0.1180222
-4.167901	$48	-0.1643783
-4.76996	$48.3	-0.1157379
-4.76996	$48.6	-0.118823
-4.76996	$48.7	-0.118823
-4.76996	$480	-0.1157379
-4.76996	$487	-0.118823
-4.76996	$488	-0.118823
-4.76996	$49	-0.1157379
-4.76996	$49,814,000	-0.1177253
-4.76996	$49.2	-0.1157379
-4.76996	$49.4	-0.1157379
-4.76996	$49.5	-0.1157379
-4.76996	$49.9	-0.1157379
-4.76996	$493	-0.1157379
-4.76996	$493,280,000	-0.1190452
-4.46893	$494.4	-0.1138613
-4.76996	$498.5	-0.1157379
-4.292839	$5	-0.18278
-4.76996	$5,380	-0.1157379
-4.76996	$5,644	-0.1157379
-4.76996	$5,684,000	-0.1148193
-4.76996	$5,806	-0.1157379
-4.292839	$5.1	-0.1842088
-4.76996	$5.4	-0.1205529
-4.46893	$5.5	-0.2237047
-4.76996	$5.7	-0.1202356
-4.76996	$5.8	-0.1205529
-4.76996	$5.9	-0.1157379
-4.76996	$5.94	-0.1157379
-4.292839	$50	-0.1097584
-4.76996	$50,923,000	-0.1205382
-4.76996	$50.171	-0.1157379
-4.76996	$50.3	-0.1157379
-4.76996	$50.6	-0.118823
-4.76996	$50.7	-0.1206562
-4.76996	$50.78	-0.1157379
-4.76996	$50.8	-0.118823
-3.728568	$500	-0.6798303
-4.76996	$500,983,000	-0.119844
-4.76996	$501.2	-0.1157379
-4.76996	$505.5	-0.1157379
-4.76996	$506,300,000	-0.1148193
-4.76996	$506.4	-0.1157379
-4.76996	$507.2	-0.118823
-4.76996	$51	-0.1157379
-4.76996	$51,146,000	-0.1177253
-4.76996	$51.09	-0.1157379
-4.76996	$51.3	-0.1157379
-4.76996	$51.77	-0.1157379
-4.76996	$51.8	-0.1157379
-4.76996	$515	-0.1157379
-4.76996	$515,741,000,	-0.1179851
-4.76996	$516.4	-0.1157379
-4.76996	$518	-0.118823
-4.76996	$52,157,000	-0.1101213
-4.76996	$52,611,000	-0.1177253
-4.76996	$52.2	-0.1157379
-4.46893	$52.4	-0.2237047
-4.76996	$52.7	-0.1190452
-4.76996	$52.8	-0.1157379
-4.76996	$521.8	-0.1157379
-4.46893	$525	-0.1205382
-4.76996	$527	-0.1157379
-4.76996	$53.3	-0.118823
-4.76996	$53.5	-0.1157379
-4.76996	$53.8	-0.1157379
-4.46893	$536	-0.1138613
-4.76996	$539.0	-0.1157379
-4.76996	$539.3	-0.1157379
-4.76996	$539.5	-0.1157379
-4.76996	$54	-0.1157379
-4.76996	$54.5	-0.1157379
-4.76996	$541.9	-0.118823
-4.76996	$549.0	-0.1206193
-4.76996	$55	-0.1157379
-4.76996	$55,376,000	-0.1177253
-4.76996	$55.0	-0.118823
-4.76996	$55.5	-0.118823
-4.76996	$55.8	-0.1157379
-4.76996	$55.9	-0.1157379
-4.76996	$550	-0.1157379
-4.76996	$550.4	-0.1157379
-4.76996	$56,778,000	-0.1177253
-4.76996	$56,778,000,	-0.1180222
-4.76996	$56.2	-0.118823
-4.76996	$56.4	-0.118823
-4.76996	$56.8	-0.118823
-4.76996	$564.3	-0.1157379
-4.76996	$565.5	-0.1157379
-4.76996	$566.3	-0.1101213
-4.76996	$568.3	-0.1157379
-4.76996	$57.7	-0.118823
-4.46893	$57.9	-0.1138613
-4.76996	$570,589,000	-0.119844
-4.76996	$58	-0.120671
-4.76996	$58,000,000	-0.1177253
-4.46893	$58.2	-0.2237047
-4.76996	$58.6	-0.1157379
-4.76996	$581.5	-0.1157379
-4.76996	$587.9	-0.1157379
-4.76996	$59,963,000	-0.1177253
-4.76996	$59.2	-0.118823
-4.76996	$59.4	-0.1157379
-4.76996	$59.5	-0.120671
-4.76996	$591.8	-0.1157379
-4.76996	$597	-0.1157379
-4.76996	$597.8	-0.1157379
-4.76996	$599	-0.1157379
-4.76996	$6	-0.1206562
-4.76996	$6,498	-0.1157379
-4.76996	$6,512.7	-0.1157379
-4.76996	$6,989,000	-0.1190452
-4.76996	$6.1	-0.118823
-4.76996	$6.32	-0.1170192
-4.292839	$6.4	-0.1151631
-4.76996	$6.50	-0.1100306
-4.76996	$6.60	-0.1148193
-4.292839	$6.8	-0.7491164
-4.292839	$6.9	-0.18278
-3.991809	$60	-0.1322555
-4.76996	$60.4	-0.118823
-4.76996	$60.9	-0.118823
-4.76996	$600	-0.1157379
-4.167901	$600.00	-0.22835
-4.76996	$605.8	-0.1157379
-4.76996	$607.1	-0.1206562
-4.76996	$61,220,000	-0.1177253
-4.76996	$61,343,000,	-0.1179851
-4.76996	$61,920,000	-0.1148193
-4.76996	$61.0	-0.1157379
-4.76996	$61.7	-0.1157379
-4.76996	$618	-0.1157379
-4.76996	$618.7	-0.1157379
-4.76996	$62,070,000	-0.119844
-4.76996	$62,27	-0.118823
-4.76996	$62,734,000	-0.1177253
-4.76996	$62.5	-0.1157379
-4.76996	$620	-0.1157379
-4.76996	$625	-0.1157379
-4.76996	$629	-0.1157379
-4.76996	$629.0	-0.118823
-4.76996	$629.3	-0.1206562
-4.76996	$63,452,000	-0.1177253
-4.76996	$63.25	-0.1157379
-4.292839	$63.6	-0.7491164
-4.76996	$630.9	-0.1157379
-4.76996	$632.353	-0.1157379
-4.76996	$64,735,000	-0.1138088
-4.76996	$64.2	-0.1157379
-4.76996	$64.5	-0.118823
-4.76996	$640.2	-0.1157379
-4.76996	$645-670	-0.118823
-4.76996	$65,143,000	-0.1101213
-4.76996	$65,197,000	-0.1148193
-4.76996	$65.26	-0.1157379
-4.76996	$65.47	-0.1205013
-4.76996	$65.77	-0.1157379
-4.46893	$65.9	-0.2285198
-4.76996	$651.50	-0.1157379
-4.76996	$651.8	-0.118823
-4.76996	$658.18	-0.120671
-4.76996	$659.8	-0.1157379
-4.76996	$66	-0.1157379
-4.76996	$66,028,000	-0.1100306
-4.76996	$66,093,000	-0.1177253
-4.76996	$66.0	-0.1157379
-4.76996	$66.1	-0.1206415
-4.76996	$66.5	-0.118823
-4.76996	$66.68	-0.1157379
-4.76996	$663	-0.1157379
-4.76996	$665-715	-0.1206267
-4.76996	$67,722,000	-0.119844
-4.76996	$67.22	-0.1157379
-4.76996	$67.27	-0.1206488
-4.46893	$67.6	-0.1138613
-4.76996	$674,033,000	-0.1190452
-4.76996	$674.0	-0.1157379
-4.76996	$678.8	-0.1157379
-4.46893	$68	-0.1206562
-4.46893	$68.2	-0.2237047
-4.76996	$689.534	-0.1157379
-4.76996	$69,024,000.Net	-0.1179851
-4.76996	$69,086,000	-0.1177253
-4.76996	$69,451,000	-0.1177253
-4.76996	$69.0	-0.1157379
-4.46893	$69.03	-0.1203832
-4.76996	$69.1	-0.1157379
-4.76996	$69.3	-0.1206415
-4.76996	$692.232	-0.1157379
-4.76996	$696.4	-0.1157379
-4.46893	$697	-0.1138613
-4.292839	$7	-0.1877343
-4.76996	$7,447,000	-0.1177253
-4.76996	$7,619,000	-0.1101213
-4.76996	$7.0	-0.1157379
-4.76996	$7.2	-0.1157379
-4.76996	$7.21	-0.1170192
-4.46893	$7.3	-0.2267898
-4.76996	$7.4	-0.1202356
-4.76996	$7.5	-0.1202356
-4.76996	$7.51	-0.120671
-4.76996	$7.8	-0.1205529
-4.46893	$7.9	-0.1157155
-4.292839	$70	-0.1156633
-4.76996	$70,471,000	-0.1177253
-4.76996	$70,618,000	-0.119844
-4.76996	$70,652,000	-0.1101213
-4.76996	$70.4	-0.118823
-4.76996	$70.78	-0.1206267
-4.76996	$700	-0.118823
-4.76996	$704	-0.1157379
-4.46893	$705	-0.1204422
-4.76996	$705-715	-0.118823
-4.76996	$71,000,000	-0.1177253
-4.76996	$71,651,000	-0.1185637
-4.76996	$71.43	-0.1157379
-4.76996	$71.6	-0.1157379
-4.76996	$71.8	-0.1157379
-4.76996	$710	-0.1157379
-4.46893	$712	-0.2237047
-4.76996	$712.4	-0.118823
-4.76996	$719.5	-0.118823
-4.76996	$727	-0.118823
-4.46893	$73	-0.2267898
-4.76996	$73,444,000	-0.1177253
-4.76996	$73.0	-0.1157379
-4.76996	$73.1	-0.1157379
-4.46893	$73.2	-0.1138613
-4.76996	$73.3	-0.1157379
-4.76996	$73.4	-0.1157379
-4.76996	$73.5	-0.1157379
-4.76996	$73.7	-0.1157379
-4.76996	$731	-0.1157379
-4.76996	$732	-0.1157379
-4.76996	$74	-0.118823
-4.76996	$74,000	-0.1153946
-4.76996	$74,535,000	-0.1138088
-4.76996	$74,881,000	-0.1101213
-4.76996	$74,900,000,	-0.1206562
-4.76996	$74,969,000	-0.1190452
-4.76996	$74.2	-0.118823
-4.76996	$74.9	-0.1205013
-4.76996	$742	-0.118823
-4.76996	$743	-0.1157379
-4.76996	$746.3	-0.118823
-4.76996	$746.7	-0.1157379
-4.167901	$75	-0.1119615
-4.292839	$75.1	-0.1138538
-4.76996	$75.4	-0.1157379
-4.46893	$750	-0.1049668
-4.76996	$750,000	-0.1120442
-4.76996	$750.6	-0.1206267
-4.76996	$751	-0.1157379
-4.76996	$76,729,000,	-0.1180222
-4.76996	$76.2	-0.1157379
-4.76996	$76.8	-0.118823
-4.46893	$76.87	-0.2237047
-4.76996	$76.9	-0.118823
-4.76996	$760	-0.1157379
-4.76996	$764.8	-0.118823
-4.76996	$766,666,666.66	-0.1206636
-4.76996	$77.4	-0.1157379
-4.76996	$77.96	-0.1157379
-4.167901	$78	-0.1711234
-4.76996	$78,419,000	-0.1148193
-4.76996	$78.2	-0.118823
-4.76996	$783	-0.1157379
-4.76996	$783,799,000	-0.1120442
-4.76996	$79	-0.120671
-4.76996	$79,019,000	-0.1148193
-4.76996	$79.7	-0.1157379
-4.76996	$791,848,000	-0.119844
-4.76996	$797.8	-0.1157379
-4.46893	$8	-0.1120367
-4.76996	$8,592,000	-0.1177253
-4.76996	$8.03	-0.1157379
-4.76996	$8.2	-0.1157379
-4.46893	$8.4	-0.2237047
-4.76996	$8.42	-0.1206636
-4.46893	$8.5	-0.11529
-4.46893	$8.53	-0.1205455
-4.76996	$8.6	-0.1205529
-4.76996	$8.73	-0.1170192
-4.76996	$80	-0.118823
-4.76996	$80.0	-0.1157379
-4.76996	$80.3	-0.118823
-4.46893	$800	-0.2267898
-4.76996	$81	-0.118823
-4.76996	$811,279,000,	-0.1190452
-4.76996	$822.3	-0.1157379
-4.76996	$825.6	-0.118823
-4.76996	$829.5	-0.118823
-4.76996	$83,399,000	-0.1177253
-4.76996	$83.2	-0.1157379
-4.76996	$83.6	-0.1157379
-4.76996	$830.3	-0.1157379
-4.76996	$835	-0.1157379
-4.76996	$837	-0.1157379
-4.76996	$838,985,000	-0.1120442
-4.76996	$839.0	-0.118823
-4.76996	$84,483,000	-0.1120442
-4.76996	$84,525,000,	-0.1179851
-4.76996	$84,607,000	-0.1120442
-4.76996	$84,764,000	-0.1177253
-4.76996	$84.8	-0.1157379
-4.46893	$846.9	-0.1138613
-4.76996	$847.3	-0.1157379
-4.292839	$85	-0.1844775
-4.76996	$85,000	-0.1177253
-4.76996	$85.4	-0.1157379
-4.76996	$850.7	-0.1157379
-4.76996	$86,387,000	-0.1177253
-4.292839	$863	-0.7540199
-4.76996	$87	-0.1157379
-4.76996	$87.6	-0.1157379
-4.76996	$871,892,000	-0.1120442
-4.76996	$873.4	-0.1157379
-4.76996	$88,976,000	-0.1101213
-4.76996	$88.3	-0.118823
-4.76996	$884.0	-0.1157379
-4.76996	$89,064,000	-0.1177253
-4.76996	$89,863,000	-0.1148193
-4.76996	$89.6	-0.1157379
-4.76996	$89.9	-0.1157379
-4.76996	$890	-0.1157379
-4.76996	$892	-0.1157379
-4.76996	$897.7	-0.1157379
-4.292839	$9	-0.1845895
-4.76996	$9,045,000	-0.1185637
-4.76996	$9,508,000	-0.1177253
-4.76996	$9,646,000	-0.1190452
-4.76996	$9.0	-0.1157379
-4.76996	$9.1	-0.1157379
-4.292839	$9.3	-0.1138538
-4.76996	$9.4)	-0.118823
-4.76996	$9.5	-0.1157379
-4.76996	$9.68	-0.1157379
-4.76996	$90	-0.1157379
-4.76996	$90,976,000	-0.1120442
-4.76996	$904.5	-0.1157379
-4.76996	$91	-0.118823
-4.76996	$918.50	-0.1157379
-4.76996	$919	-0.1157379
-4.76996	$92.4	-0.1157379
-4.46893	$92.7	-0.2237047
-4.76996	$92.9	-0.1157379
-4.76996	$923.9	-0.118823
-4.46893	$925	-0.2237047
-4.76996	$926	-0.1157379
-4.76996	$93.6	-0.118823
-4.76996	$93.7	-0.118823
-4.76996	$930	-0.1100306
-4.76996	$9323.73	-0.120671
-4.46893	$94	-0.1138613
-4.76996	$94,218,000	-0.1185637
-4.76996	$94.0	-0.1157379
-4.292839	$95	-0.1845372
-4.76996	$95,940,000	-0.1190452
-4.76996	$96	-0.1157379
-4.76996	$96.8	-0.1157379
-4.76996	$960.7	-0.1157379
-4.292839	$97	-0.1877343
-4.46893	$97.5	-0.1138613
-4.76996	$97.9	-0.118823
-4.76996	$970	-0.1157379
-4.76996	$973	-0.1157379
-4.46893	$977.6	-0.1156185
-4.76996	$98	-0.1157379
-4.76996	$98,082,000	-0.1190452
-4.76996	$98,464,000	-0.1101213
-4.76996	$988	-0.1157379
-4.76996	$99.4	-0.1157379
-2.943886	&	-0.3184912
-4.76996	'An	-0.120671
-4.76996	'Applicable	-0.120671
-4.76996	'Eco'	-0.120671
-4.76996	'Operating	-0.120671
-4.76996	'community	-0.120671
-4.76996	'off	-0.120671
-4.76996	'reverse,'	-0.1148193
-4.76996	'transflective'	-0.1206636
-4.070991	(	-0.1206415
-4.76996	(BLDA)	-0.1100306
-4.76996	("LPS")	-0.1205972
-4.76996	($0.34	-0.1206636
-4.76996	($3.5	-0.1157379
-4.76996	($30	-0.1157379
-4.76996	($38.5	-0.1157379
-4.76996	($50,205,000	-0.120457
-4.76996	(.394')	-0.120671
-4.76996	(2000	-0.1187785
-4.76996	(5.50mm)	-0.1101213
-4.76996	(7.50mm)	-0.120671
-4.76996	(ADHD)	-0.1138088
-4.76996	(AP)	-0.1100306
-4.76996	(AP).The	-0.1206562
-4.76996	(API)	-0.1120442
-4.76996	(APS),	-0.1185933
-4.76996	(APs)	-0.1101213
-4.76996	(ARM)	-0.1189859
-4.76996	(ASX:	-0.120671
-4.46893	(Atheros	-0.1206636
-4.76996	(BGA)	-0.1206488
-4.76996	(BRCD)	-0.1206636
-4.292839	(BVC:	-0.7540052
-4.76996	(Brocade(R))	-0.1185192
-4.76996	(CSN)	-0.1101213
-4.76996	(CSP)	-0.1206415
-4.76996	(DCF)	-0.120671
-4.76996	(DCFM(TM))	-0.120671
-4.76996	(DFM)	-0.1206636
-4.46893	(EDC)	-0.1100835
-4.46893	(EDI)	-0.2286009
-4.46893	(EPCM)	-0.1190377
-4.76996	(EPS)	-0.1120442
-4.76996	(FDA)	-0.1206636
-4.76996	(FEED)	-0.1204053
-4.76996	(FFPE)	-0.120671
-4.76996	(FHPS).Advance	-0.1206562
-4.76996	(FIS)	-0.1206562
-4.76996	(FMC),	-0.120671
-4.76996	(FNF)	-0.1190378
-4.46893	(GAAP),	-0.2076321
-4.76996	(GLNG(R))	-0.1206636
-4.76996	(GbE)	-0.1206636
-4.76996	(Gbit/sec)	-0.120671
-4.292839	(HBAs)	-0.1097055
-4.76996	(HD)	-0.1206562
-4.76996	(HDI)	-0.1206636
-4.76996	(HDS)	-0.1190378
-4.76996	(HKMG)	-0.1206415
-4.76996	(HNFS)	-0.1101213
-4.76996	(ILMN)	-0.1185192
-4.76996	(INCITS)	-0.1206488
-4.76996	(IOVP),	-0.1201765
-4.46893	(IP)	-0.1206267
-4.76996	(ITRI),	-0.1148193
-4.167901	(Industry	-0.3711411
-4.46893	(Industry)	-0.120516
-4.76996	(LCD)	-0.1181706
-4.76996	(LFG)	-0.1204791
-4.76996	(Loss).'	-0.1206636
-4.76996	(MAC),	-0.120671
-4.76996	(MHCP).It	-0.1189859
-4.76996	(MMSIM)	-0.120671
-4.070991	(MOLX)	-0.3045463
-4.167901	(MOLXA)	-0.3606136
-4.76996	(MPC)	-0.120671
-4.76996	(MPV).The	-0.1206636
-4.76996	(Marketlette	-0.1153946
-4.76996	(NAS)	-0.120671
-4.46893	(NASDAQ:CIEN)	-0.120302
-4.46893	(NASDAQ:ILMN)	-0.2284534
-4.76996	(NASDAQ:MOLX	-0.1101213
-4.76996	(NASDAQ:ONIS)	-0.1120442
-4.46893	(NASDAQGS:	-0.2286304
-4.76996	(NCGR),	-0.1206341
-4.76996	(NMS)	-0.1101213
-3.354987	(NYSE:	-0.2328048
-4.292839	(NYSE:AES)	-0.7524163
-4.76996	(NYSE:BIG)	-0.1205603
-4.167901	(NYSE:COP)	-0.162365
-4.292839	(NYSE:FNF)	-0.1892872
-4.76996	(NYSE:FNF)'s	-0.1204349
-4.76996	(NYSE:FTR)	-0.1205087
-4.76996	(NYSE:KEX)	-0.1205603
-4.76996	(NYSE:KEY)'s	-0.1204349
-4.76996	(NYSE:MHP)	-0.1185192
-4.76996	(NYSE:P)	-0.1185192
-4.76996	(NYSE:PFG)	-0.1205603
-4.76996	(NYSE:PVH)	-0.1205603
-4.76996	(NYSE:TOS)	-0.1138088
-4.76996	(NYSMEC),	-0.1190378
-4.167901	(Nasdaq:	-0.1712784
-3.593869	(NasdaqGS:	-0.4752348
-4.76996	(NasdaqGS:ILMN)	-0.1205603
-4.76996	(NasdaqNM:	-0.1206636
-4.76996	(NasdaqNM:MOLX)	-0.1185192
-4.46893	(NasdaqNM:SBUX)	-0.2284534
-4.76996	(New	-0.119393
-4.76996	(OCM	-0.120671
-4.76996	(OEM)	-0.1200583
-4.76996	(OEMs)	-0.1101213
-4.292839	(OTCBB:NSTL.Q)	-0.1893757
-4.76996	(OTCPK:LVWD)	-0.1185192
-4.76996	(OTCPK:SHEL.Q)	-0.1120442
-4.76996	(PCB)	-0.1206636
-4.76996	(PCB).To	-0.1206193
-4.76996	(PMPs),	-0.1206046
-4.76996	(PVH)	-0.1190378
-4.76996	(PoP)	-0.1204053
-4.76996	(Q1,	-0.120671
-4.46893	(Q2,	-0.1206636
-4.76996	(QoS),	-0.1206267
-4.76996	(Quos),	-0.1206267
-4.46893	(RCD)	-0.1206562
-4.292839	(ROCm(TM))	-0.1204791
-4.76996	(RPG)	-0.1187415
-4.76996	(RTD)	-0.1206488
-4.76996	(RU)	-0.1206636
-4.76996	(SAN)	-0.1204939
-4.76996	(SANs),	-0.1185192
-4.76996	(SDSC)	-0.1189859
-4.76996	(SIP).The	-0.1197627
-4.76996	(SLA)	-0.1206636
-4.76996	(SMO)	-0.1204791
-4.76996	(SNP)	-0.1206341
-4.76996	(SPS)	-0.1100306
-4.76996	(SSP)	-0.1101213
-4.46893	(Sub	-0.2286304
-4.46893	(TBA)	-0.1204496
-4.76996	(TI)	-0.1100306
-4.76996	(TLM)-driven	-0.1204275
-4.76996	(TSOC).Fluor	-0.1201913
-4.76996	(TXU	-0.120671
-4.76996	(USWA)	-0.120612
-4.76996	(VCSEL)	-0.1206636
-4.46893	(VoIP)	-0.1101062
-4.76996	(WAFS)	-0.1204201
-4.76996	(WDM),	-0.120671
-4.46893	(WLAN)	-0.1204275
-4.76996	(WLAN),	-0.120671
-4.76996	(Wide	-0.120612
-4.76996	(Women,	-0.120671
-4.76996	(XR)	-0.120671
-4.76996	(a	-0.1206341
-4.76996	(about	-0.1206562
-4.76996	(aes)	-0.1204718
-4.76996	(amember	-0.1205751
-4.76996	(basic)	-0.1101213
-4.46893	(benefit	-0.2286304
-4.76996	(cDNA-mediated	-0.120671
-4.46893	(diluted	-0.2266565
-4.76996	(diluted)	-0.1170192
-4.76996	(dual	-0.1206636
-4.76996	(except	-0.1120442
-4.46893	(i)	-0.1122774
-4.46893	(including	-0.1206562
-4.292839	(modafinil)	-0.1895749
-4.76996	(nm)	-0.1205603
-4.76996	(on	-0.1201543
-4.76996	(oral	-0.120671
-4.76996	(sNDA)	-0.1120442
-4.76996	(single	-0.1206636
-4.292839	(stores	-0.7538797
-4.76996	(technical	-0.120671
-4.76996	(the	-0.1196888
-4.76996	(to	-0.09966529
-2.66275	-	-1.01483
-4.46893	--	-0.09965754
-4.76996	...	-0.09966529
-4.76996	0%	-0.1100306
-4.46893	0.0907	-0.2280399
-4.76996	0.21%	-0.1101213
-4.76996	0.3	-0.1157379
-4.76996	0.5	-0.1178515
-4.76996	0.5%	-0.1120442
-4.76996	0.6%	-0.1190452
-4.76996	0.67%	-0.1138088
-4.76996	0.7%	-0.1100306
-4.76996	0.7104	-0.1200731
-4.76996	0.8	-0.1205087
-4.76996	0.85%	-0.1101213
-4.76996	01/20/1999."	-0.1153946
-4.46893	01:30	-0.1206414
-4.76996	02	-0.1038335
-4.46893	02,	-0.1205898
-4.76996	02.	-0.1153946
-4.46893	03	-0.2267454
-4.167901	03,	-0.1710422
-4.76996	03.Citing	-0.120671
-4.76996	03/30/1999	-0.1120442
-4.76996	03/31/2000.In	-0.1206046
-4.46893	03:10	-0.1206414
-4.46893	03:20	-0.1206488
-4.167901	04,	-0.1202725
-4.76996	04/01/1999,	-0.1206488
-4.76996	04/12/2001."	-0.1153946
-4.167901	05,	-0.1205013
-4.167901	06,	-0.1202208
-4.76996	06/13/2000.AES	-0.1195409
-4.46893	07,	-0.2285714
-4.46893	08,	-0.1206119
-3.991809	09,	-0.1535654
-4.292839	09:00	-0.1206119
-4.46893	09:30	-0.1206267
-4.46893	1	-0.1035267
-4.292839	1%	-0.1070953
-4.76996	1%t	-0.1182003
-3.37202	1,	-0.1197925
-4.46893	1,000	-0.1206414
-4.76996	1,054,500	-0.1200731
-4.76996	1,138,841,000	-0.119844
-4.76996	1,294,400	-0.1200731
-4.76996	1,300,000	-0.1200731
-4.76996	1,365,400	-0.1206636
-4.76996	1,369,062,000	-0.1120442
-4.76996	1,399,000	-0.120671
-4.76996	1,400,000	-0.1200731
-4.76996	1,500	-0.1206415
-4.76996	1,500,000	-0.1200731
-4.76996	1,514,300	-0.1206341
-4.76996	1,520,500	-0.1206341
-4.46893	1,600	-0.1138013
-4.76996	1,600,000	-0.1206636
-4.76996	1.1	-0.1202356
-4.76996	1.2	-0.1157379
-4.76996	1.35	-0.1157379
-4.76996	1.3MHz,	-0.1206562
-4.76996	1.4	-0.1157379
-4.76996	1.5%	-0.1100306
-4.76996	1.6%	-0.1100306
-4.76996	1.7%	-0.1101213
-4.76996	1.8%	-0.1100306
-4.76996	1.91%	-0.119844
-3.76996	10	-0.09678356
-4.167901	10%	-0.1028586
-4.76996	10(b)	-0.1101213
-3.815718	10,	-0.1409954
-4.76996	10,000	-0.1157379
-4.76996	10,025,000	-0.1200731
-4.76996	10,691,267	-0.1206046
-4.76996	10-K	-0.119245
-4.167901	10-Q	-0.227197
-4.76996	10-year	-0.1205456
-4.76996	10.0,	-0.1148193
-4.76996	10.0.Brocade	-0.119393
-4.76996	10.00mm	-0.120671
-4.76996	10/12/2000."	-0.1153946
-3.991809	100	-0.1203167
-4.292839	100%	-0.1727215
-3.991809	1000	-0.3306848
-4.76996	103.1%	-0.1100306
-4.46893	1080p60	-0.1205677
-4.46893	10:00	-0.1205603
-4.76996	10:05	-0.1206636
-4.76996	10b-18	-0.1038335
-4.76996	10b-18.The	-0.1205456
-4.76996	10b-5	-0.120671
-4.292839	10b5-1	-0.1005006
-4.167901	11	-0.1094633
-4.46893	11%	-0.1165578
-4.46893	11,	-0.1196814
-4.76996	11,000,000	-0.1200731
-4.76996	11,875,000	-0.1200731
-4.76996	11/14/2002,	-0.1205751
-4.76996	11/19/1996,	-0.1204496
-4.76996	112%	-0.1190452
-4.76996	115	-0.1206488
-4.76996	1152	-0.1206267
-4.76996	11:00	-0.1206193
-4.46893	11:20	-0.1206267
-4.46893	11:50	-0.1206414
-4.76996	11th	-0.1206562
-3.656017	12	-0.2982051
-4.292839	12%	-0.168127
-4.76996	12%."	-0.1153946
-3.623832	12,	-0.3085246
-4.76996	12,163,418	-0.1200731
-4.76996	12,569,255	-0.1200731
-4.46893	12-channel	-0.1206046
-4.76996	12.4	-0.1157379
-4.76996	12.40	-0.1157379
-4.76996	12.9%.For	-0.09966529
-4.46893	12000	-0.228623
-3.76996	13	-0.3878234
-4.46893	13%	-0.1178144
-3.924862	13,	-0.178222
-4.76996	13,750,000;	-0.1100306
-4.46893	13-week	-0.2271897
-4.76996	130	-0.1157379
-4.76996	130,000	-0.1200731
-4.76996	130-nanometer	-0.120671
-4.76996	133,	-0.09966529
-3.991809	14	-0.152087
-4.46893	14%	-0.2179975
-3.690779	14,	-0.1423905
-4.76996	14,284,586	-0.1200731
-4.76996	14-1.'	-0.1206636
-4.76996	14.9	-0.1203832
-4.76996	14.96	-0.1157379
-4.76996	141,458,654	-0.1200731
-4.76996	1411	-0.120671
-4.292839	15	-0.188881
-4.46893	15%	-0.1095995
-3.593869	15,	-0.1338827
-4.76996	15,000	-0.120671
-4.76996	150%	-0.1206415
-4.76996	150,000	-0.1206636
-4.76996	151%	-0.1201839
-4.76996	152	-0.120671
-3.991809	16	-0.3301309
-4.76996	16%	-0.1190452
-3.924862	16,	-0.1483484
-4.46893	16,000	-0.1205529
-4.76996	16,732,411	-0.1200731
-4.76996	16-ounce	-0.120671
-4.76996	16.3	-0.1206341
-4.76996	16.8	-0.1203832
-4.292839	1600	-0.7539388
-4.76996	162(m)	-0.1038335
-4.76996	163%	-0.1201839
-4.76996	169	-0.1138088
-3.76996	17	-0.2852501
-4.292839	17%	-0.1074301
-3.86687	17,	-0.2675283
-4.292839	17,719,350	-0.1895749
-4.76996	17,778,339	-0.1200731
-4.76996	17.6	-0.1203832
-4.76996	170	-0.1100306
-4.76996	172	-0.1100306
-4.76996	175,000	-0.1200731
-4.292839	18	-0.1201912
-4.46893	18%	-0.1181187
-4.76996	18%.Third	-0.1172869
-4.070991	18,	-0.1205751
-4.76996	18.7%	-0.119844
-4.76996	182	-0.1182003
-4.76996	185th	-0.1206267
-4.292839	19	-0.188881
-4.167901	19,	-0.120398
-4.76996	19.2%	-0.1100306
-4.46893	19.99%	-0.1037491
-4.76996	192	-0.1100306
-4.76996	1934	-0.1206415
-4.46893	1934,	-0.1070953
-4.76996	1934.	-0.1153946
-4.76996	1934.Illumina	-0.1203463
-4.76996	1934.Panera	-0.1202946
-4.76996	1943.Lower	-0.1206562
-4.76996	1984.He	-0.1205751
-4.76996	1986,	-0.1187415
-4.76996	1989	-0.1100306
-4.46893	1993,	-0.1202946
-4.76996	1995	-0.1187415
-4.76996	1998,	-0.120671
-4.070991	1999	-0.3670957
-4.76996	1999,	-0.1206562
-4.76996	1999.AK	-0.1199844
-4.76996	1999.Each	-0.1206193
-4.76996	1999.Tazo	-0.1206415
-4.46893	1999.The	-0.1182448
-4.070991	2	-0.1414453
-4.76996	2"	-0.1153946
-4.167901	2%	-0.4926256
-4.76996	2%.	-0.1153946
-3.37202	2,	-0.1685062
-4.46893	2,000,000	-0.1200657
-4.46893	2,400	-0.1175024
-4.76996	2,421,055	-0.1200731
-4.76996	2,499,882	-0.1200731
-4.76996	2,505,964,000	-0.1138088
-4.76996	2,700	-0.1206267
-4.76996	2,900,000	-0.1200731
-4.76996	2-ply	-0.1206415
-4.76996	2.0.Additionally,	-0.1206415
-4.76996	2.4-GHz	-0.120671
-4.76996	2.4/5-GHz	-0.120671
-4.76996	2.4GHz	-0.1101213
-4.76996	2.5%	-0.1100306
-4.76996	2.5-gigabit-per-second	-0.120671
-4.76996	2.9	-0.1157379
-3.991809	20	-0.1499418
-4.76996	20"	-0.1153946
-4.76996	20%,	-0.1206562
-4.76996	20%.ConocoPhillips	-0.1206488
-4.76996	20(a)	-0.1038335
-3.86687	20,	-0.1204422
-4.46893	20,000	-0.1100079
-4.76996	20-25	-0.1148193
-4.76996	20.5	-0.1157379
-4.76996	20.5%	-0.1205382
-4.167901	200	-0.1083948
-3.924862	2000	-0.2721936
-4.76996	2000(R)	-0.1205972
-3.924862	2000,	-0.08586152
-4.292839	2000."	-0.748773
-4.76996	2000.Donaldson,	-0.120671
-4.46893	2000.The	-0.1204201
-3.46893	2001	-0.4799611
-3.86687	2001,	-0.1838966
-4.46893	2001.	-0.2233614
-4.76996	2001."Service	-0.1195409
-4.76996	2001.Earnings	-0.1170192
-4.292839	2001.For	-0.168127
-4.76996	2001.Gross	-0.1200288
-4.76996	2001.Health	-0.1201617
-4.76996	2001.Including	-0.1205972
-4.292839	2001.Net	-0.7521126
-4.76996	2001.Participants	-0.1138088
-4.76996	2001.Phillips	-0.1203463
-4.292839	2001.Retail	-0.7533998
-4.76996	2001.Revenues	-0.1120442
-4.46893	2001.The	-0.1205455
-4.76996	2001.Total	-0.1197184
-4.76996	2001.Upon	-0.09966529
-4.76996	2001.Walker	-0.1205751
-4.76996	2001;	-0.1202134
-3.029598	2002	-0.1531086
-4.76996	2002's	-0.1196962
-4.76996	2002).Reporting	-0.1167811
-3.447741	2002,	-0.1041144
-4.167901	2002.	-0.3658869
-4.76996	2002."	-0.1153946
-4.76996	2002."Brocade	-0.119393
-4.76996	2002."Molex	-0.1206415
-4.76996	2002."The	-0.1201543
-4.76996	2002.Brocade	-0.119393
-4.76996	2002.Diluted	-0.1180222
-4.76996	2002.EDC	-0.1189859
-4.76996	2002.Excluding	-0.09966529
-4.76996	2002.Fluor's	-0.1180222
-4.46893	2002.For	-0.2076321
-4.167901	2002.Health	-0.4922639
-4.76996	2002.In	-0.1196962
-4.76996	2002.Net	-0.1179851
-4.76996	2002.On	-0.1148193
-4.76996	2002.Reporting	-0.1167811
-4.46893	2002.Revenues	-0.09485435
-4.76996	2002.Sales	-0.1101213
-4.76996	2002.Starbucks	-0.1188674
-4.76996	2002.The	-0.1205751
-4.76996	2002.Total	-0.1197184
-4.76996	2002.Under	-0.09966529
-3.322802	2003	-0.1548984
-4.76996	2003),	-0.1101213
-4.76996	2003).Net	-0.1197184
-3.991809	2003,	-0.1163492
-4.46893	2003.	-0.2233614
-4.46893	2003."	-0.2233614
-4.76996	2003."AK	-0.1199844
-4.76996	2003."Eaton	-0.1205382
-4.76996	2003."Health	-0.1201617
-4.76996	2003.AK	-0.1199844
-4.46893	2003.Accordingly,	-0.2076321
-4.46893	2003.As	-0.2265305
-4.76996	2003.Brocade	-0.119393
-4.76996	2003.Cephalon	-0.1165652
-4.292839	2003.For	-0.7330438
-4.76996	2003.Kenneth	-0.120671
-4.292839	2003.Net	-0.1879861
-4.76996	2003.On	-0.1192154
-4.292839	2003.The	-0.119711
-4.76996	2003.This	-0.1205603
-3.690779	2004	-0.1215687
-4.167901	2004,	-0.1089862
-4.76996	2004.	-0.1153946
-4.292839	2004."	-0.748773
-4.76996	2004."Cadence	-0.1200952
-4.76996	2004."Illumina	-0.1165652
-4.76996	2004."Principal	-0.1199918
-4.76996	2004.Comparable	-0.1205308
-4.76996	2004.Fluor	-0.1206562
-4.167901	2004.For	-0.3501576
-4.76996	2004.On	-0.1148193
-4.76996	2004.Quarterly	-0.1179851
-4.76996	2004.Reporting	-0.1167811
-4.76996	2004.Revenues	-0.1120442
-4.292839	2004.The	-0.1871561
-4.76996	2004;	-0.1202134
-3.126508	2005	-0.3893311
-4.76996	2005).This	-0.1206046
-3.728568	2005,	-0.211937
-4.070991	2005.	-0.8656672
-4.76996	2005."	-0.1153946
-4.46893	2005."AK	-0.2279513
-4.76996	2005."Brocade	-0.119393
-4.76996	2005."Fluor	-0.1188674
-4.76996	2005."Hansen	-0.1204644
-4.46893	2005."Illumina	-0.2245321
-4.76996	2005."Molex	-0.1165652
-4.76996	2005."New	-0.1204939
-4.76996	2005."Panera	-0.1202946
-4.46893	2005."Starbucks	-0.2268343
-4.76996	2005.AK	-0.1199844
-4.76996	2005.Atheros	-0.119393
-4.76996	2005.Avery	-0.1205308
-4.76996	2005.Before	-0.09966529
-4.292839	2005.Brocade	-0.1879787
-4.76996	2005.Comparable	-0.1205308
-4.76996	2005.Excluding	-0.09966529
-3.815718	2005.For	-1.052908
-4.76996	2005.Frank	-0.120671
-4.76996	2005.GAAP	-0.1180222
-4.76996	2005.Molex	-0.1165652
-4.76996	2005.Net	-0.1179851
-4.76996	2005.Non-GAAP	-0.1180222
-4.76996	2005.Non-GAAP"	-0.1153946
-4.292839	2005.On	-0.183379
-4.76996	2005.Pursuant	-0.1100306
-4.76996	2005.Revenue	-0.1138088
-3.991809	2005.The	-0.2682954
-4.76996	2005.Third-quarter	-0.1187341
-4.76996	2005.Under	-0.09966529
-4.070991	2005;	-0.3075705
-3.053957	2006	-0.4894424
-3.728568	2006,	-0.1194473
-3.76996	2006.	-1.036109
-4.46893	2006."	-0.2233614
-4.76996	2006."Atheros	-0.119393
-4.76996	2006."Cephalon	-0.1165652
-4.76996	2006."Dolby	-0.1205087
-4.76996	2006."Panera	-0.1202946
-4.76996	2006."Phillips-Van	-0.1204496
-4.76996	2006."Starbucks	-0.1188674
-4.76996	2006.Atheros	-0.119393
-4.76996	2006.Citizens	-0.119393
-4.76996	2006.Comparable	-0.1205308
-4.46893	2006.Dolby	-0.2284755
-4.76996	2006.Earnings	-0.1170192
-4.76996	2006.Existing	-0.1206562
-3.593869	2006.For	-1.183107
-4.76996	2006.Hansen	-0.1204644
-4.76996	2006.His	-0.1206562
-4.76996	2006.Illumina	-0.1165652
-4.76996	2006.Illuminas	-0.1180222
-4.76996	2006.It	-0.1201913
-4.76996	2006.Net	-0.1179851
-4.46893	2006.Non-GAAP	-0.2259891
-4.292839	2006.On	-0.7481977
-4.292839	2006.Panera	-0.7536731
-4.76996	2006.Revenues	-0.1120442
-4.76996	2006.Ruppert,	-0.1187415
-4.76996	2006.Shares	-0.1182374
-4.46893	2006.Starbucks	-0.2268343
-3.991809	2006.The	-0.3275297
-4.76996	2006.This	-0.1197627
-4.76996	2006.Till	-0.1204791
-4.292839	2006.Using	-0.7537395
-4.292839	2006;	-0.188977
-3.045685	2007	-0.6243283
-4.76996	2007)	-0.1181706
-3.593869	2007,	-0.2501405
-3.86687	2007.	-0.9489588
-4.167901	2007."	-0.3658869
-4.76996	2007."Atheros	-0.119393
-4.76996	2007."Big	-0.1205751
-4.76996	2007."Brocade	-0.119393
-4.76996	2007."Cadence	-0.1200952
-4.76996	2007."Hansen	-0.1204644
-4.46893	2007."Illumina	-0.2245321
-4.76996	2007."KeyCorp	-0.1185637
-4.76996	2007."Molex	-0.1165652
-4.76996	2007."Panera	-0.1202946
-4.76996	2007."Service	-0.1188674
-4.76996	2007."Starbucks	-0.1188674
-4.76996	2007.Also	-0.1205677
-4.46893	2007.As	-0.100029
-4.76996	2007.Brocade	-0.119393
-4.76996	2007.Covelli	-0.1206562
-4.76996	2007.Current	-0.1195927
-4.76996	2007.During	-0.09966529
-4.46893	2007.Eaton	-0.228505
-4.76996	2007.Excluding	-0.1206193
-4.76996	2007.Fidelity	-0.1199697
-4.76996	2007.Fiscal	-0.1202946
-3.56584	2007.For	-1.209436
-4.76996	2007.Gentex	-0.1188674
-4.76996	2007.Hansen	-0.1204644
-4.76996	2007.Income	-0.1182003
-4.76996	2007.Net	-0.1200288
-4.292839	2007.On	-0.1141085
-4.46893	2007.Panera	-0.2282615
-4.76996	2007.Phillips-Van	-0.1204496
-4.76996	2007.Share	-0.1206046
-4.76996	2007.Starbucks	-0.1188674
-4.070991	2007.The	-0.1574097
-4.76996	2007.This	-0.1206415
-4.292839	2007.Under	-0.7330438
-4.76996	2007.Using	-0.1203611
-4.46893	2007;	-0.1198884
-2.736537	2008	-0.7656526
-3.190177	2008,	-0.2595097
-3.264811	2008.	-1.51323
-4.46893	2008."	-0.2233614
-4.76996	2008."Big	-0.1205751
-4.292839	2008."Cadence	-0.7534737
-4.76996	2008."Fidelity	-0.1199697
-4.76996	2008."Molex	-0.1165652
-4.76996	2008."Panera	-0.1202946
-4.76996	2008."Phillips-Van	-0.1204496
-4.76996	2008."Starbucks	-0.1188674
-4.46893	2008.AK	-0.2279513
-4.46893	2008.All	-0.09964205
-4.167901	2008.As	-0.3543258
-4.76996	2008.Atheros	-0.119393
-4.76996	2008.Big	-0.1205751
-4.292839	2008.Brocade	-0.1881045
-4.292839	2008.Cadence	-0.7534737
-4.76996	2008.Cephalon	-0.1165652
-4.76996	2008.Dolby	-0.1205087
-4.76996	2008.Earnings	-0.1170192
-4.76996	2008.Eaton	-0.1205382
-4.76996	2008.Effective	-0.120671
-3.924862	2008.Fidelity	-0.7070876
-4.76996	2008.Fluor	-0.1206415
-3.593869	2008.For	-1.183107
-4.76996	2008.Fourth	-0.1172869
-4.76996	2008.Fred	-0.120671
-4.46893	2008.Gentex	-0.2268343
-4.76996	2008.Greek	-0.1206636
-4.76996	2008.Hansen	-0.1204644
-4.76996	2008.Harsco	-0.1188674
-4.76996	2008.Health	-0.1201617
-4.76996	2008.Heinz	-0.1185637
-4.76996	2008.If	-0.09966529
-4.76996	2008.Illumina	-0.1165652
-4.76996	2008.KeyCorp	-0.1185192
-4.76996	2008.Loss	-0.1182003
-4.46893	2008.Net	-0.1179703
-4.76996	2008.News	-0.1188674
-4.76996	2008.Non-GAAP	-0.1205824
-4.070991	2008.On	-0.1537376
-4.46893	2008.Operating	-0.1177624
-4.46893	2008.Panera	-0.2282615
-4.292839	2008.Principal	-0.7533703
-4.76996	2008.Prior	-0.1100306
-4.76996	2008.Pursuant	-0.1100306
-4.76996	2008.Repurchases	-0.1206341
-4.292839	2008.Revenue	-0.1049515
-4.76996	2008.Rollins,	-0.120671
-4.76996	2008.She	-0.1205824
-3.991809	2008.Starbucks	-0.2687922
-4.76996	2008.That	-0.1206562
-4.76996	2008.That's	-0.1202577
-3.338597	2008.The	-0.4594846
-4.76996	2008.They	-0.1202503
-4.76996	2008.This	-0.1189859
-4.070991	2008.Under	-0.2856419
-4.46893	2008.Using	-0.2283279
-4.76996	2008.Yanofsky	-0.1189859
-3.924862	2008;	-0.2930606
-2.877866	2009	-0.5401317
-3.322802	2009,	-0.371923
-3.656017	2009.	-1.140844
-4.76996	2009."	-0.1153946
-4.46893	2009."Brocade	-0.2273598
-4.76996	2009."Cadence	-0.1200952
-4.76996	2009."Cephalon	-0.1165652
-4.76996	2009."Dolby	-0.1205087
-4.76996	2009."Fidelity	-0.1199697
-4.76996	2009."HJ	-0.1205603
-4.76996	2009."Harsco	-0.1188674
-4.46893	2009."Panera	-0.2282615
-4.76996	2009."Phillips-Van	-0.1204496
-4.46893	2009."The	-0.2284681
-4.76996	2009.A	-0.1200879
-4.76996	2009.Adjusted	-0.1180222
-4.76996	2009.All-time	-0.1204275
-4.76996	2009.As	-0.1205382
-4.76996	2009.Big	-0.1205751
-4.76996	2009.Brocade	-0.119393
-4.76996	2009.Cadence	-0.1185637
-4.76996	2009.Capitol	-0.1206415
-4.76996	2009.Consolidated	-0.1197184
-4.76996	2009.During	-0.09966529
-3.815718	2009.Fidelity	-0.9992913
-4.76996	2009.Fluor	-0.1204718
-4.76996	2009.Fluor's	-0.1206562
-3.389749	2009.For	-1.478877
-4.46893	2009.HJ	-0.2285271
-4.46893	2009.Harsco	-0.2268343
-4.76996	2009.Health	-0.1201617
-4.76996	2009.Hillenbrand	-0.1165652
-4.167901	2009.Illumina	-0.3670575
-4.46893	2009.In	-0.1206414
-4.76996	2009.Income	-0.1182003
-4.46893	2009.KeyCorp	-0.226486
-4.76996	2009.Kimberly-Clark	-0.1195409
-4.76996	2009.Molex	-0.1165652
-4.46893	2009.Net	-0.225952
-4.76996	2009.News	-0.1188674
-4.76996	2009.Non-GAAP	-0.1179851
-4.46893	2009.On	-0.1144079
-4.46893	2009.Operating	-0.1180742
-4.76996	2009.Phillips-Van	-0.1204496
-4.76996	2009.Principal	-0.1199918
-4.46893	2009.Revenue	-0.1205603
-4.76996	2009.Second	-0.1172869
-4.76996	2009.Starbucks	-0.1188674
-3.56584	2009.The	-0.5750614
-4.76996	2009.Through	-0.1185933
-4.76996	2009.Total	-0.1200214
-4.167901	2009.Under	-0.3501576
-3.427538	2009;	-0.5069113
-3.264811	2010	-0.2650735
-3.514688	2010,	-0.277633
-4.46893	2010.	-0.2233614
-4.292839	2010."	-0.748773
-4.76996	2010."Brocade	-0.119393
-4.76996	2010."Cadence	-0.1200952
-4.76996	2010."Cephalon	-0.1165652
-4.46893	2010."Dolby	-0.2284755
-4.46893	2010."Fluor	-0.2275078
-4.76996	2010."Gentex	-0.1188674
-4.76996	2010."Kirby	-0.1195409
-4.76996	2010."Principal	-0.1199918
-4.76996	2010."The	-0.1202356
-4.76996	2010.Additionally,	-0.09966529
-4.76996	2010.Atheros	-0.119393
-4.76996	2010.Avery	-0.1205308
-4.76996	2010.Big	-0.1205751
-4.292839	2010.Brocade	-0.7527715
-4.76996	2010.Cephalon	-0.1165652
-4.76996	2010.Computerworld,	-0.1202725
-4.76996	2010.Discovery	-0.1205382
-3.491207	2010.For	-1.280017
-4.76996	2010.Frontier	-0.119393
-4.76996	2010.GridWise	-0.1206636
-4.76996	2010.Harsco	-0.1195409
-4.76996	2010.In	-0.1206046
-4.76996	2010.Net	-0.119881
-4.76996	2010.Panera	-0.1202946
-4.76996	2010.Revenue	-0.1201617
-3.924862	2010.The	-0.289901
-4.76996	2010.These	-0.119356
-4.76996	2010.Under	-0.09966529
-4.46893	2010.Venue:	-0.1206636
-3.539511	2010;	-0.6050063
-3.690779	2011	-0.1155535
-4.167901	2011,	-0.08845904
-4.76996	2011.	-0.1153946
-4.76996	2011."Avery	-0.1205308
-4.76996	2011."Dolby	-0.1206488
-4.76996	2011."Fidelity	-0.1199697
-4.46893	2011."KeyCorp	-0.1183116
-4.76996	2011."The	-0.1202356
-4.76996	2011.,	-0.1195188
-4.76996	2011.Brocade	-0.119393
-4.76996	2011.Dolby	-0.1205087
-4.76996	2011.Fluor's	-0.120671
-4.167901	2011.For	-0.3501576
-4.76996	2011.Health	-0.1201617
-4.76996	2011.Looking	-0.1195188
-4.76996	2011.Molex	-0.1165652
-4.46893	2011.Phillips-Van	-0.2284165
-4.46893	2011.The	-0.1203537
-3.86687	2011;	-0.2164629
-4.46893	2012	-0.1205013
-4.76996	2015	-0.1186229
-4.76996	2020	-0.1195188
-4.76996	20Gbps	-0.1170192
-3.991809	21	-0.384136
-4.292839	21%	-0.1891247
-3.623832	21,	-0.1779263
-4.76996	21.7%	-0.1138088
-4.76996	21.8	-0.1203832
-4.76996	210.The	-0.1183412
-4.76996	212,997	-0.1200731
-4.46893	21281	-0.2286304
-4.292839	22	-0.1197036
-4.070991	22%	-0.1404109
-3.690779	22,	-0.1358466
-4.76996	22,000	-0.1206488
-4.76996	22-nanometer	-0.1206562
-4.76996	22.7%	-0.1190452
-4.76996	220	-0.120671
-4.76996	221	-0.1206267
-4.76996	223	-0.1157379
-4.76996	223,000,000	-0.1167811
-4.46893	23	-0.1199623
-4.070991	23%	-0.3750525
-3.924862	23,	-0.1200583
-4.76996	231.8%	-0.1100306
-4.76996	232.6%	-0.1100306
-4.46893	23rd	-0.228623
-3.728568	24	-0.3507071
-4.46893	24%	-0.1099475
-4.76996	24%.Comparable	-0.1205308
-3.656017	24,	-0.1196371
-4.76996	24.2%	-0.1182003
-4.76996	24x7	-0.1206267
-4.167901	25	-0.1656505
-4.76996	25%.The	-0.1183412
-3.447741	25,	-0.168547
-4.46893	25,000	-0.1200361
-4.76996	25,000,000	-0.1200731
-4.76996	25-54.Schleiff	-0.1206636
-4.76996	25.2%	-0.1138088
-4.292839	250	-0.1825852
-4.76996	250,000	-0.1101213
-4.76996	256-ports	-0.1186229
-3.815718	26	-0.2406981
-4.76996	26%	-0.1100306
-3.623832	26,	-0.1473872
-4.070991	26-week	-0.8694955
-4.76996	26.7%.Earnings	-0.1170192
-4.76996	260.0A	-0.1170192
-4.070991	27	-0.1186748
-4.76996	27%,	-0.1182003
-3.354987	27,	-0.1663045
-4.76996	27.7%,	-0.1190452
-4.76996	27.9%	-0.1100306
-4.76996	27th	-0.1206488
-4.292839	28	-0.1069583
-4.167901	28%	-0.2007261
-3.623832	28,	-0.1320683
-4.76996	28.4%	-0.1100306
-4.46893	29	-0.1133815
-3.408233	29,	-0.1351294
-4.76996	29.87%	-0.1153946
-4.76996	29th	-0.1206636
-4.76996	2HP,	-0.1204053
-4.76996	2nd	-0.1101213
-4.46893	3	-0.09275925
-4.292839	3%	-0.1070953
-3.491207	3,	-0.1608084
-4.76996	3,108,883	-0.1200731
-4.76996	3.15%	-0.1100306
-4.46893	3.2%	-0.10118
-4.76996	3.25%."	-0.1153946
-4.76996	3.5	-0.1203832
-4.76996	3.5%	-0.1038335
-4.76996	3.9%	-0.1190452
-4.76996	3/20/2000	-0.1120442
-3.991809	30	-0.1816096
-4.46893	30%	-0.09978139
-2.623832	30,	-0.3963982
-4.76996	30,000	-0.1206488
-4.46893	30,2003	-0.2281286
-4.76996	30,2007	-0.1203241
-4.76996	30,2007.For	-0.09966529
-4.76996	30.In	-0.09966529
-4.76996	30.This	-0.1205824
-4.070991	300	-0.1204791
-4.76996	300,000	-0.120671
-4.76996	300,000-square-foot	-0.120612
-4.46893	3000	-0.1205234
-4.76996	300Mbps	-0.1204496
-4.46893	306.3	-0.2237047
-4.76996	30?T-rise.Molex's	-0.1206562
-4.76996	30Hz;	-0.1206415
-4.76996	30th	-0.1201322
-4.46893	31	-0.1194892
-4.46893	31%	-0.1074909
-2.744655	31,	-0.3143732
-4.76996	31.	-0.1153946
-4.76996	32	-0.120671
-4.292839	32%	-0.1069812
-4.76996	32%.Verizon	-0.1182374
-4.76996	32-	-0.1100306
-4.76996	32-nanometer	-0.120671
-4.76996	32.5	-0.1203832
-4.76996	3200	-0.1189859
-4.76996	3200,	-0.09966529
-4.76996	32204,United	-0.1206488
-4.76996	323	-0.1206046
-4.46893	32nm	-0.1205382
-4.292839	33	-0.1882599
-4.46893	33%	-0.1074909
-4.76996	33.8	-0.1203832
-4.76996	34	-0.1205308
-4.76996	35	-0.1195188
-4.76996	350,000	-0.120671
-4.46893	36	-0.1153124
-4.76996	36%	-0.1201839
-4.76996	364-Day	-0.1205751
-4.76996	365	-0.120671
-4.76996	365-worker	-0.1206562
-4.76996	38%from	-0.09966529
-4.76996	38.5%	-0.1182003
-4.76996	380	-0.120671
-4.46893	38th	-0.2285271
-4.76996	39	-0.1204791
-4.76996	39%	-0.1201839
-4.167901	3D	-0.1206046
-4.76996	3G	-0.1206562
-4.76996	3rd	-0.1206267
-3.924862	4	-0.1323949
-4.46893	4%	-0.2179975
-3.86687	4,	-0.1444397
-4.76996	4-hour	-0.1206636
-4.76996	4.2	-0.1200731
-4.76996	4.2%,	-0.1187415
-4.76996	4.35	-0.1170192
-4.76996	4.4%.Ebitda	-0.1187785
-4.76996	4.7%.	-0.1153946
-4.167901	40	-0.119748
-4.292839	40%	-0.1197849
-4.76996	40-Nanometer	-0.120671
-4.292839	40-nanometer	-0.7539683
-4.76996	40-year	-0.1206562
-4.167901	400	-0.1710201
-4.76996	400-employee	-0.1205972
-4.76996	401(k)	-0.120671
-4.46893	41	-0.2282245
-4.76996	415,000	-0.1200731
-4.76996	415/425	-0.1101213
-4.76996	415/425/815/825	-0.1206415
-4.76996	415/815	-0.120671
-4.76996	42	-0.1206488
-4.76996	42%	-0.1100306
-4.76996	42.6%	-0.1100306
-4.76996	42.8%	-0.1206636
-4.76996	4200(TM)	-0.120671
-4.76996	425	-0.120671
-4.76996	425/825	-0.120671
-4.76996	43%	-0.1100306
-4.76996	44	-0.120671
-4.46893	44%	-0.2286157
-4.76996	44,	-0.1206636
-4.76996	44.5%,	-0.1206636
-4.76996	44.7%	-0.1201839
-3.991809	45	-0.1202725
-4.76996	46,000	-0.1206636
-4.76996	48,000	-0.1206636
-4.76996	48,681,293	-0.1200731
-4.76996	48000	-0.1206562
-4.76996	488,970	-0.1200731
-4.292839	49%	-0.09276712
-4.76996	49.3%	-0.1100306
-4.76996	4Gb/8Gb	-0.1206636
-4.167901	5	-0.168377
-4.070991	5%	-0.1175693
-3.924862	5,	-0.1200878
-4.76996	5,500,000	-0.1200731
-4.76996	5.0%	-0.1206562
-4.76996	5.3%	-0.1100306
-4.76996	5.563%	-0.1205824
-4.76996	5.6%	-0.1206562
-4.76996	5.8%	-0.1205382
-4.76996	5.8%.The	-0.1183412
-4.76996	5.9%	-0.1202946
-3.924862	50	-0.2331414
-3.623832	50%	-0.2472798
-4.76996	50,000	-0.1205972
-3.46893	500	-0.2641663
-4.76996	500,000	-0.120671
-4.46893	500/Citigroup	-0.2286304
-4.76996	5000	-0.120671
-4.76996	507KHz	-0.1100306
-4.46893	50MW	-0.2286304
-4.167901	51%	-0.4927511
-4.76996	51,264,368	-0.120014
-4.76996	517	-0.1157379
-4.76996	52.5%	-0.1100306
-4.76996	53	-0.1206267
-4.46893	54	-0.2282245
-4.76996	54%	-0.1201839
-4.76996	55	-0.1202577
-4.76996	55,	-0.1189859
-4.76996	560	-0.1157379
-4.76996	57,000	-0.120671
-4.46893	58	-0.2282245
-4.76996	59,	-0.1189859
-4.76996	5GHz	-0.1206562
-4.292839	6	-0.1846492
-4.070991	6%	-0.1491412
-4.76996	6,	-0.120398
-4.76996	6,400	-0.1206193
-4.76996	6,705,500	-0.1200731
-4.76996	6,750,000	-0.1100306
-4.76996	6.3%	-0.1100306
-4.76996	6.5%	-0.1100306
-4.76996	6.518%	-0.1205824
-4.46893	60	-0.1203684
-4.46893	60%	-0.1098492
-4.292839	60.0A	-0.7503977
-3.924862	600	-0.1485329
-4.76996	601	-0.120671
-4.46893	61	-0.2282245
-4.76996	62	-0.1202577
-4.76996	63	-0.120671
-4.46893	63%	-0.2179975
-4.76996	63.0%	-0.1100306
-4.76996	64	-0.1202577
-4.76996	640	-0.120671
-4.76996	65%	-0.1100306
-4.76996	67	-0.1202577
-4.76996	68	-0.1202577
-4.76996	68%	-0.1038335
-4.76996	69	-0.1206562
-4.76996	69%	-0.1182003
-4.46893	7	-0.1153124
-4.292839	7%	-0.09833167
-4.292839	7,	-0.1203389
-4.76996	7,684,586	-0.1200731
-4.76996	7.1	-0.1206636
-4.76996	7.2%	-0.1201839
-4.76996	7.2%,	-0.1206488
-4.76996	7.45	-0.1157379
-4.76996	7.7%,	-0.1187415
-4.292839	70	-0.1202134
-4.76996	70%	-0.1206562
-4.46893	700	-0.1202946
-4.46893	71	-0.2282245
-4.46893	72%	-0.1099399
-4.76996	73	-0.1202577
-4.46893	732,000	-0.2280399
-4.76996	75039,United	-0.1206488
-4.76996	76%	-0.1206415
-4.76996	77	-0.1202577
-4.167901	8	-0.1198958
-4.292839	8%	-0.1637731
-3.991809	8,	-0.153248
-4.76996	8-Port	-0.1206267
-4.76996	8-port,	-0.1206415
-4.070991	80	-0.1184821
-4.76996	80%	-0.1138088
-4.76996	80,000	-0.1206636
-4.76996	800,000	-0.1206636
-4.46893	802.11	-0.1204939
-4.76996	802.11a	-0.1101213
-4.76996	802.11a+b/g	-0.120671
-4.46893	802.11a/b/g	-0.1206636
-4.76996	802.11a/b/g/n	-0.120671
-3.991809	802.11a/g	-0.1429958
-4.76996	802.11b,	-0.1206488
-4.76996	802.11b/g	-0.1205382
-4.167901	802.11g	-0.1067984
-4.292839	802.11n	-0.1203758
-4.76996	815/825	-0.120671
-4.76996	815/825)	-0.120671
-4.76996	82%	-0.1201839
-4.76996	83	-0.1203832
-4.76996	85.5%	-0.1100306
-4.292839	87	-0.189169
-4.76996	88.0%	-0.1100306
-4.46893	89	-0.2282245
-4.76996	89%	-0.1206636
-4.46893	8:30,	-0.2285862
-4.76996	8Gb	-0.1204791
-4.167901	8Gbit/sec	-0.1205382
-4.76996	8gbit/sec	-0.1206636
-4.292839	9	-0.1180593
-4.070991	9%	-0.1382103
-4.292839	9,	-0.1206046
-4.76996	9.1%	-0.120671
-4.76996	9.2%	-0.1182003
-4.76996	9.8	-0.1203832
-4.76996	900,000	-0.1200731
-4.76996	9000	-0.1206488
-4.76996	91367,	-0.1204053
-4.76996	92	-0.1202577
-4.292839	926,462,000	-0.7534515
-4.76996	94,000	-0.120671
-4.76996	950	-0.1206488
-4.76996	96	-0.1206562
-3.088719	;	-0.6459646
-1.91748	</s>
-99	<s>	-0.8972644
-4.76996	?17	-0.1157379
-4.76996	?184	-0.1157379
-4.76996	?6.3	-0.1157379
-4.76996	?60	-0.1157379
-3.46893	A	-0.3649766
-4.76996	A.	-0.120671
-4.76996	A.G.	-0.120671
-4.76996	A/S	-0.1185192
-4.76996	AB,	-0.1206562
-4.76996	AC	-0.120671
-4.46893	ACTIQ	-0.1030814
-4.76996	ACTIQ(R)	-0.120671
-4.76996	ADHD	-0.120671
-4.76996	ADS's.Grupo	-0.1206415
-4.46893	ADS's.Morgan	-0.2286157
-4.76996	ADS,	-0.1206488
-4.76996	ADSs,	-0.1205898
-4.76996	ADVP)	-0.1185192
-4.76996	ADX	-0.1205898
-2.918702	AES	-0.7643594
-4.76996	AES)	-0.1167811
-4.76996	AES,	-0.09966529
-4.070991	AG	-0.1165876
-4.292839	AG,	-0.1206193
-4.76996	AG;	-0.1203684
-3.037567	AK	-1.055889
-4.76996	AK.Deal	-0.120671
-4.292839	AKS)	-0.75212
-4.76996	AM.Starbucks	-0.1195409
-4.292839	AM.The	-0.1886297
-4.167901	AM.Venue:	-0.1201174
-4.76996	AP	-0.120671
-4.76996	APB	-0.120671
-4.76996	API	-0.1120442
-4.76996	APs	-0.1203094
-4.76996	AR1900.The	-0.1183412
-4.76996	AR5002AP-2X,	-0.1189859
-4.76996	AR5002AP-2X.Atheros	-0.119393
-4.76996	AR5006EG	-0.1206046
-4.76996	AR5006EG)	-0.120612
-4.76996	AR5006EX	-0.1101213
-4.76996	AR5006EX)	-0.1101213
-4.76996	AR6001GL	-0.1101213
-4.76996	AR6001XL	-0.1206562
-4.76996	AR6101	-0.1206193
-4.76996	AR6101G	-0.1120442
-4.76996	AR6101X	-0.1120442
-4.76996	ARM	-0.120671
-4.46893	ASIC	-0.1137713
-4.46893	ATHR)	-0.2284534
-4.292839	ATM	-0.7540347
-4.292839	AUD	-0.1206562
-4.46893	Aberdeen	-0.228623
-4.46893	About	-0.1206488
-4.46893	Accelerated	-0.2286083
-4.76996	Accelerator/Emulator	-0.1100306
-4.76996	Accelerator/Emulator.Palladium	-0.1204791
-4.76996	Accelerator/Emulator.Productivity	-0.1206415
-4.76996	Accepted	-0.119245
-4.292839	Access	-0.7539314
-4.167901	Accessing	-0.3711411
-4.76996	Accountant.Brocade	-0.119393
-4.76996	Accounting	-0.1205898
-4.76996	Accounting.Cadence	-0.1200952
-4.76996	Accuses	-0.1038335
-4.76996	Achieves	-0.120671
-4.46893	Acorn	-0.2286304
-4.46893	Acquisitions	-0.1206414
-4.76996	Acquisitions.David	-0.120671
-4.76996	Acquisitions.Fluor	-0.1195409
-4.76996	Acquisitions.Principal	-0.1199918
-4.76996	Acquisitions.The	-0.1201543
-4.76996	Acrylic	-0.120671
-3.76996	Act	-0.5297649
-4.76996	Act,	-0.1201765
-4.76996	Act.	-0.1153946
-4.76996	Act.Terms	-0.1199623
-4.76996	Act.The	-0.1206562
-4.76996	Actimize	-0.1165652
-4.76996	Actimize.Fidelity	-0.1199697
-4.292839	Action	-0.1895528
-4.76996	Action.Notice	-0.1189859
-4.76996	Actiq	-0.1101213
-4.76996	Actiq.The	-0.1206415
-4.76996	Activities	-0.1205898
-4.76996	Acute	-0.120671
-4.292839	Adapters	-0.1895676
-4.76996	Adapters.Brocade	-0.119393
-4.46893	Adaptive	-0.2286157
-4.46893	Adds	-0.1099701
-4.46893	Administration	-0.1206636
-4.76996	Administration.The	-0.1206562
-4.46893	Administrative	-0.1206636
-4.292839	Adopts	-0.1890952
-4.167901	Advance	-0.1712415
-4.76996	AdvancePCS;	-0.1205087
-4.292839	Advanced	-0.1203537
-4.76996	Advances	-0.1206267
-4.46893	Advisers	-0.228564
-4.76996	Advisors,	-0.120671
-4.76996	Advisory	-0.1206415
-4.76996	Advisory.The	-0.1204718
-4.76996	Aerospace	-0.1206636
-4.76996	Aes.Shalov	-0.1206636
-4.76996	Aetna	-0.1165652
-4.76996	Affairs,	-0.1120442
-4.76996	Affirms	-0.1186896
-4.46893	Affymetrix	-0.1165205
-4.46893	Africa	-0.1205972
-4.76996	Africa's	-0.1206267
-4.76996	Africa.The	-0.1206488
-4.76996	African	-0.1206488
-4.76996	After-Market	-0.1167811
-3.924862	Against	-0.1182967
-4.76996	Agency	-0.1100306
-4.76996	Agent	-0.1120442
-4.76996	Agilent	-0.1206046
-4.76996	Agree	-0.1100306
-4.76996	Agreed-to	-0.120671
-3.427538	Agreement	-0.4634331
-4.46893	Agreement,	-0.2285788
-4.76996	Agreement.Avery	-0.1205308
-4.76996	Agreement.On	-0.1201322
-4.292839	Agreements	-0.1185785
-4.76996	Agreements.	-0.1153946
-4.76996	Ahead.	-0.1153946
-4.76996	Ahead.Get	-0.120671
-4.292839	Air	-0.7540347
-4.76996	AirDefense	-0.1206267
-4.76996	Aires	-0.1205456
-4.292839	Aires,	-0.1206415
-4.76996	Ak	-0.1199844
-4.46893	Al	-0.1206636
-4.76996	Alan	-0.1206193
-4.76996	Alcazar	-0.120612
-4.76996	Allegations	-0.1038335
-4.76996	Allegro	-0.1101213
-4.76996	Allegro(R)	-0.1101213
-4.76996	Allen	-0.120671
-4.46893	Alley	-0.2286304
-4.46893	Alliance	-0.1079241
-4.46893	Alliance,	-0.228623
-4.76996	Aloe	-0.120671
-4.76996	Also	-0.1203537
-4.76996	Alstead,	-0.1205972
-4.76996	Alto	-0.120671
-4.76996	Alzheimer's	-0.120671
-4.46893	Amazon	-0.1202429
-4.76996	Amdahl.Stevens	-0.1187785
-4.76996	Ame	-0.1153946
-4.76996	Amend	-0.1206267
-4.46893	Amended	-0.2180882
-4.167901	Amendment	-0.4821917
-4.76996	Amendments	-0.1100306
-3.623832	America	-0.286081
-4.46893	America's	-0.1201469
-3.924862	America,	-0.138247
-4.76996	America.He	-0.1182374
-4.76996	America.Starbucks	-0.1205677
-4.76996	America.The	-0.1206488
-4.76996	America;	-0.1206046
-3.427538	American	-0.8197544
-4.76996	Amerindo	-0.1206415
-4.76996	Amoy.Based	-0.1195188
-4.167901	Analog	-0.4816925
-4.76996	Analog/Mixed-Signal	-0.1200952
-4.292839	Analysis	-0.1895749
-4.76996	Analyst/Investor	-0.120671
-4.167901	And	-0.1703997
-4.76996	Anders	-0.1206562
-4.292839	Andersen	-0.1206562
-4.46893	Anderson	-0.1204422
-4.76996	Anderson,	-0.1205824
-4.76996	Andrea	-0.120671
-4.76996	Andres	-0.1206562
-4.76996	Andrew	-0.120671
-4.76996	Andy	-0.120671
-4.76996	Angeles	-0.1206415
-4.76996	Angeles,	-0.1190378
-3.991809	Anheuser-Busch	-0.1389544
-4.76996	Animal	-0.120671
-4.76996	Anne	-0.120671
-4.76996	Annealing,	-0.120671
-4.292839	Announce	-0.1206193
-3.623832	Announced	-1.175877
-3.126508	Announces	-0.2160169
-3.56584	Annual	-0.8116573
-4.46893	Antitrust	-0.2286304
-4.76996	Anyone	-0.120671
-4.76996	Anywhere	-0.120671
-4.76996	Apparatus	-0.1120442
-4.76996	Appear	-0.120671
-4.76996	Apple	-0.120671
-4.167901	Appliance	-0.1038028
-4.76996	Appliance's	-0.120671
-4.167901	Application	-0.1120217
-4.76996	Applications	-0.120671
-4.167901	Applied	-0.3711411
-4.46893	Appointment	-0.2118003
-3.76996	Appoints	-0.1400534
-4.76996	Approval	-0.1038335
-4.76996	Approve	-0.1206636
-4.292839	Approves	-0.1204053
-3.728568	Apr	-0.1959535
-4.76996	Apr-21-2009.Molex	-0.1202725
-4.76996	Apr-24-2006.Atheros	-0.119393
-4.76996	Apr-26-2005.AK	-0.1199844
-4.76996	Apr-26-2005.Avery	-0.1205308
-4.76996	Apr-27-2005.Starbucks	-0.1204496
-4.76996	Apr-27-2006.Dolby	-0.1205087
-4.76996	Apr-30-2008.Panera	-0.1202946
-3.157176	April	-0.4829147
-4.76996	April-to-June	-0.1205529
-4.76996	Arab	-0.120671
-4.76996	Arabia	-0.1206193
-4.76996	Arabia,	-0.1101213
-4.76996	Arcelor	-0.120671
-4.76996	ArcelorMittal	-0.120671
-4.76996	ArcelorMittal's	-0.120671
-3.815718	Area	-0.1545744
-4.292839	Argentina,	-0.1099399
-4.76996	Argentina.Fluor	-0.1195409
-4.76996	Argentina.The	-0.1206488
-4.76996	Ariz.,	-0.1186229
-4.76996	Arm,	-0.1206562
-4.76996	Armco	-0.120671
-4.76996	Arnulfpark(r),	-0.1148193
-4.76996	Around	-0.1206562
-4.292839	Arps,	-0.7540347
-4.46893	Array	-0.1206636
-4.76996	Arrays.Illumina	-0.1201913
-4.76996	Arsht	-0.1201839
-4.46893	Arthur	-0.228623
-4.76996	Artic	-0.1153946
-4.292839	Article	-0.1895602
-3.924862	Articles	-0.4809099
-4.292839	Aruba	-0.7540199
-4.76996	Aruba's	-0.1197627
-4.76996	As	-0.1206267
-4.76996	Ashland	-0.120516
-4.46893	Ashland,	-0.2286304
-4.292839	Asia	-0.176934
-4.76996	Asia.	-0.1153946
-4.46893	AsiaVest	-0.2285935
-4.292839	Asian	-0.119881
-4.167901	Asociados	-0.1137863
-4.292839	Assay	-0.09919278
-4.292839	Asset	-0.1205677
-4.76996	Association	-0.1038335
-4.76996	Association.KeyCorp	-0.1206267
-4.76996	Assu	-0.1153946
-4.292839	Assura	-0.1203463
-4.76996	Assura(TM)	-0.120671
-4.292839	Assurances	-0.09104902
-4.76996	Assurances;	-0.1205087
-4.76996	Asturias	-0.1101213
-4.76996	Asturias.The	-0.1206636
-4.46893	At	-0.1153348
-3.292839	Atheros	-0.5602039
-4.167901	Atheros'	-0.1205824
-4.76996	Atheros:	-0.1206636
-4.76996	Atmosphere	-0.1205751
-4.76996	Attached	-0.1205972
-4.46893	Attisholz	-0.2282467
-4.76996	Attisholz's	-0.1200288
-4.292839	Attorney	-0.1120292
-3.76996	Au	-1.041319
-4.292839	Audit	-0.1206267
-4.46893	Auditorium,	-0.1206636
-4.76996	Auditors.The	-0.1202872
-4.46893	Aug	-0.1206341
-4.46893	Aug-02	-0.2282615
-4.76996	Aug-02-2006.Dolby	-0.1205087
-4.76996	Aug-02-2006.Starbucks	-0.1204496
-4.76996	Aug-06-2001	-0.1153946
-4.76996	Aug-06-2001.The	-0.1205898
-4.76996	Aug-07	-0.1202946
-4.76996	Aug-07-2006.The	-0.1201543
-4.76996	Aug-08	-0.119881
-4.76996	Aug-08-2008.The	-0.1201543
-4.76996	Aug-18-2005.Brocade	-0.119393
-4.76996	Aug-22-2007.Eaton	-0.1205382
-3.126508	August	-0.2351574
-4.76996	Aurora	-0.1206562
-4.76996	Australia	-0.1101213
-4.76996	Australia.Fluor	-0.1195409
-4.76996	Australia.The	-0.1183412
-4.76996	Australian	-0.1205898
-4.76996	Authority	-0.1187415
-4.76996	Automates	-0.120671
-4.46893	Automation	-0.120206
-4.292839	Auxia	-0.1029354
-4.76996	Auxia,	-0.1204644
-4.76996	Auxia;	-0.1204718
-4.167901	Availability	-0.3543258
-4.292839	Avantome	-0.1165354
-4.070991	Avantome,	-0.3040327
-4.46893	Avenue,	-0.1206636
-3.593869	Avery	-0.9955109
-4.76996	Awards	-0.120671
-4.76996	Awards.Harsco	-0.1188674
-4.76996	Axantis	-0.1202799
-4.167901	Axsys	-0.4927658
-4.76996	Axsys.Beau	-0.1204865
-3.924862	B	-0.2891411
-4.46893	B"	-0.2233614
-4.76996	B&GCA	-0.120671
-4.76996	B&GCs	-0.1206341
-4.76996	B,	-0.1205603
-3.991809	B.	-0.1895307
-4.76996	B.C.,	-0.1167811
-4.76996	B.C.Starbucks	-0.1188674
-4.76996	B.The	-0.1203241
-4.76996	BC/DR	-0.1204053
-4.76996	BGA	-0.120671
-4.46893	BLDA	-0.1206414
-4.76996	BN.COM	-0.1202503
-4.76996	BOCES),	-0.1206562
-3.924862	BRCD)	-0.3358439
-4.76996	BRIC	-0.120671
-4.76996	BSkyB's	-0.120671
-4.76996	BTV	-0.120671
-4.46893	Backbone	-0.1101138
-4.76996	Backbones,	-0.1206562
-4.76996	Baidu	-0.120671
-4.76996	Bakery-Cafes	-0.1138088
-4.76996	Bakke,	-0.1206562
-4.76996	Balkan	-0.1205603
-4.76996	Ball	-0.120671
-3.86687	Bank	-0.1543324
-4.76996	Bank.While	-0.1195188
-4.46893	Bankruptcy	-0.2285124
-4.76996	Banner	-0.1206193
-4.76996	Bannock	-0.120671
-4.292839	Barbara	-0.1895676
-4.76996	Barnes&Noble.com	-0.120671
-4.76996	Barry	-0.120671
-4.76996	Bartlesville.Phillips	-0.1182374
-4.76996	Bartlett.AES	-0.1188674
-4.76996	Base,	-0.120671
-4.76996	Basins.Santos	-0.1205751
-4.76996	Bates	-0.120671
-4.46893	Bay	-0.1205086
-4.76996	Be	-0.120671
-4.76996	Beach	-0.1206341
-4.46893	BeadArray	-0.1204717
-4.76996	BeadArray(TM)	-0.120671
-3.991809	BeadChip	-0.1493237
-4.070991	BeadChips	-0.1162747
-4.76996	BeadChips.Illumina's	-0.1197627
-4.76996	BeadChips.Single	-0.1206341
-4.76996	BeadXpress	-0.1206193
-4.76996	Beadchip.Illumina	-0.1165652
-4.76996	Beans.Starbucks	-0.1188674
-4.292839	Beau	-0.7540199
-4.76996	Begins	-0.120671
-4.46893	Behalf	-0.1038028
-4.76996	Behar,	-0.1206341
-4.46893	Bell	-0.2286157
-4.76996	Benefit	-0.1205972
-4.76996	Benefits	-0.1206562
-4.76996	Berger	-0.1100306
-4.292839	Berry	-0.1162225
-4.76996	Berry,	-0.09966529
-4.76996	Best	-0.120671
-4.76996	Bests	-0.1206562
-4.76996	Between	-0.120457
-4.76996	Beverage	-0.1201469
-3.815718	Big	-1.07481
-4.76996	Bilfinger	-0.120671
-4.76996	Bill	-0.120671
-4.76996	Billion.Phillips-Van	-0.1204496
-4.46893	Bio	-0.2286083
-4.167901	BioSciences,	-0.3670575
-4.76996	BioVentures	-0.1206562
-4.46893	Biosciences	-0.114101
-4.167901	Biosystems	-0.1178144
-4.46893	Blade	-0.1120367
-4.76996	Blair	-0.1201839
-4.070991	Blue	-0.8709141
-3.045685	Board	-1.116213
-4.76996	Board,	-0.1195188
-4.76996	Board.KeyCorp	-0.1185192
-4.76996	Board.Molex	-0.1165652
-4.76996	Board.Mr.	-0.120671
-4.76996	Board.Section	-0.1206636
-4.46893	Bocian	-0.1175767
-4.76996	Bocian,	-0.1205677
-4.76996	Boeckmann,	-0.1204718
-4.292839	Boise	-0.7539904
-3.76996	Bon	-1.120605
-4.46893	Bonner	-0.1205529
-4.76996	Bonus	-0.1206193
-4.76996	Boost	-0.120671
-4.76996	Borrowing	-0.120671
-4.76996	Boston	-0.120671
-4.76996	Boston,	-0.120671
-4.76996	Bottling	-0.1206267
-4.46893	Boulevard,	-0.1206636
-4.76996	Boulevard.Agenda:	-0.1206046
-4.76996	Bounty	-0.120671
-4.76996	Bowen	-0.1101213
-4.46893	Bowman	-0.1200509
-4.46893	Boys	-0.2281507
-4.46893	Branch	-0.2286009
-4.46893	Branches	-0.2217757
-4.76996	Brand.Phillips-Van	-0.1204496
-4.76996	Branded	-0.1206636
-4.46893	Brazil,	-0.1206562
-4.76996	Brazilian	-0.1206636
-3.053957	Bread	-0.7011083
-4.76996	Bread(R)	-0.1101213
-4.76996	Breads,	-0.1205972
-4.76996	Brewers	-0.1186229
-4.76996	Brian	-0.1206636
-4.76996	Brisbane	-0.120671
-4.76996	Britain	-0.1101213
-4.76996	Bro	-0.1153946
-4.76996	Broad	-0.120671
-2.642856	Brocade	-0.4726486
-3.86687	Brocade's	-0.2666708
-4.167901	Brocade,	-0.1182151
-4.76996	Brocade.A	-0.1205972
-4.76996	Brocade.Brocade	-0.119393
-4.76996	Brocade.The	-0.1206415
-4.76996	Brooklyn	-0.1206415
-4.76996	Brothers.	-0.1153946
-4.46893	Brown	-0.1206636
-4.46893	Bruce	-0.2286304
-4.76996	Bruckmann,	-0.1206636
-4.76996	Bruzzo,	-0.1205529
-4.76996	Buchi,	-0.1204718
-4.76996	Budget	-0.1182003
-4.167901	Buenos	-0.4928175
-4.167901	Build	-0.1201839
-4.76996	Building	-0.1101213
-4.76996	Building,	-0.120671
-4.76996	Building.Gentex	-0.1188674
-4.46893	Bulgarian	-0.1202208
-4.76996	Bunting,	-0.120516
-4.46893	Burbank	-0.1206562
-4.76996	Burtenbach,	-0.120671
-4.167901	Bus	-0.4928175
-4.76996	Bush	-0.120671
-3.815718	Business	-0.1308344
-4.76996	Business-Class	-0.120671
-4.76996	Business;	-0.1204718
-3.924862	Bussan	-0.7077299
-3.427538	Buyback	-1.259193
-4.76996	Buyback.On	-0.1203463
-4.46893	Buyback.The	-0.2282541
-3.322802	Buyer(s):	-0.2984355
-4.76996	By-Laws.On	-0.1202725
-4.76996	By-laws	-0.1199623
-4.76996	By-laws.The	-0.1206636
-4.76996	Bylaws.Principal	-0.1199918
-4.76996	C	-0.1153946
-3.991809	C-to-Silicon	-0.6226495
-4.167901	C.	-0.2286083
-4.76996	C.A.(CEDC)	-0.1195188
-4.070991	C.A.La	-0.8708994
-4.76996	C.A.and	-0.1185933
-4.76996	C.A.la	-0.1206267
-4.76996	C.V.	-0.1205456
-4.46893	CA	-0.1206636
-4.76996	CA,	-0.1204053
-4.46893	CAD	-0.1206636
-4.292839	CD	-0.7540347
-4.46893	CDMA	-0.1203684
-4.76996	CDN)	-0.1167811
-4.46893	CDN).The	-0.2282393
-4.76996	CDN).Under	-0.09966529
-4.76996	CEDC	-0.1195188
-3.924862	CEO	-0.1496559
-4.292839	CEO,	-0.118178
-4.76996	CEO.Fidelity	-0.1199697
-4.76996	CEO.Wainscott	-0.1206267
-4.76996	CET	-0.120671
-4.76996	CFA,	-0.1190378
-4.167901	CFO	-0.0965887
-4.76996	CFO,	-0.1206562
-4.76996	CHF	-0.120671
-4.46893	CHS	-0.120457
-4.76996	CIENA	-0.1195409
-4.167901	CIO	-0.3711411
-4.76996	CIO.	-0.1153946
-4.070991	CLC	-0.3885691
-4.76996	CMOS	-0.120671
-4.46893	CN	-0.1206636
-4.76996	CNS	-0.1206636
-4.76996	CO2	-0.120671
-4.76996	CPF-based	-0.1206341
-4.76996	CPF-enabled	-0.1206562
-4.76996	CSN	-0.120671
-4.76996	CTO	-0.1038335
-4.76996	CZN)	-0.1205603
-4.46893	Cablevision	-0.1206267
-4.46893	Cachafeiro,	-0.2286304
-4.76996	CacheFlow	-0.120671
-4.76996	Caching.Brocade	-0.119393
-4.292839	CadMOS	-0.1886297
-2.943886	Cadence	-0.5883211
-4.46893	Cadence's	-0.2286304
-4.070991	Cadence(R)	-0.1203684
-4.76996	Cadence(r)	-0.120671
-3.86687	California	-0.1317142
-4.292839	California,	-0.1203241
-4.76996	California..	-0.1153946
-2.889147	Call,	-0.199668
-4.76996	Call.	-0.1153946
-4.76996	Call.2011	-0.1205603
-4.76996	Call.Annual	-0.120671
-4.167901	Call.Atheros	-0.3698853
-4.76996	Call.Avery	-0.1205308
-4.167901	Call.Brocade	-0.3698853
-4.76996	Call.Cephalon	-0.1165652
-4.76996	Call.Discovery	-0.1205382
-4.167901	Call.Fidelity	-0.370462
-4.46893	Call.Frontier	-0.2273598
-4.167901	Call.Health	-0.370654
-4.76996	Call.Illumina	-0.1165652
-4.76996	Call.Kirby	-0.1195409
-4.070991	Call.Molex	-0.8668379
-4.46893	Call.Phillips-Van	-0.2284165
-4.292839	Call.Service	-0.7522459
-4.76996	Call.The	-0.1205013
-3.623832	Call.To	-0.408852
-3.238482	Calls	-1.538784
-4.76996	Calyon	-0.1206562
-4.76996	Calyon,	-0.1206562
-4.46893	Camera	-0.2286304
-4.46893	Campus	-0.228623
-4.46893	Canaan	-0.228564
-3.86687	Canada	-0.2651734
-4.46893	Canada,	-0.1205972
-4.76996	Canada.	-0.1153946
-4.76996	Canada.Harbor	-0.1190378
-4.76996	Canada.PepsiCo	-0.1206193
-4.46893	Canada.The	-0.1200361
-4.76996	Canadian	-0.120671
-4.76996	Canceling	-0.1206488
-4.76996	Cancellation	-0.1038335
-4.46893	Cancelled	-0.2284312
-4.167901	Cancer	-0.1205677
-4.76996	Canton.In	-0.1206562
-4.76996	CapEx	-0.1120442
-4.76996	Capabilities	-0.1100306
-4.292839	Cape	-0.1120217
-3.514688	Capital	-0.2079121
-4.46893	Capital,	-0.1100986
-4.46893	Capitol	-0.1206046
-3.991809	Caracas	-0.3111387
-4.76996	Caracas;	-0.1204718
-4.46893	Care	-0.2284902
-4.46893	Carlyle	-0.1137564
-4.46893	Carnegie	-0.1206046
-4.46893	Carriage	-0.2283869
-4.76996	Carrier	-0.120671
-4.76996	Case	-0.120671
-3.539511	Cash	-0.5331252
-4.46893	Casselberry	-0.120575
-4.76996	Casselberry,	-0.120671
-4.46893	Casual	-0.1101138
-4.46893	Cauley	-0.2286009
-4.76996	Cavity	-0.120671
-4.76996	Cavium	-0.1205824
-4.76996	Cavium's	-0.1206636
-4.46893	Celator	-0.2286304
-4.76996	Celator's	-0.1206267
-4.76996	Cell	-0.120671
-4.76996	Cellular/Wi-Fi	-0.120671
-4.76996	Cellular/Wireless	-0.1206267
-4.76996	Cemeteries;	-0.1204718
-3.656017	Center	-0.2701452
-4.76996	Center,	-0.120671
-4.76996	Center-City	-0.1206341
-4.76996	Center.	-0.1153946
-4.76996	Center.Principal	-0.1199918
-4.46893	Central	-0.1205382
-4.292839	Centre	-0.1206267
-4.76996	Centre,	-0.1205751
-3.1679	Cephalon	-0.4990385
-4.167901	Cephalon's	-0.1711234
-4.46893	Cephalon,	-0.2245321
-4.76996	Cephalon.As	-0.1205382
-4.76996	Cephalon.Dechert	-0.1205603
-4.76996	Cephalon.Terms	-0.1101213
-4.76996	Certificate	-0.1038335
-4.76996	Certified	-0.1120442
-3.656017	Chairman	-0.7755403
-4.76996	Chairman.	-0.1153946
-4.76996	Chancery	-0.120671
-4.76996	Chandler	-0.1100306
-4.76996	Chandler,	-0.1206488
-4.46893	Change	-0.2118003
-4.46893	Change(s)	-0.2286157
-4.76996	Changes."Starbucks	-0.1188674
-4.76996	Changes.Ak	-0.1199844
-4.76996	Changes.Brocade	-0.119393
-4.76996	Changes.Starbucks	-0.1188674
-4.46893	Channel	-0.1206341
-4.76996	Channels,	-0.120671
-4.76996	Channels.Brocade	-0.119393
-4.76996	Channels.The	-0.1206562
-4.76996	Chardon.The	-0.1206636
-4.76996	Charge	-0.1206636
-4.76996	Charge;	-0.1202134
-4.76996	Charges."Cadence	-0.1200952
-4.76996	Charges."Hansen	-0.1204644
-4.76996	Charges."Molex	-0.1165652
-4.76996	Charges."Service	-0.1188674
-4.76996	Charges.KeyCorp	-0.1185637
-4.76996	Charges.Molex	-0.1165652
-4.76996	Charges.Principal	-0.1199918
-4.76996	Charges.The	-0.1201543
-4.76996	Charismatic,	-0.120671
-4.76996	Charmin	-0.1206341
-4.76996	Chartered	-0.1206636
-3.690779	Chase	-0.6478608
-4.76996	Chemicals,	-0.1206636
-4.76996	Chester-based	-0.1205677
-4.46893	Chevron	-0.2285271
-3.322802	Chief	-0.6773381
-4.46893	Children's	-0.1206488
-4.46893	Chile,	-0.1206562
-4.070991	China	-0.0716376
-3.991809	China's	-0.1536171
-4.292839	China,	-0.1086375
-4.76996	China.	-0.1153946
-4.46893	China.Harsco's	-0.1200361
-4.76996	China.The	-0.1197627
-4.76996	Chinese	-0.1206488
-4.76996	Chinese-Language	-0.120671
-4.76996	Chinese-language	-0.1206488
-4.76996	Chipset,	-0.120671
-4.76996	Chirico,	-0.1205456
-4.167901	Ciena	-0.1694969
-4.46893	Ciena's	-0.120516
-4.76996	Ciena.It	-0.1182374
-4.76996	Cincinnati.Replacement	-0.1206267
-4.167901	Circuit	-0.1706952
-4.292839	Cisco	-0.1095314
-4.76996	Cisco.Prior	-0.1100306
-4.76996	Citicorp	-0.120671
-4.46893	Citizens	-0.2273598
-4.76996	Citrino,	-0.1206562
-4.070991	City	-0.3716066
-4.76996	City's	-0.1206488
-4.76996	Claim	-0.1206267
-4.76996	Claims	-0.120671
-4.76996	Clark	-0.120671
-3.539511	Class	-0.7078619
-4.76996	Classix,	-0.1205972
-4.167901	Clean	-0.3711411
-4.46893	Cleveland	-0.1206193
-4.76996	Cleveland,	-0.1167811
-4.76996	Cliffs,	-0.120671
-4.76996	Climate	-0.120671
-4.46893	Clinton	-0.1206636
-4.292839	Close	-0.1099021
-3.690779	Closed	-1.113729
-4.46893	Club,	-0.2282024
-4.292839	Clubs	-0.1723687
-4.76996	Co	-0.1100306
-4.292839	Co,	-0.7536362
-4.76996	Co-	-0.1205824
-2.806173	Co.	-0.4210234
-4.76996	Co.(R)	-0.120671
-3.656017	Co.,	-0.2331612
-4.76996	Co..	-0.1153946
-3.991809	Co.Announces	-0.1182151
-4.167901	Co.In	-0.3711116
-4.76996	Co.Opens	-0.1185933
-4.76996	Co.Reaches	-0.120516
-4.76996	Co.The	-0.1197627
-4.46893	Co;	-0.2284386
-3.56584	Coal	-0.3136328
-4.76996	Coal-fired	-0.1206193
-4.76996	Coast	-0.1100306
-4.76996	Coast.Fluor	-0.1195409
-4.070991	Coat	-0.1594118
-4.76996	Coates,	-0.1205603
-3.593869	Coffee	-0.2013661
-4.76996	Coffee,	-0.1201913
-4.76996	Cohen	-0.1101213
-4.76996	Colinas	-0.1206636
-4.76996	Colinas,	-0.120671
-4.76996	Collaborate	-0.1100306
-4.76996	Collaborates	-0.1186229
-4.76996	Collect	-0.1206562
-4.76996	Collinsville,	-0.120671
-4.76996	Colombia,	-0.120671
-4.292839	Colorado	-0.1197997
-4.76996	Columbia	-0.1206562
-4.76996	Columbia,	-0.1204053
-4.292839	Comfort	-0.1895749
-4.76996	Commercial	-0.120671
-4.76996	Commercialization	-0.120516
-4.76996	Commercialize	-0.120671
-4.46893	Commission	-0.1015887
-4.76996	Commission.The	-0.120671
-4.070991	Committee	-0.09475259
-4.76996	Committee.Brocade	-0.1190378
-4.76996	Committee.Mr.	-0.120671
-3.56584	Common	-0.5077247
-4.292839	Commonwealth	-0.1790249
-4.292839	Communication	-0.1845074
-2.529411	Communications	-1.047246
-3.491207	Communications,	-1.043721
-4.76996	Communications.Anton	-0.120671
-4.76996	Communications.Fidelity	-0.1199697
-4.76996	Communications.The	-0.1206488
-4.46893	Community	-0.2281802
-4.76996	Companhia	-0.120671
-3.56584	Companies	-0.5033117
-4.070991	Companies,	-0.3040327
-2.912628	Company	-0.3446951
-4.46893	Companys	-0.1203979
-3.427538	Company's	-0.1339082
-3.76996	Company,	-0.315409
-4.292839	Company-operated	-0.7539388
-4.76996	Company-owned	-0.1206488
-4.76996	Company..	-0.1153946
-4.76996	Company.Donald	-0.120671
-4.76996	Company.Heinz	-0.1199992
-4.76996	Company.Mr.	-0.1206488
-4.76996	Company;	-0.1204718
-4.76996	Comparable	-0.1206341
-4.76996	Competition	-0.120671
-4.76996	Competitive	-0.120671
-4.070991	Compiler	-0.1394282
-4.76996	Compiler,	-0.120671
-4.76996	Completion	-0.1038335
-4.76996	Complex	-0.1206488
-4.76996	Compliant	-0.1206341
-4.46893	Comprehensive	-0.1205382
-4.76996	Computers	-0.1206636
-4.76996	Computers'	-0.1206193
-4.76996	Computerworld,	-0.1202725
-4.46893	Con	-0.2286304
-4.46893	Concord	-0.1182151
-4.76996	Concord.By	-0.1206636
-4.76996	Concourse	-0.120671
-4.76996	Condensed	-0.1204201
-2.872333	Conference	-1.609387
-4.167901	Conference,	-0.2285493
-4.76996	Confident	-0.1101213
-4.76996	Congestive	-0.120671
-4.070991	Connect	-0.1589307
-4.76996	Connector	-0.1206341
-4.167901	ConocoPhillips	-0.1711308
-4.76996	ConocoPhillips."Kiewit	-0.1205824
-4.76996	ConocoPhillips."Phillips	-0.1205087
-4.76996	ConocoPhillips."Western	-0.1206415
-4.76996	ConocoPhillips.Kiewit	-0.1205824
-4.76996	ConocoPhillips.Phillips	-0.1205087
-4.76996	ConocoPhillips.Western	-0.1206415
-4.46893	ConocoPhillips;	-0.1201986
-3.225892	Consolidated	-1.065786
-4.76996	Consolidates	-0.1186896
-4.46893	Consortium	-0.1206636
-4.76996	Constructin	-0.1038335
-3.656017	Construction	-0.363891
-4.76996	Consultant	-0.1120442
-4.76996	Consultant.Rohm	-0.1101213
-4.76996	Consulting	-0.1187785
-4.46893	Consumer	-0.2286304
-3.991809	Contract	-0.1319764
-4.76996	Contract.Fluor	-0.1195409
-4.76996	Contract.Hansen	-0.1204644
-4.76996	Contract.Harsco	-0.1195409
-4.76996	Contract.Health	-0.1201617
-4.76996	Contract.The	-0.1204865
-4.76996	Contracts	-0.120671
-4.76996	Contribution	-0.1101213
-4.76996	Convertible	-0.1205898
-4.76996	Cooley	-0.120671
-4.76996	Cooperative	-0.120671
-4.292839	Core	-0.1894938
-4.76996	Corolla	-0.1206636
-4.167901	Corp	-0.1159989
-4.46893	Corps	-0.2284017
-2.380794	Corp.	-0.6230606
-4.76996	Corp.s	-0.120671
-4.292839	Corp.'s	-0.1202503
-4.76996	Corp.).The	-0.1204718
-3.278599	Corp.,	-0.4858005
-4.167901	Corp..	-0.3658869
-4.46893	Corp..The	-0.2281212
-3.76996	Corp.;	-0.4224127
-4.76996	Corp.Amends	-0.120671
-3.815718	Corp.Announces	-0.2467023
-4.167901	Corp.In	-0.3708312
-4.76996	Corp.Introduces	-0.120671
-4.76996	Corp.Licenses	-0.1206636
-4.46893	Corp.Provides	-0.2266565
-4.292839	Corp.The	-0.1166024
-4.070991	Corporacion	-0.4659131
-4.292839	Corporate	-0.1100911
-2.58244	Corporation	-0.5419097
-4.070991	Corporation's	-0.1195188
-3.86687	Corporation(NYSE:AKS)	-0.9539695
-3.322802	Corporation,	-0.2962221
-4.46893	Corporation.	-0.2233614
-4.76996	Corporation."	-0.1153946
-4.76996	Corporation.Corporacion	-0.1206415
-4.76996	Corporation.Dr	-0.1206636
-4.46893	Corporation.In	-0.228623
-4.76996	Corporation.Mark	-0.1205898
-4.46893	Corporation.The	-0.1203463
-4.167901	Corporation;	-0.4924706
-4.76996	Corridor	-0.120671
-4.76996	Cosme	-0.1153946
-4.76996	Cosmetic	-0.120671
-4.167901	Coughlin	-0.3711411
-4.76996	Countrie	-0.1153946
-4.76996	County	-0.120671
-3.514688	Court	-0.3265481
-4.292839	Court,	-0.1205603
-4.76996	Covelli	-0.1101213
-4.46893	Coverage	-0.2286304
-4.76996	Coverage.Health	-0.1201617
-4.46893	Craver,	-0.2286157
-3.623832	Credit	-0.3131073
-3.815718	Creek	-0.9999041
-4.76996	Creek,	-0.120671
-4.76996	Crispani?of	-0.1206415
-4.76996	Crown	-0.1206193
-4.76996	Cumulative	-0.1206562
-4.46893	Custom	-0.1206636
-4.76996	Customer	-0.119245
-4.46893	Cut	-0.1206267
-4.76996	Cuts.The	-0.1202356
-3.924862	CyVera	-0.2924986
-4.76996	CyVera.The	-0.1204053
-4.46893	D.	-0.1038258
-4.76996	D?sseldorf	-0.1206636
-3.991809	DASL	-0.1205455
-4.76996	DASL(R)	-0.1206562
-4.76996	DC	-0.120671
-4.46893	DCFM	-0.2269528
-4.76996	DCI	-0.1167811
-4.76996	DCX	-0.1206636
-4.46893	DCX(R)	-0.1206562
-4.46893	DFM	-0.1205603
-4.76996	DFM-Aware	-0.120671
-4.76996	DFM-aware	-0.1206267
-4.76996	DHS	-0.1100306
-4.76996	DIRECTV	-0.1187341
-4.76996	DLB)	-0.1205603
-4.76996	DM355	-0.1206488
-4.167901	DNA	-0.1181187
-4.76996	DPS	-0.1204718
-4.76996	DRC	-0.1101213
-4.76996	DSP,	-0.120671
-4.76996	DaVinci(TM)	-0.1206562
-4.46893	Dallas.JP	-0.2285566
-4.76996	Dan	-0.1206636
-4.46893	Dana	-0.1205529
-4.76996	Dana-Farber	-0.1206488
-4.292839	Danzeisen	-0.1876528
-4.46893	Darman	-0.1188674
-4.76996	Darman's	-0.1206488
-4.76996	Darman,	-0.120671
-3.924862	Data	-0.2828531
-4.76996	Date	-0.1199106
-4.76996	Dated	-0.1203537
-4.76996	Dave	-0.120671
-4.070991	David	-0.2047386
-4.76996	Davidow	-0.1206562
-4.76996	Davis,	-0.120671
-4.76996	Day.To	-0.1203094
-4.46893	Daylight.Location:	-0.1201395
-4.76996	Deal	-0.1186229
-4.76996	Deal.Hansen	-0.1204644
-4.76996	Dealership	-0.1100306
-4.76996	Dealership;	-0.1205087
-4.46893	Deals	-0.2265898
-4.167901	Dean	-0.4928175
-4.292839	Debt	-0.1080304
-4.76996	Debt,	-0.120671
-4.76996	Debt.The	-0.1201543
-4.76996	Dec	-0.1206046
-4.76996	Dec-01-2000	-0.1153946
-4.76996	Dec-01-2000.The	-0.1205898
-4.76996	Dec-10-2008.Cadence	-0.1200952
-4.292839	Dec.	-0.1196149
-2.861475	December	-0.5879852
-4.292839	December,	-0.1891912
-3.539511	Declares	-0.5550848
-4.76996	Deficiency.These	-0.1205677
-4.76996	Defined	-0.120671
-4.76996	Delaware,	-0.1138088
-4.76996	Delay	-0.120671
-4.76996	Delays	-0.120671
-4.46893	Delhi,	-0.1206636
-4.167901	Deliver	-0.1205824
-4.167901	Deloitte	-0.1602213
-4.76996	Delta's	-0.1205677
-4.76996	Denied	-0.1206488
-4.76996	Denies	-0.1206562
-4.76996	Dennis	-0.120671
-3.46893	Dennison	-0.4835138
-4.46893	Denver.The	-0.2286083
-3.924862	Department	-0.6909515
-3.924862	Depend	-0.5049884
-4.292839	Depositary	-0.7540347
-4.46893	Deranleau,	-0.1194818
-4.46893	Derek	-0.2286157
-4.76996	Des	-0.120671
-2.872333	Design	-0.7015409
-4.76996	Design.Cadence	-0.1200952
-4.76996	Designer	-0.120671
-4.46893	Designs.Cadence	-0.2280621
-4.76996	Designs.Starbucks	-0.1188674
-4.167901	Develop	-0.1096449
-4.070991	Development	-0.132329
-4.76996	Development.Acquisition	-0.1189859
-4.76996	Development.Illumina	-0.1165652
-4.76996	Develops	-0.120671
-4.76996	Dewey	-0.1201839
-4.46893	Die	-0.1138013
-4.292839	Diego	-0.1895602
-4.76996	Diego,	-0.120671
-3.815718	Digital	-0.3411626
-4.76996	Dillon	-0.120671
-4.46893	Diluted	-0.116982
-4.76996	DirecTV	-0.1101213
-4.292839	Director	-0.1702145
-4.292839	Director,	-0.09959561
-4.76996	Director.	-0.1153946
-4.76996	Director.Julee	-0.120671
-4.76996	Director.Mr.	-0.120671
-4.76996	Director.The	-0.1202872
-3.1679	Directors	-0.5491238
-4.46893	Directors,	-0.1205603
-4.76996	Directors.	-0.1153946
-4.76996	Directors.Atheros	-0.119393
-4.76996	Directors.Brocade	-0.119393
-4.76996	Directors.Fidelity	-0.1199697
-4.76996	Directors.Most	-0.1206636
-4.76996	Directors.Walker's	-0.1206488
-4.76996	Discoveries	-0.1186229
-4.76996	Discoveries(R)	-0.120671
-3.514688	Discovery	-0.7805547
-4.76996	Discovery's	-0.1202356
-4.46893	Discovery,	-0.118319
-4.76996	Discovery.Discovery	-0.119393
-4.76996	Discovery.In	-0.1203611
-4.76996	Discovery.baidu.com,	-0.1101213
-4.46893	Discretionary	-0.2284902
-4.76996	Disease,	-0.1101213
-4.76996	Disease.The	-0.1206341
-4.76996	Dismantling	-0.1204201
-4.76996	Disney	-0.1206636
-4.46893	Display	-0.2286304
-4.76996	Displays.Cavium	-0.1205824
-3.991809	Distribution	-0.09702508
-3.46893	District	-1.103642
-4.76996	Diva	-0.1100306
-3.491207	Dividend	-0.8436574
-4.070991	Dividend,	-0.8707887
-4.46893	Dividends	-0.1080684
-4.46893	Division	-0.1206119
-4.76996	Division,	-0.120671
-4.76996	Division.Affymetrix	-0.1189859
-4.46893	Division;	-0.2284386
-4.76996	Divulge	-0.1206562
-4.76996	Doherty	-0.1101213
-3.46893	Dolby	-0.6961147
-4.76996	Dolbys	-0.1205898
-4.76996	Dominican	-0.120671
-4.76996	Donald	-0.1202356
-4.76996	Donald,	-0.1206341
-4.46893	Doppio	-0.2180882
-3.924862	Doubleshot(R)	-0.5033327
-4.76996	Down	-0.1206636
-4.76996	Dr	-0.1206636
-4.76996	Dress	-0.1206636
-4.76996	Drinks	-0.1138088
-4.76996	Drive	-0.1202134
-4.292839	Drive,	-0.753983
-3.991809	Drug	-0.1789871
-4.76996	Drugs	-0.120671
-3.815718	Dry	-0.9999262
-4.76996	Dual-Band	-0.1206636
-4.76996	Dubai,	-0.1204053
-4.76996	Dunkerque	-0.1206488
-4.76996	Dunkirk	-0.1205677
-4.76996	Duo	-0.1205677
-4.76996	During	-0.1205824
-4.76996	Dynamics,	-0.1101213
-4.76996	E	-0.120671
-4.76996	E-Books	-0.1120442
-4.76996	E-TEK	-0.120671
-4.76996	E.	-0.120671
-4.46893	E.ON	-0.2286304
-4.76996	E.ON's	-0.1206488
-4.76996	EAD.JPMorgan	-0.1189859
-4.76996	EB	-0.1153946
-4.070991	EBITDA	-0.1173984
-4.070991	EDC	-0.3779425
-4.46893	EDC's	-0.120206
-3.924862	EDC,	-0.33656
-4.292839	ELDAY)	-0.7434998
-4.76996	EMEA/LATAM,	-0.1206341
-4.46893	EPA	-0.1206414
-4.76996	EPCM	-0.1204053
-3.76996	EPS	-0.09890784
-4.46893	ESX.Brocade	-0.1193782
-4.76996	EU	-0.1206341
-4.76996	EV/DO.For	-0.1206636
-4.76996	EVP	-0.1101213
-4.292839	EXTreme	-0.1895749
-2.340208	Earnings	-1.868538
-4.46893	Earnings."Service	-0.1177253
-3.924862	East	-0.1785027
-4.76996	East.	-0.1153946
-3.86687	Eastern	-0.2596475
-3.728568	Eaton	-1.079041
-4.46893	Econamine	-0.2286304
-4.76996	Economy	-0.1101213
-4.76996	Ed	-0.120671
-4.46893	Education	-0.1100155
-4.292839	Education,	-0.1837231
-4.76996	Educational	-0.1204201
-4.76996	Edwards	-0.1165652
-4.46893	Effective	-0.1198958
-4.76996	Ehrman	-0.120671
-4.76996	Eiffage,	-0.1186229
-4.76996	Either	-0.09966529
-4.292839	El	-0.1895749
-4.76996	Elecnor	-0.120671
-3.924862	Electricidad	-0.7077299
-4.76996	Electricity	-0.1206341
-4.76996	Electro	-0.120671
-4.76996	Electronics,	-0.1206636
-4.76996	Elmore	-0.1182003
-4.76996	Elmore,	-0.1148193
-4.76996	Elmores	-0.1206562
-4.76996	Eltoukhy	-0.1182374
-4.76996	Elveden	-0.1206636
-4.070991	Emerging	-0.3080578
-4.76996	Emily	-0.120671
-4.76996	Emirates.Speakers:	-0.120671
-4.76996	Emitting	-0.120671
-4.46893	Employee	-0.1201986
-4.76996	Employees	-0.1206415
-4.76996	Employees.AK	-0.1199844
-4.46893	Emporiki	-0.228564
-4.46893	Emulation	-0.2286304
-4.46893	Enable	-0.1206046
-4.76996	Enables	-0.1206488
-4.46893	Enagas	-0.1119991
-4.070991	Encounter	-0.3885839
-4.292839	Encounter(R)	-0.178972
-4.76996	Encounter,	-0.1148193
-4.46893	Encryption	-0.1206193
-2.752927	Ended	-0.9717895
-3.656017	Ending	-0.412701
-4.46893	Energie	-0.2286083
-3.539511	Energy	-0.4280992
-4.76996	Energy(TM)	-0.1101213
-4.46893	Energy,	-0.228623
-4.76996	Energy.Following	-0.09966529
-4.76996	Energy?,	-0.120671
-4.76996	Energy??,	-0.120671
-4.76996	Energy?energy	-0.1206562
-4.76996	Energy?to	-0.1206636
-4.76996	Englewood	-0.120671
-4.46893	Enhanced	-0.1205898
-4.76996	Enlists	-0.1201839
-4.76996	Enoch	-0.1206636
-4.46893	Enspire	-0.2285124
-4.292839	Enter	-0.1891543
-4.46893	Enterprise	-0.1205529
-4.76996	Enterprise-Wide	-0.120612
-4.76996	Enterprises	-0.120014
-4.070991	Enters	-0.2038969
-4.46893	Entertainment	-0.120516
-4.76996	Entry	-0.120671
-4.76996	Environment	-0.120671
-4.76996	Environment,	-0.09966529
-4.76996	Environment.Assura	-0.1189859
-4.76996	Environmental	-0.1204201
-3.86687	Equipment	-0.2169853
-3.251446	Equity	-0.8615798
-4.46893	EraGen	-0.1203389
-4.46893	EraGen's	-0.1206341
-4.76996	Erection	-0.1101213
-4.76996	Eric	-0.120671
-4.76996	Ernst	-0.1201839
-4.070991	Escarra	-0.1057539
-4.46893	Escarra,	-0.1206562
-3.991809	Espresso	-0.1895528
-4.070991	Essentials	-0.1585083
-4.76996	Essentials(TM),	-0.1148193
-4.76996	Ethernet	-0.120671
-4.76996	Etiquette:	-0.1201469
-4.46893	Eurocurrency	-0.1206488
-4.167901	Europe	-0.1010566
-4.46893	Europe,	-0.1205455
-4.76996	Europe.The	-0.1205751
-4.070991	European	-0.1605422
-4.76996	Evaluation.Cadence	-0.1200952
-4.46893	Evraz	-0.1096601
-3.690779	Exchange	-0.3289719
-4.46893	Excluding	-0.2076321
-4.76996	Exclusive	-0.1206341
-4.76996	Exec"	-0.1153946
-3.427538	Executive	-0.2485581
-4.76996	Executive,	-0.1206415
-4.76996	Executives	-0.1206636
-4.76996	Executives.Brocade	-0.119393
-4.76996	Existing	-0.1205751
-4.76996	Expanded	-0.1206341
-4.167901	Expands	-0.1204201
-4.76996	Expansion	-0.1206341
-4.76996	Expansion.Fluor	-0.1195409
-4.167901	Expects	-0.1582951
-4.76996	Expenditure	-0.119977
-4.76996	Expenditures	-0.119977
